{"learner":{"attributes":{"best_iteration":"784","best_score":"0.6486089812670619","scikit_learn":"{\"_estimator_type\": \"classifier\"}"},"feature_names":[],"feature_types":[],"gradient_booster":{"model":{"cats":{"enc":[],"feature_segments":[],"sorted_idx":[]},"gbtree_model_param":{"num_parallel_tree":"1","num_trees":"845"},"iteration_indptr":[0,1,2,3,4,5,6,7,8,9,10,11,12,13,14,15,16,17,18,19,20,21,22,23,24,25,26,27,28,29,30,31,32,33,34,35,36,37,38,39,40,41,42,43,44,45,46,47,48,49,50,51,52,53,54,55,56,57,58,59,60,61,62,63,64,65,66,67,68,69,70,71,72,73,74,75,76,77,78,79,80,81,82,83,84,85,86,87,88,89,90,91,92,93,94,95,96,97,98,99,100,101,102,103,104,105,106,107,108,109,110,111,112,113,114,115,116,117,118,119,120,121,122,123,124,125,126,127,128,129,130,131,132,133,134,135,136,137,138,139,140,141,142,143,144,145,146,147,148,149,150,151,152,153,154,155,156,157,158,159,160,161,162,163,164,165,166,167,168,169,170,171,172,173,174,175,176,177,178,179,180,181,182,183,184,185,186,187,188,189,190,191,192,193,194,195,196,197,198,199,200,201,202,203,204,205,206,207,208,209,210,211,212,213,214,215,216,217,218,219,220,221,222,223,224,225,226,227,228,229,230,231,232,233,234,235,236,237,238,239,240,241,242,243,244,245,246,247,248,249,250,251,252,253,254,255,256,257,258,259,260,261,262,263,264,265,266,267,268,269,270,271,272,273,274,275,276,277,278,279,280,281,282,283,284,285,286,287,288,289,290,291,292,293,294,295,296,297,298,299,300,301,302,303,304,305,306,307,308,309,310,311,312,313,314,315,316,317,318,319,320,321,322,323,324,325,326,327,328,329,330,331,332,333,334,335,336,337,338,339,340,341,342,343,344,345,346,347,348,349,350,351,352,353,354,355,356,357,358,359,360,361,362,363,364,365,366,367,368,369,370,371,372,373,374,375,376,377,378,379,380,381,382,383,384,385,386,387,388,389,390,391,392,393,394,395,396,397,398,399,400,401,402,403,404,405,406,407,408,409,410,411,412,413,414,415,416,417,418,419,420,421,422,423,424,425,426,427,428,429,430,431,432,433,434,435,436,437,438,439,440,441,442,443,444,445,446,447,448,449,450,451,452,453,454,455,456,457,458,459,460,461,462,463,464,465,466,467,468,469,470,471,472,473,474,475,476,477,478,479,480,481,482,483,484,485,486,487,488,489,490,491,492,493,494,495,496,497,498,499,500,501,502,503,504,505,506,507,508,509,510,511,512,513,514,515,516,517,518,519,520,521,522,523,524,525,526,527,528,529,530,531,532,533,534,535,536,537,538,539,540,541,542,543,544,545,546,547,548,549,550,551,552,553,554,555,556,557,558,559,560,561,562,563,564,565,566,567,568,569,570,571,572,573,574,575,576,577,578,579,580,581,582,583,584,585,586,587,588,589,590,591,592,593,594,595,596,597,598,599,600,601,602,603,604,605,606,607,608,609,610,611,612,613,614,615,616,617,618,619,620,621,622,623,624,625,626,627,628,629,630,631,632,633,634,635,636,637,638,639,640,641,642,643,644,645,646,647,648,649,650,651,652,653,654,655,656,657,658,659,660,661,662,663,664,665,666,667,668,669,670,671,672,673,674,675,676,677,678,679,680,681,682,683,684,685,686,687,688,689,690,691,692,693,694,695,696,697,698,699,700,701,702,703,704,705,706,707,708,709,710,711,712,713,714,715,716,717,718,719,720,721,722,723,724,725,726,727,728,729,730,731,732,733,734,735,736,737,738,739,740,741,742,743,744,745,746,747,748,749,750,751,752,753,754,755,756,757,758,759,760,761,762,763,764,765,766,767,768,769,770,771,772,773,774,775,776,777,778,779,780,781,782,783,784,785,786,787,788,789,790,791,792,793,794,795,796,797,798,799,800,801,802,803,804,805,806,807,808,809,810,811,812,813,814,815,816,817,818,819,820,821,822,823,824,825,826,827,828,829,830,831,832,833,834,835,836,837,838,839,840,841,842,843,844,845],"tree_info":[0,0,0,0,0,0,0,0,0,0,0,0,0,0,0,0,0,0,0,0,0,0,0,0,0,0,0,0,0,0,0,0,0,0,0,0,0,0,0,0,0,0,0,0,0,0,0,0,0,0,0,0,0,0,0,0,0,0,0,0,0,0,0,0,0,0,0,0,0,0,0,0,0,0,0,0,0,0,0,0,0,0,0,0,0,0,0,0,0,0,0,0,0,0,0,0,0,0,0,0,0,0,0,0,0,0,0,0,0,0,0,0,0,0,0,0,0,0,0,0,0,0,0,0,0,0,0,0,0,0,0,0,0,0,0,0,0,0,0,0,0,0,0,0,0,0,0,0,0,0,0,0,0,0,0,0,0,0,0,0,0,0,0,0,0,0,0,0,0,0,0,0,0,0,0,0,0,0,0,0,0,0,0,0,0,0,0,0,0,0,0,0,0,0,0,0,0,0,0,0,0,0,0,0,0,0,0,0,0,0,0,0,0,0,0,0,0,0,0,0,0,0,0,0,0,0,0,0,0,0,0,0,0,0,0,0,0,0,0,0,0,0,0,0,0,0,0,0,0,0,0,0,0,0,0,0,0,0,0,0,0,0,0,0,0,0,0,0,0,0,0,0,0,0,0,0,0,0,0,0,0,0,0,0,0,0,0,0,0,0,0,0,0,0,0,0,0,0,0,0,0,0,0,0,0,0,0,0,0,0,0,0,0,0,0,0,0,0,0,0,0,0,0,0,0,0,0,0,0,0,0,0,0,0,0,0,0,0,0,0,0,0,0,0,0,0,0,0,0,0,0,0,0,0,0,0,0,0,0,0,0,0,0,0,0,0,0,0,0,0,0,0,0,0,0,0,0,0,0,0,0,0,0,0,0,0,0,0,0,0,0,0,0,0,0,0,0,0,0,0,0,0,0,0,0,0,0,0,0,0,0,0,0,0,0,0,0,0,0,0,0,0,0,0,0,0,0,0,0,0,0,0,0,0,0,0,0,0,0,0,0,0,0,0,0,0,0,0,0,0,0,0,0,0,0,0,0,0,0,0,0,0,0,0,0,0,0,0,0,0,0,0,0,0,0,0,0,0,0,0,0,0,0,0,0,0,0,0,0,0,0,0,0,0,0,0,0,0,0,0,0,0,0,0,0,0,0,0,0,0,0,0,0,0,0,0,0,0,0,0,0,0,0,0,0,0,0,0,0,0,0,0,0,0,0,0,0,0,0,0,0,0,0,0,0,0,0,0,0,0,0,0,0,0,0,0,0,0,0,0,0,0,0,0,0,0,0,0,0,0,0,0,0,0,0,0,0,0,0,0,0,0,0,0,0,0,0,0,0,0,0,0,0,0,0,0,0,0,0,0,0,0,0,0,0,0,0,0,0,0,0,0,0,0,0,0,0,0,0,0,0,0,0,0,0,0,0,0,0,0,0,0,0,0,0,0,0,0,0,0,0,0,0,0,0,0,0,0,0,0,0,0,0,0,0,0,0,0,0,0,0,0,0,0,0,0,0,0,0,0,0,0,0,0,0,0,0,0,0,0,0,0,0,0,0,0,0,0,0,0,0,0,0,0,0,0,0,0,0,0,0,0,0,0,0,0,0,0,0,0,0,0,0,0,0,0,0,0,0,0,0,0,0,0,0,0,0,0,0,0,0,0,0,0,0,0,0,0,0,0,0,0,0,0,0,0,0,0,0,0,0,0,0,0,0,0,0,0,0,0,0,0,0,0,0,0,0,0,0,0,0,0,0,0,0,0,0,0,0,0,0,0,0,0,0,0,0,0,0,0,0,0,0,0,0,0,0,0,0,0,0,0,0,0,0,0,0,0,0,0,0,0,0,0,0,0,0,0,0,0,0,0,0,0,0,0,0,0,0,0,0,0,0,0,0,0,0,0,0,0,0,0,0,0,0],"trees":[{"base_weights":[-7.0725236E-4,6.524839E-1,-7.174108E-2,4.4301042E-1,1.1880716E0,-2.3537102E-1,2.995366E-1,1.905447E-1,6.0526466E-1,9.950572E-1,1.3098727E0,-9.627872E-2,-3.482165E-1,2.1721709E-1,6.7561E-1,2.5878385E-1,-1.1561622E-1,7.1607375E-1,1.5701264E-1,6.498083E-1,1.0563496E0,1.1112676E0,1.3526341E0,-1.5370788E-1,5.2671585E-2,-4.0656528E-1,-1.3491356E-1,4.7386003E-1,1.220302E-1,9.031304E-1,5.236926E-1,1.6283598E-3,1.5928544E-2,-1.47179635E-2,6.0907784E-3,2.6526628E-2,4.2476546E-2,-1.4704538E-2,1.2652493E-2,3.501224E-2,-1.06658945E-2,5.922553E-2,4.1271392E-2,9.26424E-3,5.690322E-2,6.9881804E-2,5.3475257E-2,-1.600079E-5,-1.0111579E-2,9.643009E-3,-1.4824663E-4,-1.8707395E-2,-3.2835346E-2,-9.080207E-3,1.6575923E-2,3.0868942E-2,1.9181935E-2,1.3009034E-3,1.6603073E-2,4.4056788E-2,7.4060306E-2,2.4464997E-2,6.1135273E-2],"categories":[],"categories_nodes":[],"categories_segments":[],"categories_sizes":[],"default_left":[0,0,0,0,0,0,0,0,0,0,0,0,0,0,0,0,0,0,0,0,0,0,0,0,0,0,0,0,0,0,0,0,0,0,0,0,0,0,0,0,0,0,0,0,0,0,0,0,0,0,0,0,0,0,0,0,0,0,0,0,0,0,0],"id":0,"left_children":[1,3,5,7,9,11,13,15,17,19,21,23,25,27,29,31,33,35,37,39,41,43,45,47,49,51,53,55,57,59,61,-1,-1,-1,-1,-1,-1,-1,-1,-1,-1,-1,-1,-1,-1,-1,-1,-1,-1,-1,-1,-1,-1,-1,-1,-1,-1,-1,-1,-1,-1,-1,-1],"loss_changes":[9.292386E3,2.2019277E3,1.0974118E4,5.7795703E2,1.2603174E2,1.9676802E3,1.7099155E3,1.1566751E2,4.2631787E2,4.3183594E1,2.444043E1,4.8049908E2,8.611123E2,1.107146E3,3.4125928E2,6.099182E1,4.2935963E1,1.690415E2,7.409241E1,1.4906113E1,5.084204E1,1.40911255E1,3.1037598E1,3.0162238E2,1.2198691E2,4.3969922E2,3.239384E2,1.578252E2,6.667968E2,4.6661133E1,1.411128E2,0E0,0E0,0E0,0E0,0E0,0E0,0E0,0E0,0E0,0E0,0E0,0E0,0E0,0E0,0E0,0E0,0E0,0E0,0E0,0E0,0E0,0E0,0E0,0E0,0E0,0E0,0E0,0E0,0E0,0E0,0E0,0E0],"parents":[2147483647,0,0,1,1,2,2,3,3,4,4,5,5,6,6,7,7,8,8,9,9,10,10,11,11,12,12,13,13,14,14,15,15,16,16,17,17,18,18,19,19,20,20,21,21,22,22,23,23,24,24,25,25,26,26,27,27,28,28,29,29,30,30],"right_children":[2,4,6,8,10,12,14,16,18,20,22,24,26,28,30,32,34,36,38,40,42,44,46,48,50,52,54,56,58,60,62,-1,-1,-1,-1,-1,-1,-1,-1,-1,-1,-1,-1,-1,-1,-1,-1,-1,-1,-1,-1,-1,-1,-1,-1,-1,-1,-1,-1,-1,-1,-1,-1],"split_conditions":[2.5E-1,1.9783785E0,7.5E-1,1.1054718E0,2.7480843E0,1.8969898E-1,1E0,2.9977748E-1,1.0058808E0,1.2249292E0,3E-1,1.0404669E0,1.0324159E0,1.2918052E-1,1.431273E-1,5.2579385E-1,1.4236854E1,1.1868331E0,8.0987847E-1,7.610241E1,2.7508244E-1,1.4336917E0,3.4852204E-1,1.3215022E-1,1.3287824E-1,3.6882636E-1,5.72105E0,1.0713344E-1,1.216944E0,4.6671767E0,2.180017E1,1.6283598E-3,1.5928544E-2,-1.47179635E-2,6.0907784E-3,2.6526628E-2,4.2476546E-2,-1.4704538E-2,1.2652493E-2,3.501224E-2,-1.06658945E-2,5.922553E-2,4.1271392E-2,9.26424E-3,5.690322E-2,6.9881804E-2,5.3475257E-2,-1.600079E-5,-1.0111579E-2,9.643009E-3,-1.4824663E-4,-1.8707395E-2,-3.2835346E-2,-9.080207E-3,1.6575923E-2,3.0868942E-2,1.9181935E-2,1.3009034E-3,1.6603073E-2,4.4056788E-2,7.4060306E-2,2.4464997E-2,6.1135273E-2],"split_indices":[37,14,37,11,14,13,37,13,15,11,61,10,10,13,13,11,59,14,14,70,13,58,13,13,13,13,31,13,10,64,64,0,0,0,0,0,0,0,0,0,0,0,0,0,0,0,0,0,0,0,0,0,0,0,0,0,0,0,0,0,0,0,0],"split_type":[0,0,0,0,0,0,0,0,0,0,0,0,0,0,0,0,0,0,0,0,0,0,0,0,0,0,0,0,0,0,0,0,0,0,0,0,0,0,0,0,0,0,0,0,0,0,0,0,0,0,0,0,0,0,0,0,0,0,0,0,0,0,0],"sum_hessian":[2.0027492E5,1.964118E4,1.8063375E5,1.4122372E4,5.5188066E3,1.2537875E5,5.5254996E4,5.528117E3,8.594255E3,2.1438933E3,3.3749133E3,5.6162047E4,6.92167E4,4.5335824E4,9.919172E3,4.5221367E3,1.0059805E3,6.888972E3,1.7052825E3,3.2795316E2,1.8159402E3,6.095451E2,2.7653684E3,4.0536227E4,1.5625821E4,5.4346203E4,1.4870499E4,1.2261947E4,3.307388E4,3.9661108E3,5.9530605E3,9.477148E2,3.5744219E3,5.748495E2,4.3113104E2,2.8878225E3,4.00115E3,2.97683E2,1.4075995E3,3.107512E2,1.720194E1,1.1611052E3,6.548349E2,1.8113348E1,5.9143176E2,2.3777905E3,3.8757764E2,9.74469E3,3.0791537E4,4.440656E3,1.1185165E4,4.811737E4,6.228834E3,1.3519473E4,1.3510266E3,4.726338E3,7.5356094E3,2.2701096E4,1.0372782E4,3.826436E3,1.3967474E2,5.677817E3,2.7524368E2],"tree_param":{"num_deleted":"0","num_feature":"77","num_nodes":"63","size_leaf_vector":"1"}},{"base_weights":[2.9569757E-4,8.208877E-1,-5.983255E-2,1.0826766E0,5.2748245E-1,-1.9176848E-1,3.3646E-1,8.79535E-1,1.2306694E0,3.1166703E-1,6.529412E-1,-9.333512E-2,-3.1452185E-1,1.6735232E-1,5.70703E-1,9.031081E-1,3.40204E-2,1.246695E0,6.4540786E-1,3.5137242E-1,-4.2797956E-1,7.495768E-1,3.3508757E-1,-1.4807045E-1,5.3006694E-2,-3.9335528E-1,-9.381379E-2,4.3059173E-1,8.481138E-2,7.7648294E-1,3.8622245E-1,3.41901E-2,5.0389428E-2,3.2434564E-2,-2.224697E-2,5.4546446E-2,6.508121E-2,1.10214865E-2,4.565221E-2,-3.4649584E-2,1.8368961E-2,-0E0,-4.048878E-2,3.210069E-2,4.566906E-2,2.5536044E-2,-2.6036203E-3,9.221642E-3,-8.583761E-3,1.000779E-2,8.253322E-5,-5.7881344E-3,-2.135304E-2,-7.2096274E-3,1.6435124E-2,2.485199E-2,9.982431E-3,2.305409E-3,2.2576824E-2,3.764484E-2,6.968282E-2,3.470224E-2,1.6040452E-2],"categories":[],"categories_nodes":[],"categories_segments":[],"categories_sizes":[],"default_left":[0,0,0,0,0,0,0,0,0,0,0,0,0,0,0,0,0,0,0,0,0,0,0,0,0,0,0,0,0,0,0,0,0,0,0,0,0,0,0,0,0,0,0,0,0,0,0,0,0,0,0,0,0,0,0,0,0,0,0,0,0,0,0],"id":1,"left_children":[1,3,5,7,9,11,13,15,17,19,21,23,25,27,29,31,33,35,37,39,41,43,45,47,49,51,53,55,57,59,61,-1,-1,-1,-1,-1,-1,-1,-1,-1,-1,-1,-1,-1,-1,-1,-1,-1,-1,-1,-1,-1,-1,-1,-1,-1,-1,-1,-1,-1,-1,-1,-1],"loss_changes":[9.898829E3,1.0501094E3,9.773067E3,2.143086E2,1.7410852E2,1.6941763E3,1.8487881E3,6.0421143E1,3.6645508E1,7.019617E1,1.2439734E2,6.2349554E2,1.0854595E3,5.8886273E2,7.4179785E2,6.6059814E1,2.5879868E1,3.0746094E1,1.2266979E1,3.8155304E1,1.9921885E1,5.3179688E1,6.5354454E1,4.4466504E2,1.5999666E2,4.2981982E2,3.4968182E2,9.875659E1,2.927708E2,1.3145557E2,2.0694983E2,0E0,0E0,0E0,0E0,0E0,0E0,0E0,0E0,0E0,0E0,0E0,0E0,0E0,0E0,0E0,0E0,0E0,0E0,0E0,0E0,0E0,0E0,0E0,0E0,0E0,0E0,0E0,0E0,0E0,0E0,0E0,0E0],"parents":[2147483647,0,0,1,1,2,2,3,3,4,4,5,5,6,6,7,7,8,8,9,9,10,10,11,11,12,12,13,13,14,14,15,15,16,16,17,17,18,18,19,19,20,20,21,21,22,22,23,23,24,24,25,25,26,26,27,27,28,28,29,29,30,30],"right_children":[2,4,6,8,10,12,14,16,18,20,22,24,26,28,30,32,34,36,38,40,42,44,46,48,50,52,54,56,58,60,62,-1,-1,-1,-1,-1,-1,-1,-1,-1,-1,-1,-1,-1,-1,-1,-1,-1,-1,-1,-1,-1,-1,-1,-1,-1,-1,-1,-1,-1,-1,-1,-1],"split_conditions":[5.3333335E-2,2.6666667E-2,7.2E-1,2.214847E0,6.087072E-1,2.0816614E-1,8.4E-1,1.8232462E-1,1.8232462E-1,3.7510812E-1,3.3575746E-1,1.0404669E0,1.0629538E0,1.2510571E-1,1.5016785E-1,7.138062E-1,2.1390675E-3,1.6111659E0,2.7568974E0,4.5776117E-1,0E0,1.078573E1,-8.009786E0,1.2E-1,1.336161E-1,1.0666667E-1,4.372012E0,2.2593741E0,5.245303E-1,2.180017E1,3.847786E1,3.41901E-2,5.0389428E-2,3.2434564E-2,-2.224697E-2,5.4546446E-2,6.508121E-2,1.10214865E-2,4.565221E-2,-3.4649584E-2,1.8368961E-2,-0E0,-4.048878E-2,3.210069E-2,4.566906E-2,2.5536044E-2,-2.6036203E-3,9.221642E-3,-8.583761E-3,1.000779E-2,8.253322E-5,-5.7881344E-3,-2.135304E-2,-7.2096274E-3,1.6435124E-2,2.485199E-2,9.982431E-3,2.305409E-3,2.2576824E-2,3.764484E-2,6.968282E-2,3.470224E-2,1.6040452E-2],"split_indices":[18,18,18,14,10,13,18,73,73,13,13,10,14,13,13,10,39,11,10,11,45,59,57,18,13,18,31,75,50,64,0,0,0,0,0,0,0,0,0,0,0,0,0,0,0,0,0,0,0,0,0,0,0,0,0,0,0,0,0,0,0,0,0],"split_type":[0,0,0,0,0,0,0,0,0,0,0,0,0,0,0,0,0,0,0,0,0,0,0,0,0,0,0,0,0,0,0,0,0,0,0,0,0,0,0,0,0,0,0,0,0,0,0,0,0,0,0,0,0,0,0,0,0,0,0,0,0,0,0],"sum_hessian":[2.0061005E5,1.3694825E4,1.8691522E5,7.2336035E3,6.461222E3,1.4023102E5,4.6684203E4,3.0560261E3,4.177577E3,2.3792925E3,4.0819294E3,7.7829086E4,6.2401934E4,2.7114746E4,1.9569455E4,2.9724265E3,8.359955E1,4.063204E3,1.1437318E2,2.2597134E3,1.1957913E2,3.1269636E3,9.549658E2,5.6645652E4,2.1183436E4,4.5976152E4,1.6425783E4,6.4690796E3,2.0645666E4,9.24639E3,1.0323066E4,9.6680457E2,2.005622E3,3.675954E1,4.684001E1,1.0725454E3,2.9906587E3,4.632671E1,6.804647E1,3.2363052E1,2.2273503E3,5.7237576E1,6.2341557E1,1.8952976E3,1.2316661E3,6.573949E2,2.9757086E2,3.752472E3,5.2893184E4,5.4764297E3,1.5707005E4,4.9805938E3,4.099556E4,1.4678137E4,1.7476478E3,5.0201797E3,1.4488998E3,1.8678049E4,1.9676173E3,8.911089E3,3.353004E2,1.8045155E3,8.518551E3],"tree_param":{"num_deleted":"0","num_feature":"77","num_nodes":"63","size_leaf_vector":"1"}},{"base_weights":[-2.0536745E-5,-1.3866475E-1,2.8002352E-1,-2.2777443E-1,1.5644492E-1,7.6177007E-1,1.541892E-1,-1.5464938E-1,-4.0802377E-1,4.2851922E-1,7.188182E-2,5.7187027E-1,1.127112E0,-6.945706E-2,4.1501355E-1,-1.813651E-1,2.5547642E-1,-4.8900887E-1,-1.2875366E-1,3.6959267E-1,8.389272E-1,1.7385881E-2,4.1401035E-1,6.6443527E-1,1.3340615E-1,1.1933169E0,9.789777E-1,-1.5426144E-1,1.06018655E-1,5.88254E-1,2.9743862E-1,-3.0946848E-3,-1.2402664E-2,4.0958403E-3,1.7239304E-2,-9.8859025E-3,-2.5711948E-2,-8.375249E-4,-1.4194905E-2,3.0664727E-2,1.5026745E-2,4.484889E-2,1.8212983E-2,2.6810735E-3,-1.4113821E-2,2.729535E-2,8.8476045E-3,2.4866307E-2,3.8903985E-2,-1.308859E-2,1.4100201E-2,5.3203136E-2,6.477962E-2,3.8279876E-2,5.504496E-2,-2.5388852E-4,-1.216259E-2,2.8638071E-3,2.5513116E-2,2.5320763E-2,4.1923445E-2,1.1339235E-2,2.6795918E-2],"categories":[],"categories_nodes":[],"categories_segments":[],"categories_sizes":[],"default_left":[0,0,0,0,0,0,0,0,0,0,0,0,0,0,0,0,0,0,0,0,0,0,0,0,0,0,0,0,0,0,0,0,0,0,0,0,0,0,0,0,0,0,0,0,0,0,0,0,0,0,0,0,0,0,0,0,0,0,0,0,0,0,0],"id":2,"left_children":[1,3,5,7,9,11,13,15,17,19,21,23,25,27,29,31,33,35,37,39,41,43,45,47,49,51,53,55,57,59,61,-1,-1,-1,-1,-1,-1,-1,-1,-1,-1,-1,-1,-1,-1,-1,-1,-1,-1,-1,-1,-1,-1,-1,-1,-1,-1,-1,-1,-1,-1,-1,-1],"loss_changes":[7.786472E3,3.527585E3,4.0249702E3,1.3576216E3,7.154499E2,9.5196826E2,3.0718792E3,8.032024E2,6.720083E2,1.7712622E2,4.4234167E2,3.668828E2,4.267627E1,4.219361E2,4.9436475E2,5.481311E2,6.9211945E1,1.6881445E2,1.160529E2,1.077832E2,2.4156921E1,2.222871E2,1.01380554E2,1.405293E2,9.3034836E1,3.8855957E1,3.550293E1,2.5365216E2,1.8164748E2,1.9965723E2,2.434779E2,0E0,0E0,0E0,0E0,0E0,0E0,0E0,0E0,0E0,0E0,0E0,0E0,0E0,0E0,0E0,0E0,0E0,0E0,0E0,0E0,0E0,0E0,0E0,0E0,0E0,0E0,0E0,0E0,0E0,0E0,0E0,0E0],"parents":[2147483647,0,0,1,1,2,2,3,3,4,4,5,5,6,6,7,7,8,8,9,9,10,10,11,11,12,12,13,13,14,14,15,15,16,16,17,17,18,18,19,19,20,20,21,21,22,22,23,23,24,24,25,25,26,26,27,27,28,28,29,29,30,30],"right_children":[2,4,6,8,10,12,14,16,18,20,22,24,26,28,30,32,34,36,38,40,42,44,46,48,50,52,54,56,58,60,62,-1,-1,-1,-1,-1,-1,-1,-1,-1,-1,-1,-1,-1,-1,-1,-1,-1,-1,-1,-1,-1,-1,-1,-1,-1,-1,-1,-1,-1,-1,-1,-1],"split_conditions":[1.1109687E0,7.5E-1,2.5E-1,2.4943511E-1,1.2594993E-1,2.1209319E0,7.5E-1,1.5590121E1,3.6837764E0,1E0,1E0,3.6326787E-1,2.715794E-1,1.6061641E0,1.431273E-1,1.61375E-1,8.9277214E-1,-2.4377011E-1,3.18692E-1,9.646899E-2,5.934473E-1,1.0702739E-1,1.918555E-1,1.1868331E0,1.1549025E1,1.6809973E0,5E-1,1.6568904E-1,2.0432234E0,1E0,1E0,-3.0946848E-3,-1.2402664E-2,4.0958403E-3,1.7239304E-2,-9.8859025E-3,-2.5711948E-2,-8.375249E-4,-1.4194905E-2,3.0664727E-2,1.5026745E-2,4.484889E-2,1.8212983E-2,2.6810735E-3,-1.4113821E-2,2.729535E-2,8.8476045E-3,2.4866307E-2,3.8903985E-2,-1.308859E-2,1.4100201E-2,5.3203136E-2,6.477962E-2,3.8279876E-2,5.504496E-2,-2.5388852E-4,-1.216259E-2,2.8638071E-3,2.5513116E-2,2.5320763E-2,4.1923445E-2,1.1339235E-2,2.6795918E-2],"split_indices":[11,37,37,13,13,14,37,34,34,37,37,13,13,10,13,13,14,69,13,13,43,73,13,14,59,10,61,13,14,37,37,0,0,0,0,0,0,0,0,0,0,0,0,0,0,0,0,0,0,0,0,0,0,0,0,0,0,0,0,0,0,0,0],"split_type":[0,0,0,0,0,0,0,0,0,0,0,0,0,0,0,0,0,0,0,0,0,0,0,0,0,0,0,0,0,0,0,0,0,0,0,0,0,0,0,0,0,0,0,0,0,0,0,0,0,0,0,0,0,0,0,0,0,0,0,0,0,0,0],"sum_hessian":[2.005432E5,1.341373E5,6.640591E4,1.0302929E5,3.1108E4,1.3750217E4,5.2655688E4,7.3299164E4,2.9730125E4,7.3727573E3,2.3735242E4,9.051742E3,4.6984746E3,2.834799E4,2.4307697E4,6.881863E4,4.480534E3,2.3044264E4,6.6858613E3,6.4514717E3,9.212856E2,2.047711E4,3.2581333E3,7.4721177E3,1.579624E3,3.235128E3,1.4633468E3,1.911374E4,9.234249E3,9.822502E3,1.4485195E4,2.4657049E4,4.4161582E4,1.5254636E3,2.9550708E3,1.8398622E3,2.1204402E4,3.8859338E3,2.7999272E3,1.4194155E3,5.032056E3,8.1836847E2,1.02917076E2,1.8271059E4,2.2060513E3,2.090363E3,1.1677701E3,3.030724E3,4.4413936E3,4.3032883E2,1.1492952E3,1.441313E3,1.7938151E3,5.3888354E2,9.2446326E2,7.1444688E3,1.1969272E4,8.243761E3,9.904882E2,7.4076885E3,2.4148132E3,1.1179165E4,3.3060303E3],"tree_param":{"num_deleted":"0","num_feature":"77","num_nodes":"63","size_leaf_vector":"1"}},{"base_weights":[7.594202E-4,7.488766E-1,-5.393063E-2,9.803394E-1,4.8634177E-1,-1.7033531E-1,3.2653463E-1,8.1432337E-1,1.1214182E0,3.6156794E-1,6.197266E-1,-6.1671246E-2,-2.7064505E-1,1.6333146E-1,5.282148E-1,8.3787054E-1,-1.8564163E-3,1.1476475E0,7.717486E-1,4.0699032E-1,3.182048E-2,4.5323625E-1,7.097445E-1,7.116611E-2,-1.13976516E-1,-3.3882985E-1,3.826852E-2,3.8849425E-1,7.0933506E-2,6.9831157E-1,3.3906537E-1,2.9932246E-2,4.504466E-2,8.027193E-3,-3.4050476E-2,4.934951E-2,5.9750862E-2,1.6340706E-2,4.219065E-2,8.263103E-3,2.4041232E-2,-2.900972E-2,1.2197896E-2,2.3988534E-2,-8.021577E-3,3.924511E-2,1.9666998E-2,1.1090305E-2,1.0650523E-3,-7.100753E-3,6.2790364E-3,-1.4883876E-2,-2.772637E-2,-4.829884E-4,2.170371E-2,2.2624727E-2,7.5106095E-3,5.02651E-3,-2.106326E-2,4.2563062E-2,3.0187244E-2,1.3161579E-2,3.151728E-2],"categories":[],"categories_nodes":[],"categories_segments":[],"categories_sizes":[],"default_left":[0,0,0,0,0,0,0,0,0,0,0,0,0,0,0,0,0,0,0,0,0,0,0,0,0,0,0,0,0,0,0,0,0,0,0,0,0,0,0,0,0,0,0,0,0,0,0,0,0,0,0,0,0,0,0,0,0,0,0,0,0,0,0],"id":3,"left_children":[1,3,5,7,9,11,13,15,17,19,21,23,25,27,29,31,33,35,37,39,41,43,45,47,49,51,53,55,57,59,61,-1,-1,-1,-1,-1,-1,-1,-1,-1,-1,-1,-1,-1,-1,-1,-1,-1,-1,-1,-1,-1,-1,-1,-1,-1,-1,-1,-1,-1,-1,-1,-1],"loss_changes":[8.196127E3,8.2758594E2,8.267162E3,1.6700049E2,1.05562256E2,1.5578374E3,1.4388955E3,6.459961E1,3.315039E1,4.9377197E1,4.505725E1,4.7679477E2,1.5656646E3,5.0268115E2,6.2825146E2,4.7115234E1,1.0961417E1,2.4203613E1,7.8545074E0,5.1462982E1,5.2647026E1,1.8082245E1,4.632794E1,1.4547331E2,3.3074872E2,5.396968E2,2.5516608E2,1.0680444E2,2.4969127E2,1.4713965E2,2.0388599E2,0E0,0E0,0E0,0E0,0E0,0E0,0E0,0E0,0E0,0E0,0E0,0E0,0E0,0E0,0E0,0E0,0E0,0E0,0E0,0E0,0E0,0E0,0E0,0E0,0E0,0E0,0E0,0E0,0E0,0E0,0E0,0E0],"parents":[2147483647,0,0,1,1,2,2,3,3,4,4,5,5,6,6,7,7,8,8,9,9,10,10,11,11,12,12,13,13,14,14,15,15,16,16,17,17,18,18,19,19,20,20,21,21,22,22,23,23,24,24,25,25,26,26,27,27,28,28,29,29,30,30],"right_children":[2,4,6,8,10,12,14,16,18,20,22,24,26,28,30,32,34,36,38,40,42,44,46,48,50,52,54,56,58,60,62,-1,-1,-1,-1,-1,-1,-1,-1,-1,-1,-1,-1,-1,-1,-1,-1,-1,-1,-1,-1,-1,-1,-1,-1,-1,-1,-1,-1,-1,-1,-1,-1],"split_conditions":[5.3333335E-2,2.6666667E-2,7.3333335E-1,2.3340435E0,1.2658358E0,1.932562E-1,8.4E-1,1.8232462E-1,1.06669396E-1,3.7510812E-1,1.2936504E0,1.3500705E-1,8.455496E0,1.3068435E-1,1.5641402E-1,3E-1,8.887114E1,-4.367748E-1,1.5351099E0,6.5954924E0,1.1549025E1,7.862581E1,3.580201E-1,1.0713344E-1,7.028158E1,3.3575746E-1,1.7911555E0,2.3697276E0,1.20640375E-1,1.2070749E-1,6.414252E1,2.9932246E-2,4.504466E-2,8.027193E-3,-3.4050476E-2,4.934951E-2,5.9750862E-2,1.6340706E-2,4.219065E-2,8.263103E-3,2.4041232E-2,-2.900972E-2,1.2197896E-2,2.3988534E-2,-8.021577E-3,3.924511E-2,1.9666998E-2,1.1090305E-2,1.0650523E-3,-7.100753E-3,6.2790364E-3,-1.4883876E-2,-2.772637E-2,-4.829884E-4,2.170371E-2,2.2624727E-2,7.5106095E-3,5.02651E-3,-2.106326E-2,4.2563062E-2,3.0187244E-2,1.3161579E-2,3.151728E-2],"split_indices":[18,18,18,14,14,13,18,73,72,13,11,13,34,13,13,61,1,33,11,59,59,70,13,13,1,13,14,75,73,13,76,0,0,0,0,0,0,0,0,0,0,0,0,0,0,0,0,0,0,0,0,0,0,0,0,0,0,0,0,0,0,0,0],"split_type":[0,0,0,0,0,0,0,0,0,0,0,0,0,0,0,0,0,0,0,0,0,0,0,0,0,0,0,0,0,0,0,0,0,0,0,0,0,0,0,0,0,0,0,0,0,0,0,0,0,0,0,0,0,0,0,0,0,0,0,0,0,0,0],"sum_hessian":[2.003105E5,1.3644749E4,1.8666575E5,7.2475767E3,6.397173E3,1.4293631E5,4.372944E4,3.3373745E3,3.910202E3,3.3110483E3,3.0861245E3,6.861496E4,7.432134E4,2.417373E4,1.955571E4,3.2443335E3,9.304105E1,3.6317822E3,2.784198E2,2.9084304E3,4.0261792E2,1.0892166E3,1.996908E3,1.938174E4,4.923322E4,6.088415E4,1.3437198E4,7.0301865E3,1.7143545E4,1.0292201E4,9.26351E3,6.825179E2,2.5618157E3,7.5724655E1,1.73164E1,8.393384E2,2.7924438E3,4.1319046E1,2.3710074E2,6.8360486E2,2.2248254E3,1.0213429E2,3.0048364E2,1.0452711E3,4.394537E1,1.6099453E3,3.8696265E2,4.815978E3,1.4565762E4,4.4077188E4,5.156032E3,5.113527E4,9.748878E3,1.1986442E4,1.4507559E3,5.538659E3,1.4915272E3,1.6173607E4,9.6993744E2,3.9241294E3,6.368072E3,7.3543535E3,1.9091569E3],"tree_param":{"num_deleted":"0","num_feature":"77","num_nodes":"63","size_leaf_vector":"1"}},{"base_weights":[-2.832153E-4,-1.12582855E-1,2.84657E-1,-1.9837882E-1,1.5342298E-1,7.132235E-1,1.5796608E-1,-2.2922888E-1,1.5613544E-1,1.0019045E-1,4.7675666E-1,5.3695655E-1,1.0342715E0,-5.2503802E-2,3.9940077E-1,-8.972559E-2,-2.818552E-1,2.0088528E-1,-1.8730408E-1,1.3094817E-1,-2.3893149E-1,5.3534675E-1,2.5932068E-2,6.2120694E-1,1.324689E-1,1.0951426E0,8.687099E-1,-8.2421705E-2,4.2151E-1,3.2144672E-1,6.4210594E-1,2.7957025E-3,-6.5800264E-3,-1.3216673E-2,-2.9175295E-2,8.907786E-3,3.989239E-2,-1.1802496E-2,3.7297446E-2,2.0831125E-2,5.1044854E-3,-2.2007138E-2,3.666314E-4,2.9004289E-2,6.2171347E-3,-2.9894765E-3,8.271455E-2,2.179382E-2,3.6800843E-2,-2.5639549E-2,9.466774E-3,4.749761E-2,5.838568E-2,5.3043127E-2,3.6395658E-2,-7.930937E-3,2.0398179E-3,1.2641388E-2,3.4782436E-2,1.7545491E-2,-7.0565674E-3,3.0718325E-2,5.8146656E-2],"categories":[],"categories_nodes":[],"categories_segments":[],"categories_sizes":[],"default_left":[0,0,0,0,0,0,0,0,0,0,0,0,0,0,0,0,0,0,0,0,0,0,0,0,0,0,0,0,0,0,0,0,0,0,0,0,0,0,0,0,0,0,0,0,0,0,0,0,0,0,0,0,0,0,0,0,0,0,0,0,0,0,0],"id":4,"left_children":[1,3,5,7,9,11,13,15,17,19,21,23,25,27,29,31,33,35,37,39,41,43,45,47,49,51,53,55,57,59,61,-1,-1,-1,-1,-1,-1,-1,-1,-1,-1,-1,-1,-1,-1,-1,-1,-1,-1,-1,-1,-1,-1,-1,-1,-1,-1,-1,-1,-1,-1,-1,-1],"loss_changes":[6.4044062E3,3.2766226E3,3.0714175E3,1.1873779E3,6.022456E2,7.285879E2,2.2195176E3,7.3295703E2,1.3364331E2,3.136242E2,1.3037683E2,2.8361353E2,4.3191895E1,3.3081317E2,3.8397754E2,1.6691606E2,3.825171E2,1.03582245E2,4.566038E1,2.2693985E2,1.2408058E2,7.9996216E1,8.0856064E1,1.455752E2,5.2906334E1,3.1841553E1,3.1134766E1,2.0617117E2,6.3203888E1,2.1012427E2,6.9078E1,0E0,0E0,0E0,0E0,0E0,0E0,0E0,0E0,0E0,0E0,0E0,0E0,0E0,0E0,0E0,0E0,0E0,0E0,0E0,0E0,0E0,0E0,0E0,0E0,0E0,0E0,0E0,0E0,0E0,0E0,0E0,0E0],"parents":[2147483647,0,0,1,1,2,2,3,3,4,4,5,5,6,6,7,7,8,8,9,9,10,10,11,11,12,12,13,13,14,14,15,15,16,16,17,17,18,18,19,19,20,20,21,21,22,22,23,23,24,24,25,25,26,26,27,27,28,28,29,29,30,30],"right_children":[2,4,6,8,10,12,14,16,18,20,22,24,26,28,30,32,34,36,38,40,42,44,46,48,50,52,54,56,58,60,62,-1,-1,-1,-1,-1,-1,-1,-1,-1,-1,-1,-1,-1,-1,-1,-1,-1,-1,-1,-1,-1,-1,-1,-1,-1,-1,-1,-1,-1,-1,-1,-1],"split_conditions":[1.1836072E0,7.5E-1,2.5E-1,1.5590121E1,1E0,2.1209319E0,7.5E-1,2.7709714E-1,1.4457557E-1,1.0702739E-1,1.0550152E-1,1.1011648E0,6.249403E1,1.1763453E0,1E0,1.5858562E-1,1.4311713E0,4.2694664E0,1.4629017E0,8.571429E-2,6.0941147E1,1.6590188E0,7.149464E1,1.1868331E0,-2.09375E0,1.6643721E0,9.09661E-2,1.4273866E0,8.550376E0,1.1165522E-1,2.180017E1,2.7957025E-3,-6.5800264E-3,-1.3216673E-2,-2.9175295E-2,8.907786E-3,3.989239E-2,-1.1802496E-2,3.7297446E-2,2.0831125E-2,5.1044854E-3,-2.2007138E-2,3.666314E-4,2.9004289E-2,6.2171347E-3,-2.9894765E-3,8.271455E-2,2.179382E-2,3.6800843E-2,-2.5639549E-2,9.466774E-3,4.749761E-2,5.838568E-2,5.3043127E-2,3.6395658E-2,-7.930937E-3,2.0398179E-3,1.2641388E-2,3.4782436E-2,1.7545491E-2,-7.0565674E-3,3.0718325E-2,5.8146656E-2],"split_indices":[11,37,37,34,37,14,37,15,73,73,73,15,34,16,37,15,15,75,10,28,76,24,76,14,27,11,73,10,31,73,64,0,0,0,0,0,0,0,0,0,0,0,0,0,0,0,0,0,0,0,0,0,0,0,0,0,0,0,0,0,0,0,0],"split_type":[0,0,0,0,0,0,0,0,0,0,0,0,0,0,0,0,0,0,0,0,0,0,0,0,0,0,0,0,0,0,0,0,0,0,0,0,0,0,0,0,0,0,0,0,0,0,0,0,0,0,0,0,0,0,0,0,0,0,0,0,0,0,0],"sum_hessian":[2.0014461E5,1.4356589E5,5.657872E4,1.08555445E5,3.5010445E4,1.2906335E4,4.3672387E4,9.986706E4,8.688381E3,3.0064842E4,4.945604E3,8.336304E3,4.570031E3,2.3332154E4,2.0340232E4,2.7358719E4,7.250834E4,7.688821E3,9.995602E2,2.7567248E4,2.4975947E3,4.3754746E3,5.7012946E2,6.897352E3,1.4389519E3,3.3310645E3,1.2389662E3,2.1949494E4,1.3826594E3,1.5400486E4,4.9397456E3,6.106814E3,2.1251904E4,6.853294E4,3.9754097E3,7.410113E3,2.7870844E2,9.518717E2,4.768844E1,2.525247E3,2.5042E4,1.3747799E3,1.1228147E3,3.9441072E3,4.313673E2,5.4315564E2,2.6973803E1,2.6437139E3,4.253638E3,1.1453268E2,1.3244193E3,1.1217955E3,2.209269E3,5.169022E2,7.22064E2,1.3564687E4,8.384808E3,8.59477E2,5.231824E2,1.4479785E4,9.20701E2,4.695007E3,2.4473901E2],"tree_param":{"num_deleted":"0","num_feature":"77","num_nodes":"63","size_leaf_vector":"1"}},{"base_weights":[5.5015553E-5,5.2077496E-1,-5.6157816E-2,3.180732E-1,7.91026E-1,-1.85828E-1,2.3713262E-1,4.7035033E-1,1.6316806E-1,8.8738525E-1,3.5266307E-1,-2.5027317E-1,-4.469125E-2,1.7577335E-1,5.201312E-1,2.7489814E-1,5.804825E-1,-1.0370013E-1,2.4945407E-1,7.470624E-1,1.0122324E0,1.664423E-1,6.275925E-1,-2.1342123E-1,-3.9918786E-1,-6.608218E-2,3.2557678E-1,7.745178E-2,3.1885728E-1,4.9304724E-1,1.1583714E0,2.504437E-2,8.730325E-3,5.562812E-2,2.7759468E-2,2.1379662E-3,-1.7594744E-2,1.590903E-2,-6.116253E-4,4.0036894E-2,1.5090438E-2,5.230686E-2,3.6917113E-2,1.3249956E-2,-1.4051142E-2,1.9627947E-2,4.258045E-2,-5.8781332E-3,-1.2568908E-2,-3.0348485E-3,-2.1696948E-2,-7.456575E-4,-8.617669E-3,1.2355115E-2,3.9804045E-2,5.3412914E-3,-1.238809E-2,1.7307755E-2,-4.599103E-3,2.7600596E-2,7.2517768E-3,4.3905955E-2,7.440566E-2],"categories":[],"categories_nodes":[],"categories_segments":[],"categories_sizes":[],"default_left":[0,0,0,0,0,0,0,0,0,0,0,0,0,0,0,0,0,0,0,0,0,0,0,0,0,0,0,0,0,0,0,0,0,0,0,0,0,0,0,0,0,0,0,0,0,0,0,0,0,0,0,0,0,0,0,0,0,0,0,0,0,0,0],"id":5,"left_children":[1,3,5,7,9,11,13,15,17,19,21,23,25,27,29,31,33,35,37,39,41,43,45,47,49,51,53,55,57,59,61,-1,-1,-1,-1,-1,-1,-1,-1,-1,-1,-1,-1,-1,-1,-1,-1,-1,-1,-1,-1,-1,-1,-1,-1,-1,-1,-1,-1,-1,-1,-1,-1],"loss_changes":[5.855264E3,1.0666294E3,6.8660747E3,2.62339E2,3.514995E2,1.1385132E3,9.605696E2,1.2013391E2,1.2741179E2,1.1750391E2,7.665761E1,4.7116406E2,3.1078235E2,6.397245E2,1.6846826E2,4.548146E1,4.6222656E1,4.927911E1,7.532202E1,7.620093E1,3.1123535E1,3.998681E1,3.0700607E1,2.5045312E2,2.0019043E2,2.0169005E2,7.8199234E1,2.5759882E2,2.0794922E2,1.9366772E2,3.308783E1,0E0,0E0,0E0,0E0,0E0,0E0,0E0,0E0,0E0,0E0,0E0,0E0,0E0,0E0,0E0,0E0,0E0,0E0,0E0,0E0,0E0,0E0,0E0,0E0,0E0,0E0,0E0,0E0,0E0,0E0,0E0,0E0],"parents":[2147483647,0,0,1,1,2,2,3,3,4,4,5,5,6,6,7,7,8,8,9,9,10,10,11,11,12,12,13,13,14,14,15,15,16,16,17,17,18,18,19,19,20,20,21,21,22,22,23,23,24,24,25,25,26,26,27,27,28,28,29,29,30,30],"right_children":[2,4,6,8,10,12,14,16,18,20,22,24,26,28,30,32,34,36,38,40,42,44,46,48,50,52,54,56,58,60,62,-1,-1,-1,-1,-1,-1,-1,-1,-1,-1,-1,-1,-1,-1,-1,-1,-1,-1,-1,-1,-1,-1,-1,-1,-1,-1,-1,-1,-1,-1,-1,-1],"split_conditions":[2.5E-1,1.0080159E0,7.5E-1,4.475834E-1,1.0058808E0,8.893262E-1,1E0,4.2247698E-1,3.7302074E-1,1.6301551E0,2.1045015E0,7.393683E-1,1.1763453E0,1.0486763E0,2.180017E1,2.3272215E-1,1.5124233E-1,7.058605E-1,1.0508198E0,1.3586293E-1,1.06669396E-1,2.1851456E0,1.2743794E1,2.622372E-1,-2.4377011E-1,8.763188E-2,1.4867184E0,1.0702739E-1,1.1165522E-1,9.584281E-2,1.6576097E0,2.504437E-2,8.730325E-3,5.562812E-2,2.7759468E-2,2.1379662E-3,-1.7594744E-2,1.590903E-2,-6.116253E-4,4.0036894E-2,1.5090438E-2,5.230686E-2,3.6917113E-2,1.3249956E-2,-1.4051142E-2,1.9627947E-2,4.258045E-2,-5.8781332E-3,-1.2568908E-2,-3.0348485E-3,-2.1696948E-2,-7.456575E-4,-8.617669E-3,1.2355115E-2,3.9804045E-2,5.3412914E-3,-1.238809E-2,1.7307755E-2,-4.599103E-3,2.7600596E-2,7.2517768E-3,4.3905955E-2,7.440566E-2],"split_indices":[37,10,37,15,15,10,37,10,10,10,10,15,16,10,64,71,15,15,15,73,72,15,59,15,69,73,29,73,73,73,75,0,0,0,0,0,0,0,0,0,0,0,0,0,0,0,0,0,0,0,0,0,0,0,0,0,0,0,0,0,0,0,0],"split_type":[0,0,0,0,0,0,0,0,0,0,0,0,0,0,0,0,0,0,0,0,0,0,0,0,0,0,0,0,0,0,0,0,0,0,0,0,0,0,0,0,0,0,0,0,0,0,0,0,0,0,0,0,0,0,0,0,0,0,0,0,0,0,0],"sum_hessian":[2.0002345E5,1.9488328E4,1.8053512E5,1.1139413E4,8.348914E3,1.2518881E5,5.5346305E4,5.613676E3,5.525738E3,6.8417886E3,1.5071252E3,8.594153E4,3.9247285E4,4.548856E4,9.857746E3,2.0273163E3,3.5863596E3,1.3485867E3,4.177151E3,3.229708E3,3.6120803E3,9.015195E2,6.0560583E2,6.889925E4,1.704228E4,3.710658E4,2.1407078E3,2.6965512E4,1.8523045E4,9.46061E3,3.9713556E2,6.191648E2,1.4081515E3,1.5794711E2,3.4284124E3,8.478891E2,5.0069757E2,3.309467E3,8.676839E2,2.8798242E3,3.4988373E2,3.2075542E3,4.0452628E2,7.4037946E2,1.6113998E2,2.9931122E2,3.0629462E2,1.954941E4,4.9349844E4,1.5885901E3,1.5453689E4,2.5051432E4,1.20551455E4,1.8382266E3,3.0248126E2,2.473433E4,2.2311821E3,1.7370418E4,1.1526272E3,8.087681E3,1.3729292E3,2.1945769E2,1.7767789E2],"tree_param":{"num_deleted":"0","num_feature":"77","num_nodes":"63","size_leaf_vector":"1"}},{"base_weights":[-9.41739E-5,7.6604754E-1,-4.236785E-2,6.016957E-1,9.791954E-1,-1.2558527E-1,3.3170828E-1,6.4906687E-1,2.8026372E-1,9.938029E-1,4.1983134E-1,-1.5773201E-1,1.6951999E-1,5.2158517E-1,1.9840588E-1,4.8088366E-1,7.4033076E-1,4.3037918E-1,-9.723861E-3,9.34568E-1,1.1182086E0,5.975726E-1,-1.0789679E-2,-3.722347E-2,-2.6349714E-1,1.33976E-1,5.424275E-1,3.4191898E-1,6.625108E-1,4.5487635E-2,3.1756866E-1,2.0898085E-2,3.9349448E-2,4.119429E-2,2.4116859E-2,-4.058951E-3,2.5915375E-2,1.6719101E-2,-1.717758E-2,5.7660397E-2,4.4106744E-2,5.8380593E-2,4.4263847E-2,3.935968E-3,3.9045908E-2,8.922194E-3,-3.6629008E-3,-1.0047865E-2,-1.9078955E-2,2.6740504E-2,5.4232613E-3,2.4700113E-2,5.899931E-2,2.759605E-2,1.3298045E-2,3.20661E-2,5.955831E-2,4.4402587E-3,-2.6713131E-2,1.2767518E-2,3.015638E-2],"categories":[],"categories_nodes":[],"categories_segments":[],"categories_sizes":[],"default_left":[0,0,0,0,0,0,0,0,0,0,0,0,0,0,0,0,0,0,0,0,0,0,0,0,0,0,0,0,0,0,0,0,0,0,0,0,0,0,0,0,0,0,0,0,0,0,0,0,0,0,0,0,0,0,0,0,0,0,0,0,0],"id":6,"left_children":[1,3,5,7,9,11,13,15,17,19,21,23,25,27,29,31,33,35,37,39,41,43,-1,45,47,49,51,53,55,57,59,-1,-1,-1,-1,-1,-1,-1,-1,-1,-1,-1,-1,-1,-1,-1,-1,-1,-1,-1,-1,-1,-1,-1,-1,-1,-1,-1,-1,-1,-1],"loss_changes":[6.4799346E3,3.645376E2,5.902887E3,8.9218994E1,3.563965E1,1.4716064E3,8.728352E2,7.7745605E1,3.3497772E1,2.9546387E1,1.4022085E1,1.7827292E3,2.0147849E2,3.593496E2,3.6930682E2,3.3788147E1,7.041455E1,2.3013466E1,3.0282299E1,3.1540283E1,1.3209961E1,8.487713E0,0E0,5.081428E2,5.4969775E2,1.4185164E2,3.8876526E1,9.9169556E1,8.6846924E1,2.2301653E2,2.0171704E2,0E0,0E0,0E0,0E0,0E0,0E0,0E0,0E0,0E0,0E0,0E0,0E0,0E0,0E0,0E0,0E0,0E0,0E0,0E0,0E0,0E0,0E0,0E0,0E0,0E0,0E0,0E0,0E0,0E0,0E0],"parents":[2147483647,0,0,1,1,2,2,3,3,4,4,5,5,6,6,7,7,8,8,9,9,10,10,11,11,12,12,13,13,14,14,15,15,16,16,17,17,18,18,19,19,20,20,21,21,23,23,24,24,25,25,26,26,27,27,28,28,29,29,30,30],"right_children":[2,4,6,8,10,12,14,16,18,20,22,24,26,28,30,32,34,36,38,40,42,44,-1,46,48,50,52,54,56,58,60,-1,-1,-1,-1,-1,-1,-1,-1,-1,-1,-1,-1,-1,-1,-1,-1,-1,-1,-1,-1,-1,-1,-1,-1,-1,-1,-1,-1,-1,-1],"split_conditions":[4E-2,2.1209319E0,7.733333E-1,1.3586293E-1,1.8232462E-1,1.5590121E1,1.4378686E-1,1.3938493E0,-7.88626E0,1.2240819E1,7.5095785E-1,1.8489559E-1,1.1763453E0,8.4E-1,8.4E-1,1.2969629E1,6.6934326E1,-5.7534736E-1,1.4307035E1,1.6445722E-1,7.2142654E1,5.049505E-1,-1.0789679E-2,1.1572017E-1,2.681316E-1,1.6100288E1,3.097549E0,1.0713344E-1,4.6671767E0,1.20640375E-1,6.483564E1,2.0898085E-2,3.9349448E-2,4.119429E-2,2.4116859E-2,-4.058951E-3,2.5915375E-2,1.6719101E-2,-1.717758E-2,5.7660397E-2,4.4106744E-2,5.8380593E-2,4.4263847E-2,3.935968E-3,3.9045908E-2,8.922194E-3,-3.6629008E-3,-1.0047865E-2,-1.9078955E-2,2.6740504E-2,5.4232613E-3,2.4700113E-2,5.899931E-2,2.759605E-2,1.3298045E-2,3.20661E-2,5.955831E-2,4.4402587E-3,-2.6713131E-2,1.2767518E-2,3.015638E-2],"split_indices":[18,14,18,73,73,34,13,11,57,59,42,13,16,18,18,59,34,69,9,13,34,54,0,13,13,1,14,13,64,73,76,0,0,0,0,0,0,0,0,0,0,0,0,0,0,0,0,0,0,0,0,0,0,0,0,0,0,0,0,0,0],"split_type":[0,0,0,0,0,0,0,0,0,0,0,0,0,0,0,0,0,0,0,0,0,0,0,0,0,0,0,0,0,0,0,0,0,0,0,0,0,0,0,0,0,0,0,0,0,0,0,0,0,0,0,0,0,0,0,0,0,0,0,0,0],"sum_hessian":[2.0008156E5,1.0460261E4,1.896213E5,5.911824E3,4.5484365E3,1.5511655E5,3.450475E4,5.1493438E3,7.624803E2,4.4302944E3,1.18142265E2,1.3988145E5,1.5235101E4,1.4228292E4,2.0276455E4,1.8176868E3,3.331657E3,5.0290274E2,2.5957755E2,3.0155188E3,1.4147754E3,9.3033455E1,2.5108809E1,6.5387043E4,7.449441E4,1.3913028E4,1.3220729E3,6.2590415E3,7.969251E3,8.883486E3,1.1392969E4,1.5130364E3,3.046504E2,2.5118364E3,8.198206E2,7.295058E1,4.2995215E2,1.2708187E2,1.3249567E2,5.733201E2,2.4421987E3,1.1588245E3,2.5595085E2,2.574968E1,6.7283775E1,9.357926E3,5.6029117E4,4.8707203E4,2.5787205E4,8.289379E2,1.308409E4,1.2327726E3,8.930027E1,1.6574791E3,4.6015625E3,7.667312E3,3.0193893E2,8.268258E3,6.152283E2,9.359284E3,2.0336852E3],"tree_param":{"num_deleted":"0","num_feature":"77","num_nodes":"61","size_leaf_vector":"1"}},{"base_weights":[2.0977634E-3,7.2700924E-1,-3.7663195E-2,5.593155E-1,9.4500744E-1,-1.3109273E-1,2.7473003E-1,3.8039708E-1,6.765742E-1,9.7211534E-1,6.981043E-1,-1.6562474E-1,1.5735559E-1,1.3778701E-1,4.4508624E-1,4.204225E-1,-2.6677406E-1,7.471837E-1,3.2404703E-1,9.126425E-1,1.13221E0,8.5804176E-1,3.837221E-1,-6.210753E-2,-2.7564666E-1,1.0013992E-1,3.961704E-1,3.5209748E-1,6.7795716E-2,5.473133E-1,1.6743462E-1,1.6240923E-2,2.6752276E-2,7.7284016E-3,-3.334752E-2,3.199841E-2,4.3679122E-2,1.9645924E-2,-3.170196E-2,3.988665E-2,5.03858E-2,5.731854E-2,2.5606165E-2,4.651566E-2,1.4486196E-2,-1.7948193E-2,2.4053302E-2,3.5969957E-3,-5.4512178E-3,-1.7419068E-2,-8.520386E-3,1.909533E-2,3.0464872E-3,1.578754E-2,3.2672834E-2,1.986615E-2,5.741462E-6,3.482881E-4,1.4500228E-2,2.6122738E-2,5.6268085E-2,1.7061139E-2,1.7365279E-3],"categories":[],"categories_nodes":[],"categories_segments":[],"categories_sizes":[],"default_left":[0,0,0,0,0,0,0,0,0,0,0,0,0,0,0,0,0,0,0,0,0,0,0,0,0,0,0,0,0,0,0,0,0,0,0,0,0,0,0,0,0,0,0,0,0,0,0,0,0,0,0,0,0,0,0,0,0,0,0,0,0,0,0],"id":7,"left_children":[1,3,5,7,9,11,13,15,17,19,21,23,25,27,29,31,33,35,37,39,41,43,45,47,49,51,53,55,57,59,61,-1,-1,-1,-1,-1,-1,-1,-1,-1,-1,-1,-1,-1,-1,-1,-1,-1,-1,-1,-1,-1,-1,-1,-1,-1,-1,-1,-1,-1,-1,-1,-1],"loss_changes":[5.761592E3,3.7816406E2,5.5305557E3,1.2233923E2,2.8026611E1,1.4529895E3,1.0172925E3,6.0774994E1,8.730701E1,3.5581055E1,2.162828E1,1.4835029E3,2.127626E2,3.625613E2,5.5117236E2,2.3332397E1,2.3473335E1,3.8151733E1,3.976044E1,2.9979004E1,7.5633545E0,1.114389E1,1.1850395E1,4.2219406E2,4.8300293E2,1.3877559E2,6.141922E1,9.4557556E1,2.4636404E2,2.0211523E2,1.2051985E2,0E0,0E0,0E0,0E0,0E0,0E0,0E0,0E0,0E0,0E0,0E0,0E0,0E0,0E0,0E0,0E0,0E0,0E0,0E0,0E0,0E0,0E0,0E0,0E0,0E0,0E0,0E0,0E0,0E0,0E0,0E0,0E0],"parents":[2147483647,0,0,1,1,2,2,3,3,4,4,5,5,6,6,7,7,8,8,9,9,10,10,11,11,12,12,13,13,14,14,15,15,16,16,17,17,18,18,19,19,20,20,21,21,22,22,23,23,24,24,25,25,26,26,27,27,28,28,29,29,30,30],"right_children":[2,4,6,8,10,12,14,16,18,20,22,24,26,28,30,32,34,36,38,40,42,44,46,48,50,52,54,56,58,60,62,-1,-1,-1,-1,-1,-1,-1,-1,-1,-1,-1,-1,-1,-1,-1,-1,-1,-1,-1,-1,-1,-1,-1,-1,-1,-1,-1,-1,-1,-1,-1,-1],"split_conditions":[4E-2,2.1209319E0,7.3333335E-1,7.0951533E-1,3.6882636E-1,1.4254592E1,8.4E-1,3.580201E-1,3.580201E-1,1.2565636E1,-1.0495403E1,1.9537818E-1,9.4342244E-1,1.2594993E-1,1.8694538E-1,1.318548E0,3.5829892E0,1.0338371E1,6.773978E1,1.6809973E0,8.11423E1,8.11423E1,1.6061641E0,1.3287824E-1,6.7631894E-1,-1.0542568E0,1.8292047E0,2.943105E0,1.4629017E0,2.180017E1,0E0,1.6240923E-2,2.6752276E-2,7.7284016E-3,-3.334752E-2,3.199841E-2,4.3679122E-2,1.9645924E-2,-3.170196E-2,3.988665E-2,5.03858E-2,5.731854E-2,2.5606165E-2,4.651566E-2,1.4486196E-2,-1.7948193E-2,2.4053302E-2,3.5969957E-3,-5.4512178E-3,-1.7419068E-2,-8.520386E-3,1.909533E-2,3.0464872E-3,1.578754E-2,3.2672834E-2,1.986615E-2,5.741462E-6,3.482881E-4,1.4500228E-2,2.6122738E-2,5.6268085E-2,1.7061139E-2,1.7365279E-3],"split_indices":[18,14,18,10,13,34,18,13,13,59,57,13,16,13,13,11,30,59,63,10,70,70,10,13,10,16,14,75,10,64,35,0,0,0,0,0,0,0,0,0,0,0,0,0,0,0,0,0,0,0,0,0,0,0,0,0,0,0,0,0,0,0,0],"split_type":[0,0,0,0,0,0,0,0,0,0,0,0,0,0,0,0,0,0,0,0,0,0,0,0,0,0,0,0,0,0,0,0,0,0,0,0,0,0,0,0,0,0,0,0,0,0,0,0,0,0,0,0,0,0,0,0,0,0,0,0,0,0,0],"sum_hessian":[1.9987855E5,1.0392016E4,1.8948653E5,5.8790317E3,4.5129844E3,1.458646E5,4.3621938E4,2.3326003E3,3.5464314E3,4.0593962E3,4.535881E2,1.3027153E5,1.5593059E4,2.4186146E4,1.9435793E4,2.1981267E3,1.3447357E2,2.9515852E3,5.9484607E2,2.9719016E3,1.0874944E3,2.972947E2,1.5629338E2,6.712384E4,6.3147688E4,1.2583269E4,3.0097893E3,5.950563E3,1.8235584E4,1.4202798E4,5.2329956E3,1.2050533E3,9.930733E2,6.54938E1,6.8979774E1,1.6056786E3,1.3459067E3,5.5654114E2,3.830496E1,1.3564652E3,1.6154365E3,1.0607661E3,2.672825E1,2.6184314E2,3.5451588E1,1.6893412E1,1.3939996E2,1.7399498E4,4.9724348E4,3.7334797E4,2.5812887E4,1.5334652E3,1.1049804E4,2.2979275E3,7.1186194E2,5.271554E3,6.79009E2,1.4319825E4,3.9157578E3,1.362168E4,5.81118E2,2.2627742E3,2.9702214E3],"tree_param":{"num_deleted":"0","num_feature":"77","num_nodes":"63","size_leaf_vector":"1"}},{"base_weights":[1.8718363E-3,6.946599E-1,-3.567252E-2,4.7872058E-1,8.384379E-1,-1.1265495E-1,3.0937615E-1,3.458826E-1,6.282395E-1,9.273656E-1,7.147655E-1,-1.8005687E-1,1.7545024E-2,4.856303E-1,1.85979E-1,4.393312E-1,1.4000538E-1,7.363415E-1,3.3721378E-1,9.5374036E-1,4.9418387E-1,7.92249E-1,5.274831E-1,-1.2625697E-1,-3.3857006E-1,-1.0847995E-2,2.8446007E-1,3.3050296E-1,6.085095E-1,2.1878849E-1,-3.3506256E-1,8.782919E-3,2.776801E-2,3.8065247E-3,2.9413385E-2,3.0819047E-2,4.4530947E-2,-1.3873178E-2,1.9896248E-2,3.6989436E-2,5.033062E-2,-5.237296E-4,2.8943157E-2,3.7986316E-2,6.2074225E-2,1.8180968E-2,3.3645358E-2,7.0792153E-3,-7.824557E-3,-8.510304E-3,-2.1060273E-2,9.056339E-3,-2.3657912E-3,1.0745668E-2,2.704437E-2,2.5535965E-2,1.2989779E-2,2.8264452E-2,4.2747658E-2,4.946381E-3,1.7532509E-2,-2.9380292E-2,-3.4508088E-3],"categories":[],"categories_nodes":[],"categories_segments":[],"categories_sizes":[],"default_left":[0,0,0,0,0,0,0,0,0,0,0,0,0,0,0,0,0,0,0,0,0,0,0,0,0,0,0,0,0,0,0,0,0,0,0,0,0,0,0,0,0,0,0,0,0,0,0,0,0,0,0,0,0,0,0,0,0,0,0,0,0,0,0],"id":8,"left_children":[1,3,5,7,9,11,13,15,17,19,21,23,25,27,29,31,33,35,37,39,41,43,45,47,49,51,53,55,57,59,61,-1,-1,-1,-1,-1,-1,-1,-1,-1,-1,-1,-1,-1,-1,-1,-1,-1,-1,-1,-1,-1,-1,-1,-1,-1,-1,-1,-1,-1,-1,-1,-1],"loss_changes":[5.194066E3,3.1726025E2,5.0313306E3,8.0694824E1,6.5583496E1,1.3591515E3,7.5092773E2,4.157074E1,5.9654053E1,3.9159424E1,3.6046143E1,8.699133E2,4.0047162E2,2.7028418E2,3.475865E2,4.5278687E1,1.9216988E1,2.4125305E1,1.9962635E1,3.5703613E1,9.284229E0,2.3763794E1,1.7221619E1,6.170498E2,3.5926758E2,3.3421146E2,8.999628E1,7.9546936E1,8.282471E1,3.0198193E2,8.048891E1,0E0,0E0,0E0,0E0,0E0,0E0,0E0,0E0,0E0,0E0,0E0,0E0,0E0,0E0,0E0,0E0,0E0,0E0,0E0,0E0,0E0,0E0,0E0,0E0,0E0,0E0,0E0,0E0,0E0,0E0,0E0,0E0],"parents":[2147483647,0,0,1,1,2,2,3,3,4,4,5,5,6,6,7,7,8,8,9,9,10,10,11,11,12,12,13,13,14,14,15,15,16,16,17,17,18,18,19,19,20,20,21,21,22,22,23,23,24,24,25,25,26,26,27,27,28,28,29,29,30,30],"right_children":[2,4,6,8,10,12,14,16,18,20,22,24,26,28,30,32,34,36,38,40,42,44,46,48,50,52,54,56,58,60,62,-1,-1,-1,-1,-1,-1,-1,-1,-1,-1,-1,-1,-1,-1,-1,-1,-1,-1,-1,-1,-1,-1,-1,-1,-1,-1,-1,-1,-1,-1,-1,-1],"split_conditions":[4E-2,1.5997177E0,7.733333E-1,8.0115944E-1,1.3333334E-2,8.765903E-1,1.4378686E-1,2.5072744E-1,8.0861574E-1,1.06669396E-1,2.9279473E-1,2.5607675E-1,7.813759E1,8.4E-1,1.2370331E-1,6.425406E0,1.119375E0,1.078573E1,6.6718507E0,3E-1,1.4958534E0,4.1545024E0,1.3726461E1,1.2E-1,1.6E-1,1.3068435E-1,1.756591E0,1.0853227E-1,6.414252E1,8.5333335E-1,5.401867E1,8.782919E-3,2.776801E-2,3.8065247E-3,2.9413385E-2,3.0819047E-2,4.4530947E-2,-1.3873178E-2,1.9896248E-2,3.6989436E-2,5.033062E-2,-5.237296E-4,2.8943157E-2,3.7986316E-2,6.2074225E-2,1.8180968E-2,3.3645358E-2,7.0792153E-3,-7.824557E-3,-8.510304E-3,-2.1060273E-2,9.056339E-3,-2.3657912E-3,1.0745668E-2,2.704437E-2,2.5535965E-2,1.2989779E-2,2.8264452E-2,4.2747658E-2,4.946381E-3,1.7532509E-2,-2.9380292E-2,-3.4508088E-3],"split_indices":[18,14,18,10,18,10,13,13,15,72,13,13,1,18,73,59,16,59,59,61,11,75,59,18,18,13,14,13,76,18,70,0,0,0,0,0,0,0,0,0,0,0,0,0,0,0,0,0,0,0,0,0,0,0,0,0,0,0,0,0,0,0,0],"split_type":[0,0,0,0,0,0,0,0,0,0,0,0,0,0,0,0,0,0,0,0,0,0,0,0,0,0,0,0,0,0,0,0,0,0,0,0,0,0,0,0,0,0,0,0,0,0,0,0,0,0,0,0,0,0,0,0,0,0,0,0,0,0,0],"sum_hessian":[1.9967623E5,1.0263685E4,1.8941255E5,4.107218E3,6.156467E3,1.548642E5,3.4548336E4,2.1802112E3,1.9270065E3,3.5713894E3,2.5850771E3,1.0204212E5,5.282209E4,1.4223006E4,2.0325332E4,1.4963258E3,6.838855E2,1.4016013E3,5.2540515E2,3.3630676E3,2.083218E2,1.8220981E3,7.629791E2,7.61898E4,2.5852322E4,4.7743438E4,5.0786504E3,6.291643E3,7.931363E3,1.9123277E4,1.2020548E3,4.6009933E2,1.0362264E3,6.0161395E2,8.227155E1,7.959393E2,6.0566205E2,4.584689E1,4.7955826E2,6.7421936E2,2.6888481E3,2.9336222E1,1.7898557E2,1.705148E3,1.1695012E2,3.636534E2,3.9932568E2,7.7256025E3,6.8464195E4,8.515252E3,1.733707E4,7.618151E3,4.012529E4,3.999544E3,1.0791067E3,1.7674115E3,4.5242314E3,6.7552637E3,1.176099E3,1.0021307E4,9.10197E3,6.144727E2,5.8758203E2],"tree_param":{"num_deleted":"0","num_feature":"77","num_nodes":"63","size_leaf_vector":"1"}},{"base_weights":[-4.4345687E-4,-4.63508E-2,4.3571207E-1,-1.3474056E-1,1.8142213E-1,3.0595362E-1,8.2686913E-1,2.4715002E-1,-1.7213173E-1,3.4387472E-1,9.212713E-2,5.561438E-1,2.0886764E-1,6.869649E-1,9.1354066E-1,3.0062506E-1,-7.0200734E-2,-3.6841497E-2,-2.3446381E-1,2.845929E-1,6.186854E-1,2.9393798E-3,2.2369596E-1,7.055226E-1,4.2024928E-1,9.3350835E-2,3.7453702E-1,7.9265785E-1,5.2511936E-1,7.642238E-1,9.6200895E-1,8.280644E-3,2.272282E-2,3.9196755E-3,-1.52934585E-2,-5.3844363E-3,1.9149715E-3,-9.143666E-3,-1.6581768E-2,2.230462E-2,1.0844927E-2,3.229173E-2,7.990756E-3,1.4316672E-2,-1.698429E-3,1.2529181E-2,-1.0096047E-2,4.2272188E-2,2.9340794E-2,2.3788048E-2,5.2154292E-3,1.5420587E-3,1.6574815E-2,1.5517707E-2,3.098349E-2,4.5961134E-2,3.3264063E-2,6.2522225E-2,2.444211E-2,2.7344037E-2,4.5735557E-2,4.878407E-2,2.143542E-2],"categories":[],"categories_nodes":[],"categories_segments":[],"categories_sizes":[],"default_left":[0,0,0,0,0,0,0,0,0,0,0,0,0,0,0,0,0,0,0,0,0,0,0,0,0,0,0,0,0,0,0,0,0,0,0,0,0,0,0,0,0,0,0,0,0,0,0,0,0,0,0,0,0,0,0,0,0,0,0,0,0,0,0],"id":9,"left_children":[1,3,5,7,9,11,13,15,17,19,21,23,25,27,29,31,33,35,37,39,41,43,45,47,49,51,53,55,57,59,61,-1,-1,-1,-1,-1,-1,-1,-1,-1,-1,-1,-1,-1,-1,-1,-1,-1,-1,-1,-1,-1,-1,-1,-1,-1,-1,-1,-1,-1,-1,-1,-1],"loss_changes":[3.9991304E3,3.6384E3,9.6432227E2,1.8591873E3,7.3261426E2,3.4640503E2,5.536914E1,1.9719257E2,9.9990137E2,2.9109985E2,3.8250818E2,7.986792E1,1.9675958E2,2.9672852E1,1.8769531E1,2.0594238E2,5.880364E1,1.9919165E2,4.0659814E2,1.6066125E2,3.8958984E1,2.034556E2,1.5085565E2,2.979419E1,3.6383698E1,9.017879E1,6.566852E1,1.5658691E1,1.705098E1,2.2041168E1,1.4437866E1,0E0,0E0,0E0,0E0,0E0,0E0,0E0,0E0,0E0,0E0,0E0,0E0,0E0,0E0,0E0,0E0,0E0,0E0,0E0,0E0,0E0,0E0,0E0,0E0,0E0,0E0,0E0,0E0,0E0,0E0,0E0,0E0],"parents":[2147483647,0,0,1,1,2,2,3,3,4,4,5,5,6,6,7,7,8,8,9,9,10,10,11,11,12,12,13,13,14,14,15,15,16,16,17,17,18,18,19,19,20,20,21,21,22,22,23,23,24,24,25,25,26,26,27,27,28,28,29,29,30,30],"right_children":[2,4,6,8,10,12,14,16,18,20,22,24,26,28,30,32,34,36,38,40,42,44,46,48,50,52,54,56,58,60,62,-1,-1,-1,-1,-1,-1,-1,-1,-1,-1,-1,-1,-1,-1,-1,-1,-1,-1,-1,-1,-1,-1,-1,-1,-1,-1,-1,-1,-1,-1,-1,-1],"split_conditions":[1.5788262E0,7.5E-1,2.5062914E0,2.5E-1,1.3848306E-1,2.5E-1,3.097549E0,1.3751096E-1,1.6757682E-1,1E0,1.0241333E0,4.475834E-1,7.5E-1,2.5E-1,-4.6153846E-1,6.486989E-1,-8.865552E0,7.6299477E0,2.588998E-1,1.0713344E-1,1.1971253E-1,3.129537E1,1.2370331E-1,4.1551632E1,1.4094533E-1,7.403531E1,4.463396E-1,3.7211506E1,1.1788301E1,2.3989139E0,1.8232462E-1,8.280644E-3,2.272282E-2,3.9196755E-3,-1.52934585E-2,-5.3844363E-3,1.9149715E-3,-9.143666E-3,-1.6581768E-2,2.230462E-2,1.0844927E-2,3.229173E-2,7.990756E-3,1.4316672E-2,-1.698429E-3,1.2529181E-2,-1.0096047E-2,4.2272188E-2,2.9340794E-2,2.3788048E-2,5.2154292E-3,1.5420587E-3,1.6574815E-2,1.5517707E-2,3.098349E-2,4.5961134E-2,3.3264063E-2,6.2522225E-2,2.444211E-2,2.7344037E-2,4.5735557E-2,4.878407E-2,2.143542E-2],"split_indices":[14,37,14,37,13,37,14,73,13,37,10,15,37,37,43,10,57,59,13,13,69,1,73,34,73,1,50,34,1,10,73,0,0,0,0,0,0,0,0,0,0,0,0,0,0,0,0,0,0,0,0,0,0,0,0,0,0,0,0,0,0,0,0],"split_type":[0,0,0,0,0,0,0,0,0,0,0,0,0,0,0,0,0,0,0,0,0,0,0,0,0,0,0,0,0,0,0,0,0,0,0,0,0,0,0,0,0,0,0,0,0,0,0,0,0,0,0,0,0,0,0,0,0,0,0,0,0,0,0],"sum_hessian":[1.9973512E5,1.807168E5,1.9018328E4,1.3019588E5,5.0520918E4,1.4284557E4,4.7337705E3,1.1608559E4,1.1858732E5,1.7915787E4,3.260513E4,3.9893665E3,1.029519E4,1.819835E3,2.9139355E3,9.935981E3,1.6725764E3,3.740717E4,8.118015E4,1.4741631E4,3.1741558E3,1.9435834E4,1.3169297E4,1.8946525E3,2.094714E3,6.069344E3,4.225846E3,1.0943119E3,7.255231E2,7.248211E2,2.1891145E3,5.295616E3,4.6403657E3,1.0253091E3,6.4726733E2,1.9256662E4,1.8150512E4,5.3034098E4,2.814605E4,4.3485815E3,1.0393049E4,2.9950488E3,1.7910701E2,2.2395676E3,1.7196266E4,1.2388661E4,7.806361E2,8.62067E2,1.0325854E3,1.7794633E3,3.152508E2,4.8109097E3,1.2584341E3,3.3541929E3,8.7165314E2,5.4069977E2,5.536122E2,3.0713648E1,6.948094E2,3.0169098E2,4.2313016E2,2.1318625E3,5.7251953E1],"tree_param":{"num_deleted":"0","num_feature":"77","num_nodes":"63","size_leaf_vector":"1"}},{"base_weights":[1.0494858E-3,6.463961E-1,-3.3726778E-2,5.0699186E-1,8.348054E-1,-1.1577983E-1,2.4153341E-1,6.166034E-1,4.0298516E-1,8.4895724E-1,2.3443377E-1,-1.4655018E-1,1.3178603E-1,1.2058035E-1,3.922942E-1,6.57563E-1,3.1615558E-1,5.087431E-1,2.6526567E-1,7.2706604E-1,9.15104E-1,-1.8973691E-2,3.8028768E-1,-2.291482E-1,-5.1042017E-2,2.1253645E-2,2.3904708E-1,1.4986877E-1,-2.0496425E-1,3.4186244E-1,6.300754E-1,2.1761425E-2,3.613873E-2,3.7130606E-3,3.0184543E-2,1.2117567E-2,2.8793499E-2,6.680875E-4,1.7543426E-2,3.3409446E-2,4.6648692E-2,4.8131075E-2,3.6669996E-2,3.14772E-2,-1.8632585E-3,-2.1794124E-2,-9.906013E-3,9.9985385E-3,-3.784364E-3,3.3894293E-3,-6.398368E-3,9.760472E-3,2.5127584E-2,2.249559E-2,5.6519536E-3,1.4892088E-2,-1.9497592E-2,1.876725E-2,-3.8809038E-3,4.8973795E-2,2.3776948E-2],"categories":[],"categories_nodes":[],"categories_segments":[],"categories_sizes":[],"default_left":[0,0,0,0,0,0,0,0,0,0,0,0,0,0,0,0,0,0,0,0,0,0,0,0,0,0,0,0,0,0,0,0,0,0,0,0,0,0,0,0,0,0,0,0,0,0,0,0,0,0,0,0,0,0,0,0,0,0,0,0,0],"id":10,"left_children":[1,3,5,7,9,11,13,15,17,19,21,23,25,27,29,31,33,35,37,39,41,-1,43,45,47,49,51,53,55,57,59,-1,-1,-1,-1,-1,-1,-1,-1,-1,-1,-1,-1,-1,-1,-1,-1,-1,-1,-1,-1,-1,-1,-1,-1,-1,-1,-1,-1,-1,-1],"loss_changes":[4.4743213E3,2.6623145E2,4.2723125E3,6.586316E1,3.585327E1,1.1101183E3,7.9172876E2,3.4167114E1,4.3298218E1,3.1946533E1,9.538797E0,1.02234863E3,1.9084604E2,2.2987729E2,2.3092358E2,3.5104614E1,2.3720852E1,2.9761017E1,2.8209824E1,1.6138672E1,2.1320557E1,0E0,9.202989E0,4.4533496E2,3.7186038E2,5.5109E1,9.386505E1,2.4404092E2,1.8529774E2,2.243208E2,1.8078308E2,0E0,0E0,0E0,0E0,0E0,0E0,0E0,0E0,0E0,0E0,0E0,0E0,0E0,0E0,0E0,0E0,0E0,0E0,0E0,0E0,0E0,0E0,0E0,0E0,0E0,0E0,0E0,0E0,0E0,0E0],"parents":[2147483647,0,0,1,1,2,2,3,3,4,4,5,5,6,6,7,7,8,8,9,9,10,10,11,11,12,12,13,13,14,14,15,15,16,16,17,17,18,18,19,19,20,20,22,22,23,23,24,24,25,25,26,26,27,27,28,28,29,29,30,30],"right_children":[2,4,6,8,10,12,14,16,18,20,22,24,26,28,30,32,34,36,38,40,42,-1,44,46,48,50,52,54,56,58,60,-1,-1,-1,-1,-1,-1,-1,-1,-1,-1,-1,-1,-1,-1,-1,-1,-1,-1,-1,-1,-1,-1,-1,-1,-1,-1,-1,-1,-1,-1],"split_conditions":[4E-2,2.1209319E0,7.3333335E-1,2.6666667E-2,1.9170424E-1,1.366647E1,8.4E-1,1.3586293E-1,9.070853E-1,1.7027758E0,9.600355E0,4.4E-1,1.1081023E0,1.0702739E-1,6.414252E1,3E-1,1.3726461E1,6.781628E0,9.661285E-1,5.5E-1,7.2142654E1,-1.8973691E-2,1.2854868E0,-4.1938946E-1,7.920792E-2,1.3333334E-1,1.1763453E0,3.5169067E1,-5.8778524E-1,1.0702739E-1,6.1218254E-2,2.1761425E-2,3.613873E-2,3.7130606E-3,3.0184543E-2,1.2117567E-2,2.8793499E-2,6.680875E-4,1.7543426E-2,3.3409446E-2,4.6648692E-2,4.8131075E-2,3.6669996E-2,3.14772E-2,-1.8632585E-3,-2.1794124E-2,-9.906013E-3,9.9985385E-3,-3.784364E-3,3.3894293E-3,-6.398368E-3,9.760472E-3,2.5127584E-2,2.249559E-2,5.6519536E-3,1.4892088E-2,-1.9497592E-2,1.876725E-2,-3.8809038E-3,4.8973795E-2,2.3776948E-2],"split_indices":[18,14,18,18,73,34,18,73,62,11,59,18,14,73,76,61,59,59,14,61,34,0,8,27,28,18,16,0,35,73,73,0,0,0,0,0,0,0,0,0,0,0,0,0,0,0,0,0,0,0,0,0,0,0,0,0,0,0,0,0,0],"split_type":[0,0,0,0,0,0,0,0,0,0,0,0,0,0,0,0,0,0,0,0,0,0,0,0,0,0,0,0,0,0,0,0,0,0,0,0,0,0,0,0,0,0,0,0,0,0,0,0,0,0,0,0,0,0,0,0,0,0,0,0,0],"sum_hessian":[1.9934847E5,1.0192087E4,1.8915638E5,5.863622E3,4.3284644E3,1.4572098E5,4.343539E4,2.8477473E3,3.015875E3,4.227162E3,1.013023E2,1.2961391E5,1.6107081E4,2.410402E4,1.933137E4,2.5025383E3,3.45209E2,1.7007847E3,1.3150902E3,1.4980989E3,2.7290635E3,1.8174252E1,8.3128044E1,6.950023E4,6.0113676E4,7.9360493E3,8.1710312E3,2.211684E4,1.9871808E3,1.5954507E4,3.3768618E3,5.727614E2,1.9297769E3,1.897955E2,1.5541351E2,3.4566962E2,1.3551151E3,3.3561807E2,9.7947217E2,1.1734749E3,3.24624E2,2.1543347E3,5.747286E2,5.2168404E1,3.0959644E1,9.064262E3,6.0435965E4,5.37139E3,5.474229E4,6.052885E3,1.8831649E3,7.010171E3,1.1608602E3,2.4140586E3,1.9702781E4,5.33413E2,1.4537678E3,1.4776465E4,1.1780419E3,1.0312764E3,2.3455854E3],"tree_param":{"num_deleted":"0","num_feature":"77","num_nodes":"61","size_leaf_vector":"1"}},{"base_weights":[-6.857071E-4,5.348321E-1,-3.8649283E-2,7.152887E-1,3.4049702E-1,-1.0695325E-1,2.627705E-1,5.110865E-1,7.849094E-1,1.7342222E-1,4.4048196E-1,-1.5698172E-1,3.8875617E-2,1.2899682E-1,3.685189E-1,-2.7301326E-2,5.257019E-1,8.0505365E-1,1.8485403E-1,2.4114206E-1,-1.8002366E-1,4.9534076E-1,1.3448146E-1,-1.9476365E-1,-4.745393E-2,9.264958E-3,2.8836238E-1,1.5475571E-1,-4.44297E-1,3.987344E-1,-8.56993E-2,1.5833931E-2,2.9468087E-2,2.7685571E-2,4.151126E-2,1.5022473E-2,-3.1476084E-2,2.184869E-2,7.886192E-3,-2.0540211E-2,4.1362545E-3,2.580574E-2,-6.2397495E-3,1.4480471E-2,-8.3899535E-3,-1.149123E-3,-1.1952205E-2,2.5806632E-3,-5.7124733E-3,-2.4503195E-3,6.087114E-3,1.1205471E-2,2.4270782E-2,4.462609E-3,1.5042916E-2,-3.6843788E-2,-4.0165433E-3,1.7309735E-2,3.3229902E-2,5.2145906E-2,-9.505587E-3],"categories":[],"categories_nodes":[],"categories_segments":[],"categories_sizes":[],"default_left":[0,0,0,0,0,0,0,0,0,0,0,0,0,0,0,0,0,0,0,0,0,0,0,0,0,0,0,0,0,0,0,0,0,0,0,0,0,0,0,0,0,0,0,0,0,0,0,0,0,0,0,0,0,0,0,0,0,0,0,0,0],"id":11,"left_children":[1,3,5,7,9,11,13,15,17,19,21,23,25,27,29,-1,31,33,35,37,39,41,43,45,47,49,51,53,55,57,59,-1,-1,-1,-1,-1,-1,-1,-1,-1,-1,-1,-1,-1,-1,-1,-1,-1,-1,-1,-1,-1,-1,-1,-1,-1,-1,-1,-1,-1,-1],"loss_changes":[4.050301E3,4.6148926E2,3.830404E3,9.572412E1,1.05703125E2,1.106676E3,4.8587598E2,2.7531158E1,6.0755127E1,5.7190933E1,6.624042E1,4.6722388E2,2.86062E2,2.2415823E2,2.636372E2,0E0,2.2102325E1,2.9547607E1,1.610283E1,3.228779E1,2.3478163E1,4.3695496E1,2.8671696E1,6.38572E2,1.9176297E2,2.2706543E2,5.1447754E1,1.3880042E2,6.894643E1,2.50427E2,1.4111296E2,0E0,0E0,0E0,0E0,0E0,0E0,0E0,0E0,0E0,0E0,0E0,0E0,0E0,0E0,0E0,0E0,0E0,0E0,0E0,0E0,0E0,0E0,0E0,0E0,0E0,0E0,0E0,0E0,0E0,0E0],"parents":[2147483647,0,0,1,1,2,2,3,3,4,4,5,5,6,6,7,7,8,8,9,9,10,10,11,11,12,12,13,13,14,14,16,16,17,17,18,18,19,19,20,20,21,21,22,22,23,23,24,24,25,25,26,26,27,27,28,28,29,29,30,30],"right_children":[2,4,6,8,10,12,14,16,18,20,22,24,26,28,30,-1,32,34,36,38,40,42,44,46,48,50,52,54,56,58,60,-1,-1,-1,-1,-1,-1,-1,-1,-1,-1,-1,-1,-1,-1,-1,-1,-1,-1,-1,-1,-1,-1,-1,-1,-1,-1,-1,-1,-1,-1],"split_conditions":[5.3333335E-2,2.6666667E-2,7.733333E-1,8.765903E-1,6.17333E-1,1.0404669E0,8.4E-1,-1.074074E0,1.8232462E-1,7.058605E-1,1.3586293E-1,5.733333E-1,7.813759E1,1.20640375E-1,1.1449921E-1,-2.7301326E-2,6.360424E0,-8.351026E-1,2.3197267E0,2.3638585E-1,4.469598E-1,1.1449602E0,-8.865552E0,1.4666666E-1,4.408189E-1,6E-1,2.556559E0,1.2657278E0,3.3152719E0,6.414252E1,-2.6538463E0,1.5833931E-2,2.9468087E-2,2.7685571E-2,4.151126E-2,1.5022473E-2,-3.1476084E-2,2.184869E-2,7.886192E-3,-2.0540211E-2,4.1362545E-3,2.580574E-2,-6.2397495E-3,1.4480471E-2,-8.3899535E-3,-1.149123E-3,-1.1952205E-2,2.5806632E-3,-5.7124733E-3,-2.4503195E-3,6.087114E-3,1.1205471E-2,2.4270782E-2,4.462609E-3,1.5042916E-2,-3.6843788E-2,-4.0165433E-3,1.7309735E-2,3.3229902E-2,5.2145906E-2,-9.505587E-3],"split_indices":[18,18,18,10,10,10,18,24,73,15,73,18,1,73,73,0,59,43,27,71,10,27,57,18,71,18,10,10,75,76,27,0,0,0,0,0,0,0,0,0,0,0,0,0,0,0,0,0,0,0,0,0,0,0,0,0,0,0,0,0,0],"split_type":[0,0,0,0,0,0,0,0,0,0,0,0,0,0,0,0,0,0,0,0,0,0,0,0,0,0,0,0,0,0,0,0,0,0,0,0,0,0,0,0,0,0,0,0,0,0,0,0,0,0,0,0,0,0,0,0,0,0,0,0,0],"sum_hessian":[1.9923427E5,1.3186395E4,1.8604788E5,6.8332285E3,6.353166E3,1.5167919E5,3.4368684E4,1.7434467E3,5.0897817E3,2.3824927E3,3.9706733E3,1.1293772E5,3.8741473E4,1.5177733E4,1.919095E4,2.231741E1,1.7211293E3,4.922997E3,1.6678487E2,2.0011287E3,3.8136398E2,3.364606E3,6.0606744E2,8.396697E4,2.8970756E4,3.4634867E4,4.1066055E3,1.4527332E4,6.504013E2,1.7995217E4,1.1957325E3,4.0643338E2,1.3146959E3,4.5414386E2,4.468853E3,1.4769641E2,1.9088457E1,5.9345935E2,1.4076693E3,2.0344647E2,1.779175E2,3.2566526E3,1.0795328E2,4.0167102E2,2.0439644E2,1.7211428E4,6.675554E4,1.1664148E4,1.7306607E4,2.2812852E4,1.1822016E4,3.1019631E3,1.0046424E3,1.0034925E4,4.4924067E3,3.586628E2,2.9173853E2,1.5031241E4,2.9639753E3,9.932634E1,1.0964062E3],"tree_param":{"num_deleted":"0","num_feature":"77","num_nodes":"61","size_leaf_vector":"1"}},{"base_weights":[2.078971E-3,-8.350422E-2,2.2105883E-1,6.686492E-2,-1.5658003E-1,1.6537993E-1,6.867241E-1,2.9856315E-1,2.979997E-2,-9.781838E-2,-2.7609086E-1,3.458681E-1,1.2211112E-1,5.368841E-1,7.949871E-1,2.3939364E-1,6.1930484E-1,-1.5472783E-1,6.169114E-2,-1.24984495E-1,1.05052255E-1,-3.4110686E-1,-9.792427E-2,5.165551E-1,2.970902E-1,4.5686282E-2,2.867744E-1,6.098908E-1,4.0806162E-1,7.492883E-1,9.241247E-1,2.074345E-2,8.398938E-3,3.723728E-2,1.903264E-2,-1.072214E-2,5.3128744E-3,8.660418E-3,1.1988626E-3,-9.200371E-3,-2.4595235E-3,3.3189796E-3,1.7184956E-2,-1.4943147E-2,-2.6400242E-2,1.18325045E-2,-6.7778165E-3,1.6090287E-2,3.1078497E-2,-1.1638408E-3,1.6407352E-2,-3.243465E-3,5.9007555E-3,8.248729E-3,1.940092E-2,1.85072E-2,3.608302E-2,6.59267E-3,2.4724917E-2,3.283159E-2,4.2705793E-2,4.79951E-2,2.554042E-2],"categories":[],"categories_nodes":[],"categories_segments":[],"categories_sizes":[],"default_left":[0,0,0,0,0,0,0,0,0,0,0,0,0,0,0,0,0,0,0,0,0,0,0,0,0,0,0,0,0,0,0,0,0,0,0,0,0,0,0,0,0,0,0,0,0,0,0,0,0,0,0,0,0,0,0,0,0,0,0,0,0,0,0],"id":12,"left_children":[1,3,5,7,9,11,13,15,17,19,21,23,25,27,29,31,33,35,37,39,41,43,45,47,49,51,53,55,57,59,61,-1,-1,-1,-1,-1,-1,-1,-1,-1,-1,-1,-1,-1,-1,-1,-1,-1,-1,-1,-1,-1,-1,-1,-1,-1,-1,-1,-1,-1,-1,-1,-1],"loss_changes":[3.732865E3,1.5736721E3,1.4505564E3,4.0202094E2,6.765679E2,3.901355E2,9.542505E1,1.2181079E2,2.3759537E2,3.5613794E2,3.676455E2,7.9753296E1,5.0739032E2,2.2644653E1,1.8216797E1,6.793756E1,2.8897736E1,9.280464E1,1.4470781E2,2.5479962E2,7.016274E1,1.8297998E2,1.0699492E2,4.2958252E1,7.502576E1,2.2036441E2,1.5723584E2,4.1756958E1,2.1477707E1,2.3099487E1,1.1500916E1,0E0,0E0,0E0,0E0,0E0,0E0,0E0,0E0,0E0,0E0,0E0,0E0,0E0,0E0,0E0,0E0,0E0,0E0,0E0,0E0,0E0,0E0,0E0,0E0,0E0,0E0,0E0,0E0,0E0,0E0,0E0,0E0],"parents":[2147483647,0,0,1,1,2,2,3,3,4,4,5,5,6,6,7,7,8,8,9,9,10,10,11,11,12,12,13,13,14,14,15,15,16,16,17,17,18,18,19,19,20,20,21,21,22,22,23,23,24,24,25,25,26,26,27,27,28,28,29,29,30,30],"right_children":[2,4,6,8,10,12,14,16,18,20,22,24,26,28,30,32,34,36,38,40,42,44,46,48,50,52,54,56,58,60,62,-1,-1,-1,-1,-1,-1,-1,-1,-1,-1,-1,-1,-1,-1,-1,-1,-1,-1,-1,-1,-1,-1,-1,-1,-1,-1,-1,-1,-1,-1,-1,-1],"split_conditions":[1.1836072E0,1.6200727E-1,2.1209319E0,1.0713344E-1,2.5469995E-1,1.336161E-1,2.7480843E0,1.0172126E0,5.411955E0,7.7981086E0,1.9240156E0,1.023875E-1,1.4254592E1,6.390118E-2,1.356295E1,9.093647E-2,3.7623763E-1,6.3709404E1,2.7157375E-1,5E-1,7.2044304E1,2.7197798E1,7.608695E-2,5.1928498E-2,4.574209E0,1.0241333E0,1.1868331E0,-1.2658228E-2,1.7391305E-1,1.220499E-1,1.6708449E-1,2.074345E-2,8.398938E-3,3.723728E-2,1.903264E-2,-1.072214E-2,5.3128744E-3,8.660418E-3,1.1988626E-3,-9.200371E-3,-2.4595235E-3,3.3189796E-3,1.7184956E-2,-1.4943147E-2,-2.6400242E-2,1.18325045E-2,-6.7778165E-3,1.6090287E-2,3.1078497E-2,-1.1638408E-3,1.6407352E-2,-3.243465E-3,5.9007555E-3,8.248729E-3,1.940092E-2,1.85072E-2,3.608302E-2,6.59267E-3,2.4724917E-2,3.283159E-2,4.2705793E-2,4.79951E-2,2.554042E-2],"split_indices":[11,13,14,13,13,13,14,55,59,34,34,13,34,5,59,13,54,1,71,60,1,9,28,73,59,10,14,41,46,74,73,0,0,0,0,0,0,0,0,0,0,0,0,0,0,0,0,0,0,0,0,0,0,0,0,0,0,0,0,0,0,0,0],"split_type":[0,0,0,0,0,0,0,0,0,0,0,0,0,0,0,0,0,0,0,0,0,0,0,0,0,0,0,0,0,0,0,0,0,0,0,0,0,0,0,0,0,0,0,0,0,0,0,0,0,0,0,0,0,0,0,0,0,0,0,0,0,0,0],"sum_hessian":[1.9917414E5,1.4320481E5,5.5969324E4,4.6831758E4,9.6373055E4,4.999525E4,5.9740728E3,6.454731E3,4.0377027E4,6.4612094E4,3.1760963E4,9.662849E3,4.0332402E4,2.5127988E3,3.461274E3,5.4536997E3,1.0010314E3,5.946451E3,3.4430574E4,5.6984598E4,7.627493E3,2.3266125E4,8.494838E3,2.141108E3,7.5217407E3,2.7550865E4,1.2781537E4,1.5966117E3,9.1618726E2,2.5694749E3,8.917991E2,1.5727167E3,3.880983E3,6.519931E2,3.4903827E2,4.841061E3,1.1053905E3,8.696176E3,2.57344E4,3.2031402E4,2.4953195E4,6.5678296E3,1.0596636E3,1.8983273E4,4.282852E3,8.5646075E2,7.638377E3,7.54599E2,1.3865088E3,6.6335E2,6.858391E3,1.089342E4,1.6657445E4,5.806422E3,6.975115E3,5.1182928E2,1.0847823E3,2.2095657E2,6.952307E2,1.3741594E3,1.1953156E3,8.172059E2,7.4593155E1],"tree_param":{"num_deleted":"0","num_feature":"77","num_nodes":"63","size_leaf_vector":"1"}},{"base_weights":[2.785618E-3,5.761572E-1,-2.7424177E-2,6.737193E-1,3.691241E-1,-9.0522274E-2,2.569613E-1,5.5960435E-1,7.689901E-1,2.0638287E-1,4.8158216E-1,-1.6642545E-1,-4.30656E-3,1.5365641E-1,3.742128E-1,1.8873005E-1,5.861229E-1,8.289723E-1,5.496691E-1,3.6096087E-1,9.506746E-2,7.3056394E-1,3.8944012E-1,-1.3095102E-1,-2.9822275E-1,-3.3782043E-2,2.0953788E-1,1.784188E-1,-3.125886E-1,3.4917873E-1,9.609445E-1,2.0423003E-2,-1.2908212E-2,2.997235E-2,-8.7298155E-3,3.37813E-2,4.398882E-2,3.3637397E-2,1.8719083E-2,3.4506817E-3,2.6191566E-2,-1.7398845E-2,7.4991994E-3,2.4599899E-2,4.169269E-2,2.506849E-2,1.1181356E-2,3.0142786E-3,-8.38288E-3,-1.933346E-2,-9.582639E-3,-6.9308006E-3,1.5278442E-3,8.464291E-3,2.4004843E-2,2.1457937E-2,7.166669E-3,-3.163221E-2,5.9547037E-4,1.9827977E-2,2.9901965E-3,3.5803568E-2,6.374296E-2],"categories":[],"categories_nodes":[],"categories_segments":[],"categories_sizes":[],"default_left":[0,0,0,0,0,0,0,0,0,0,0,0,0,0,0,0,0,0,0,0,0,0,0,0,0,0,0,0,0,0,0,0,0,0,0,0,0,0,0,0,0,0,0,0,0,0,0,0,0,0,0,0,0,0,0,0,0,0,0,0,0,0,0],"id":13,"left_children":[1,3,5,7,9,11,13,15,17,19,21,23,25,27,29,31,33,35,37,39,41,43,45,47,49,51,53,55,57,59,61,-1,-1,-1,-1,-1,-1,-1,-1,-1,-1,-1,-1,-1,-1,-1,-1,-1,-1,-1,-1,-1,-1,-1,-1,-1,-1,-1,-1,-1,-1,-1,-1],"loss_changes":[3.443544E3,1.9996265E2,3.3884792E3,7.1958984E1,5.789682E1,1.0112915E3,4.1495337E2,2.9733765E1,4.67583E1,2.2247356E1,4.211548E1,3.8396777E2,4.5605066E2,2.1056622E2,2.3452051E2,2.0915445E1,2.9583496E1,2.0476929E1,1.6170944E1,2.558876E1,1.8649038E1,1.0970581E1,2.5054352E1,4.5469153E2,1.6380994E2,4.290517E2,9.496146E1,1.5193414E2,9.580149E1,2.1092126E2,4.7535767E1,0E0,0E0,0E0,0E0,0E0,0E0,0E0,0E0,0E0,0E0,0E0,0E0,0E0,0E0,0E0,0E0,0E0,0E0,0E0,0E0,0E0,0E0,0E0,0E0,0E0,0E0,0E0,0E0,0E0,0E0,0E0,0E0],"parents":[2147483647,0,0,1,1,2,2,3,3,4,4,5,5,6,6,7,7,8,8,9,9,10,10,11,11,12,12,13,13,14,14,15,15,16,16,17,17,18,18,19,19,20,20,21,21,22,22,23,23,24,24,25,25,26,26,27,27,28,28,29,29,30,30],"right_children":[2,4,6,8,10,12,14,16,18,20,22,24,26,28,30,32,34,36,38,40,42,44,46,48,50,52,54,56,58,60,62,-1,-1,-1,-1,-1,-1,-1,-1,-1,-1,-1,-1,-1,-1,-1,-1,-1,-1,-1,-1,-1,-1,-1,-1,-1,-1,-1,-1,-1,-1,-1,-1],"split_conditions":[4E-2,2.6666667E-2,7.733333E-1,1.3484263E0,6.8049127E-1,6.9973594E-1,8.5333335E-1,-7.345226E-1,7.4848E-1,3.5860386E-1,3.6056954E-1,7.058605E-1,1.4254592E1,1.162204E-1,2.180017E1,-9.978683E-1,1.9170424E-1,3.5E-1,-8.710529E0,3E-1,-7.2727275E-1,1.1617162E1,6.6934326E1,1.4666666E-1,-4.4014177E0,4.4E-1,2.556559E0,3.591724E1,5.8026928E1,9.667692E-2,1.6576097E0,2.0423003E-2,-1.2908212E-2,2.997235E-2,-8.7298155E-3,3.37813E-2,4.398882E-2,3.3637397E-2,1.8719083E-2,3.4506817E-3,2.6191566E-2,-1.7398845E-2,7.4991994E-3,2.4599899E-2,4.169269E-2,2.506849E-2,1.1181356E-2,3.0142786E-3,-8.38288E-3,-1.933346E-2,-9.582639E-3,-6.9308006E-3,1.5278442E-3,8.464291E-3,2.4004843E-2,2.1457937E-2,7.166669E-3,-3.163221E-2,5.9547037E-4,1.9827977E-2,2.9901965E-3,3.5803568E-2,6.374296E-2],"split_indices":[18,18,18,10,10,10,18,43,15,15,15,15,34,73,64,16,73,61,57,61,19,58,34,18,34,18,10,0,76,73,75,0,0,0,0,0,0,0,0,0,0,0,0,0,0,0,0,0,0,0,0,0,0,0,0,0,0,0,0,0,0,0,0],"split_type":[0,0,0,0,0,0,0,0,0,0,0,0,0,0,0,0,0,0,0,0,0,0,0,0,0,0,0,0,0,0,0,0,0,0,0,0,0,0,0,0,0,0,0,0,0,0,0,0,0,0,0,0,0,0,0,0,0,0,0,0,0,0,0],"sum_hessian":[1.9878277E5,9.948277E3,1.8883448E5,6.7571294E3,3.1911477E3,1.5454738E5,3.4287117E4,3.0831462E3,3.6739834E3,1.3081715E3,1.8829762E3,8.218506E4,7.236231E4,1.8232338E4,1.6054779E4,2.080837E2,2.8750625E3,2.8788154E3,7.9516797E2,5.4390356E2,7.64268E2,5.034079E2,1.3795684E3,6.4761652E4,1.7423408E4,6.359996E4,8.762349E3,1.7315037E4,9.172993E2,1.5401679E4,6.5310077E2,1.4036134E2,6.772236E1,2.8266348E3,4.84278E1,7.259775E2,2.152838E3,4.6214343E2,3.3302454E2,1.9689116E2,3.470124E2,8.210449E1,6.821635E2,1.5704716E2,3.4636072E2,8.193888E2,5.601795E2,1.0426422E4,5.433523E4,9.515876E3,7.9075317E3,2.4190074E4,3.9409887E4,7.6320054E3,1.1303428E3,2.1209368E3,1.5194102E4,4.616303E2,4.55669E2,1.3232573E4,2.1691057E3,3.7147888E2,2.8162192E2],"tree_param":{"num_deleted":"0","num_feature":"77","num_nodes":"63","size_leaf_vector":"1"}},{"base_weights":[-1.0562714E-3,4.61321E-1,-3.331592E-2,6.246695E-1,2.8740987E-1,-1.299383E-1,1.3996741E-1,5.15593E-1,7.386192E-1,4.0050517E-3,3.324263E-1,-1.5275049E-1,5.8386296E-2,6.323048E-2,3.2992527E-1,5.5522364E-1,2.5802773E-1,7.887037E-1,4.3349767E-1,8.257474E-2,-4.989965E-1,4.7426844E-1,2.653433E-1,-5.5922233E-2,-1.9281656E-1,9.616694E-3,3.0404317E-1,2.7431894E-2,2.8030935E-1,3.077364E-1,8.675384E-1,2.8167317E-2,-3.7227776E-2,4.8141945E-3,3.497339E-2,3.0033639E-2,4.226468E-2,2.3616089E-2,-2.5215087E-2,1.9144459E-2,-2.0024579E-3,-4.153863E-2,-4.084103E-3,2.5674213E-2,4.1147321E-4,1.1145707E-2,2.7732834E-2,1.1826684E-2,-3.82815E-3,-2.668797E-3,-1.1687398E-2,1.921012E-3,-2.2688033E-2,1.3260958E-2,3.6857005E-2,1.3679785E-2,1.0786075E-4,1.2085724E-2,2.7665382E-2,1.7061224E-2,-2.2667593E-3,3.4326963E-2,6.1861087E-2],"categories":[],"categories_nodes":[],"categories_segments":[],"categories_sizes":[],"default_left":[0,0,0,0,0,0,0,0,0,0,0,0,0,0,0,0,0,0,0,0,0,0,0,0,0,0,0,0,0,0,0,0,0,0,0,0,0,0,0,0,0,0,0,0,0,0,0,0,0,0,0,0,0,0,0,0,0,0,0,0,0,0,0],"id":14,"left_children":[1,3,5,7,9,11,13,15,17,19,21,23,25,27,29,31,33,35,37,39,41,43,45,47,49,51,53,55,57,59,61,-1,-1,-1,-1,-1,-1,-1,-1,-1,-1,-1,-1,-1,-1,-1,-1,-1,-1,-1,-1,-1,-1,-1,-1,-1,-1,-1,-1,-1,-1,-1,-1],"loss_changes":[2.9674417E3,3.6777124E2,3.1139277E3,8.172949E1,8.006781E1,5.130427E2,9.7025183E2,3.4273376E1,4.8581055E1,3.4084194E1,5.100537E1,4.130525E2,1.543894E2,3.6837982E2,2.2737036E2,3.205591E1,3.2469788E1,2.8052124E1,1.742852E1,2.7867558E1,1.551992E1,3.1479767E1,4.4666443E1,1.881683E2,4.2978052E2,1.4353531E2,3.500795E1,2.5318355E2,7.00506E1,2.1772375E2,4.800714E1,0E0,0E0,0E0,0E0,0E0,0E0,0E0,0E0,0E0,0E0,0E0,0E0,0E0,0E0,0E0,0E0,0E0,0E0,0E0,0E0,0E0,0E0,0E0,0E0,0E0,0E0,0E0,0E0,0E0,0E0,0E0,0E0],"parents":[2147483647,0,0,1,1,2,2,3,3,4,4,5,5,6,6,7,7,8,8,9,9,10,10,11,11,12,12,13,13,14,14,15,15,16,16,17,17,18,18,19,19,20,20,21,21,22,22,23,23,24,24,25,25,26,26,27,27,28,28,29,29,30,30],"right_children":[2,4,6,8,10,12,14,16,18,20,22,24,26,28,30,32,34,36,38,40,42,44,46,48,50,52,54,56,58,60,62,-1,-1,-1,-1,-1,-1,-1,-1,-1,-1,-1,-1,-1,-1,-1,-1,-1,-1,-1,-1,-1,-1,-1,-1,-1,-1,-1,-1,-1,-1,-1,-1],"split_conditions":[5.3333335E-2,2.6666667E-2,6.2666667E-1,1.5006338E0,3.4357885E-1,7.132753E1,8.4E-1,1.06669396E-1,9.3169487E-1,7.058605E-1,3.772315E-1,2.848486E-1,1.5054575E0,1.7072147E0,2.180017E1,5.411077E0,1.3881646E1,3.5E-1,9.683544E-1,-9.319737E0,5.680573E1,7.610241E1,1.2490914E0,1.3333334E-1,1.5862069E-1,1.9572111E0,2.7480843E0,2.7638933E1,7.813759E1,1.0702739E-1,5.7436497E1,2.8167317E-2,-3.7227776E-2,4.8141945E-3,3.497339E-2,3.0033639E-2,4.226468E-2,2.3616089E-2,-2.5215087E-2,1.9144459E-2,-2.0024579E-3,-4.153863E-2,-4.084103E-3,2.5674213E-2,4.1147321E-4,1.1145707E-2,2.7732834E-2,1.1826684E-2,-3.82815E-3,-2.668797E-3,-1.1687398E-2,1.921012E-3,-2.2688033E-2,1.3260958E-2,3.6857005E-2,1.3679785E-2,1.0786075E-4,1.2085724E-2,2.7665382E-2,1.7061224E-2,-2.2667593E-3,3.4326963E-2,6.1861087E-2],"split_indices":[18,18,18,10,10,1,18,72,15,15,15,15,14,10,64,75,59,61,42,57,76,70,16,18,28,15,14,1,1,73,76,0,0,0,0,0,0,0,0,0,0,0,0,0,0,0,0,0,0,0,0,0,0,0,0,0,0,0,0,0,0,0,0],"split_type":[0,0,0,0,0,0,0,0,0,0,0,0,0,0,0,0,0,0,0,0,0,0,0,0,0,0,0,0,0,0,0,0,0,0,0,0,0,0,0,0,0,0,0,0,0,0,0,0,0,0,0,0,0,0,0,0,0,0,0,0,0,0,0],"sum_hessian":[1.989521E5,1.2972681E4,1.859794E5,6.6853306E3,6.2873496E3,1.1940362E5,6.65758E4,3.423592E3,3.2617388E3,8.636228E2,5.423727E3,1.06505414E5,1.2898207E4,4.7423504E4,1.9152293E4,2.9633757E3,4.602165E2,2.7976992E3,4.6403955E2,7.492538E2,1.14368996E2,1.7351929E3,3.688534E3,3.1176928E4,7.5328484E4,1.07651455E4,2.1330618E3,4.071391E4,6.7095938E3,1.8397066E4,7.552259E2,2.94648E3,1.689557E1,3.3942126E2,1.2079523E2,6.5462976E2,2.1430693E3,4.4705762E2,1.6981936E1,2.1718507E2,5.320687E2,6.1943005E1,5.2425995E1,1.5993369E3,1.3585593E2,3.2213735E3,4.671604E2,2.0523503E3,2.9124578E4,1.7097936E4,5.8230547E4,1.0137888E4,6.2725806E2,1.9615978E3,1.714639E2,3.787357E3,3.692655E4,5.8834316E3,8.2616235E2,1.6804664E4,1.5924027E3,5.117411E2,2.4348477E2],"tree_param":{"num_deleted":"0","num_feature":"77","num_nodes":"63","size_leaf_vector":"1"}},{"base_weights":[2.966174E-3,5.2647597E-1,-2.4321461E-2,3.492262E-1,6.487085E-1,-7.864988E-2,2.2140229E-1,1.2003367E-1,4.0719393E-1,7.2311014E-1,5.458158E-1,-2.2039099E-2,-1.7556809E-1,3.720744E-1,1.1684685E-1,-1.1221724E-1,2.7333376E-1,5.5580115E-1,2.7445924E-1,5.180512E-1,7.725833E-1,5.808733E-1,2.930092E-1,2.35194E-1,-3.848011E-2,-2.5297686E-1,1.3188256E-2,2.3301162E-1,4.814129E-1,4.504376E-1,7.9960585E-2,-4.8504364E-2,-1.3317441E-3,1.8849513E-2,-1.6837414E-2,8.444691E-3,2.963364E-2,9.816959E-3,2.5217557E-2,3.7032958E-2,1.9452771E-2,3.9679952E-2,1.1628585E-2,2.4499632E-2,3.6081083E-2,7.7089816E-3,3.471612E-2,8.886225E-3,2.4794346E-2,-2.9369423E-3,8.445444E-3,-1.1088134E-2,-2.100529E-2,-1.7716475E-3,1.2775393E-2,9.737267E-3,2.757437E-2,2.5487674E-2,7.359794E-3,2.7681276E-2,1.3955774E-2,-3.1097684E-4,1.10108955E-2],"categories":[],"categories_nodes":[],"categories_segments":[],"categories_sizes":[],"default_left":[0,0,0,0,0,0,0,0,0,0,0,0,0,0,0,0,0,0,0,0,0,0,0,0,0,0,0,0,0,0,0,0,0,0,0,0,0,0,0,0,0,0,0,0,0,0,0,0,0,0,0,0,0,0,0,0,0,0,0,0,0,0,0],"id":15,"left_children":[1,3,5,7,9,11,13,15,17,19,21,23,25,27,29,31,33,35,37,39,41,43,45,47,49,51,53,55,57,59,61,-1,-1,-1,-1,-1,-1,-1,-1,-1,-1,-1,-1,-1,-1,-1,-1,-1,-1,-1,-1,-1,-1,-1,-1,-1,-1,-1,-1,-1,-1,-1,-1],"loss_changes":[2.8354602E3,2.1209766E2,2.5182195E3,5.3040894E1,4.3099854E1,8.474905E2,5.377167E2,2.9194021E1,6.251001E1,3.2705322E1,2.0951172E1,4.12378E2,8.323855E2,2.1211243E2,2.4782202E2,2.3278986E1,3.1476944E1,2.0940765E1,2.9962776E1,1.7878418E1,2.9827393E1,2.6179565E1,1.631814E1,8.724185E1,3.85117E2,2.1022998E2,1.9530148E2,7.452219E1,7.366101E1,3.474054E1,2.1965677E2,0E0,0E0,0E0,0E0,0E0,0E0,0E0,0E0,0E0,0E0,0E0,0E0,0E0,0E0,0E0,0E0,0E0,0E0,0E0,0E0,0E0,0E0,0E0,0E0,0E0,0E0,0E0,0E0,0E0,0E0,0E0,0E0],"parents":[2147483647,0,0,1,1,2,2,3,3,4,4,5,5,6,6,7,7,8,8,9,9,10,10,11,11,12,12,13,13,14,14,15,15,16,16,17,17,18,18,19,19,20,20,21,21,22,22,23,23,24,24,25,25,26,26,27,27,28,28,29,29,30,30],"right_children":[2,4,6,8,10,12,14,16,18,20,22,24,26,28,30,32,34,36,38,40,42,44,46,48,50,52,54,56,58,60,62,-1,-1,-1,-1,-1,-1,-1,-1,-1,-1,-1,-1,-1,-1,-1,-1,-1,-1,-1,-1,-1,-1,-1,-1,-1,-1,-1,-1,-1,-1,-1,-1],"split_conditions":[4E-2,1.5997177E0,7.733333E-1,6.521739E0,1.3333334E-2,2.2087114E-1,1.4378686E-1,1.2853295E0,2.410726E-1,3E-1,3.6882636E-1,1.0713344E-1,4.289882E0,8.4E-1,3.4081467E1,-3.9704664E0,2.588998E-1,-5.4884744E-1,6.2571857E1,1.6445722E-1,8.11423E1,1.096297E1,1.9948946E1,9.0610504E-1,7.2044304E1,3.6326787E-1,9.4342244E-1,6.3088223E1,1.0934687E-1,-8.1581175E-1,8.666667E-1,-4.8504364E-2,-1.3317441E-3,1.8849513E-2,-1.6837414E-2,8.444691E-3,2.963364E-2,9.816959E-3,2.5217557E-2,3.7032958E-2,1.9452771E-2,3.9679952E-2,1.1628585E-2,2.4499632E-2,3.6081083E-2,7.7089816E-3,3.471612E-2,8.886225E-3,2.4794346E-2,-2.9369423E-3,8.445444E-3,-1.1088134E-2,-2.100529E-2,-1.7716475E-3,1.2775393E-2,9.737267E-3,2.757437E-2,2.5487674E-2,7.359794E-3,2.7681276E-2,1.3955774E-2,-3.1097684E-4,1.10108955E-2],"split_indices":[18,14,18,59,18,13,13,11,13,61,13,13,34,18,0,12,13,46,76,13,70,59,59,55,1,13,16,0,69,16,18,0,0,0,0,0,0,0,0,0,0,0,0,0,0,0,0,0,0,0,0,0,0,0,0,0,0,0,0,0,0,0,0],"split_type":[0,0,0,0,0,0,0,0,0,0,0,0,0,0,0,0,0,0,0,0,0,0,0,0,0,0,0,0,0,0,0,0,0,0,0,0,0,0,0,0,0,0,0,0,0,0,0,0,0,0,0,0,0,0,0,0,0,0,0,0,0,0,0],"sum_hessian":[1.98466E5,9.831508E3,1.8863448E5,4.0175095E3,5.813998E3,1.544825E5,3.4151992E4,8.13977E2,3.2035325E3,3.364335E3,2.449663E3,9.752494E4,5.695756E4,1.3986505E4,2.0165486E4,3.2256412E2,4.9141287E2,1.5066141E3,1.6969183E3,6.6034625E2,2.7039888E3,2.147315E3,3.0234802E2,5.8554E3,9.166954E4,4.0393992E4,1.6563564E4,6.161192E3,7.825313E3,2.0041793E3,1.8161307E4,2.6855394E1,2.957087E2,4.213985E2,7.001437E1,1.3323637E2,1.3733777E3,1.2709254E3,4.2599298E2,2.3736539E2,4.2298087E2,2.6009038E3,1.0308494E2,1.3124111E3,8.3490393E2,2.276199E2,7.472813E1,4.80207E3,1.0533301E3,8.351523E4,8.154316E3,3.4043445E4,6.3505503E3,1.3795212E4,2.768352E3,5.5045845E3,6.566076E2,7.211272E3,6.14041E2,1.2462047E3,7.5797455E2,1.1248247E4,6.9130596E3],"tree_param":{"num_deleted":"0","num_feature":"77","num_nodes":"63","size_leaf_vector":"1"}},{"base_weights":[-1.6922407E-3,-7.982759E-2,1.6692658E-1,-1.3828969E-1,6.026449E-2,5.209161E-1,1.09393105E-1,2.4155706E-2,-1.7755497E-1,1.0504572E-2,2.2780174E-1,4.172119E-1,6.7721164E-1,-5.045268E-3,2.4466312E-1,7.407543E-2,-2.5425747E-1,-2.2894311E-1,-1.0305824E-1,1.6435032E-1,-2.8087629E-2,5.19744E-1,1.7613196E-1,4.3848664E-1,-2.0724411E-1,6.941352E-1,2.2060934E-1,2.3135415E-1,-3.515657E-2,1.6236602E-1,3.6637557E-1,-2.1243037E-3,7.738021E-3,3.1461206E-3,-1.6842976E-2,-2.0652665E-2,-1.0063635E-2,8.896379E-3,-6.2337327E-3,1.983106E-2,5.882258E-3,-2.9925813E-3,1.1134336E-2,2.6916666E-2,-2.6911134E-2,1.2989755E-2,-2.4758612E-3,1.4607097E-2,2.4753144E-2,-4.148087E-2,3.8429555E-3,2.7569983E-2,3.7445903E-2,-5.042644E-4,3.5647485E-2,1.5339673E-2,-8.825601E-3,-3.347161E-3,9.588326E-3,1.9271988E-2,5.9096473E-3,1.5440606E-2,3.140103E-2],"categories":[],"categories_nodes":[],"categories_segments":[],"categories_sizes":[],"default_left":[0,0,0,0,0,0,0,0,0,0,0,0,0,0,0,0,0,0,0,0,0,0,0,0,0,0,0,0,0,0,0,0,0,0,0,0,0,0,0,0,0,0,0,0,0,0,0,0,0,0,0,0,0,0,0,0,0,0,0,0,0,0,0],"id":16,"left_children":[1,3,5,7,9,11,13,15,17,19,21,23,25,27,29,31,33,35,37,39,41,43,45,47,49,51,53,55,57,59,61,-1,-1,-1,-1,-1,-1,-1,-1,-1,-1,-1,-1,-1,-1,-1,-1,-1,-1,-1,-1,-1,-1,-1,-1,-1,-1,-1,-1,-1,-1,-1,-1],"loss_changes":[2.6112168E3,1.1093135E3,1.2777058E3,6.09635E2,3.3232013E2,1.4107104E2,8.358508E2,2.584819E2,2.9442407E2,1.8264847E2,1.3718127E2,7.044812E1,2.6233643E1,2.0809662E2,2.4746497E2,1.484454E2,7.4249954E1,2.3152783E2,1.9089307E2,6.657927E1,1.9575946E2,2.752945E1,1.4664728E2,4.1608215E1,3.1368547E1,2.4851074E1,1.5000875E1,1.0179321E2,1.871071E2,1.4518115E2,1.494176E2,0E0,0E0,0E0,0E0,0E0,0E0,0E0,0E0,0E0,0E0,0E0,0E0,0E0,0E0,0E0,0E0,0E0,0E0,0E0,0E0,0E0,0E0,0E0,0E0,0E0,0E0,0E0,0E0,0E0,0E0,0E0,0E0],"parents":[2147483647,0,0,1,1,2,2,3,3,4,4,5,5,6,6,7,7,8,8,9,9,10,10,11,11,12,12,13,13,14,14,15,15,16,16,17,17,18,18,19,19,20,20,21,21,22,22,23,23,24,24,25,25,26,26,27,27,28,28,29,29,30,30],"right_children":[2,4,6,8,10,12,14,16,18,20,22,24,26,28,30,32,34,36,38,40,42,44,46,48,50,52,54,56,58,60,62,-1,-1,-1,-1,-1,-1,-1,-1,-1,-1,-1,-1,-1,-1,-1,-1,-1,-1,-1,-1,-1,-1,-1,-1,-1,-1,-1,-1,-1,-1,-1,-1],"split_conditions":[1.1281911E0,6.2666667E-1,4E-2,1.4666666E-1,8.4E-1,2.3340435E0,6.533333E-1,1.3751096E-1,4.1333333E-1,4.091163E1,3.8663204E1,1.8232462E-1,8.11423E1,6.666667E-2,8.4E-1,5.503162E-1,1.6569768E-1,-4.1938946E-1,6.9565214E-2,2.1577383E1,6.330103E1,1.3751096E-1,3.8229924E-1,1.1658417E0,-3.1265143E-2,-3.307566E-1,1.7583733E1,1.3210503E0,7.6982185E1,3.5673496E1,6.414252E1,-2.1243037E-3,7.738021E-3,3.1461206E-3,-1.6842976E-2,-2.0652665E-2,-1.0063635E-2,8.896379E-3,-6.2337327E-3,1.983106E-2,5.882258E-3,-2.9925813E-3,1.1134336E-2,2.6916666E-2,-2.6911134E-2,1.2989755E-2,-2.4758612E-3,1.4607097E-2,2.4753144E-2,-4.148087E-2,3.8429555E-3,2.7569983E-2,3.7445903E-2,-5.042644E-4,3.5647485E-2,1.5339673E-2,-8.825601E-3,-3.347161E-3,9.588326E-3,1.9271988E-2,5.9096473E-3,1.5440606E-2,3.140103E-2],"split_indices":[11,18,18,18,18,14,18,73,18,0,0,73,70,18,18,11,28,27,28,1,0,73,15,14,50,33,58,15,1,0,76,0,0,0,0,0,0,0,0,0,0,0,0,0,0,0,0,0,0,0,0,0,0,0,0,0,0,0,0,0,0,0,0],"split_type":[0,0,0,0,0,0,0,0,0,0,0,0,0,0,0,0,0,0,0,0,0,0,0,0,0,0,0,0,0,0,0,0,0,0,0,0,0,0,0,0,0,0,0,0,0,0,0,0,0,0,0,0,0,0,0,0,0,0,0,0,0,0,0],"sum_hessian":[1.9819273E5,1.3543723E5,6.27555E4,9.5561766E4,3.987547E4,8.770144E3,5.3985355E4,1.8599854E4,7.6961914E4,3.0748133E4,9.127335E3,5.2783955E3,3.4917478E3,2.9243555E4,2.4741803E4,1.57747E4,2.8251538E3,4.5538445E4,3.1423469E4,6.1676333E3,2.45805E4,1.3683198E3,7.7590146E3,5.10584E3,1.7255576E2,3.3648958E3,1.2685216E2,3.3006514E3,2.5942902E4,1.4766238E4,9.975565E3,6.4505977E3,9.324103E3,5.8257477E2,2.242579E3,5.9438726E3,3.9594574E4,2.2420525E3,2.9181416E4,1.0282618E3,5.139371E3,2.1820191E4,2.7603088E3,1.3461223E3,2.2197495E1,5.661744E3,2.0972708E3,1.4294562E3,3.6763833E3,5.342954E1,1.1912622E2,9.419432E2,2.4229526E3,8.7020615E1,3.9831547E1,2.7869043E3,5.137469E2,2.2758568E4,3.1843335E3,2.4362788E3,1.2329959E4,8.181794E3,1.7937716E3],"tree_param":{"num_deleted":"0","num_feature":"77","num_nodes":"63","size_leaf_vector":"1"}},{"base_weights":[2.189001E-3,4.2130482E-1,-2.6690025E-2,5.829604E-1,2.5236353E-1,-1.0667353E-1,1.2693399E-1,4.7963384E-1,6.8653965E-1,7.1494885E-2,3.292458E-1,-6.2484317E-2,-2.3348053E-1,5.7271246E-2,2.8948733E-1,2.6815128E-1,5.3140444E-1,7.3981935E-1,3.530001E-1,1.5254962E-1,-3.265616E-1,3.9717618E-1,9.793251E-2,1.3129206E-1,-8.5070044E-2,-3.544905E-1,-1.2801553E-1,2.2583269E-1,8.389777E-3,3.8017133E-1,4.3957796E-2,1.7779773E-2,-2.0440684E-3,2.857083E-2,1.3722427E-2,2.8146103E-2,3.9799068E-2,8.940715E-3,2.8585285E-2,-3.5163786E-2,8.5696215E-3,-3.5324555E-2,-5.4886057E-3,1.5311981E-2,2.8191984E-2,8.329402E-3,-3.4432944E-2,3.4560246E-4,1.1367628E-2,-1.395618E-4,-6.984974E-3,-1.9253226E-3,-1.8715851E-2,-1.2556041E-2,-2.8592532E-3,6.8624257E-3,1.6892053E-2,-8.451305E-4,1.5493013E-2,1.7823087E-2,4.653387E-2,8.667852E-3,-8.280698E-3],"categories":[],"categories_nodes":[],"categories_segments":[],"categories_sizes":[],"default_left":[0,0,0,0,0,0,0,0,0,0,0,0,0,0,0,0,0,0,0,0,0,0,0,0,0,0,0,0,0,0,0,0,0,0,0,0,0,0,0,0,0,0,0,0,0,0,0,0,0,0,0,0,0,0,0,0,0,0,0,0,0,0,0],"id":17,"left_children":[1,3,5,7,9,11,13,15,17,19,21,23,25,27,29,31,33,35,37,39,41,43,45,47,49,51,53,55,57,59,61,-1,-1,-1,-1,-1,-1,-1,-1,-1,-1,-1,-1,-1,-1,-1,-1,-1,-1,-1,-1,-1,-1,-1,-1,-1,-1,-1,-1,-1,-1,-1,-1],"loss_changes":[2.3970732E3,3.479485E2,2.27641E3,6.854883E1,8.663022E1,6.8252454E2,7.180662E2,3.5155457E1,5.6676758E1,6.0284412E1,6.8523895E1,3.9544806E2,4.014408E2,3.6576392E2,4.233734E2,1.7743229E1,2.6260437E1,2.6229736E1,1.6665676E1,2.5042168E1,2.5433262E1,5.051654E1,5.3917324E1,1.12556244E2,3.6368274E2,9.158765E1,1.465361E2,9.869458E1,2.6266626E2,1.8001904E2,1.3932498E2,0E0,0E0,0E0,0E0,0E0,0E0,0E0,0E0,0E0,0E0,0E0,0E0,0E0,0E0,0E0,0E0,0E0,0E0,0E0,0E0,0E0,0E0,0E0,0E0,0E0,0E0,0E0,0E0,0E0,0E0,0E0,0E0],"parents":[2147483647,0,0,1,1,2,2,3,3,4,4,5,5,6,6,7,7,8,8,9,9,10,10,11,11,12,12,13,13,14,14,15,15,16,16,17,17,18,18,19,19,20,20,21,21,22,22,23,23,24,24,25,25,26,26,27,27,28,28,29,29,30,30],"right_children":[2,4,6,8,10,12,14,16,18,20,22,24,26,28,30,32,34,36,38,40,42,44,46,48,50,52,54,56,58,60,62,-1,-1,-1,-1,-1,-1,-1,-1,-1,-1,-1,-1,-1,-1,-1,-1,-1,-1,-1,-1,-1,-1,-1,-1,-1,-1,-1,-1,-1,-1,-1,-1],"split_conditions":[5.3333335E-2,2.6666667E-2,6.4E-1,1.4629017E0,5.244128E-1,2.588998E-1,8.4E-1,-4.110088E-1,3.7510812E-1,6.688989E-1,3.3575746E-1,1.3333334E-1,-4.7710586E0,1.2510571E-1,1.8694538E-1,6.254134E1,1.06669396E-1,3.5E-1,1.620704E1,4.6336174E-1,1.1862451E1,1.1238494E1,6.6265045E1,5.45465E-1,1.6568904E-1,-3.6265397E0,8.372365E-1,1.4034618E1,7.403531E1,2.180017E1,5.8778524E-1,1.7779773E-2,-2.0440684E-3,2.857083E-2,1.3722427E-2,2.8146103E-2,3.9799068E-2,8.940715E-3,2.8585285E-2,-3.5163786E-2,8.5696215E-3,-3.5324555E-2,-5.4886057E-3,1.5311981E-2,2.8191984E-2,8.329402E-3,-3.4432944E-2,3.4560246E-4,1.1367628E-2,-1.395618E-4,-6.984974E-3,-1.9253226E-3,-1.8715851E-2,-1.2556041E-2,-2.8592532E-3,6.8624257E-3,1.6892053E-2,-8.451305E-4,1.5493013E-2,1.7823087E-2,4.653387E-2,8.667852E-3,-8.280698E-3],"split_indices":[18,18,18,10,10,13,18,43,13,15,13,18,34,13,13,63,72,61,59,11,58,59,63,11,13,75,14,9,1,64,35,0,0,0,0,0,0,0,0,0,0,0,0,0,0,0,0,0,0,0,0,0,0,0,0,0,0,0,0,0,0,0,0],"split_type":[0,0,0,0,0,0,0,0,0,0,0,0,0,0,0,0,0,0,0,0,0,0,0,0,0,0,0,0,0,0,0,0,0,0,0,0,0,0,0,0,0,0,0,0,0,0,0,0,0,0,0,0,0,0,0,0,0,0,0,0,0,0,0],"sum_hessian":[1.980252E5,1.2764634E4,1.8526058E5,6.518954E3,6.2456797E3,1.21832836E5,6.342774E4,3.2715115E3,3.2474426E3,1.8660605E3,4.379619E3,9.0353664E4,3.147917E4,4.440403E4,1.9023707E4,6.4769556E2,2.6238162E3,2.796753E3,4.506896E2,1.552434E3,3.1362662E2,3.3826362E3,9.9698303E2,9.428573E3,8.092509E4,1.4654832E4,1.6824338E4,9.978161E3,3.442587E4,1.3890316E4,5.1333896E3,5.058705E2,1.4182501E2,2.266493E3,3.5732318E2,6.8141205E2,2.1153408E3,2.5417554E2,1.9651407E2,3.1307125E1,1.5211268E3,1.11462105E2,2.0216452E2,2.1941294E3,1.1885068E3,9.189841E2,7.799896E1,4.1118555E3,5.3167183E3,3.2295402E4,4.862969E4,8.6706903E2,1.3787763E4,6.140256E3,1.0684082E4,5.5766587E3,4.401502E3,3.176142E4,2.66445E3,1.332081E4,5.6950684E2,3.1754514E3,1.9579382E3],"tree_param":{"num_deleted":"0","num_feature":"77","num_nodes":"63","size_leaf_vector":"1"}},{"base_weights":[1.7524383E-3,-6.745396E-2,1.548562E-1,1.1452219E-1,-1.0724656E-1,5.6700295E-1,1.15560025E-1,4.8387833E-2,3.3334804E-1,2.1309423E-1,-1.3340132E-1,6.6183925E-1,3.9564845E-1,6.244684E-2,3.2089132E-1,5.6528455E-1,3.4647454E-2,6.216917E-1,2.9423353E-1,2.4866779E-1,-1.6909023E-1,-8.736937E-2,-2.407692E-1,5.760686E-1,7.954684E-1,4.3802738E-1,-5.7484604E-2,4.3651544E-2,3.5263002E-1,3.6657307E-1,6.767329E-2,8.09495E-3,3.5017226E-2,1.3037798E-2,1.610695E-4,-1.5199269E-2,3.2831922E-2,1.3059782E-2,3.0972322E-2,1.05509525E-2,2.8232563E-2,-3.633297E-2,1.4110657E-3,-5.2578677E-3,7.985882E-3,9.497876E-3,-1.2947723E-2,3.2888904E-2,1.8971829E-2,3.5707664E-2,4.7742836E-2,6.272118E-3,2.4754895E-2,-1.6928935E-2,1.7769793E-2,-6.453295E-4,6.2874067E-3,1.4049316E-2,3.1587E-2,2.40778E-2,1.3793047E-2,-9.15306E-3,9.472963E-3],"categories":[],"categories_nodes":[],"categories_segments":[],"categories_sizes":[],"default_left":[0,0,0,0,0,0,0,0,0,0,0,0,0,0,0,0,0,0,0,0,0,0,0,0,0,0,0,0,0,0,0,0,0,0,0,0,0,0,0,0,0,0,0,0,0,0,0,0,0,0,0,0,0,0,0,0,0,0,0,0,0,0,0],"id":18,"left_children":[1,3,5,7,9,11,13,15,17,19,21,23,25,27,29,31,33,35,37,39,41,43,45,47,49,51,53,55,57,59,61,-1,-1,-1,-1,-1,-1,-1,-1,-1,-1,-1,-1,-1,-1,-1,-1,-1,-1,-1,-1,-1,-1,-1,-1,-1,-1,-1,-1,-1,-1,-1,-1],"loss_changes":[2.0975405E3,9.87222E2,9.976278E2,3.53769E2,9.3731665E2,8.60957E1,6.133979E2,1.3309886E2,6.3178955E1,1.14921844E2,5.109756E2,3.7909058E1,3.7062042E1,2.4360889E2,1.3346375E2,2.5788483E1,1.2993207E2,2.2395966E1,5.298236E1,9.129382E1,7.9491554E1,3.182105E2,2.432052E2,3.2869568E1,1.5170715E1,3.0868286E1,1.935285E1,1.9503705E2,5.35325E1,1.0148877E2,5.4152264E1,0E0,0E0,0E0,0E0,0E0,0E0,0E0,0E0,0E0,0E0,0E0,0E0,0E0,0E0,0E0,0E0,0E0,0E0,0E0,0E0,0E0,0E0,0E0,0E0,0E0,0E0,0E0,0E0,0E0,0E0,0E0,0E0],"parents":[2147483647,0,0,1,1,2,2,3,3,4,4,5,5,6,6,7,7,8,8,9,9,10,10,11,11,12,12,13,13,14,14,15,15,16,16,17,17,18,18,19,19,20,20,21,21,22,22,23,23,24,24,25,25,26,26,27,27,28,28,29,29,30,30],"right_children":[2,4,6,8,10,12,14,16,18,20,22,24,26,28,30,32,34,36,38,40,42,44,46,48,50,52,54,56,58,60,62,-1,-1,-1,-1,-1,-1,-1,-1,-1,-1,-1,-1,-1,-1,-1,-1,-1,-1,-1,-1,-1,-1,-1,-1,-1,-1,-1,-1,-1,-1,-1,-1],"split_conditions":[1.0404669E0,1.398054E-1,4E-2,7.866667E-1,6.666667E-2,2.7870473E-1,8.2666665E-1,1.0666667E-1,3.7472595E1,3.6882636E-1,2.4820621E-1,1.0338371E1,2.0434749E-1,1.2097623E0,8.9711644E-2,3.1713283E-1,9.864062E-2,1E-1,9.066667E-1,1.523006E1,1.1995541E1,8.4E-1,-3.4669867E-1,2.236017E-1,2.701487E0,8.505328E0,2.7568974E0,6E-1,3.511657E0,1.4378686E-1,-9.5374346E-2,8.09495E-3,3.5017226E-2,1.3037798E-2,1.610695E-4,-1.5199269E-2,3.2831922E-2,1.3059782E-2,3.0972322E-2,1.05509525E-2,2.8232563E-2,-3.633297E-2,1.4110657E-3,-5.2578677E-3,7.985882E-3,9.497876E-3,-1.2947723E-2,3.2888904E-2,1.8971829E-2,3.5707664E-2,4.7742836E-2,6.272118E-3,2.4754895E-2,-1.6928935E-2,1.7769793E-2,-6.453295E-4,6.2874067E-3,1.4049316E-2,3.1587E-2,2.40778E-2,1.3793047E-2,-9.15306E-3,9.472963E-3],"split_indices":[10,13,18,18,18,13,18,18,0,13,13,59,73,16,69,10,13,60,18,59,59,18,69,13,75,59,10,18,30,13,64,0,0,0,0,0,0,0,0,0,0,0,0,0,0,0,0,0,0,0,0,0,0,0,0,0,0,0,0,0,0,0,0],"split_type":[0,0,0,0,0,0,0,0,0,0,0,0,0,0,0,0,0,0,0,0,0,0,0,0,0,0,0,0,0,0,0,0,0,0,0,0,0,0,0,0,0,0,0,0,0,0,0,0,0,0,0,0,0,0,0,0,0,0,0,0,0,0,0],"sum_hessian":[1.9795227E5,1.3632714E5,6.1625125E4,2.4458646E4,1.118685E5,5.360759E3,5.6264367E4,1.8785846E4,5.672801E3,8.441722E3,1.0342678E5,3.4453074E3,1.9154515E3,4.470543E4,1.1558939E4,4.8342184E2,1.8302424E4,6.7252405E2,5.000277E3,7.724716E3,7.170061E2,7.2396445E4,3.1030328E4,2.107171E3,1.3381364E3,1.7527015E3,1.6275002E2,4.1989758E4,2.7156719E3,9.789921E3,1.769018E3,1.2328983E2,3.6013202E2,2.22966E3,1.6072765E4,2.3385256E1,6.491388E2,4.5438203E3,4.564565E2,6.906714E3,8.1800183E2,1.8667172E2,5.3033435E2,6.753754E4,4.8589077E3,1.2551482E3,2.9775182E4,1.4834835E3,6.2368744E2,8.954185E2,4.427179E2,2.7293677E2,1.4797648E3,9.776282E1,6.4987206E1,2.4859262E4,1.7130494E4,2.1655974E3,5.500744E2,4.3111533E3,5.478768E3,5.7666376E2,1.1923542E3],"tree_param":{"num_deleted":"0","num_feature":"77","num_nodes":"63","size_leaf_vector":"1"}},{"base_weights":[-8.1885385E-4,-6.3658275E-2,1.6140959E-1,8.411665E-2,-1.14364155E-1,4.704872E-1,1.0653668E-1,2.71492E-2,2.5267157E-1,-8.8648856E-2,-3.013935E-1,3.5589236E-1,5.9011006E-1,3.5615277E-2,2.7285764E-1,3.0452538E-1,5.0032833E-3,2.2304617E-1,6.01719E-1,6.275476E-2,-1.2237834E-1,-5.6427256E-3,-3.4946477E-1,4.3390432E-1,1.6748704E-1,6.998768E-1,4.0475702E-1,1.1357092E-3,2.4912675E-1,4.8028606E-1,2.1828134E-1,9.716926E-3,2.4942938E-2,1.9631634E-2,-3.449959E-4,9.846803E-3,2.6062293E-2,3.41268E-2,1.6269699E-2,-2.5990615E-3,7.640724E-3,-9.903984E-3,-2.8394458E-3,4.3930262E-2,-4.060905E-3,-2.190335E-2,-1.0331159E-2,1.2926563E-2,2.5394797E-2,-0E0,1.6283736E-2,2.6487118E-2,3.861421E-2,2.6926864E-2,8.9599695E-3,2.7744506E-2,-3.0286316E-4,1.1707596E-2,5.251673E-2,-2.741262E-4,2.5276368E-2,9.886667E-3,2.9917002E-2],"categories":[],"categories_nodes":[],"categories_segments":[],"categories_sizes":[],"default_left":[0,0,0,0,0,0,0,0,0,0,0,0,0,0,0,0,0,0,0,0,0,0,0,0,0,0,0,0,0,0,0,0,0,0,0,0,0,0,0,0,0,0,0,0,0,0,0,0,0,0,0,0,0,0,0,0,0,0,0,0,0,0,0],"id":19,"left_children":[1,3,5,7,9,11,13,15,17,19,21,23,25,27,29,31,33,35,37,39,41,43,45,47,49,51,53,55,57,59,61,-1,-1,-1,-1,-1,-1,-1,-1,-1,-1,-1,-1,-1,-1,-1,-1,-1,-1,-1,-1,-1,-1,-1,-1,-1,-1,-1,-1,-1,-1,-1,-1],"loss_changes":[2.0138058E3,1.0669948E3,9.3500745E2,3.4913217E2,5.0965332E2,1.130697E2,5.5235693E2,1.6687373E2,9.431024E1,4.7604456E2,1.8196533E2,6.2066284E1,8.153186E1,2.416586E2,1.5793591E2,4.247351E1,1.16402084E2,6.539862E1,1.5045349E1,1.7552753E2,3.7835303E2,1.1968315E2,1.3895459E2,3.834253E1,3.3169243E1,2.9906616E1,4.523532E1,1.1292765E2,5.3628723E1,3.5970215E1,8.596979E1,0E0,0E0,0E0,0E0,0E0,0E0,0E0,0E0,0E0,0E0,0E0,0E0,0E0,0E0,0E0,0E0,0E0,0E0,0E0,0E0,0E0,0E0,0E0,0E0,0E0,0E0,0E0,0E0,0E0,0E0,0E0,0E0],"parents":[2147483647,0,0,1,1,2,2,3,3,4,4,5,5,6,6,7,7,8,8,9,9,10,10,11,11,12,12,13,13,14,14,15,15,16,16,17,17,18,18,19,19,20,20,21,21,22,22,23,23,24,24,25,25,26,26,27,27,28,28,29,29,30,30],"right_children":[2,4,6,8,10,12,14,16,18,20,22,24,26,28,30,32,34,36,38,40,42,44,46,48,50,52,54,56,58,60,62,-1,-1,-1,-1,-1,-1,-1,-1,-1,-1,-1,-1,-1,-1,-1,-1,-1,-1,-1,-1,-1,-1,-1,-1,-1,-1,-1,-1,-1,-1,-1,-1],"split_conditions":[1.1836072E0,1.5080465E-1,4E-2,7.733333E-1,3.2497326E-1,1.3484263E0,7.733333E-1,9.646899E-2,9.066667E-1,1.6E-1,-8.7771006E-2,2.6491806E-1,2.7870473E-1,1.5788262E0,1.2070749E-1,5.430038E1,1.2E-1,6.3088223E1,1.3848306E-1,5.5517566E-1,4.4E-1,-3.6265397E0,6.395807E-1,3E-1,1.2661204E1,3.5E-1,-8.009786E0,2.0222008E1,3.6177485E0,4.233728E-2,2.180017E1,9.716926E-3,2.4942938E-2,1.9631634E-2,-3.449959E-4,9.846803E-3,2.6062293E-2,3.41268E-2,1.6269699E-2,-2.5990615E-3,7.640724E-3,-9.903984E-3,-2.8394458E-3,4.3930262E-2,-4.060905E-3,-2.190335E-2,-1.0331159E-2,1.2926563E-2,2.5394797E-2,-0E0,1.6283736E-2,2.6487118E-2,3.861421E-2,2.6926864E-2,8.9599695E-3,2.7744506E-2,-3.0286316E-4,1.1707596E-2,5.251673E-2,-2.741262E-4,2.5276368E-2,9.886667E-3,2.9917002E-2],"split_indices":[11,13,18,18,13,10,18,13,18,18,72,13,13,14,13,63,18,0,13,11,18,75,10,61,59,61,57,0,14,73,64,0,0,0,0,0,0,0,0,0,0,0,0,0,0,0,0,0,0,0,0,0,0,0,0,0,0,0,0,0,0,0,0],"split_type":[0,0,0,0,0,0,0,0,0,0,0,0,0,0,0,0,0,0,0,0,0,0,0,0,0,0,0,0,0,0,0,0,0,0,0,0,0,0,0,0,0,0,0,0,0,0,0,0,0,0,0,0,0,0,0,0,0,0,0,0,0,0,0],"sum_hessian":[1.9754231E5,1.4239119E5,5.5151133E4,3.6373812E4,1.0601737E5,8.311492E3,4.683964E4,2.7189658E4,9.184152E3,9.320757E4,1.2809802E4,4.251154E3,4.0603384E3,3.2841176E4,1.3998465E4,2.0067806E3,2.5182879E4,8.469974E3,7.141787E2,1.6978516E4,7.6229055E4,1.7927605E3,1.1017041E4,3.0026167E3,1.248537E3,2.5449565E3,1.5153818E3,2.827883E4,4.562343E3,2.9107605E3,1.1087704E4,1.2848464E3,7.2193414E2,7.4961444E2,2.4433264E4,7.792653E3,6.773206E2,5.488939E2,1.6528477E2,7.4643003E3,9.514216E3,3.538133E4,4.0847723E4,1.3896565E2,1.6537948E3,6.7947427E3,4.222299E3,8.956103E2,2.1070063E3,6.0706537E2,6.414717E2,7.66787E2,1.7781696E3,9.48077E2,5.673048E2,3.615552E2,2.7917275E4,4.481785E3,8.055755E1,1.428758E2,2.7678845E3,1.0523124E4,5.645802E2],"tree_param":{"num_deleted":"0","num_feature":"77","num_nodes":"63","size_leaf_vector":"1"}},{"base_weights":[-2.0530564E-3,-7.768337E-2,1.1826104E-1,8.605225E-2,-1.17354445E-1,8.518245E-2,5.042976E-1,2.5428295E-1,4.1117493E-2,-8.662258E-2,-2.555394E-1,2.1644725E-1,5.045209E-2,3.678595E-1,6.145476E-1,-7.793639E-2,3.091348E-1,-1.6144471E-2,1.3012578E-1,-1.0511818E-1,1.11228675E-1,4.9461324E-2,-2.9526705E-1,1.7993987E-1,3.38652E-1,6.056507E-3,2.0665199E-1,3.0390012E-1,5.264023E-1,5.008818E-1,6.6996366E-1,2.9363254E-2,-7.877718E-3,2.7410222E-2,1.2872346E-2,-2.9825522E-3,1.0057451E-2,1.0741831E-2,1.7454273E-3,-3.8429622E-3,-1.1198975E-2,2.931317E-3,1.3456141E-2,-2.2794357E-2,5.9453626E-3,-1.272689E-2,-2.852265E-2,1.5168375E-2,7.0566065E-3,1.3641E-2,2.3010662E-2,-6.5934295E-3,2.1382729E-3,1.39339445E-2,3.1068183E-3,-1.0967727E-2,1.6073178E-2,1.1127789E-2,3.0685348E-2,2.2296531E-2,4.6525907E-2,3.5408642E-2,2.5834063E-2],"categories":[],"categories_nodes":[],"categories_segments":[],"categories_sizes":[],"default_left":[0,0,0,0,0,0,0,0,0,0,0,0,0,0,0,0,0,0,0,0,0,0,0,0,0,0,0,0,0,0,0,0,0,0,0,0,0,0,0,0,0,0,0,0,0,0,0,0,0,0,0,0,0,0,0,0,0,0,0,0,0,0,0],"id":20,"left_children":[1,3,5,7,9,11,13,15,17,19,21,23,25,27,29,31,33,35,37,39,41,43,45,47,49,51,53,55,57,59,61,-1,-1,-1,-1,-1,-1,-1,-1,-1,-1,-1,-1,-1,-1,-1,-1,-1,-1,-1,-1,-1,-1,-1,-1,-1,-1,-1,-1,-1,-1,-1,-1],"loss_changes":[1.7973711E3,7.8787964E2,9.7316016E2,1.7864287E2,4.1441882E2,3.1999493E2,8.95448E1,9.097751E1,9.523181E1,2.9232996E2,2.1534497E2,6.5153564E1,3.8502658E2,2.6597992E1,1.9668945E1,3.7388832E1,5.219046E1,1.07357025E2,5.885132E1,2.4519586E2,5.651194E1,7.1776146E1,1.7542932E2,5.3904266E1,2.6378937E1,2.1895128E2,1.2771283E2,1.7907364E1,1.973079E1,2.4444305E1,1.1683533E1,0E0,0E0,0E0,0E0,0E0,0E0,0E0,0E0,0E0,0E0,0E0,0E0,0E0,0E0,0E0,0E0,0E0,0E0,0E0,0E0,0E0,0E0,0E0,0E0,0E0,0E0,0E0,0E0,0E0,0E0,0E0,0E0],"parents":[2147483647,0,0,1,1,2,2,3,3,4,4,5,5,6,6,7,7,8,8,9,9,10,10,11,11,12,12,13,13,14,14,15,15,16,16,17,17,18,18,19,19,20,20,21,21,22,22,23,23,24,24,25,25,26,26,27,27,28,28,29,29,30,30],"right_children":[2,4,6,8,10,12,14,16,18,20,22,24,26,28,30,32,34,36,38,40,42,44,46,48,50,52,54,56,58,60,62,-1,-1,-1,-1,-1,-1,-1,-1,-1,-1,-1,-1,-1,-1,-1,-1,-1,-1,-1,-1,-1,-1,-1,-1,-1,-1,-1,-1,-1,-1,-1,-1],"split_conditions":[1.0316784E0,1.431273E-1,2.1209319E0,1.0713344E-1,2.9064655E-1,1.3500705E-1,2.7480843E0,3.279711E0,4E-1,7.028158E1,-2.4377011E-1,1.8266916E0,1.894504E1,6.149403E1,1.6830394E0,4.1833134E1,8.715311E-2,6.394945E1,1.7168855E-2,1E0,3.4962835E0,-1.2453295E1,7.974444E0,1.0408541E-1,4E-1,6.8049127E-1,2.9502448E-1,-9.9206346E-1,1.327314E0,8.2592493E-1,7.2142654E1,2.9363254E-2,-7.877718E-3,2.7410222E-2,1.2872346E-2,-2.9825522E-3,1.0057451E-2,1.0741831E-2,1.7454273E-3,-3.8429622E-3,-1.1198975E-2,2.931317E-3,1.3456141E-2,-2.2794357E-2,5.9453626E-3,-1.272689E-2,-2.852265E-2,1.5168375E-2,7.0566065E-3,1.3641E-2,2.3010662E-2,-6.5934295E-3,2.1382729E-3,1.39339445E-2,3.1068183E-3,-1.0967727E-2,1.6073178E-2,1.1127789E-2,3.0685348E-2,2.2296531E-2,4.6525907E-2,3.5408642E-2,2.5834063E-2],"split_indices":[11,13,14,13,13,13,14,58,60,1,69,10,34,76,11,76,13,1,66,36,34,34,30,13,60,10,13,27,11,50,34,0,0,0,0,0,0,0,0,0,0,0,0,0,0,0,0,0,0,0,0,0,0,0,0,0,0,0,0,0,0,0,0],"split_type":[0,0,0,0,0,0,0,0,0,0,0,0,0,0,0,0,0,0,0,0,0,0,0,0,0,0,0,0,0,0,0,0,0,0,0,0,0,0,0,0,0,0,0,0,0,0,0,0,0,0,0,0,0,0,0,0,0,0,0,0,0,0,0],"sum_hessian":[1.975247E5,1.2128742E5,7.623728E4,2.365217E4,9.763525E4,7.022371E4,6.013572E3,4.98151E3,1.867066E4,7.987762E4,1.7757637E4,1.4687365E4,5.5536348E4,2.693492E3,3.3200796E3,7.045188E2,4.276991E3,1.1359037E4,7.311624E3,7.305201E4,6.8256074E3,2.0449427E3,1.5712693E4,1.1315897E4,3.371468E3,4.324921E4,1.2287137E4,1.925638E3,7.678539E2,1.0976829E3,2.2223967E3,7.327555E1,6.312433E2,7.551851E2,3.521806E3,9.467253E3,1.8917843E3,3.865174E3,3.4464497E3,5.90262E4,1.4025809E4,5.124344E3,1.701263E3,2.4485287E2,1.8000898E3,1.3691876E4,2.0208174E3,2.7004924E3,8.615405E3,2.1939343E3,1.1775337E3,9.087248E3,3.4161965E4,8.19661E3,4.090526E3,6.086556E1,1.8647725E3,1.74247E2,5.936069E2,9.7785345E2,1.1982943E2,1.7705454E3,4.5185138E2],"tree_param":{"num_deleted":"0","num_feature":"77","num_nodes":"63","size_leaf_vector":"1"}},{"base_weights":[7.560313E-5,-5.5808187E-2,1.6010033E-1,5.1047936E-2,-1.1732667E-1,1.085434E-1,4.4552785E-1,1.5823492E-3,2.3681058E-1,-9.570255E-2,-3.4437436E-1,6.6721104E-2,3.113764E-1,3.2210186E-1,5.7613254E-1,1.64919E-1,-1.9374859E-2,4.7492713E-1,2.0493166E-1,4.3698967E-2,-1.3195048E-1,-1.2594537E-1,-4.3789566E-1,2.9584184E-1,2.8885681E-2,3.482058E-1,-6.145934E-2,4.9056575E-1,2.6373243E-1,4.396158E-1,6.337232E-1,4.0408066E-3,1.6411489E-2,1.5075291E-2,-1.5815649E-3,1.1496515E-2,2.780445E-2,1.0740767E-2,-3.263713E-2,-3.6587466E-3,6.1647515E-3,-8.745878E-3,-1.075534E-3,1.9942416E-2,-9.929295E-3,-1.2863872E-2,-2.8174147E-2,1.8549213E-2,5.5690818E-3,-1.4777781E-3,6.497533E-3,1.4982241E-2,2.9917616E-2,-7.2229566E-4,-6.806677E-2,5.066532E-3,2.7794285E-2,2.4860656E-2,1.1178716E-2,3.909736E-2,2.009955E-2,2.9913876E-2,4.1234646E-2],"categories":[],"categories_nodes":[],"categories_segments":[],"categories_sizes":[],"default_left":[0,0,0,0,0,0,0,0,0,0,0,0,0,0,0,0,0,0,0,0,0,0,0,0,0,0,0,0,0,0,0,0,0,0,0,0,0,0,0,0,0,0,0,0,0,0,0,0,0,0,0,0,0,0,0,0,0,0,0,0,0,0,0],"id":21,"left_children":[1,3,5,7,9,11,13,15,17,19,21,23,25,27,29,31,33,35,37,39,41,43,45,47,49,51,53,55,57,59,61,-1,-1,-1,-1,-1,-1,-1,-1,-1,-1,-1,-1,-1,-1,-1,-1,-1,-1,-1,-1,-1,-1,-1,-1,-1,-1,-1,-1,-1,-1,-1,-1],"loss_changes":[1.764765E3,9.614728E2,7.512833E2,4.9088898E2,4.554431E2,3.6680716E2,1.2511902E2,1.445421E2,8.474634E1,4.283249E2,1.6443695E2,3.1082526E2,1.0171228E2,3.8924744E1,2.8714478E1,6.569809E1,1.46983E2,2.5660828E1,8.40979E1,1.6273964E2,3.1909937E2,9.244237E1,1.27402954E2,7.0124664E1,1.8194675E2,8.095111E1,3.9923496E1,2.5764877E1,2.749382E1,1.33854065E1,1.6303467E1,0E0,0E0,0E0,0E0,0E0,0E0,0E0,0E0,0E0,0E0,0E0,0E0,0E0,0E0,0E0,0E0,0E0,0E0,0E0,0E0,0E0,0E0,0E0,0E0,0E0,0E0,0E0,0E0,0E0,0E0,0E0,0E0],"parents":[2147483647,0,0,1,1,2,2,3,3,4,4,5,5,6,6,7,7,8,8,9,9,10,10,11,11,12,12,13,13,14,14,15,15,16,16,17,17,18,18,19,19,20,20,21,21,22,22,23,23,24,24,25,25,26,26,27,27,28,28,29,29,30,30],"right_children":[2,4,6,8,10,12,14,16,18,20,22,24,26,28,30,32,34,36,38,40,42,44,46,48,50,52,54,56,58,60,62,-1,-1,-1,-1,-1,-1,-1,-1,-1,-1,-1,-1,-1,-1,-1,-1,-1,-1,-1,-1,-1,-1,-1,-1,-1,-1,-1,-1,-1,-1,-1,-1],"split_conditions":[1.2179186E0,1.6757682E-1,1.8292047E0,7.866667E-1,3.6326787E-1,8.4E-1,2.5062914E0,1.0713344E-1,1.0852713E-1,1.6E-1,2.7642277E-1,5.3333335E-2,1.2685184E-1,2.6666667E-2,1.6643721E0,4.0247315E-1,1.0666667E-1,1.2418358E1,5.017644E0,3.7302074E-1,6.1333334E-1,2.0292107E1,1.7406786E1,6.6934326E1,6.4E-1,6.483564E1,7.862581E1,-6.0477453E-1,3.1223621E-2,1.6100288E1,3.2425401E0,4.0408066E-3,1.6411489E-2,1.5075291E-2,-1.5815649E-3,1.1496515E-2,2.780445E-2,1.0740767E-2,-3.263713E-2,-3.6587466E-3,6.1647515E-3,-8.745878E-3,-1.075534E-3,1.9942416E-2,-9.929295E-3,-1.2863872E-2,-2.8174147E-2,1.8549213E-2,5.5690818E-3,-1.4777781E-3,6.497533E-3,1.4982241E-2,2.9917616E-2,-7.2229566E-4,-6.806677E-2,5.066532E-3,2.7794285E-2,2.4860656E-2,1.1178716E-2,3.909736E-2,2.009955E-2,2.9913876E-2,4.1234646E-2],"split_indices":[11,13,14,18,13,18,14,13,28,18,28,18,69,18,11,55,18,9,75,10,18,1,9,34,18,76,70,2,71,1,75,0,0,0,0,0,0,0,0,0,0,0,0,0,0,0,0,0,0,0,0,0,0,0,0,0,0,0,0,0,0,0,0],"split_type":[0,0,0,0,0,0,0,0,0,0,0,0,0,0,0,0,0,0,0,0,0,0,0,0,0,0,0,0,0,0,0,0,0,0,0,0,0,0,0,0,0,0,0,0,0,0,0,0,0,0,0,0,0,0,0,0,0,0,0,0,0,0,0],"sum_hessian":[1.9732964E5,1.462533E5,5.1076355E4,5.3433246E4,9.282005E4,4.3265754E4,7.8106035E3,4.2200613E4,1.1232633E4,8.4753164E4,8.066883E3,3.587399E4,7.391763E3,4.0211948E3,3.7894084E3,4.800047E3,3.7400566E4,1.3211261E3,9.911507E3,1.7487168E4,6.726599E4,2.4214253E3,5.6454575E3,5.080578E3,3.0793412E4,6.728575E3,6.631879E2,1.0287311E3,2.9924639E3,1.1319971E3,2.6574114E3,3.1723696E3,1.627677E3,1.372766E3,3.60278E4,3.321918E2,9.8893427E2,9.800648E3,1.1085865E2,7.082114E3,1.0405055E4,4.842165E4,1.8844344E4,2.9248605E2,2.1289392E3,2.3195642E3,3.325893E3,3.6066335E3,1.4739447E3,1.9508822E4,1.128459E4,5.6400635E3,1.0885117E3,6.423621E2,2.0825832E1,1.4966269E2,8.7906836E2,4.3399414E2,2.5584697E3,1.0686098E2,1.0251361E3,2.2505693E3,4.0684213E2],"tree_param":{"num_deleted":"0","num_feature":"77","num_nodes":"63","size_leaf_vector":"1"}},{"base_weights":[1.9454372E-3,-5.1948853E-2,1.5654248E-1,2.6782757E-2,-1.2227195E-1,9.882949E-2,3.9780593E-1,-4.072556E-3,2.788113E-1,-1.6877697E-1,-2.2176815E-2,3.951428E-2,2.5436237E-1,3.0056545E-1,5.545504E-1,-5.635703E-2,7.123826E-2,1.2456892E-1,3.5794106E-1,-1.4277169E-1,-3.5773218E-1,-7.314169E-2,1.0724884E-1,2.7050874E-1,-8.777659E-4,4.6603104E-1,2.0974314E-1,4.6479985E-1,2.5291806E-1,5.2504355E-1,8.014899E-1,4.1165105E-3,-4.908269E-3,1.3500281E-2,2.1936577E-3,3.0969292E-2,2.9925504E-3,1.601092E-2,3.4275815E-2,-1.2043741E-2,-5.2175773E-3,8.888682E-4,-2.064795E-2,-5.146922E-3,4.889467E-3,8.105862E-3,2.1888017E-4,2.0754552E-2,9.385175E-3,-1.2755851E-3,1.0342924E-2,1.0170692E-2,2.6293118E-2,8.556665E-3,2.3876743E-2,2.8859869E-2,1.4967701E-2,1.0005896E-2,1.9607926E-2,2.075083E-2,2.9317394E-2,1.7395142E-2,4.3333117E-2],"categories":[],"categories_nodes":[],"categories_segments":[],"categories_sizes":[],"default_left":[0,0,0,0,0,0,0,0,0,0,0,0,0,0,0,0,0,0,0,0,0,0,0,0,0,0,0,0,0,0,0,0,0,0,0,0,0,0,0,0,0,0,0,0,0,0,0,0,0,0,0,0,0,0,0,0,0,0,0,0,0,0,0],"id":22,"left_children":[1,3,5,7,9,11,13,15,17,19,21,23,25,27,29,31,33,35,37,39,41,43,45,47,49,51,53,55,57,59,61,-1,-1,-1,-1,-1,-1,-1,-1,-1,-1,-1,-1,-1,-1,-1,-1,-1,-1,-1,-1,-1,-1,-1,-1,-1,-1,-1,-1,-1,-1,-1,-1],"loss_changes":[1.6416667E3,8.089275E2,7.08871E2,5.361271E2,3.591256E2,3.7905273E2,1.4906104E2,2.4179596E2,9.144873E1,2.585442E2,1.6151476E2,2.7782477E2,1.06621765E2,4.6926086E1,2.5884766E1,2.1020847E2,1.3666968E2,8.140387E1,6.0432617E1,1.7435944E2,1.3232086E2,8.952185E1,3.8952187E1,5.2597473E1,1.2955539E2,3.0402039E1,9.645526E1,2.4521942E1,3.4201935E1,2.1712646E1,1.0484665E1,0E0,0E0,0E0,0E0,0E0,0E0,0E0,0E0,0E0,0E0,0E0,0E0,0E0,0E0,0E0,0E0,0E0,0E0,0E0,0E0,0E0,0E0,0E0,0E0,0E0,0E0,0E0,0E0,0E0,0E0,0E0,0E0],"parents":[2147483647,0,0,1,1,2,2,3,3,4,4,5,5,6,6,7,7,8,8,9,9,10,10,11,11,12,12,13,13,14,14,15,15,16,16,17,17,18,18,19,19,20,20,21,21,22,22,23,23,24,24,25,25,26,26,27,27,28,28,29,29,30,30],"right_children":[2,4,6,8,10,12,14,16,18,20,22,24,26,28,30,32,34,36,38,40,42,44,46,48,50,52,54,56,58,60,62,-1,-1,-1,-1,-1,-1,-1,-1,-1,-1,-1,-1,-1,-1,-1,-1,-1,-1,-1,-1,-1,-1,-1,-1,-1,-1,-1,-1,-1,-1,-1,-1],"split_conditions":[1.2179186E0,1.8489559E-1,1.6702484E0,8.4E-1,9.704569E-1,7.733333E-1,2.5062914E0,4E-1,-2.576037E-1,3.5319403E-1,7.7981086E0,5.3333335E-2,1.16809145E-1,2.6666667E-2,3.6670096E0,1.1977282E-1,1.0526316E-1,-6.699749E1,6.628811E1,4E-1,-2.4377011E-1,6.931778E1,5E-1,2.226677E-1,7.2852963E-1,2E-1,9.066667E-1,2.5338566E-1,6.149403E1,1.7234405E0,-2.0181654E-1,4.1165105E-3,-4.908269E-3,1.3500281E-2,2.1936577E-3,3.0969292E-2,2.9925504E-3,1.601092E-2,3.4275815E-2,-1.2043741E-2,-5.2175773E-3,8.888682E-4,-2.064795E-2,-5.146922E-3,4.889467E-3,8.105862E-3,2.1888017E-4,2.0754552E-2,9.385175E-3,-1.2755851E-3,1.0342924E-2,1.0170692E-2,2.6293118E-2,8.556665E-3,2.3876743E-2,2.8859869E-2,1.4967701E-2,1.0005896E-2,1.9607926E-2,2.075083E-2,2.9317394E-2,1.7395142E-2,4.3333117E-2],"split_indices":[11,13,14,18,14,18,14,61,64,13,34,18,13,18,75,13,28,67,76,61,69,1,47,13,50,60,18,13,76,11,69,0,0,0,0,0,0,0,0,0,0,0,0,0,0,0,0,0,0,0,0,0,0,0,0,0,0,0,0,0,0,0,0],"split_type":[0,0,0,0,0,0,0,0,0,0,0,0,0,0,0,0,0,0,0,0,0,0,0,0,0,0,0,0,0,0,0,0,0,0,0,0,0,0,0,0,0,0,0,0,0,0,0,0,0,0,0,0,0,0,0,0,0,0,0,0,0,0,0],"sum_hessian":[1.9702372E5,1.4609234E5,5.0931363E4,6.89227E4,7.716965E4,4.110376E4,9.827601E3,6.1405008E4,7.517699E3,5.2685266E4,2.4484379E4,2.9759988E4,1.1343774E4,6.070583E3,3.7570176E3,3.624741E4,2.5157596E4,2.5529233E3,4.964776E3,4.631697E4,6.368296E3,1.757032E4,6.9140586E3,4.4295E3,2.5330488E4,1.96969E3,9.374084E3,1.3588389E3,4.711744E3,3.3634006E3,3.93617E2,8.3928E3,2.7854611E4,3.040054E3,2.2117541E4,2.9240454E2,2.2605188E3,4.4570015E3,5.077747E2,1.3027816E4,3.3289156E4,8.15524E2,5.552772E3,1.4965287E4,2.605033E3,4.505141E3,2.4089175E3,1.6079218E3,2.8215784E3,2.2648883E4,2.6816057E3,3.6866537E2,1.6010247E3,8.197347E3,1.176737E3,8.0437665E2,5.5446216E2,3.422423E3,1.2893213E3,1.2119429E3,2.1514578E3,5.2007023E1,3.4161E2],"tree_param":{"num_deleted":"0","num_feature":"77","num_nodes":"63","size_leaf_vector":"1"}},{"base_weights":[-5.34647E-4,-2.2395642E-2,3.4486273E-1,-6.45811E-2,1.2761287E-1,2.4280584E-1,5.251761E-1,1.9591564E-1,-8.407859E-2,2.576636E-1,5.5186838E-2,4.2733273E-1,1.9020304E-1,4.6959206E-1,6.4886856E-1,2.4053375E-1,-7.9450496E-2,-3.2283623E-2,-1.527443E-1,3.0547652E-1,8.373033E-2,3.4280723E-1,2.291722E-2,5.8954644E-1,3.1956914E-1,1.3780898E-1,3.5431248E-1,4.2868593E-1,6.7460036E-1,6.7428714E-1,1.4119135E-1,1.3954876E-3,