{"learner":{"attributes":{"best_iteration":"87","best_score":"0.6747503687321658","scikit_learn":"{\"_estimator_type\": \"classifier\"}"},"feature_names":[],"feature_types":[],"gradient_booster":{"model":{"cats":{"enc":[],"feature_segments":[],"sorted_idx":[]},"gbtree_model_param":{"num_parallel_tree":"1","num_trees":"238"},"iteration_indptr":[0,1,2,3,4,5,6,7,8,9,10,11,12,13,14,15,16,17,18,19,20,21,22,23,24,25,26,27,28,29,30,31,32,33,34,35,36,37,38,39,40,41,42,43,44,45,46,47,48,49,50,51,52,53,54,55,56,57,58,59,60,61,62,63,64,65,66,67,68,69,70,71,72,73,74,75,76,77,78,79,80,81,82,83,84,85,86,87,88,89,90,91,92,93,94,95,96,97,98,99,100,101,102,103,104,105,106,107,108,109,110,111,112,113,114,115,116,117,118,119,120,121,122,123,124,125,126,127,128,129,130,131,132,133,134,135,136,137,138,139,140,141,142,143,144,145,146,147,148,149,150,151,152,153,154,155,156,157,158,159,160,161,162,163,164,165,166,167,168,169,170,171,172,173,174,175,176,177,178,179,180,181,182,183,184,185,186,187,188,189,190,191,192,193,194,195,196,197,198,199,200,201,202,203,204,205,206,207,208,209,210,211,212,213,214,215,216,217,218,219,220,221,222,223,224,225,226,227,228,229,230,231,232,233,234,235,236,237,238],"tree_info":[0,0,0,0,0,0,0,0,0,0,0,0,0,0,0,0,0,0,0,0,0,0,0,0,0,0,0,0,0,0,0,0,0,0,0,0,0,0,0,0,0,0,0,0,0,0,0,0,0,0,0,0,0,0,0,0,0,0,0,0,0,0,0,0,0,0,0,0,0,0,0,0,0,0,0,0,0,0,0,0,0,0,0,0,0,0,0,0,0,0,0,0,0,0,0,0,0,0,0,0,0,0,0,0,0,0,0,0,0,0,0,0,0,0,0,0,0,0,0,0,0,0,0,0,0,0,0,0,0,0,0,0,0,0,0,0,0,0,0,0,0,0,0,0,0,0,0,0,0,0,0,0,0,0,0,0,0,0,0,0,0,0,0,0,0,0,0,0,0,0,0,0,0,0,0,0,0,0,0,0,0,0,0,0,0,0,0,0,0,0,0,0,0,0,0,0,0,0,0,0,0,0,0,0,0,0,0,0,0,0,0,0,0,0,0,0,0,0,0,0,0,0,0,0,0,0,0,0,0,0,0,0,0,0,0,0,0,0],"trees":[{"base_weights":[2.6741212E-3,-1.2775838E-1,6.0491E-1,-5.7730216E-1,-2.4317736E-2,9.0809244E-1,4.1530323E-1,-3.6856714E-1,-8.814219E-1,-9.999649E-2,2.3896441E-1,1.0366254E0,6.059441E-1,1.9869266E-1,4.9793023E-1,-2.1485407E-2,-4.5197168E-1,-5.0010747E-1,-1.047664E0,1.6255265E-2,-2.689275E-1,-3.7958184E-3,3.9278996E-1,1.2838137E0,8.2269216E-1,7.184437E-1,1.973511E-1,9.087896E-1,1.3661584E-1,6.580992E-1,4.0325627E-1,-2.4020807E-1,2.755777E-1,-3.4713557E-1,-7.53366E-1,-1.7284136E-1,-7.7195996E-1,6.853495E-1,-1.0837947E0,-3.0790335E-1,5.9601124E-2,-3.1762397E-1,3.762276E-2,-1.0869942E-1,5.9755874E-1,5.347732E-1,1.6750101E-2,1.4339912E0,1.15438E0,1.1388592E0,6.9510245E-1,8.082125E-1,6.2277783E-2,3.6331084E-1,-3.3892208E-1,6.0187876E-3,1.1508355E0,4.1857338E-1,3.4640806E-3,8.61641E-1,4.9579927E-1,5.3697723E-1,2.8679636E-1,-8.4657216E-1,-1.23361975E-1,4.3033156E-1,-1.0032851E-2,-2.9435763E-1,-9.6348155E-1,-5.8917385E-1,-1.0695391E0,8.0343485E-2,-7.3101115E-1,-5.63977E-1,-1.1233549E0,-1.2690732E-2,1.285145E0,-7.734952E-1,-1.1664627E0,-5.9048045E-1,1.9030623E-1,8.5372806E-1,3.59897E-2,-8.101772E-1,-2.9867378E-1,4.0421042E-1,-1.4748022E-1,-4.526418E-1,1.2198481E-1,7.476523E-1,-7.456436E-1,4.2370293E-1,8.9178467E-1,4.585222E-1,-2.4233298E-1,1.5974436E0,1.2969781E0,1.375105E0,1.0313675E0,1.2937472E0,9.28981E-1,7.818794E-1,2.395335E-1,1.20091E0,6.5554434E-1,3.8823038E-1,-8.0098265E-1,1.0892739E0,2.2917908E-1,4.0201408E-1,-8.293836E-1,-7.172225E-3,5.095724E-3,1.3030843E0,-4.3386192E-4,5.8377653E-2,6.9446945E-1,-6.6746145E-1,8.723503E-2,9.396986E-1,-5.8311943E-2,6.8354815E-1,3.3987948E-1,3.490478E-1,6.9176966E-1,3.4662148E-1,-4.351751E-2,-1.2409257E-2,1.5978215E-3,-3.7096513E-3,1.9810146E-3,3.822791E-3,1.448649E-2,2.128662E-3,-1.2578378E-2,-1.1840661E-3,-4.8607043E-3,-5.6841364E-3,-1.4500481E-2,-2.81363E-3,-8.285447E-3,-1.2120548E-2,-2.2040168E-2,7.446494E-3,-1.0690344E-3,-5.9699467E-3,-1.6424853E-2,-5.5767777E-3,-1.673889E-2,-1.4407071E-2,-1.5177006E-3,2.0177133E-2,2.8414377E-3,-4.952295E-3,-1.4337729E-2,-9.580694E-3,-1.4599392E-2,4.7599915E-3,-8.784494E-3,1.9482395E-2,1.271881E-3,-1.2533002E-2,1.1076061E-2,4.5624703E-5,5.0851693E-3,-5.4094302E-3,-1.666413E-2,8.160003E-3,-3.77617E-3,8.06528E-3,-5.659267E-3,9.425023E-3,-3.157307E-3,2.6366482E-3,-1.2388167E-2,1.48841115E-2,-9.3708775E-4,5.485017E-4,1.511603E-2,-1.5089137E-2,9.901412E-4,-1.9248757E-3,6.4061186E-3,2.8750722E-3,1.2298045E-2,1.8183518E-2,2.8445732E-3,4.4323867E-3,-6.573007E-3,1.9714104E-2,6.5385276E-3,1.3101039E-2,1.7659798E-2,1.7654283E-2,8.574127E-3,1.2794439E-2,3.5908378E-3,1.2454029E-2,1.7278343E-2,1.247188E-2,1.522139E-3,1.01866685E-2,2.0021277E-3,6.3663174E-5,1.0472215E-2,1.5373789E-2,2.0934886E-3,1.0691985E-3,8.883944E-3,-5.3901144E-4,1.0910296E-2,1.286339E-4,-1.5867138E-2,1.9061077E-2,7.912522E-3,-3.8148343E-4,6.795898E-3,1.18683735E-2,-1.8085182E-3,-3.0621707E-3,-1.4255362E-2,1.7290285E-2,4.5385254E-3,9.4288755E-3,-1.5667179E-3,9.049393E-3,-5.8244057E-3,-3.234149E-4,-1.30253965E-2,2.1984286E-3,-4.268655E-3,1.3907228E-2,9.128215E-3,3.4228198E-3,-1.0852901E-2,4.1293553E-3,1.0334804E-2,6.746628E-3,2.9324507E-4,6.0185296E-3,-4.361793E-5,5.5129235E-3,1.0956319E-2,2.9787202E-3,6.780741E-3,4.2185355E-3,-3.9182855E-3],"categories":[],"categories_nodes":[],"categories_segments":[],"categories_sizes":[],"default_left":[0,0,0,0,0,0,0,0,0,0,0,0,0,0,0,0,0,0,0,0,0,0,0,0,0,0,0,0,0,0,0,0,0,0,0,0,0,0,0,0,0,0,0,0,0,0,0,0,0,0,0,0,0,0,0,0,0,0,0,0,0,0,0,0,0,0,0,0,0,0,0,0,0,0,0,0,0,0,0,0,0,0,0,0,0,0,0,0,0,0,0,0,0,0,0,0,0,0,0,0,0,0,0,0,0,0,0,0,0,0,0,0,0,0,0,0,0,0,0,0,0,0,0,0,0,0,0,0,0,0,0,0,0,0,0,0,0,0,0,0,0,0,0,0,0,0,0,0,0,0,0,0,0,0,0,0,0,0,0,0,0,0,0,0,0,0,0,0,0,0,0,0,0,0,0,0,0,0,0,0,0,0,0,0,0,0,0,0,0,0,0,0,0,0,0,0,0,0,0,0,0,0,0,0,0,0,0,0,0,0,0,0,0,0,0,0,0,0,0,0,0,0,0,0,0,0,0,0,0,0,0,0,0,0,0,0,0,0,0,0,0,0,0,0,0,0,0],"id":0,"left_children":[1,3,5,7,9,11,13,15,17,19,21,23,25,27,29,31,33,35,37,39,41,43,45,47,49,51,53,55,57,59,61,63,65,67,69,71,73,75,77,79,81,83,85,87,89,91,93,95,97,99,101,103,105,107,109,111,113,115,117,119,121,123,125,127,129,131,133,135,137,139,141,143,145,147,149,-1,151,153,155,157,159,161,163,165,167,169,171,173,175,177,179,181,183,185,187,189,191,193,195,197,199,201,203,205,207,209,211,213,215,217,219,-1,-1,221,-1,223,225,227,229,231,233,235,237,239,241,243,245,-1,-1,-1,-1,-1,-1,-1,-1,-1,-1,-1,-1,-1,-1,-1,-1,-1,-1,-1,-1,-1,-1,-1,-1,-1,-1,-1,-1,-1,-1,-1,-1,-1,-1,-1,-1,-1,-1,-1,-1,-1,-1,-1,-1,-1,-1,-1,-1,-1,-1,-1,-1,-1,-1,-1,-1,-1,-1,-1,-1,-1,-1,-1,-1,-1,-1,-1,-1,-1,-1,-1,-1,-1,-1,-1,-1,-1,-1,-1,-1,-1,-1,-1,-1,-1,-1,-1,-1,-1,-1,-1,-1,-1,-1,-1,-1,-1,-1,-1,-1,-1,-1,-1,-1,-1,-1,-1,-1,-1,-1,-1,-1,-1,-1,-1,-1,-1,-1,-1,-1],"loss_changes":[7.343804E3,3.5730024E3,9.553574E2,9.1115283E2,1.2447375E3,2.4651855E2,1.8280945E2,2.4660608E2,3.688628E2,9.53143E2,5.210237E2,2.3410645E2,8.734662E1,1.2414339E2,1.1134448E2,1.0767766E2,2.1613293E2,1.5763495E2,2.5649658E2,4.038191E2,2.9549133E2,3.412017E2,4.5559937E2,3.576709E1,9.4793335E1,8.787244E1,3.741063E1,4.8968933E1,9.773474E1,8.927002E1,7.194525E1,6.700397E1,3.1245579E1,1.6487201E2,8.985388E1,1.1507459E2,6.885205E1,9.069995E1,9.951123E1,4.775991E2,4.7497647E2,1.5832349E2,1.8429279E2,3.6598236E2,1.6305447E2,2.4433179E2,2.6854297E2,1.571582E1,2.657605E1,1.8889221E1,6.729529E1,7.660138E1,5.203869E1,3.0046585E1,3.6848923E1,1.315888E1,3.2969696E1,8.258533E1,9.960684E1,8.782355E1,4.3969666E1,6.2057312E1,4.9590042E1,2.8899452E1,4.326551E1,3.8101982E1,4.896607E1,1.01614746E2,4.6119537E1,4.12894E1,2.2336182E1,5.15587E1,3.5520844E1,4.8479248E1,2.6604736E1,0E0,2.468747E1,1.26819244E2,5.5077637E1,3.031322E2,1.47134E2,9.805817E1,3.0719025E2,1.288909E2,2.5786682E2,2.145882E2,1.946211E2,7.2259204E2,6.182434E2,2.5938556E2,3.5296013E1,3.0476428E2,1.2623572E2,2.0148254E2,2.7656332E2,1.7354736E1,1.4498718E1,2.1944519E1,1.738678E1,1.0358765E1,2.580484E1,5.8840576E1,4.1039993E1,2.89729E1,4.533728E1,3.0964544E1,2.2059456E1,7.266327E0,2.437606E1,1.3813488E1,1.1151825E1,0E0,0E0,1.8204132E1,0E0,5.0750404E1,3.409822E1,5.2027878E1,6.723843E1,4.1268677E1,2.8857601E1,4.0610382E1,5.888852E1,5.3206253E1,5.940674E1,4.4844208E1,4.313868E1,0E0,0E0,0E0,0E0,0E0,0E0,0E0,0E0,0E0,0E0,0E0,0E0,0E0,0E0,0E0,0E0,0E0,0E0,0E0,0E0,0E0,0E0,0E0,0E0,0E0,0E0,0E0,0E0,0E0,0E0,0E0,0E0,0E0,0E0,0E0,0E0,0E0,0E0,0E0,0E0,0E0,0E0,0E0,0E0,0E0,0E0,0E0,0E0,0E0,0E0,0E0,0E0,0E0,0E0,0E0,0E0,0E0,0E0,0E0,0E0,0E0,0E0,0E0,0E0,0E0,0E0,0E0,0E0,0E0,0E0,0E0,0E0,0E0,0E0,0E0,0E0,0E0,0E0,0E0,0E0,0E0,0E0,0E0,0E0,0E0,0E0,0E0,0E0,0E0,0E0,0E0,0E0,0E0,0E0,0E0,0E0,0E0,0E0,0E0,0E0,0E0,0E0,0E0,0E0,0E0,0E0,0E0,0E0,0E0,0E0,0E0,0E0,0E0,0E0,0E0,0E0,0E0,0E0,0E0,0E0],"parents":[2147483647,0,0,1,1,2,2,3,3,4,4,5,5,6,6,7,7,8,8,9,9,10,10,11,11,12,12,13,13,14,14,15,15,16,16,17,17,18,18,19,19,20,20,21,21,22,22,23,23,24,24,25,25,26,26,27,27,28,28,29,29,30,30,31,31,32,32,33,33,34,34,35,35,36,36,37,37,38,38,39,39,40,40,41,41,42,42,43,43,44,44,45,45,46,46,47,47,48,48,49,49,50,50,51,51,52,52,53,53,54,54,55,55,56,56,57,57,58,58,59,59,60,60,61,61,62,62,63,63,64,64,65,65,66,66,67,67,68,68,69,69,70,70,71,71,72,72,73,73,74,74,76,76,77,77,78,78,79,79,80,80,81,81,82,82,83,83,84,84,85,85,86,86,87,87,88,88,89,89,90,90,91,91,92,92,93,93,94,94,95,95,96,96,97,97,98,98,99,99,100,100,101,101,102,102,103,103,104,104,105,105,106,106,107,107,108,108,109,109,110,110,113,113,115,115,116,116,117,117,118,118,119,119,120,120,121,121,122,122,123,123,124,124,125,125,126,126],"right_children":[2,4,6,8,10,12,14,16,18,20,22,24,26,28,30,32,34,36,38,40,42,44,46,48,50,52,54,56,58,60,62,64,66,68,70,72,74,76,78,80,82,84,86,88,90,92,94,96,98,100,102,104,106,108,110,112,114,116,118,120,122,124,126,128,130,132,134,136,138,140,142,144,146,148,150,-1,152,154,156,158,160,162,164,166,168,170,172,174,176,178,180,182,184,186,188,190,192,194,196,198,200,202,204,206,208,210,212,214,216,218,220,-1,-1,222,-1,224,226,228,230,232,234,236,238,240,242,244,246,-1,-1,-1,-1,-1,-1,-1,-1,-1,-1,-1,-1,-1,-1,-1,-1,-1,-1,-1,-1,-1,-1,-1,-1,-1,-1,-1,-1,-1,-1,-1,-1,-1,-1,-1,-1,-1,-1,-1,-1,-1,-1,-1,-1,-1,-1,-1,-1,-1,-1,-1,-1,-1,-1,-1,-1,-1,-1,-1,-1,-1,-1,-1,-1,-1,-1,-1,-1,-1,-1,-1,-1,-1,-1,-1,-1,-1,-1,-1,-1,-1,-1,-1,-1,-1,-1,-1,-1,-1,-1,-1,-1,-1,-1,-1,-1,-1,-1,-1,-1,-1,-1,-1,-1,-1,-1,-1,-1,-1,-1,-1,-1,-1,-1,-1,-1,-1,-1,-1,-1],"split_conditions":[5E-1,0E0,5.7195574E-1,4.748689E1,1.0226205E-1,4.599353E-1,6.261865E-2,-3.3783785E-1,-5.2389884E-1,1.4181782E0,-5.8778524E-1,0E0,2.9535866E-1,-7.3036486E-1,3.340185E-1,1.9055363E1,2.4909747E-1,1.0136847E-1,-2.0895522E0,-2.1299644E0,8.1333333E-1,1.4895387E-1,9.5105654E-1,-3.8082623E-1,-1.15169466E-1,1.9415405E0,5.3667347E1,6.2666667E-1,5.3333336E-1,1.2459507E-1,5.7733387E-2,1.0666667E-1,6.1742425E-1,4.1545024E0,-6.475186E-2,5.9016395E-1,4.4186047E-1,5.733333E-1,-2.816448E-1,5.8778524E-1,-1.3722563E0,1.4765614E0,2.1397276E0,5.3274757E-1,7.363389E1,4.1333333E-1,9.3266815E-1,9.831875E-2,-9.2130095E-2,1.4305506E0,8.6928177E-1,-7.460733E-1,1.9567103E0,-1.26312E0,4.950495E-2,-3.2114646E-1,2.4974165E0,5.8778524E-1,2.1381672E-1,2.2192667E2,7.2725154E-2,4.6875E-1,3.6193535E0,4.969715E0,9.1039085E-1,8.613861E-1,3.6161795E-1,-7.5850254E-1,6.336028E-2,-9.614552E0,1.162614E0,-1.3375324E0,7.851789E-1,1.1449602E0,2.3768156E1,-1.2690732E-2,-5.054582E0,2.0796673E-1,-4.9888138E1,6.381867E-2,3.793669E1,1.2E-1,1.2764342E0,5.3333336E-1,1.4807328E0,6.705695E-1,4.7927134E-2,-1.2439662E0,1.3923604E0,-1.0415117E-1,9.9245316E-1,-2.427754E0,-9.729585E-2,-1.2860629E-1,3.884485E1,1.3934966E0,1.41324415E1,2.2192667E2,1.1929177E-1,-2.1191142E0,1.3384434E0,8.486685E0,8.197523E-2,1.1362779E-1,5.5955436E-2,-1.2788461E0,-1.7006803E-1,-3.0997235E-1,2.0441976E-1,4.5E-1,4.1463414E-1,-7.172225E-3,5.095724E-3,2.6070933E0,-4.3386192E-4,-4.093901E-1,1.3228285E0,5.4715704E-2,8.3898306E-1,5.7445E1,6.4E-1,5.637324E-1,5.0666666E-1,5.3511703E-1,1.11940816E-1,1.4313978E1,3.8709676E-1,-1.2409257E-2,1.5978215E-3,-3.7096513E-3,1.9810146E-3,3.822791E-3,1.448649E-2,2.128662E-3,-1.2578378E-2,-1.1840661E-3,-4.8607043E-3,-5.6841364E-3,-1.4500481E-2,-2.81363E-3,-8.285447E-3,-1.2120548E-2,-2.2040168E-2,7.446494E-3,-1.0690344E-3,-5.9699467E-3,-1.6424853E-2,-5.5767777E-3,-1.673889E-2,-1.4407071E-2,-1.5177006E-3,2.0177133E-2,2.8414377E-3,-4.952295E-3,-1.4337729E-2,-9.580694E-3,-1.4599392E-2,4.7599915E-3,-8.784494E-3,1.9482395E-2,1.271881E-3,-1.2533002E-2,1.1076061E-2,4.5624703E-5,5.0851693E-3,-5.4094302E-3,-1.666413E-2,8.160003E-3,-3.77617E-3,8.06528E-3,-5.659267E-3,9.425023E-3,-3.157307E-3,2.6366482E-3,-1.2388167E-2,1.48841115E-2,-9.3708775E-4,5.485017E-4,1.511603E-2,-1.5089137E-2,9.901412E-4,-1.9248757E-3,6.4061186E-3,2.8750722E-3,1.2298045E-2,1.8183518E-2,2.8445732E-3,4.4323867E-3,-6.573007E-3,1.9714104E-2,6.5385276E-3,1.3101039E-2,1.7659798E-2,1.7654283E-2,8.574127E-3,1.2794439E-2,3.5908378E-3,1.2454029E-2,1.7278343E-2,1.247188E-2,1.522139E-3,1.01866685E-2,2.0021277E-3,6.3663174E-5,1.0472215E-2,1.5373789E-2,2.0934886E-3,1.0691985E-3,8.883944E-3,-5.3901144E-4,1.0910296E-2,1.286339E-4,-1.5867138E-2,1.9061077E-2,7.912522E-3,-3.8148343E-4,6.795898E-3,1.18683735E-2,-1.8085182E-3,-3.0621707E-3,-1.4255362E-2,1.7290285E-2,4.5385254E-3,9.4288755E-3,-1.5667179E-3,9.049393E-3,-5.8244057E-3,-3.234149E-4,-1.30253965E-2,2.1984286E-3,-4.268655E-3,1.3907228E-2,9.128215E-3,3.4228198E-3,-1.0852901E-2,4.1293553E-3,1.0334804E-2,6.746628E-3,2.9324507E-4,6.0185296E-3,-4.361793E-5,5.5129235E-3,1.0956319E-2,2.9787202E-3,6.780741E-3,4.2185355E-3,-3.9182855E-3],"split_indices":[53,53,23,0,61,22,61,22,36,63,29,36,36,63,36,9,23,22,22,63,17,61,29,36,22,22,1,17,17,22,54,17,35,63,36,23,23,17,22,29,63,63,63,63,58,17,63,22,33,56,36,36,52,71,42,11,52,29,63,52,54,35,71,11,71,42,12,36,22,45,36,36,24,22,9,0,22,36,55,61,58,17,63,17,63,59,59,63,63,60,59,63,57,60,58,24,9,52,60,55,36,52,61,60,61,36,3,24,12,23,35,0,0,11,0,43,3,61,35,0,17,59,17,16,69,55,35,0,0,0,0,0,0,0,0,0,0,0,0,0,0,0,0,0,0,0,0,0,0,0,0,0,0,0,0,0,0,0,0,0,0,0,0,0,0,0,0,0,0,0,0,0,0,0,0,0,0,0,0,0,0,0,0,0,0,0,0,0,0,0,0,0,0,0,0,0,0,0,0,0,0,0,0,0,0,0,0,0,0,0,0,0,0,0,0,0,0,0,0,0,0,0,0,0,0,0,0,0,0,0,0,0,0,0,0,0,0,0,0,0,0,0,0,0,0,0,0],"split_type":[0,0,0,0,0,0,0,0,0,0,0,0,0,0,0,0,0,0,0,0,0,0,0,0,0,0,0,0,0,0,0,0,0,0,0,0,0,0,0,0,0,0,0,0,0,0,0,0,0,0,0,0,0,0,0,0,0,0,0,0,0,0,0,0,0,0,0,0,0,0,0,0,0,0,0,0,0,0,0,0,0,0,0,0,0,0,0,0,0,0,0,0,0,0,0,0,0,0,0,0,0,0,0,0,0,0,0,0,0,0,0,0,0,0,0,0,0,0,0,0,0,0,0,0,0,0,0,0,0,0,0,0,0,0,0,0,0,0,0,0,0,0,0,0,0,0,0,0,0,0,0,0,0,0,0,0,0,0,0,0,0,0,0,0,0,0,0,0,0,0,0,0,0,0,0,0,0,0,0,0,0,0,0,0,0,0,0,0,0,0,0,0,0,0,0,0,0,0,0,0,0,0,0,0,0,0,0,0,0,0,0,0,0,0,0,0,0,0,0,0,0,0,0,0,0,0,0,0,0,0,0,0,0,0,0,0,0,0,0,0,0,0,0,0,0,0,0],"sum_hessian":[9.348375E4,7.6842016E4,1.664173E4,1.4371363E4,6.2470652E4,6.3991826E3,1.0242547E4,8.5257295E3,5.845634E3,4.852546E4,1.3945191E4,4.484832E3,1.9143507E3,2.8317751E3,7.4107715E3,1.6534658E3,6.8722637E3,1.7781235E3,4.0675103E3,2.8743887E4,1.9781576E4,5.4084814E3,8.53671E3,2.0749736E3,2.4098584E3,1.4989094E3,4.1544125E2,2.2481235E2,2.606963E3,2.746713E3,4.6640586E3,9.534916E2,6.9997424E2,5.1031587E3,1.7691049E3,8.091499E2,9.6897363E2,8.205276E1,3.9854575E3,3.38744E3,2.5356445E4,1.7071305E4,2.7102715E3,4.6072393E3,8.012422E2,6.195334E3,2.341376E3,9.493987E2,1.125575E3,6.87202E2,1.7226565E3,1.3174467E3,1.8146283E2,3.1846402E2,9.697722E1,4.840168E1,1.7641068E2,8.336379E2,1.773325E3,1.213346E3,1.533367E3,2.1657722E3,2.4982866E3,1.5134233E2,8.021493E2,4.5446582E2,2.4550839E2,4.7041104E3,3.9904855E2,1.169223E3,5.998819E2,5.572146E2,2.5193526E2,6.128651E2,3.5610852E2,2.0403477E1,6.164928E1,8.440444E2,3.141413E3,2.1618843E3,1.2255558E3,7.295018E2,2.4626943E4,6.2838727E2,1.6442918E4,9.09461E2,1.8008105E3,1.8496769E3,2.7575623E3,7.218405E2,7.940168E1,4.7296587E3,1.465675E3,8.656738E2,1.475702E3,4.2154315E2,5.278555E2,3.9406656E2,7.3150836E2,3.880869E2,2.991151E2,1.4449011E3,2.777554E2,3.6404135E2,9.534053E2,1.3294484E2,4.8517986E1,4.686211E1,2.7160193E2,3.8363308E1,5.8613907E1,1.8980215E1,2.9421463E1,1.5655576E2,1.9854916E1,3.6341608E2,4.7022183E2,1.9462889E2,1.578696E3,1.1189077E3,9.443825E1,6.9115106E2,8.422158E2,9.825833E2,1.1831888E3,2.1163896E3,3.8189688E2,1.2736271E2,2.3979616E1,4.888759E2,3.1327338E2,4.0033514E2,5.4130695E1,2.0896103E2,3.6547363E1,1.7026493E3,3.001461E3,1.3564928E2,2.633993E2,2.622686E2,9.069544E2,5.6161273E2,3.8269184E1,1.3247302E2,4.247416E2,1.8758992E2,6.434532E1,5.507986E2,6.2066547E1,3.2965768E2,2.645084E1,4.3515587E1,1.8133694E1,4.5744543E2,3.865989E2,3.819706E2,2.7594424E3,2.702452E2,1.891639E3,6.573501E1,1.1598207E3,2.4441847E1,7.0505994E2,2.2742488E4,1.8844562E3,3.9032315E2,2.3806415E2,2.6277277E2,1.6180145E4,6.9722784E2,2.1223322E2,1.9683394E2,1.6039766E3,8.565731E2,9.931037E2,4.1726797E2,2.3402944E3,3.0578418E2,4.1605637E2,4.8806953E1,3.0594725E1,7.49479E2,3.98018E3,2.4992986E2,1.2157452E3,1.4757494E2,7.1809894E2,4.90753E2,9.8494904E2,4.0258273E2,1.8960432E1,2.5068465E2,2.7717087E2,3.4122363E2,5.2842926E1,6.967602E2,3.47482E1,1.4818225E2,2.3990468E2,2.618765E2,3.723861E1,1.3015233E3,1.433777E2,2.0479855E2,7.295683E1,3.3673502E2,2.7306355E1,1.2542686E2,8.279784E2,7.306415E1,5.9880695E1,1.9364508E1,2.9153477E1,1.8652279E1,2.8209831E1,1.5328177E2,1.18320145E2,1.8277578E1,2.0085732E1,2.4383694E1,3.4230217E1,1.3481654E2,2.1739208E1,7.4178055E1,2.89238E2,4.4868405E2,2.153777E1,7.816966E1,1.16459236E2,1.2994658E3,2.7923022E2,4.9677277E2,6.221349E2,6.768885E1,2.6749401E1,2.4046823E2,4.5068286E2,4.9216428E2,3.5005154E2,6.863753E2,2.9620804E2,5.812182E2,6.0197064E2,1.4636577E3,6.52732E2,1.5845323E2,2.2344365E2],"tree_param":{"num_deleted":"0","num_feature":"73","num_nodes":"247","size_leaf_vector":"1"}},{"base_weights":[1.6706524E-4,-1.2928133E-1,6.0051066E-1,-5.8066386E-1,-2.4917835E-2,1.0228186E0,3.8094798E-1,-2.655518E-1,-8.4067297E-1,-9.883848E-2,2.3247002E-1,1.1792883E0,7.318978E-1,1.3809127E-1,4.6846887E-1,-1.12594545E-1,-5.578582E-1,-3.6639288E-1,-1.0221168E0,1.5453578E-2,-2.6343265E-1,3.3561277E-1,-6.9650754E-2,1.4055206E0,1.0269204E0,9.2472446E-1,5.122927E-1,9.504617E-1,6.844441E-2,6.056885E-1,3.7027374E-1,-1.7804539E-1,2.4578667E-1,-3.823425E-1,-8.5744464E-1,9.3757594E-1,-4.5024845E-1,-7.971812E-1,-1.2392896E0,-1.1734258E-1,1.284867E-1,-3.08271E-1,8.0232374E-2,1.43949E-1,5.582185E-1,-1.1126612E0,2.0047024E-2,1.2446975E0,1.5079175E0,1.1806118E0,7.794156E-1,1.0638994E0,-1.1111358E-2,-7.500374E-2,5.7644075E-1,2.400675E-1,1.1833797E0,-1.213325E0,1.0819991E-1,6.286775E-1,-3.3746338E-1,6.1564815E-1,2.5911868E-1,-6.088248E-2,-3.753882E-1,7.7993476E-1,-7.02505E-2,-1.253375E-1,-6.401981E-1,-7.84251E-1,-1.4537544E0,-2.1318801E-1,1.9510632E-2,-2.0629673E-1,-9.70065E-1,-5.8345395E-1,-1.0536721E0,-8.228699E-1,-1.2837476E0,2.5754765E-1,-2.0806767E-1,2.1852875E-1,-8.348852E-2,-5.447338E-2,-3.7868786E-1,4.4065347E-1,-4.467055E-1,2.5262764E-1,-9.518677E-1,1.012317E0,3.778321E-1,-1.4852831E0,5.1700044E-1,3.80128E-1,-3.23541E-1,7.9985166E-1,1.3282309E0,1.529736E0,8.272654E-3,1.2455493E0,7.1916574E-1,9.321422E-1,5.203238E-1,1.213809E0,7.4846077E-1,5.6509334E-1,-4.0798917E-1,2.4208228E-1,-1.2119739E-2,6.9225943E-1,2.6256135E-1,7.1649444E-1,-8.568253E-3,1.4544692E-3,1.3285109E0,-3.637966E-3,-1.51331E0,2.4542089E-1,-2.4194719E-1,5.794448E-1,9.8132575E-1,-7.576752E-1,5.7707676E-3,1.0560172E0,4.8497298E-1,-2.618827E-1,3.0932537E-1,6.891679E-4,-3.9891275E-3,-6.086638E-3,2.5652566E-3,-6.1471183E-3,1.1781772E-2,-2.939596E-3,8.817597E-3,5.2052193E-5,-1.1094176E-2,-4.8574777E-3,-1.2110823E-2,-7.6793535E-3,-1.4015753E-2,-1.9509774E-2,-9.899571E-3,1.1840212E-2,-2.0138247E-2,1.2049958E-3,-5.1779794E-3,8.928706E-3,-1.2503548E-2,-2.3267113E-3,-8.111847E-3,-1.1133348E-2,-1.5131385E-2,-1.4259707E-2,5.4299743E-3,-1.3811399E-2,-1.7522993E-2,1.7550547E-4,8.619802E-3,1.3982732E-3,-4.224148E-3,1.1631596E-2,2.2999928E-3,-3.0423622E-3,3.7079377E-3,-1.8632319E-3,8.575536E-3,-3.2239119E-3,-5.9085074E-3,-3.2604756E-4,1.0230424E-2,-1.0688589E-2,-1.3560208E-3,1.08185E-3,1.027088E-2,-1.671253E-2,1.2781118E-2,3.7060212E-4,1.3967116E-2,1.129588E-2,3.6098897E-3,-1.961268E-2,-2.7707526E-3,1.4659422E-2,-3.6325917E-4,5.720834E-3,-1.0371552E-2,-1.1271383E-3,-1.5144377E-2,2.6853825E-4,1.1674893E-2,1.714857E-2,1.22773135E-2,1.9246241E-2,1.5185131E-2,1.5656825E-2,8.63546E-3,-6.167438E-3,1.1616871E-2,1.3779228E-2,8.520828E-3,1.0971146E-3,8.633758E-3,1.5406774E-2,5.7407944E-3,-8.2702516E-4,1.0780252E-2,9.755938E-4,1.3748702E-2,-1.4848035E-3,-1.4125002E-2,8.497307E-3,-4.4739186E-3,9.794311E-3,4.754209E-3,-4.228641E-3,6.572313E-3,1.3192436E-2,2.2230872E-3,1.9454947E-2,1.1681842E-2,-2.1309938E-2,-1.0170085E-2,1.7569674E-3,7.083803E-3,-3.1973547E-4,-8.526081E-3,7.1831997E-3,-4.2368616E-3,1.3054042E-2,1.8714963E-3,-1.737304E-2,-1.7948765E-3,-2.242921E-4,1.3593499E-2,6.8698376E-3,1.452608E-3,-5.921372E-3,5.964053E-3,-3.9179833E-3,4.061087E-3],"categories":[],"categories_nodes":[],"categories_segments":[],"categories_sizes":[],"default_left":[0,0,0,0,0,0,0,0,0,0,0,0,0,0,0,0,0,0,0,0,0,0,0,0,0,0,0,0,0,0,0,0,0,0,0,0,0,0,0,0,0,0,0,0,0,0,0,0,0,0,0,0,0,0,0,0,0,0,0,0,0,0,0,0,0,0,0,0,0,0,0,0,0,0,0,0,0,0,0,0,0,0,0,0,0,0,0,0,0,0,0,0,0,0,0,0,0,0,0,0,0,0,0,0,0,0,0,0,0,0,0,0,0,0,0,0,0,0,0,0,0,0,0,0,0,0,0,0,0,0,0,0,0,0,0,0,0,0,0,0,0,0,0,0,0,0,0,0,0,0,0,0,0,0,0,0,0,0,0,0,0,0,0,0,0,0,0,0,0,0,0,0,0,0,0,0,0,0,0,0,0,0,0,0,0,0,0,0,0,0,0,0,0,0,0,0,0,0,0,0,0,0,0,0,0,0,0,0,0,0,0,0,0,0,0,0,0,0,0,0,0,0,0,0,0,0,0,0,0,0,0,0,0,0,0,0,0,0,0,0,0],"id":1,"left_children":[1,3,5,7,9,11,13,15,17,19,21,23,25,27,29,31,33,35,37,39,41,43,45,47,49,51,53,55,57,59,61,63,65,67,69,71,73,75,77,79,81,83,85,87,89,91,93,95,97,99,101,103,105,107,109,111,113,115,117,119,121,123,125,127,129,131,133,135,137,139,141,143,-1,145,147,149,151,153,155,157,159,161,163,165,167,169,171,173,175,177,179,181,183,185,187,189,191,193,-1,195,197,199,201,203,205,207,209,211,-1,213,215,217,-1,-1,219,-1,221,223,225,227,229,231,-1,233,235,237,239,-1,-1,-1,-1,-1,-1,-1,-1,-1,-1,-1,-1,-1,-1,-1,-1,-1,-1,-1,-1,-1,-1,-1,-1,-1,-1,-1,-1,-1,-1,-1,-1,-1,-1,-1,-1,-1,-1,-1,-1,-1,-1,-1,-1,-1,-1,-1,-1,-1,-1,-1,-1,-1,-1,-1,-1,-1,-1,-1,-1,-1,-1,-1,-1,-1,-1,-1,-1,-1,-1,-1,-1,-1,-1,-1,-1,-1,-1,-1,-1,-1,-1,-1,-1,-1,-1,-1,-1,-1,-1,-1,-1,-1,-1,-1,-1,-1,-1,-1,-1,-1,-1,-1,-1,-1,-1,-1,-1,-1,-1,-1,-1,-1,-1],"loss_changes":[7.2820293E3,3.6307173E3,1.5396685E3,1.1848643E3,1.1911708E3,2.5603418E2,2.320863E2,2.9227145E2,6.808418E2,9.151715E2,4.3544287E2,1.231416E2,8.277722E1,1.6357231E2,1.0738513E2,1.00958084E2,1.16902954E2,2.4091315E2,2.7704883E2,4.3094843E2,3.0736584E2,4.4383057E2,3.332166E2,1.92229E1,8.141919E1,1.3836365E2,3.5676422E1,3.652127E1,1.3606624E2,7.316101E1,1.2724744E2,8.3893486E1,1.1254982E2,9.3684784E1,3.272351E1,1.0681108E2,2.6108545E2,1.5269348E2,5.0743652E1,4.490027E2,2.9615344E2,3.1494226E2,4.374302E2,6.6706036E2,3.9307068E2,1.7327744E2,4.054992E2,1.8685425E1,1.271521E1,3.801013E1,3.2155334E1,4.0782227E1,3.2055416E1,2.8554193E1,2.9937714E1,2.8046854E1,2.5314743E1,2.0094597E1,1.2492894E2,5.484729E1,2.8531893E1,8.224011E1,8.480156E1,7.3678375E1,1.0552611E2,6.582359E1,5.896536E1,7.462518E1,6.0009552E1,3.870163E1,5.546936E0,9.384138E1,0E0,9.762714E1,8.290393E1,5.5006348E1,2.9953491E1,1.3546294E2,5.6893066E1,2.8745715E2,4.9683215E2,2.1864789E2,3.0873492E2,2.9719962E2,1.7203308E2,2.6407104E2,1.3784978E2,4.9894812E2,4.524154E2,2.0278577E2,1.4856702E2,4.1388214E1,2.1384193E1,1.9309544E2,3.6033795E2,1.2783878E1,1.0972717E1,1.1486694E1,0E0,3.413513E1,5.4502045E1,2.3092834E1,2.7053223E1,2.9869751E1,3.768448E1,1.5159405E1,1.73541E1,2.1023949E1,0E0,2.1352844E1,4.1266186E1,7.2890606E0,0E0,0E0,1.1118256E1,0E0,6.0724792E0,6.325421E1,7.337366E1,5.1902283E1,3.388733E1,2.1569033E1,0E0,2.7959808E1,3.5526093E1,5.0490505E1,5.4848907E1,0E0,0E0,0E0,0E0,0E0,0E0,0E0,0E0,0E0,0E0,0E0,0E0,0E0,0E0,0E0,0E0,0E0,0E0,0E0,0E0,0E0,0E0,0E0,0E0,0E0,0E0,0E0,0E0,0E0,0E0,0E0,0E0,0E0,0E0,0E0,0E0,0E0,0E0,0E0,0E0,0E0,0E0,0E0,0E0,0E0,0E0,0E0,0E0,0E0,0E0,0E0,0E0,0E0,0E0,0E0,0E0,0E0,0E0,0E0,0E0,0E0,0E0,0E0,0E0,0E0,0E0,0E0,0E0,0E0,0E0,0E0,0E0,0E0,0E0,0E0,0E0,0E0,0E0,0E0,0E0,0E0,0E0,0E0,0E0,0E0,0E0,0E0,0E0,0E0,0E0,0E0,0E0,0E0,0E0,0E0,0E0,0E0,0E0,0E0,0E0,0E0,0E0,0E0,0E0,0E0,0E0,0E0,0E0,0E0,0E0,0E0,0E0,0E0,0E0],"parents":[2147483647,0,0,1,1,2,2,3,3,4,4,5,5,6,6,7,7,8,8,9,9,10,10,11,11,12,12,13,13,14,14,15,15,16,16,17,17,18,18,19,19,20,20,21,21,22,22,23,23,24,24,25,25,26,26,27,27,28,28,29,29,30,30,31,31,32,32,33,33,34,34,35,35,36,36,37,37,38,38,39,39,40,40,41,41,42,42,43,43,44,44,45,45,46,46,47,47,48,48,49,49,50,50,51,51,52,52,53,53,54,54,55,55,56,56,57,57,58,58,59,59,60,60,61,61,62,62,63,63,64,64,65,65,66,66,67,67,68,68,69,69,70,70,71,71,73,73,74,74,75,75,76,76,77,77,78,78,79,79,80,80,81,81,82,82,83,83,84,84,85,85,86,86,87,87,88,88,89,89,90,90,91,91,92,92,93,93,94,94,95,95,96,96,97,97,99,99,100,100,101,101,102,102,103,103,104,104,105,105,106,106,107,107,109,109,110,110,111,111,114,114,116,116,117,117,118,118,119,119,120,120,121,121,123,123,124,124,125,125,126,126],"right_children":[2,4,6,8,10,12,14,16,18,20,22,24,26,28,30,32,34,36,38,40,42,44,46,48,50,52,54,56,58,60,62,64,66,68,70,72,74,76,78,80,82,84,86,88,90,92,94,96,98,100,102,104,106,108,110,112,114,116,118,120,122,124,126,128,130,132,134,136,138,140,142,144,-1,146,148,150,152,154,156,158,160,162,164,166,168,170,172,174,176,178,180,182,184,186,188,190,192,194,-1,196,198,200,202,204,206,208,210,212,-1,214,216,218,-1,-1,220,-1,222,224,226,228,230,232,-1,234,236,238,240,-1,-1,-1,-1,-1,-1,-1,-1,-1,-1,-1,-1,-1,-1,-1,-1,-1,-1,-1,-1,-1,-1,-1,-1,-1,-1,-1,-1,-1,-1,-1,-1,-1,-1,-1,-1,-1,-1,-1,-1,-1,-1,-1,-1,-1,-1,-1,-1,-1,-1,-1,-1,-1,-1,-1,-1,-1,-1,-1,-1,-1,-1,-1,-1,-1,-1,-1,-1,-1,-1,-1,-1,-1,-1,-1,-1,-1,-1,-1,-1,-1,-1,-1,-1,-1,-1,-1,-1,-1,-1,-1,-1,-1,-1,-1,-1,-1,-1,-1,-1,-1,-1,-1,-1,-1,-1,-1,-1,-1,-1,-1,-1,-1,-1],"split_conditions":[5E-1,0E0,1.1938654E-1,-5.635359E-1,1.0226205E-1,4.5276806E-1,6.1954107E-2,3.0197445E-1,-2.816448E-1,1.4181782E0,6.370824E1,-3.0239424E-1,-3.816794E-1,-8.0809593E-1,2.5879918E-2,1.04815505E-1,6.2527763E1,-5.054582E0,-1.2228261E-1,4.834677E1,8.2666665E-1,5.3274757E-1,-1.3854398E-1,1.3916056E1,1.438389E-1,2.2041662E0,5.146334E-2,6.2666667E-1,4.6646145E1,4.317532E0,4.8081368E-1,1.821588E0,3.7101013E1,-1.1627907E0,1.0496981E0,4.5333335E-1,4.0716612E-1,1.2880562E-1,-6.666899E1,6.560066E-2,5.6706974E1,5.87002E1,6.4134514E1,3.7708694E-1,1.7037477E0,4.2994795E0,4.9804222E1,6.666667E-2,1.2590078E-1,5.77401E-1,-2.4019215E-2,9.767137E-1,-6.8256855E-2,6.238841E1,8.9251065E-1,5.787037E-1,4.2031355E-2,5.6E-1,6.1269543E1,2.97864E-1,2.2002839E-2,-1.21040955E-1,-3.1907158E1,-8.2054704E-1,8.1333333E-1,-2.4391763E0,1E0,1.2035011E0,6.158584E-1,-9.119718E-1,9.605513E-2,3.0666667E-1,1.9510632E-2,-5.8033216E-1,-2.2826709E-1,1.22493505E-1,5.3333336E-1,2.730119E0,2.4060151E-1,7.733333E-1,3.904566E1,-6.411676E-1,5.8986977E1,1E0,4.9333334E-1,5.973906E1,2.730119E0,4.1333333E-1,1.5213022E-1,4E-2,3.240015E1,-2.771565E-1,1.6689977E-1,1.7365079E-1,7.2E-1,2.3933136E-1,-1.7496156E0,7.917738E-1,8.272654E-3,3.1060736E0,2E-1,9.839184E-2,2.970297E-2,8.9205936E-2,2.0951107E-1,1.0902648E0,6.319468E-2,5.1666665E-1,-1.2119739E-2,1E0,1.8479356E-1,8.6766404E-1,-8.568253E-3,1.4544692E-3,3.8898594E1,-3.637966E-3,-2.0885166E-2,7.469328E0,2.8089887E-1,7.149019E1,1.8706574E0,8.340009E-2,5.7707676E-3,-1.0343617E-1,6.4E-1,2.4732813E-1,8.057421E-1,6.891679E-4,-3.9891275E-3,-6.086638E-3,2.5652566E-3,-6.1471183E-3,1.1781772E-2,-2.939596E-3,8.817597E-3,5.2052193E-5,-1.1094176E-2,-4.8574777E-3,-1.2110823E-2,-7.6793535E-3,-1.4015753E-2,-1.9509774E-2,-9.899571E-3,1.1840212E-2,-2.0138247E-2,1.2049958E-3,-5.1779794E-3,8.928706E-3,-1.2503548E-2,-2.3267113E-3,-8.111847E-3,-1.1133348E-2,-1.5131385E-2,-1.4259707E-2,5.4299743E-3,-1.3811399E-2,-1.7522993E-2,1.7550547E-4,8.619802E-3,1.3982732E-3,-4.224148E-3,1.1631596E-2,2.2999928E-3,-3.0423622E-3,3.7079377E-3,-1.8632319E-3,8.575536E-3,-3.2239119E-3,-5.9085074E-3,-3.2604756E-4,1.0230424E-2,-1.0688589E-2,-1.3560208E-3,1.08185E-3,1.027088E-2,-1.671253E-2,1.2781118E-2,3.7060212E-4,1.3967116E-2,1.129588E-2,3.6098897E-3,-1.961268E-2,-2.7707526E-3,1.4659422E-2,-3.6325917E-4,5.720834E-3,-1.0371552E-2,-1.1271383E-3,-1.5144377E-2,2.6853825E-4,1.1674893E-2,1.714857E-2,1.22773135E-2,1.9246241E-2,1.5185131E-2,1.5656825E-2,8.63546E-3,-6.167438E-3,1.1616871E-2,1.3779228E-2,8.520828E-3,1.0971146E-3,8.633758E-3,1.5406774E-2,5.7407944E-3,-8.2702516E-4,1.0780252E-2,9.755938E-4,1.3748702E-2,-1.4848035E-3,-1.4125002E-2,8.497307E-3,-4.4739186E-3,9.794311E-3,4.754209E-3,-4.228641E-3,6.572313E-3,1.3192436E-2,2.2230872E-3,1.9454947E-2,1.1681842E-2,-2.1309938E-2,-1.0170085E-2,1.7569674E-3,7.083803E-3,-3.1973547E-4,-8.526081E-3,7.1831997E-3,-4.2368616E-3,1.3054042E-2,1.8714963E-3,-1.737304E-2,-1.7948765E-3,-2.242921E-4,1.3593499E-2,6.8698376E-3,1.452608E-3,-5.921372E-3,5.964053E-3,-3.9179833E-3,4.061087E-3],"split_indices":[53,53,21,21,61,22,61,22,22,63,64,21,21,63,54,61,64,22,21,64,17,63,60,9,22,22,61,17,64,63,21,63,58,21,22,17,21,22,55,61,64,64,64,63,63,63,58,17,60,54,21,22,70,64,22,35,61,17,64,65,68,22,55,21,17,63,30,22,22,21,61,17,0,22,41,12,17,63,21,17,64,63,64,30,17,64,63,17,61,17,58,57,61,61,17,14,45,35,0,56,48,69,42,60,14,56,60,35,0,53,12,10,0,0,51,0,57,55,22,64,3,61,0,68,17,12,56,0,0,0,0,0,0,0,0,0,0,0,0,0,0,0,0,0,0,0,0,0,0,0,0,0,0,0,0,0,0,0,0,0,0,0,0,0,0,0,0,0,0,0,0,0,0,0,0,0,0,0,0,0,0,0,0,0,0,0,0,0,0,0,0,0,0,0,0,0,0,0,0,0,0,0,0,0,0,0,0,0,0,0,0,0,0,0,0,0,0,0,0,0,0,0,0,0,0,0,0,0,0,0,0,0,0,0,0,0,0,0,0,0,0],"split_type":[0,0,0,0,0,0,0,0,0,0,0,0,0,0,0,0,0,0,0,0,0,0,0,0,0,0,0,0,0,0,0,0,0,0,0,0,0,0,0,0,0,0,0,0,0,0,0,0,0,0,0,0,0,0,0,0,0,0,0,0,0,0,0,0,0,0,0,0,0,0,0,0,0,0,0,0,0,0,0,0,0,0,0,0,0,0,0,0,0,0,0,0,0,0,0,0,0,0,0,0,0,0,0,0,0,0,0,0,0,0,0,0,0,0,0,0,0,0,0,0,0,0,0,0,0,0,0,0,0,0,0,0,0,0,0,0,0,0,0,0,0,0,0,0,0,0,0,0,0,0,0,0,0,0,0,0,0,0,0,0,0,0,0,0,0,0,0,0,0,0,0,0,0,0,0,0,0,0,0,0,0,0,0,0,0,0,0,0,0,0,0,0,0,0,0,0,0,0,0,0,0,0,0,0,0,0,0,0,0,0,0,0,0,0,0,0,0,0,0,0,0,0,0,0,0,0,0,0,0,0,0,0,0,0,0,0,0,0,0,0,0],"sum_hessian":[9.369648E4,7.707747E4,1.6619004E4,1.4471759E4,6.260571E4,5.6815303E3,1.0937475E4,6.5453E3,7.926459E3,4.863976E4,1.3965948E4,3.6893906E3,1.9921395E3,2.900344E3,8.0371304E3,4.299796E3,2.245504E3,2.1957449E3,5.730714E3,2.8705684E4,1.993408E4,1.0412574E4,3.5533748E3,1.4768568E3,2.2125337E3,1.0561108E3,9.3602875E2,2.2645615E2,2.673888E3,3.3459766E3,4.691154E3,3.6378247E3,6.619711E2,1.4198765E3,8.2562756E2,1.3108145E2,2.0646636E3,2.820766E3,2.9099478E3,1.3196899E4,1.5508783E4,1.7634898E4,2.299183E3,5.598123E3,4.8144507E3,2.8002255E2,3.273352E3,5.8665717E2,8.901997E2,1.359052E3,8.534817E2,9.1960956E2,1.3650125E2,9.1370316E1,8.446584E2,5.744829E1,1.6900784E2,7.828428E1,2.5956038E3,3.2675288E3,7.844781E1,1.4583265E3,3.2328271E3,2.2858567E3,1.351968E3,2.4556966E2,4.164015E2,7.135708E2,7.063056E2,7.402365E2,8.539102E1,4.9304657E1,8.177679E1,1.4077549E3,6.569087E2,1.5432852E3,1.2774808E3,2.8555298E2,2.6243948E3,2.569624E3,1.0627275E4,1.0886677E4,4.6221064E3,3.8324763E3,1.3802422E4,1.3660753E3,9.331077E2,5.0948335E3,5.0328958E2,1.3653553E3,3.4490955E3,2.2830472E2,5.171784E1,1.5989215E3,1.6744305E3,9.703689E1,4.896203E2,8.6479926E2,2.5400444E1,1.1874633E3,1.7158876E2,5.324774E2,3.2100427E2,6.184266E2,3.01183E2,5.4813328E1,8.1687935E1,6.8938126E1,2.2432196E1,6.140686E2,2.3058978E2,3.8997093E1,1.8451199E1,2.1171932E1,1.4783592E2,2.0816004E1,5.7468273E1,1.8662538E3,7.2934985E2,2.8731213E3,3.9440747E2,5.233442E1,2.6113386E1,3.2960037E2,1.1287262E3,2.8253488E2,2.9502922E3,1.5919664E3,6.938903E2,1.1056844E3,2.4628354E2,3.243128E1,2.1313838E2,3.4380072E2,7.260077E1,6.151238E2,9.8447014E1,4.3461435E2,2.7169125E2,5.427633E2,1.9747318E2,6.3930794E1,2.146023E1,2.7276329E1,2.2028328E1,5.955432E2,8.122116E2,2.5411568E1,6.3149713E2,2.9844345E2,1.2448418E3,8.0308057E2,4.7440033E2,2.223657E2,6.3187275E1,1.5078113E3,1.1165835E3,1.6846227E3,8.850014E2,3.2639915E3,7.3632837E3,3.7300418E2,1.0513673E4,3.2263057E3,1.3958007E3,3.3903892E3,4.4208713E2,7.019743E3,6.7826787E3,6.399082E2,7.261671E2,3.983052E2,5.348025E2,4.0163015E3,1.0785319E3,4.1372867E2,8.9560936E1,1.8345801E2,1.1818973E3,4.1120935E2,3.0378862E3,2.0315193E2,2.5152786E1,2.1930864E1,2.9786972E1,1.4852528E3,1.1366876E2,1.3474852E3,3.269453E2,1.8604046E1,7.843284E1,3.612518E2,1.2836847E2,6.660093E2,1.9878995E2,1.063831E3,1.2363225E2,2.8123346E1,1.4346541E2,2.6448337E2,2.6799408E2,1.0351204E2,2.1749225E2,5.6263275E2,5.5793835E1,4.632335E1,2.5485966E2,3.16135E1,2.3199825E1,6.181363E1,1.9874302E1,3.9506763E1,2.9431362E1,4.2920642E2,1.848622E2,7.234237E1,1.582474E2,2.0873188E1,1.8123907E1,7.6344574E1,7.149134E1,3.828685E1,1.9181421E1,1.4533495E3,4.1290436E2,5.0190564E2,2.2744421E2,2.8165186E3,5.660276E1,3.4822797E2,4.617952E1,2.2836098E1,2.9498322E1,2.164257E1,3.079578E2,9.0788446E2,2.208417E2,2.1751982E2,6.501506E1,1.2746507E2,2.8228271E3],"tree_param":{"num_deleted":"0","num_feature":"73","num_nodes":"241","size_leaf_vector":"1"}},{"base_weights":[7.645607E-4,-1.2620915E-1,5.85955E-1,-5.722053E-1,-2.342567E-2,1.0449846E0,4.0765744E-1,-1.0010456E0,-4.256621E-1,-9.6421E-2,2.2981565E-1,1.1417412E0,3.962777E-1,1.9712509E-1,4.891471E-1,-2.6726282E-1,-1.2199587E0,-7.076859E-2,-5.467469E-1,1.6281638E-2,-2.5997487E-1,-1.1787899E-2,3.8445565E-1,1.2481492E0,9.496649E-1,1.082893E0,2.5208336E-1,9.2719954E-1,1.3821775E-1,5.615819E-1,3.2801363E-1,9.0093446E-1,-4.696201E-1,-8.006202E-1,-1.2582498E0,-2.2853288E-1,1.308376E-1,-3.835252E-1,-7.906484E-1,-2.952205E-1,5.776692E-2,-3.0749863E-1,3.806083E-2,-1.1647221E-1,5.9150845E-1,5.248945E-1,1.5968615E-2,1.3022972E0,8.3736557E-1,1.1367546E0,7.157258E-1,6.17061E-3,1.2930663E0,3.182378E-1,-1.32854795E-2,2.13376E-1,1.1613729E0,-4.6966693E-1,1.9662519E-1,7.2116315E-1,4.763246E-1,4.4333524E-1,-1.3872951E-1,-2.1006629E-1,2.1019379E-2,-1.4315224E-1,-9.851725E-1,1.6728071E-2,-1.1839793E0,-1.066463E0,-1.350928E0,7.127751E-1,-2.68721E-1,7.717724E-3,4.123286E-1,-3.418385E-1,-8.9720106E-1,-5.041163E-1,-8.770435E-1,-5.757678E-1,1.9759524E-1,8.3244616E-1,3.4814853E-2,-8.28142E-1,-2.8730482E-1,4.0469673E-1,-1.4505911E-1,-4.415255E-1,1.0364397E-1,7.4368435E-1,-7.987153E-1,4.204623E-1,8.607738E-1,6.732498E-1,-1.5115629E-1,1.3837808E0,1.0906725E0,4.2090493E-1,1.1277858E0,1.1709265E0,-2.698633E-3,-7.898922E-2,7.6354396E-1,1.8533872E-2,9.52798E-3,-2.6461256E-1,4.6066648E-1,6.346971E-1,-8.654154E-3,1.2785329E0,7.7655516E-4,4.5060846E-1,-8.4000105E-1,3.195708E-1,-7.972388E-2,9.3699765E-1,5.914348E-1,6.275993E-1,3.666193E-1,3.3164072E-1,1.2102833E0,2.1757148E-1,-8.328099E-1,1.1666199E-2,-1.900303E-2,-1.0873515E-2,2.667419E-4,-7.6961312E-3,-1.537496E-2,-7.6112654E-3,-1.8702775E-2,-7.829243E-3,-1.3675129E-2,-1.5173267E-2,-1.8482834E-2,2.9459945E-3,1.834046E-2,-4.254302E-3,1.5321259E-3,1.2246053E-3,-6.0040755E-3,8.756517E-3,7.712247E-4,-4.845195E-3,-0E0,-1.8309319E-3,-1.3186198E-2,-4.1239355E-3,-1.0716448E-2,6.666715E-3,-1.0665786E-2,4.0972447E-3,-8.5352715E-3,2.0148009E-2,1.324217E-3,2.054893E-3,1.217168E-2,6.147725E-5,4.742446E-3,-5.4564374E-3,-1.5848348E-2,7.5542E-3,-3.6248332E-3,-2.3673929E-3,8.1135165E-3,-3.001604E-3,1.2616948E-2,2.637665E-3,-1.209124E-2,1.4525926E-2,-1.1358096E-3,6.0295645E-4,1.48272915E-2,-3.4803344E-4,-1.3153089E-2,1.2433719E-3,7.587278E-3,2.8111984E-3,1.1933633E-2,1.1108648E-2,-1.403494E-2,4.085695E-3,-5.4312753E-3,1.8401196E-2,1.5294404E-2,5.1436685E-3,1.4191083E-2,1.6284301E-3,1.6882155E-2,1.7856259E-2,6.599447E-3,1.4999109E-2,6.9173328E-3,-6.6292025E-3,4.549009E-3,2.449105E-3,9.806815E-3,4.4980687E-3,-1.1352746E-2,6.929826E-3,-4.164468E-3,1.2875943E-2,4.2362677E-5,1.679491E-2,3.4985638E-3,1.5822662E-2,6.24011E-4,-2.6430006E-3,-1.4965344E-2,2.4038616E-3,8.870695E-3,8.293935E-3,-2.081259E-3,1.279667E-2,4.609521E-3,8.667696E-3,4.692176E-3,4.992132E-3,9.473566E-3,4.615609E-3,-1.1188821E-2,6.6411616E-3,1.809138E-3,1.0398248E-2,1.7244635E-2,3.872029E-3,-8.214403E-3,-2.0352384E-2,-5.464402E-3],"categories":[],"categories_nodes":[],"categories_segments":[],"categories_sizes":[],"default_left":[0,0,0,0,0,0,0,0,0,0,0,0,0,0,0,0,0,0,0,0,0,0,0,0,0,0,0,0,0,0,0,0,0,0,0,0,0,0,0,0,0,0,0,0,0,0,0,0,0,0,0,0,0,0,0,0,0,0,0,0,0,0,0,0,0,0,0,0,0,0,0,0,0,0,0,0,0,0,0,0,0,0,0,0,0,0,0,0,0,0,0,0,0,0,0,0,0,0,0,0,0,0,0,0,0,0,0,0,0,0,0,0,0,0,0,0,0,0,0,0,0,0,0,0,0,0,0,0,0,0,0,0,0,0,0,0,0,0,0,0,0,0,0,0,0,0,0,0,0,0,0,0,0,0,0,0,0,0,0,0,0,0,0,0,0,0,0,0,0,0,0,0,0,0,0,0,0,0,0,0,0,0,0,0,0,0,0,0,0,0,0,0,0,0,0,0,0,0,0,0,0,0,0,0,0,0,0,0,0,0,0,0,0,0,0,0,0,0,0,0,0,0,0,0,0,0,0,0,0],"id":2,"left_children":[1,3,5,7,9,11,13,15,17,19,21,23,25,27,29,31,33,35,37,39,41,43,45,47,49,51,53,55,57,59,61,63,65,67,69,71,73,75,77,79,81,83,85,87,89,91,93,95,97,99,101,-1,103,105,-1,107,109,111,113,115,117,119,121,123,-1,125,127,-1,129,131,133,135,137,139,141,143,145,147,149,151,153,155,157,159,161,163,165,167,169,171,173,175,177,179,181,183,185,187,189,191,-1,193,195,-1,-1,197,199,201,-1,203,-1,205,207,209,211,213,215,217,219,221,223,225,227,-1,-1,-1,-1,-1,-1,-1,-1,-1,-1,-1,-1,-1,-1,-1,-1,-1,-1,-1,-1,-1,-1,-1,-1,-1,-1,-1,-1,-1,-1,-1,-1,-1,-1,-1,-1,-1,-1,-1,-1,-1,-1,-1,-1,-1,-1,-1,-1,-1,-1,-1,-1,-1,-1,-1,-1,-1,-1,-1,-1,-1,-1,-1,-1,-1,-1,-1,-1,-1,-1,-1,-1,-1,-1,-1,-1,-1,-1,-1,-1,-1,-1,-1,-1,-1,-1,-1,-1,-1,-1,-1,-1,-1,-1,-1,-1,-1,-1,-1,-1,-1,-1,-1,-1,-1,-1],"loss_changes":[6.9641934E3,3.5299878E3,1.3660991E3,9.048247E2,1.1570011E3,2.9163037E2,2.060227E2,5.882949E2,4.6173438E2,8.9577454E2,5.233991E2,7.960596E1,5.920507E1,1.4392133E2,1.004624E2,2.0076555E2,4.233838E1,8.722785E1,3.179585E2,3.7166034E2,2.8094946E2,3.4510086E2,4.4165295E2,5.475E1,6.130652E1,1.0280998E1,4.594744E1,4.064714E1,1.1070252E2,8.00907E1,1.4549121E2,1.1994805E2,1.2089307E2,2.0770831E2,4.1862305E1,5.8370155E1,4.1453003E1,1.0172095E2,7.791284E1,4.676949E2,4.509363E2,1.7875037E2,1.8331677E2,3.3368433E2,1.7206253E2,2.1548865E2,2.596675E2,3.5392334E1,3.5815216E1,3.8508423E1,2.535205E1,0E0,5.7247086E0,4.0678024E1,0E0,2.6384026E1,2.324736E1,9.400665E1,9.685085E1,5.6277954E1,6.387085E1,1.8386401E2,1.3302225E2,9.4118744E1,0E0,5.6733204E1,2.5848358E1,0E0,3.979947E1,2.3460571E1,2.3089844E1,2.238866E1,5.0463844E1,4.0149E1,3.9784206E1,9.425189E1,5.2907654E1,4.556627E1,4.2693115E1,2.6848895E2,1.573024E2,8.6823364E1,2.636837E2,1.1498605E2,2.231001E2,1.4914659E2,2.2881416E2,7.057002E2,6.1077747E2,2.4807272E2,1.776353E1,3.1633728E2,1.2148364E2,2.2505443E2,2.7932877E2,2.1677979E1,3.7754883E1,3.5799416E1,3.501172E1,3.460962E1,0E0,8.831375E0,1.7735443E1,0E0,0E0,4.2827015E1,3.7493286E1,1.2204863E1,0E0,1.8509125E1,0E0,2.65999E1,4.811345E1,9.787109E1,6.330273E1,5.388153E1,3.308249E1,5.4817017E1,5.358838E1,7.5416916E1,1.770633E1,3.3894775E1,5.681887E1,0E0,0E0,0E0,0E0,0E0,0E0,0E0,0E0,0E0,0E0,0E0,0E0,0E0,0E0,0E0,0E0,0E0,0E0,0E0,0E0,0E0,0E0,0E0,0E0,0E0,0E0,0E0,0E0,0E0,0E0,0E0,0E0,0E0,0E0,0E0,0E0,0E0,0E0,0E0,0E0,0E0,0E0,0E0,0E0,0E0,0E0,0E0,0E0,0E0,0E0,0E0,0E0,0E0,0E0,0E0,0E0,0E0,0E0,0E0,0E0,0E0,0E0,0E0,0E0,0E0,0E0,0E0,0E0,0E0,0E0,0E0,0E0,0E0,0E0,0E0,0E0,0E0,0E0,0E0,0E0,0E0,0E0,0E0,0E0,0E0,0E0,0E0,0E0,0E0,0E0,0E0,0E0,0E0,0E0,0E0,0E0,0E0,0E0,0E0,0E0,0E0,0E0,0E0,0E0,0E0,0E0],"parents":[2147483647,0,0,1,1,2,2,3,3,4,4,5,5,6,6,7,7,8,8,9,9,10,10,11,11,12,12,13,13,14,14,15,15,16,16,17,17,18,18,19,19,20,20,21,21,22,22,23,23,24,24,25,25,26,26,27,27,28,28,29,29,30,30,31,31,32,32,33,33,34,34,35,35,36,36,37,37,38,38,39,39,40,40,41,41,42,42,43,43,44,44,45,45,46,46,47,47,48,48,49,49,50,50,52,52,53,53,55,55,56,56,57,57,58,58,59,59,60,60,61,61,62,62,63,63,65,65,66,66,68,68,69,69,70,70,71,71,72,72,73,73,74,74,75,75,76,76,77,77,78,78,79,79,80,80,81,81,82,82,83,83,84,84,85,85,86,86,87,87,88,88,89,89,90,90,91,91,92,92,93,93,94,94,95,95,96,96,97,97,98,98,99,99,101,101,102,102,105,105,106,106,107,107,109,109,111,111,112,112,113,113,114,114,115,115,116,116,117,117,118,118,119,119,120,120,121,121,122,122],"right_children":[2,4,6,8,10,12,14,16,18,20,22,24,26,28,30,32,34,36,38,40,42,44,46,48,50,52,54,56,58,60,62,64,66,68,70,72,74,76,78,80,82,84,86,88,90,92,94,96,98,100,102,-1,104,106,-1,108,110,112,114,116,118,120,122,124,-1,126,128,-1,130,132,134,136,138,140,142,144,146,148,150,152,154,156,158,160,162,164,166,168,170,172,174,176,178,180,182,184,186,188,190,192,-1,194,196,-1,-1,198,200,202,-1,204,-1,206,208,210,212,214,216,218,220,222,224,226,228,-1,-1,-1,-1,-1,-1,-1,-1,-1,-1,-1,-1,-1,-1,-1,-1,-1,-1,-1,-1,-1,-1,-1,-1,-1,-1,-1,-1,-1,-1,-1,-1,-1,-1,-1,-1,-1,-1,-1,-1,-1,-1,-1,-1,-1,-1,-1,-1,-1,-1,-1,-1,-1,-1,-1,-1,-1,-1,-1,-1,-1,-1,-1,-1,-1,-1,-1,-1,-1,-1,-1,-1,-1,-1,-1,-1,-1,-1,-1,-1,-1,-1,-1,-1,-1,-1,-1,-1,-1,-1,-1,-1,-1,-1,-1,-1,-1,-1,-1,-1,-1,-1,-1,-1,-1,-1],"split_conditions":[5E-1,0E0,0E0,5E-1,1.0226205E-1,9.767137E-1,6.261865E-2,-6.0250175E-1,-1.0619469E-1,1.4181782E0,-5.8778524E-1,-2.7777778E-2,-2.554553E-1,-8.0809593E-1,1.9027812E0,-5.054582E0,-6.666899E1,1.7935257E1,2.4909747E-1,-2.1299644E0,8.1333333E-1,1.4895387E-1,9.5105654E-1,8.486685E0,3.0769232E-1,9.0727323E-1,5.307509E-1,6.2666667E-1,2.1381672E-1,5.510136E1,9.5105654E-1,5.733333E-1,2.3312542E-1,0E0,-1.4064698E-1,8.6E-2,9.720852E-2,4.1545024E0,2.3988007E-2,5.8778524E-1,-1.3722563E0,1.4765614E0,2.1397276E0,5.3274757E-1,7.363389E1,4.1333333E-1,3.585658E1,4.599353E-1,5.869271E0,6.2258734E2,5.064984E-2,6.17061E-3,1.9701984E1,0E0,-1.32854795E-2,6.216216E-1,1.2344768E0,5.733333E-1,1.821588E0,-1.1098779E-1,5.7733387E-2,1.3869743E-1,5.2E-1,3.389447E1,2.1019379E-2,1.3333334E-1,-5.740118E-3,1.6728071E-2,2.5333333E-1,3.833175E1,5.2E-1,1.0356317E1,8.1333333E-1,-1.6949153E-2,5.8778524E-1,8E-1,6.336028E-2,-4.149378E-3,-3.6265397E0,6.381867E-2,3.793669E1,3.7333333E-1,1.2764342E0,4.9333334E-1,1.4807328E0,1.7413914E0,5.843985E1,-1.2439662E0,1.3923604E0,-1.0415117E-1,5.3333335E-2,-2.2695774E-1,-9.729585E-2,1.7365079E-1,9.3266815E-1,-8.362182E-2,5.618838E-2,8E-1,4.6836132E1,8.637801E-2,-2.698633E-3,5.892415E1,-6.0996326E1,1.8533872E-2,9.52798E-3,1.2035011E0,2.0035444E-1,1.4780633E-1,-8.654154E-3,2.8051524E0,7.7655516E-4,2.4747474E-2,5.4715704E-2,7.576717E-1,-3.0364373E-1,3.1741424E0,6.2666667E-1,4.642857E-1,4.801249E-1,-2.2797327E0,0E0,1.584507E0,1.9569643E0,1.1666199E-2,-1.900303E-2,-1.0873515E-2,2.667419E-4,-7.6961312E-3,-1.537496E-2,-7.6112654E-3,-1.8702775E-2,-7.829243E-3,-1.3675129E-2,-1.5173267E-2,-1.8482834E-2,2.9459945E-3,1.834046E-2,-4.254302E-3,1.5321259E-3,1.2246053E-3,-6.0040755E-3,8.756517E-3,7.712247E-4,-4.845195E-3,-0E0,-1.8309319E-3,-1.3186198E-2,-4.1239355E-3,-1.0716448E-2,6.666715E-3,-1.0665786E-2,4.0972447E-3,-8.5352715E-3,2.0148009E-2,1.324217E-3,2.054893E-3,1.217168E-2,6.147725E-5,4.742446E-3,-5.4564374E-3,-1.5848348E-2,7.5542E-3,-3.6248332E-3,-2.3673929E-3,8.1135165E-3,-3.001604E-3,1.2616948E-2,2.637665E-3,-1.209124E-2,1.4525926E-2,-1.1358096E-3,6.0295645E-4,1.48272915E-2,-3.4803344E-4,-1.3153089E-2,1.2433719E-3,7.587278E-3,2.8111984E-3,1.1933633E-2,1.1108648E-2,-1.403494E-2,4.085695E-3,-5.4312753E-3,1.8401196E-2,1.5294404E-2,5.1436685E-3,1.4191083E-2,1.6284301E-3,1.6882155E-2,1.7856259E-2,6.599447E-3,1.4999109E-2,6.9173328E-3,-6.6292025E-3,4.549009E-3,2.449105E-3,9.806815E-3,4.4980687E-3,-1.1352746E-2,6.929826E-3,-4.164468E-3,1.2875943E-2,4.2362677E-5,1.679491E-2,3.4985638E-3,1.5822662E-2,6.24011E-4,-2.6430006E-3,-1.4965344E-2,2.4038616E-3,8.870695E-3,8.293935E-3,-2.081259E-3,1.279667E-2,4.609521E-3,8.667696E-3,4.692176E-3,4.992132E-3,9.473566E-3,4.615609E-3,-1.1188821E-2,6.6411616E-3,1.809138E-3,1.0398248E-2,1.7244635E-2,3.872029E-3,-8.214403E-3,-2.0352384E-2,-5.464402E-3],"split_indices":[53,53,39,39,61,22,61,22,22,63,29,34,8,63,63,22,55,9,23,63,17,61,29,52,22,56,12,17,63,0,29,17,16,29,22,35,61,63,22,29,63,63,63,63,58,17,58,22,47,52,61,0,9,29,0,35,50,17,63,22,54,61,17,58,0,17,24,0,17,58,17,47,17,34,29,17,22,34,63,61,58,17,63,17,63,63,58,63,63,60,17,63,57,61,63,33,61,17,0,60,0,58,55,0,0,22,32,22,0,52,0,33,61,52,22,52,17,35,12,52,29,3,63,0,0,0,0,0,0,0,0,0,0,0,0,0,0,0,0,0,0,0,0,0,0,0,0,0,0,0,0,0,0,0,0,0,0,0,0,0,0,0,0,0,0,0,0,0,0,0,0,0,0,0,0,0,0,0,0,0,0,0,0,0,0,0,0,0,0,0,0,0,0,0,0,0,0,0,0,0,0,0,0,0,0,0,0,0,0,0,0,0,0,0,0,0,0,0,0,0,0,0,0,0,0,0,0,0,0],"split_type":[0,0,0,0,0,0,0,0,0,0,0,0,0,0,0,0,0,0,0,0,0,0,0,0,0,0,0,0,0,0,0,0,0,0,0,0,0,0,0,0,0,0,0,0,0,0,0,0,0,0,0,0,0,0,0,0,0,0,0,0,0,0,0,0,0,0,0,0,0,0,0,0,0,0,0,0,0,0,0,0,0,0,0,0,0,0,0,0,0,0,0,0,0,0,0,0,0,0,0,0,0,0,0,0,0,0,0,0,0,0,0,0,0,0,0,0,0,0,0,0,0,0,0,0,0,0,0,0,0,0,0,0,0,0,0,0,0,0,0,0,0,0,0,0,0,0,0,0,0,0,0,0,0,0,0,0,0,0,0,0,0,0,0,0,0,0,0,0,0,0,0,0,0,0,0,0,0,0,0,0,0,0,0,0,0,0,0,0,0,0,0,0,0,0,0,0,0,0,0,0,0,0,0,0,0,0,0,0,0,0,0,0,0,0,0,0,0,0,0,0,0,0,0,0,0,0,0,0,0],"sum_hessian":[9.371884E4,7.701004E4,1.6708805E4,1.4420945E4,6.2589094E4,4.6709233E3,1.2037881E4,3.6690017E3,1.0751943E4,4.85873E4,1.4001794E4,4.0626726E3,6.0825085E2,3.3628289E3,8.675052E3,8.446191E2,2.8243826E3,2.7370583E3,8.0148853E3,2.8764697E4,1.9822602E4,5.4638696E3,8.537924E3,2.6056016E3,1.4570709E3,1.02705765E2,5.0554514E2,2.4824239E2,3.1145864E3,5.9791523E3,2.6958992E3,1.2332065E2,7.212984E2,2.4108221E2,2.5833005E3,1.5367263E3,1.2003322E3,4.8059097E3,3.2089756E3,3.3777527E3,2.5386945E4,1.709785E4,2.724751E3,4.658046E3,8.05824E2,6.180274E3,2.35765E3,2.2972305E3,3.0837112E2,8.041259E2,6.52945E2,3.0217413E1,7.248835E1,4.8389297E2,2.1652147E1,6.2792233E1,1.8545015E2,2.71041E2,2.8435454E3,2.0748147E3,3.9043376E3,2.1627136E3,5.331856E2,5.3876076E1,6.944457E1,4.437952E2,2.7750323E2,3.487211E1,2.062101E2,8.5154236E2,1.731758E3,6.104252E1,1.4756838E3,8.377459E2,3.6258624E2,4.4491494E3,3.567603E2,7.479228E2,2.4610527E3,2.1528618E3,1.2248907E3,7.2786E2,2.4659086E4,6.344881E2,1.6463361E4,9.0769946E2,1.8170515E3,1.8808251E3,2.7772207E3,7.274824E2,7.83415E1,4.7190205E3,1.4612537E3,4.7732516E2,1.8803247E3,1.648901E3,6.4832947E2,1.2941342E2,1.7895772E2,7.850711E2,1.9054848E1,3.6390636E1,6.165543E2,4.475173E1,2.7736618E1,9.399948E1,3.898935E2,4.4091434E1,1.8700798E1,1.668386E2,1.8611559E1,7.7262085E1,1.937789E2,1.9690337E3,8.745118E2,7.7279065E2,1.302024E3,1.6353387E3,2.268999E3,1.8908555E3,2.7185803E2,3.5275446E2,1.8043117E2,2.907247E1,2.4803606E1,7.800217E1,3.6579303E2,1.3210822E2,1.4539502E2,8.62941E1,1.19916E2,1.3183699E2,7.197054E2,1.2010397E3,5.307183E2,4.0852283E1,2.0190233E1,1.214308E3,2.613758E2,7.087351E2,1.290108E2,1.8775279E2,1.7483345E2,3.7666025E3,6.825471E2,7.730197E1,2.7945834E2,5.330558E2,2.1486702E2,1.895912E1,2.4420935E3,2.7625018E2,1.8766117E3,6.577675E1,1.159114E3,1.5843982E2,5.6942017E2,2.2785268E4,1.8738181E3,3.636451E2,2.70843E2,2.5906952E2,1.6204293E4,2.8168335E2,6.260161E2,1.6721982E3,1.4485327E2,8.675886E2,1.01323645E3,4.2078397E2,2.3564368E3,3.032408E2,4.2424164E2,2.2912445E1,5.5429054E1,1.8928472E3,2.826173E3,2.5861398E2,1.2026398E3,4.209244E2,5.6400764E1,7.139825E2,1.1663423E3,6.828496E2,9.660514E2,8.108494E1,5.672445E2,1.0253547E2,2.6877947E1,1.0776098E2,7.119673E1,6.902935E2,9.477756E1,1.8229239E1,1.8161396E1,5.564568E1,5.609087E2,4.857981E1,4.5419674E1,3.4166705E2,4.8226448E1,2.4727686E1,1.9363749E1,1.4741687E2,1.9421711E1,2.2468327E1,5.479376E1,7.8534645E1,1.15244255E2,1.5365524E3,4.324813E2,9.282843E1,7.8168335E2,6.2399225E2,1.4879843E2,7.830163E2,5.190078E2,7.132334E2,9.2210535E2,2.2397312E3,2.9267817E1,8.462823E2,1.0445732E3,1.1276441E2,1.5909361E2,3.1759293E2,3.5161522E1,5.2363304E1,1.2806787E2],"tree_param":{"num_deleted":"0","num_feature":"73","num_nodes":"229","size_leaf_vector":"1"}},{"base_weights":[1.2833369E-4,-1.2640756E-1,5.859277E-1,-5.676029E-1,-2.4403227E-2,9.9554425E-1,3.7214926E-1,-2.4422535E-1,-8.1530046E-1,-9.63317E-2,2.2716983E-1,1.0784492E0,4.697794E-1,5.063061E-1,2.2272938E-1,-9.3621746E-2,-5.2851605E-1,-3.6249417E-1,-9.8493445E-1,-1.7845091E-1,2.334087E-2,-1.4231909E-2,3.824446E-1,1.3205942E0,9.2585516E-1,6.910217E-1,5.726675E-2,6.875458E-1,3.9877415E-1,6.297604E-1,1.3293613E-1,-1.7443888E-1,2.4534978E-1,-3.6943623E-1,-8.26654E-1,8.668945E-1,-4.4204912E-1,-7.6519436E-1,-1.1925378E0,-3.533031E-1,-1.489652E-1,-1.1051844E-2,2.2677627E-1,-1.12082325E-1,5.495802E-1,5.230257E-1,7.99096E-3,1.3401752E0,4.9736556E-1,1.1295974E0,6.995926E-1,7.63712E-1,-1.9885676E-1,-1.5626715E-1,3.8385528E-1,8.879426E-1,5.618726E-1,2.1877742E-1,5.3060293E-1,1.2719514E0,4.8076686E-1,1.7731524E-1,-3.1832814E-1,-2.2548333E-1,1.6888155E-1,7.155855E-1,1.4497415E-2,-2.7069393E-1,-1.0571911E0,-6.554956E-1,-1.2334632E0,-1.800617E-1,2.0075327E-2,-2.069308E-1,-9.502668E-1,-5.606462E-1,-1.013843E0,-1.0492349E0,-1.3241049E0,-4.4155115E-1,1.2032738E-1,-2.0454554E-1,-2.5913775E-2,-3.9043817E-1,1.7076373E-2,5.505935E-1,1.1404903E-1,-5.232431E-1,5.4775298E-2,-6.89556E-2,8.114909E-1,4.1572163E-1,8.680743E-1,6.616302E-1,-1.5758479E-1,1.9726325E-2,1.2883703E0,-1.8176413E-3,1.2343765E-2,9.3689656E-1,1.2704561E0,8.3119416E-1,4.1000104E-1,-1.0311606E-3,8.4203255E-1,-9.742078E-3,4.7352514E-3,6.381229E-2,-7.025504E-1,2.016376E-1,1.3917026E-2,3.831206E-1,9.5881265E-1,3.196964E-1,6.967023E-1,5.143578E-2,3.6652863E-1,4.1443664E-1,7.490229E-1,8.642995E-1,1.8469354E-2,5.3069925E-1,-8.058174E-3,2.5349436E-2,2.9685283E-1,-4.9735713E-1,3.1741574E-1,-3.9806785E-3,6.1526436E-5,2.9667607E-3,-1.1854259E-2,6.380915E-3,1.8900989E-2,6.503356E-3,-3.1211851E-3,-2.254602E-3,-6.4392975E-3,-9.7046215E-3,-1.9292325E-2,-6.6626417E-3,-1.298123E-2,-7.173882E-3,-1.641177E-2,8.621682E-3,-2.118717E-2,7.38404E-4,-4.8201103E-3,7.4492856E-3,-1.245051E-2,-1.0589228E-2,-5.8010304E-3,-9.966588E-3,-1.35091785E-2,-1.1041195E-2,-1.5512007E-2,-1.2309636E-2,-1.7212657E-2,-8.809416E-3,-3.9190412E-3,1.0702337E-2,-1.7260693E-3,-1.588762E-3,-3.5803034E-3,-6.3182355E-4,4.0499084E-3,-8.885322E-3,-2.2062454E-3,-9.898256E-4,1.5134084E-3,9.466355E-3,4.68805E-3,2.7738295E-3,-3.2537524E-3,2.9149342E-3,-7.5860424E-3,2.0556853E-3,-6.1699706E-3,9.109018E-3,-1.3990178E-2,1.3081136E-2,-5.6797992E-3,5.373763E-3,-4.424853E-3,3.3742103E-3,1.1865275E-2,1.0894864E-2,-1.4274006E-2,-3.2601284E-3,8.243909E-3,1.7221142E-2,1.412034E-2,1.3405509E-2,6.5070004E-3,1.6082473E-2,1.0427489E-2,3.9613E-3,1.0616658E-2,-8.006892E-3,5.6276117E-3,5.356355E-3,-7.1157934E-3,1.332182E-2,7.976806E-3,4.2979233E-3,-8.920446E-3,-0E0,-1.3886738E-2,9.721706E-3,-2.309844E-3,-5.686212E-3,1.11377705E-2,1.2045045E-2,-3.7392945E-4,5.882845E-3,-8.6986786E-4,-2.1027008E-3,8.764568E-3,3.3942936E-3,-2.42367E-3,7.0639206E-3,7.900221E-4,6.136854E-3,1.3115157E-4,7.223809E-3,1.5942E-2,3.7082452E-3,2.0170389E-2,1.0526029E-2,4.5739296E-3,1.0550856E-2,-4.1286333E-4,4.182028E-3,-4.8305523E-3,1.5295935E-3,-8.298098E-3,9.930085E-3,-4.5373593E-3],"categories":[],"categories_nodes":[],"categories_segments":[],"categories_sizes":[],"default_left":[0,0,0,0,0,0,0,0,0,0,0,0,0,0,0,0,0,0,0,0,0,0,0,0,0,0,0,0,0,0,0,0,0,0,0,0,0,0,0,0,0,0,0,0,0,0,0,0,0,0,0,0,0,0,0,0,0,0,0,0,0,0,0,0,0,0,0,0,0,0,0,0,0,0,0,0,0,0,0,0,0,0,0,0,0,0,0,0,0,0,0,0,0,0,0,0,0,0,0,0,0,0,0,0,0,0,0,0,0,0,0,0,0,0,0,0,0,0,0,0,0,0,0,0,0,0,0,0,0,0,0,0,0,0,0,0,0,0,0,0,0,0,0,0,0,0,0,0,0,0,0,0,0,0,0,0,0,0,0,0,0,0,0,0,0,0,0,0,0,0,0,0,0,0,0,0,0,0,0,0,0,0,0,0,0,0,0,0,0,0,0,0,0,0,0,0,0,0,0,0,0,0,0,0,0,0,0,0,0,0,0,0,0,0,0,0,0,0,0,0,0,0,0,0,0,0,0,0,0,0,0,0,0,0,0,0,0],"id":3,"left_children":[1,3,5,7,9,11,13,15,17,19,21,23,25,27,29,31,33,35,37,39,41,43,45,47,49,51,53,55,57,59,61,63,65,67,69,71,73,75,77,79,81,83,85,87,89,91,93,95,97,99,101,103,105,107,109,111,113,115,117,119,121,123,125,127,129,131,133,135,137,139,141,143,-1,145,147,149,151,153,155,157,159,161,163,165,167,169,171,173,175,177,179,181,183,185,187,-1,189,-1,-1,191,193,195,197,199,201,-1,-1,203,205,207,-1,209,211,213,215,217,219,221,223,225,-1,227,-1,229,231,233,235,-1,-1,-1,-1,-1,-1,-1,-1,-1,-1,-1,-1,-1,-1,-1,-1,-1,-1,-1,-1,-1,-1,-1,-1,-1,-1,-1,-1,-1,-1,-1,-1,-1,-1,-1,-1,-1,-1,-1,-1,-1,-1,-1,-1,-1,-1,-1,-1,-1,-1,-1,-1,-1,-1,-1,-1,-1,-1,-1,-1,-1,-1,-1,-1,-1,-1,-1,-1,-1,-1,-1,-1,-1,-1,-1,-1,-1,-1,-1,-1,-1,-1,-1,-1,-1,-1,-1,-1,-1,-1,-1,-1,-1,-1,-1,-1,-1,-1,-1,-1,-1,-1,-1,-1,-1,-1,-1,-1,-1,-1],"loss_changes":[6.936576E3,3.4628809E3,1.4542261E3,1.1564868E3,1.1310391E3,2.4660449E2,2.1844324E2,2.6808878E2,6.269707E2,4.7780704E2,5.210982E2,1.7822461E2,7.078351E1,1.1104993E2,1.8857675E2,1.1245086E2,1.0171411E2,2.1899088E2,2.685879E2,1.4828851E2,1.3851851E2,3.000491E2,4.4498547E2,2.8310303E1,1.3700293E2,3.338759E1,1.9443483E1,5.2126465E1,8.5240906E1,8.723834E1,8.501438E1,5.8206635E1,8.5323326E1,9.518077E1,4.982263E1,1.1614942E2,2.4988565E2,1.4541089E2,5.3620117E1,1.7399365E2,1.6864642E2,1.8076894E2,1.0404442E2,3.185028E2,1.3075563E2,2.2629028E2,2.5065498E2,2.3405518E1,1.7235287E1,3.9615356E1,5.3584656E1,2.8556732E1,1.516825E1,2.0493017E1,1.4460812E1,2.789972E1,4.218283E1,3.7694138E1,5.170929E1,1.5086029E1,4.4468155E1,7.0039856E1,4.3611874E1,7.093385E1,3.8998814E1,3.8232178E1,7.752174E1,2.6848152E1,2.0391891E1,2.0834702E1,1.6117584E1,8.955295E1,0E0,7.543112E1,9.237659E1,3.8099487E1,2.3900757E1,4.283203E1,4.790039E1,1.1687854E2,1.3382036E2,1.147417E2,7.454963E1,8.380853E1,1.710675E2,2.6899597E1,9.606055E1,1.1233115E2,2.1881247E2,2.204021E2,2.0381848E2,1.1856659E2,1.0191858E2,2.1548233E2,1.7800024E2,0E0,2.138916E1,0E0,0E0,4.6299866E1,2.2055786E1,2.528357E1,2.9436607E1,1.2531481E1,1.7920105E1,0E0,0E0,2.891284E1,1.5676102E1,2.2768707E1,0E0,5.016624E1,3.2407715E1,3.221562E1,2.536438E1,4.2581993E1,5.3901558E1,5.3226654E1,5.878778E1,3.1602444E1,0E0,3.6607056E1,0E0,8.752216E1,7.83336E1,3.6559372E1,3.0658974E1,0E0,0E0,0E0,0E0,0E0,0E0,0E0,0E0,0E0,0E0,0E0,0E0,0E0,0E0,0E0,0E0,0E0,0E0,0E0,0E0,0E0,0E0,0E0,0E0,0E0,0E0,0E0,0E0,0E0,0E0,0E0,0E0,0E0,0E0,0E0,0E0,0E0,0E0,0E0,0E0,0E0,0E0,0E0,0E0,0E0,0E0,0E0,0E0,0E0,0E0,0E0,0E0,0E0,0E0,0E0,0E0,0E0,0E0,0E0,0E0,0E0,0E0,0E0,0E0,0E0,0E0,0E0,0E0,0E0,0E0,0E0,0E0,0E0,0E0,0E0,0E0,0E0,0E0,0E0,0E0,0E0,0E0,0E0,0E0,0E0,0E0,0E0,0E0,0E0,0E0,0E0,0E0,0E0,0E0,0E0,0E0,0E0,0E0,0E0,0E0,0E0,0E0,0E0,0E0,0E0,0E0,0E0,0E0,0E0,0E0],"parents":[2147483647,0,0,1,1,2,2,3,3,4,4,5,5,6,6,7,7,8,8,9,9,10,10,11,11,12,12,13,13,14,14,15,15,16,16,17,17,18,18,19,19,20,20,21,21,22,22,23,23,24,24,25,25,26,26,27,27,28,28,29,29,30,30,31,31,32,32,33,33,34,34,35,35,36,36,37,37,38,38,39,39,40,40,41,41,42,42,43,43,44,44,45,45,46,46,47,47,48,48,49,49,50,50,51,51,52,52,53,53,54,54,55,55,56,56,57,57,58,58,59,59,60,60,61,61,62,62,63,63,64,64,65,65,66,66,67,67,68,68,69,69,70,70,71,71,73,73,74,74,75,75,76,76,77,77,78,78,79,79,80,80,81,81,82,82,83,83,84,84,85,85,86,86,87,87,88,88,89,89,90,90,91,91,92,92,93,93,94,94,96,96,99,99,100,100,101,101,102,102,103,103,104,104,107,107,108,108,109,109,111,111,112,112,113,113,114,114,115,115,116,116,117,117,118,118,119,119,121,121,123,123,124,124,125,125,126,126],"right_children":[2,4,6,8,10,12,14,16,18,20,22,24,26,28,30,32,34,36,38,40,42,44,46,48,50,52,54,56,58,60,62,64,66,68,70,72,74,76,78,80,82,84,86,88,90,92,94,96,98,100,102,104,106,108,110,112,114,116,118,120,122,124,126,128,130,132,134,136,138,140,142,144,-1,146,148,150,152,154,156,158,160,162,164,166,168,170,172,174,176,178,180,182,184,186,188,-1,190,-1,-1,192,194,196,198,200,202,-1,-1,204,206,208,-1,210,212,214,216,218,220,222,224,226,-1,228,-1,230,232,234,236,-1,-1,-1,-1,-1,-1,-1,-1,-1,-1,-1,-1,-1,-1,-1,-1,-1,-1,-1,-1,-1,-1,-1,-1,-1,-1,-1,-1,-1,-1,-1,-1,-1,-1,-1,-1,-1,-1,-1,-1,-1,-1,-1,-1,-1,-1,-1,-1,-1,-1,-1,-1,-1,-1,-1,-1,-1,-1,-1,-1,-1,-1,-1,-1,-1,-1,-1,-1,-1,-1,-1,-1,-1,-1,-1,-1,-1,-1,-1,-1,-1,-1,-1,-1,-1,-1,-1,-1,-1,-1,-1,-1,-1,-1,-1,-1,-1,-1,-1,-1,-1,-1,-1,-1,-1,-1,-1,-1,-1,-1],"split_conditions":[5E-1,0E0,1.1938654E-1,-5.98964E-1,1.0226205E-1,8.9251065E-1,5.2E-1,3.0197445E-1,-2.816448E-1,1.4925373E-2,-5.8778524E-1,-3.5164836E-1,5.2331068E-2,1.0021673E-1,-2.4630542E-1,9.8622866E-2,-1.0117173E0,-5.054582E0,-1.494024E-1,8E-2,8.1333333E-1,1.4895387E-1,9.5105654E-1,4.0039477E-1,1.8348624E-1,3.6096256E0,1.5083911E0,-7.919747E-2,8.389682E-2,5.1928353E-1,4.5870137E0,3.972424E1,3.6826824E1,1.1449602E0,6.730769E-1,5.733333E-1,4.0716612E-1,1.3131976E-1,1.4800197E-1,1E0,5.4103973E1,4.8417076E-2,-6.8404175E-2,1.0666667E-1,-2.771565E-1,4.1333333E-1,3.585658E1,-1.94882E-1,7.2139694E1,7.920792E-2,1E0,1.841822E-1,4.3564355E-1,5.4888827E-1,2.128051E0,3.2755383E1,5.924096E-1,5.8778524E-1,1E0,-2.1179873E-1,6.7911545E1,6.241259E-2,7.7789325E-1,5.1690817E-1,9.113486E-2,7.733333E-1,5.8778524E-1,6.419668E1,-1.567718E0,4.8401967E-1,1.3333334E-1,3.656881E1,2.0075327E-2,-5.8033216E-1,-2.5E-1,5E-2,2.751905E-1,5.2E-1,0E0,1.3871469E-1,3.5629982E1,3.3451748E-1,1.9808775E-1,3.09017E-1,5.505111E1,-4.162172E-2,7.7851996E-2,1.0749719E-1,1.3719848E-1,2.9067934E1,7.130231E1,2.2333616E-1,-9.729585E-2,1.7365079E-1,2.2333616E-1,1.9726325E-2,-5.951347E0,-1.8176413E-3,1.2343765E-2,9.5105654E-1,5.77401E-1,5.210683E-2,-6.7718797E0,9.824561E-2,-1.3270566E-1,-9.742078E-3,4.7352514E-3,6.615603E0,1.0616239E0,4.387418E-2,1.3917026E-2,0E0,6.533024E1,2.1459228E-1,4.742138E-2,9.986557E-1,7.2332986E-2,3.0685394E0,6.419668E1,7.590262E-2,1.8469354E-2,3.1740707E-1,-8.058174E-3,-2.4884298E0,1.3371016E-1,4.681275E-1,7.0666665E-1,-3.9806785E-3,6.1526436E-5,2.9667607E-3,-1.1854259E-2,6.380915E-3,1.8900989E-2,6.503356E-3,-3.1211851E-3,-2.254602E-3,-6.4392975E-3,-9.7046215E-3,-1.9292325E-2,-6.6626417E-3,-1.298123E-2,-7.173882E-3,-1.641177E-2,8.621682E-3,-2.118717E-2,7.38404E-4,-4.8201103E-3,7.4492856E-3,-1.245051E-2,-1.0589228E-2,-5.8010304E-3,-9.966588E-3,-1.35091785E-2,-1.1041195E-2,-1.5512007E-2,-1.2309636E-2,-1.7212657E-2,-8.809416E-3,-3.9190412E-3,1.0702337E-2,-1.7260693E-3,-1.588762E-3,-3.5803034E-3,-6.3182355E-4,4.0499084E-3,-8.885322E-3,-2.2062454E-3,-9.898256E-4,1.5134084E-3,9.466355E-3,4.68805E-3,2.7738295E-3,-3.2537524E-3,2.9149342E-3,-7.5860424E-3,2.0556853E-3,-6.1699706E-3,9.109018E-3,-1.3990178E-2,1.3081136E-2,-5.6797992E-3,5.373763E-3,-4.424853E-3,3.3742103E-3,1.1865275E-2,1.0894864E-2,-1.4274006E-2,-3.2601284E-3,8.243909E-3,1.7221142E-2,1.412034E-2,1.3405509E-2,6.5070004E-3,1.6082473E-2,1.0427489E-2,3.9613E-3,1.0616658E-2,-8.006892E-3,5.6276117E-3,5.356355E-3,-7.1157934E-3,1.332182E-2,7.976806E-3,4.2979233E-3,-8.920446E-3,-0E0,-1.3886738E-2,9.721706E-3,-2.309844E-3,-5.686212E-3,1.11377705E-2,1.2045045E-2,-3.7392945E-4,5.882845E-3,-8.6986786E-4,-2.1027008E-3,8.764568E-3,3.3942936E-3,-2.42367E-3,7.0639206E-3,7.900221E-4,6.136854E-3,1.3115157E-4,7.223809E-3,1.5942E-2,3.7082452E-3,2.0170389E-2,1.0526029E-2,4.5739296E-3,1.0550856E-2,-4.1286333E-4,4.182028E-3,-4.8305523E-3,1.5295935E-3,-8.298098E-3,9.930085E-3,-4.5373593E-3],"split_indices":[53,53,21,21,61,22,17,22,22,34,29,21,32,5,22,61,21,22,21,17,17,61,29,57,22,22,56,22,61,21,71,55,58,22,22,17,21,22,21,30,58,61,32,17,57,17,58,5,58,42,53,14,42,43,24,58,50,29,30,43,72,61,59,43,61,17,29,72,21,54,17,58,0,22,34,49,22,17,29,59,58,59,57,30,58,57,61,61,61,58,58,61,57,61,61,0,45,0,0,29,54,61,55,54,62,0,0,55,50,5,0,29,28,54,61,21,61,71,72,61,0,59,0,71,61,21,17,0,0,0,0,0,0,0,0,0,0,0,0,0,0,0,0,0,0,0,0,0,0,0,0,0,0,0,0,0,0,0,0,0,0,0,0,0,0,0,0,0,0,0,0,0,0,0,0,0,0,0,0,0,0,0,0,0,0,0,0,0,0,0,0,0,0,0,0,0,0,0,0,0,0,0,0,0,0,0,0,0,0,0,0,0,0,0,0,0,0,0,0,0,0,0,0,0,0,0,0,0,0,0,0,0,0,0,0,0,0],"split_type":[0,0,0,0,0,0,0,0,0,0,0,0,0,0,0,0,0,0,0,0,0,0,0,0,0,0,0,0,0,0,0,0,0,0,0,0,0,0,0,0,0,0,0,0,0,0,0,0,0,0,0,0,0,0,0,0,0,0,0,0,0,0,0,0,0,0,0,0,0,0,0,0,0,0,0,0,0,0,0,0,0,0,0,0,0,0,0,0,0,0,0,0,0,0,0,0,0,0,0,0,0,0,0,0,0,0,0,0,0,0,0,0,0,0,0,0,0,0,0,0,0,0,0,0,0,0,0,0,0,0,0,0,0,0,0,0,0,0,0,0,0,0,0,0,0,0,0,0,0,0,0,0,0,0,0,0,0,0,0,0,0,0,0,0,0,0,0,0,0,0,0,0,0,0,0,0,0,0,0,0,0,0,0,0,0,0,0,0,0,0,0,0,0,0,0,0,0,0,0,0,0,0,0,0,0,0,0,0,0,0,0,0,0,0,0,0,0,0,0,0,0,0,0,0,0,0,0,0,0,0,0,0,0,0,0,0,0],"sum_hessian":[9.357279E4,7.695155E4,1.6621242E4,1.4447651E4,6.250389E4,5.696549E3,1.0924694E4,6.2691084E3,8.178543E3,4.860906E4,1.3894831E4,4.918002E3,7.78547E2,5.752068E3,5.172626E3,4.1010083E3,2.1681006E3,2.2314158E3,5.9471274E3,2.8829488E4,1.9779572E4,5.4384336E3,8.456397E3,1.8939661E3,3.024036E3,5.050903E2,2.734567E2,2.136191E3,3.615877E3,9.3169165E2,4.2409346E3,3.3134626E3,7.8754553E2,1.417767E3,7.503335E2,1.3403593E2,2.09738E3,2.894836E3,3.0522913E3,4.154445E3,2.4675043E4,1.691873E4,2.8608408E3,4.636288E3,8.021453E2,6.146637E3,2.3097603E3,1.8481436E3,4.5822422E1,1.5858416E3,1.4381943E3,4.6772897E2,3.7361317E1,1.6505232E2,1.0840437E2,8.171168E2,1.3190742E3,1.5325171E3,2.0833596E3,1.7198273E2,7.597089E2,3.8633223E3,3.776122E2,2.8864514E3,4.2701114E2,2.5722485E2,5.303207E2,1.2428438E3,1.7492328E2,5.32672E2,2.1766153E2,5.871086E1,7.532507E1,1.4365721E3,6.6080774E2,1.5929409E3,1.3018951E3,1.4713966E3,1.5808947E3,3.5029563E3,6.5148865E2,1.699382E4,7.681223E3,1.1672445E3,1.5751486E4,7.3559283E2,2.125248E3,1.3379976E3,3.2982905E3,2.3848845E2,5.6365686E2,4.6930425E3,1.4535948E3,4.662368E2,1.8435234E3,2.589626E2,1.589181E3,2.084897E1,2.497345E1,6.776453E2,9.081962E2,9.850725E2,4.5312186E2,4.304227E1,4.246867E2,1.8430798E1,1.8930517E1,1.1826028E2,4.679205E1,9.035003E1,1.8054338E1,1.0303611E2,7.140807E2,4.7548172E2,8.435924E2,7.2146875E2,8.110484E2,1.3653073E3,7.180524E2,7.2183014E1,9.979971E1,7.2960535E2,3.0103577E1,1.7038536E3,2.1594688E3,2.9559332E2,8.2018875E1,1.9769722E3,9.094793E2,4.01801E2,2.5210148E1,2.1504645E2,4.2178406E1,1.8152261E2,3.4879807E2,9.517463E2,2.9109747E2,1.2455223E2,5.0371044E1,4.359081E2,9.676388E1,4.0490776E1,1.7717076E2,3.7970856E1,2.0740007E1,6.0346716E2,8.331049E2,3.383278E1,6.269749E2,3.030141E2,1.2899268E3,5.016513E2,8.0024384E2,9.689853E2,5.0241132E2,4.334915E2,1.1474032E3,9.8391693E2,2.5190393E3,1.6543979E2,4.860489E2,9.611821E3,7.381999E3,7.157672E3,5.2355115E2,4.30419E2,7.368255E2,8.231484E3,7.520003E3,2.9101553E2,4.445773E2,1.6313867E3,4.938612E2,1.6567165E2,1.1723259E3,2.7394626E3,5.588279E2,1.359901E2,1.0249836E2,4.637807E2,9.987618E1,4.5100347E3,1.8300813E2,2.4979291E2,1.203802E3,4.1262958E2,5.3607197E1,1.62584E3,2.1768346E2,6.746336E2,9.145474E2,4.618136E2,2.1583174E2,7.6872833E2,1.394679E2,9.735729E1,8.877152E2,2.200519E1,4.3111667E2,2.4313488E1,1.8728783E1,1.637355E2,2.609512E2,8.792828E1,3.0331995E1,1.9103111E1,2.7688938E1,3.5184628E1,5.51654E1,3.980019E1,6.323592E1,6.8352826E2,3.055245E1,3.319215E2,1.4356023E2,3.0507418E1,8.13085E2,3.780029E2,3.4346588E2,4.6440216E2,3.466462E2,1.0993466E3,2.6596066E2,5.766671E2,1.4138531E2,4.49711E1,2.7211916E1,2.1602223E2,5.1358307E2,1.1018997E2,1.5936637E3,2.0125624E3,1.4690625E2,6.962749E1,2.2596584E2,4.7512928E1,3.450595E1],"tree_param":{"num_deleted":"0","num_feature":"73","num_nodes":"237","size_leaf_vector":"1"}},{"base_weights":[5.741555E-4,-1.2463378E-1,5.8032244E-1,-5.541877E-1,-2.5569705E-2,9.855189E-1,3.680413E-1,-3.198369E-1,-8.9703804E-1,-9.6475855E-2,2.2210199E-1,1.1842475E0,8.2284147E-1,4.9546823E-1,2.2488922E-1,-1.5109268E-1,-5.0005454E-1,-9.356829E-1,2.9379785E-1,5.917941E-3,-2.6030532E-1,1.5240863E-1,6.5274155E-1,1.3525063E0,1.058865E0,8.8251984E-1,1.2600759E-1,6.2531084E-1,3.7565434E-1,7.189508E-1,1.2659508E-1,-2.0387394E-2,-4.3926746E-1,-4.0091202E-1,-7.422707E-1,-7.299586E-1,-1.1113861E0,-7.949203E-1,1.9405283E-2,-2.7995235E-1,6.317127E-2,-3.0757937E-1,5.3729948E-2,4.326422E-1,-7.3475874E-4,5.205064E-1,1.2472305E0,1.3786379E0,6.050904E-1,1.3001537E0,9.5747536E-1,9.083037E-1,-3.9187804E-1,-2.7519645E-2,9.896711E-1,2.2004862E-1,7.2022396E-1,7.551559E-1,2.8711984E-1,8.039828E-1,-8.829799E-1,1.0419308E-1,1.490464E0,-5.1647082E-2,7.543706E-1,-5.8127624E-1,8.9739434E-2,-1.695036E-1,-4.80442E-1,-4.4490004E-1,-8.5336465E-1,-5.754506E-1,-9.425766E-1,-1.1756018E0,-8.568416E-1,1.4714035E-1,-1.9500243E-2,-3.7590674E-1,3.260074E-1,-9.985463E-2,1.5363549E-1,-2.0485502E-1,-4.2295393E-1,4.941123E-1,-4.7477263E-1,4.605153E-1,-6.5003896E-1,1.3615003E-1,-2.6691887E-1,1.3997886E-1,8.0406713E-1,1.3607633E0,-6.362832E-5,1.169163E0,1.4776695E0,-0E0,1.3380748E-2,1.3355937E0,5.314353E-3,1.0232106E0,5.048052E-1,9.177596E-1,1.6431293E-3,5.664662E-3,-1.4040595E-2,4.059098E-1,-3.6398903E-1,1.7317578E-2,4.906122E-3,-2.5238532E-1,4.1408786E-1,8.873603E-1,5.281019E-1,-0E0,8.809767E-1,1.2268186E0,2.5739697E-1,2.0945033E-2,7.268569E-1,-2.1722807E-2,1.1153931E-3,2.0393522E-1,-1.3126768E-1,1.0955039E-2,2.0159082E-2,1.1569498E-5,-4.909235E-3,1.615646E-2,-1.1013187E-3,-1.09230485E-2,-4.1932925E-3,4.8969747E-3,-8.887571E-3,-3.2975564E-3,2.6595017E-3,-1.9709403E-3,-6.9808154E-3,-1.1558349E-2,-2.4254397E-3,-2.975987E-3,-1.0731161E-2,-5.36079E-3,-9.308337E-3,1.5998188E-3,-1.2014268E-2,-1.2351105E-2,-1.6147753E-2,-1.1984264E-2,1.4897729E-3,9.41688E-3,-9.82578E-3,-1.2452093E-2,-3.0891392E-3,-1.4804854E-2,6.019504E-3,2.30067E-3,-4.5444104E-3,3.635951E-3,5.825246E-4,-3.8257088E-3,-2.769761E-4,2.6526898E-3,-5.769648E-3,-1.434573E-2,8.078291E-3,-1.8316353E-2,-4.0594107E-3,4.5808847E-3,1.0981102E-2,-1.1766719E-2,7.183296E-3,-1.9230427E-3,3.5462684E-3,1.5095613E-4,-8.598908E-3,4.8237797E-3,-8.405635E-3,5.478989E-3,1.2656648E-2,1.7072093E-2,3.3782383E-3,1.6220229E-2,8.9272475E-3,1.5922725E-2,1.870037E-2,7.5755804E-3,1.6579723E-2,4.658884E-3,1.3079244E-2,-6.806761E-4,1.1089222E-2,9.807581E-3,1.1905395E-2,-3.5503407E-3,9.619072E-3,-1.0357441E-2,1.0570143E-3,1.7885963E-3,-7.88226E-3,7.051809E-3,-1.7478537E-3,1.3975275E-2,9.089975E-3,8.144381E-3,2.0509637E-3,6.1806785E-3,-1.23562105E-2,5.9109735E-3,1.2630425E-2,2.0942548E-2,6.4522726E-3,-1.6845696E-3,3.859908E-3,9.724422E-3,-2.0962246E-3,1.3647726E-3,8.496021E-3,-3.0453147E-3,4.269528E-3],"categories":[],"categories_nodes":[],"categories_segments":[],"categories_sizes":[],"default_left":[0,0,0,0,0,0,0,0,0,0,0,0,0,0,0,0,0,0,0,0,0,0,0,0,0,0,0,0,0,0,0,0,0,0,0,0,0,0,0,0,0,0,0,0,0,0,0,0,0,0,0,0,0,0,0,0,0,0,0,0,0,0,0,0,0,0,0,0,0,0,0,0,0,0,0,0,0,0,0,0,0,0,0,0,0,0,0,0,0,0,0,0,0,0,0,0,0,0,0,0,0,0,0,0,0,0,0,0,0,0,0,0,0,0,0,0,0,0,0,0,0,0,0,0,0,0,0,0,0,0,0,0,0,0,0,0,0,0,0,0,0,0,0,0,0,0,0,0,0,0,0,0,0,0,0,0,0,0,0,0,0,0,0,0,0,0,0,0,0,0,0,0,0,0,0,0,0,0,0,0,0,0,0,0,0,0,0,0,0,0,0,0,0,0,0,0,0,0,0,0,0,0,0,0,0,0,0,0,0,0,0,0,0,0,0,0,0,0,0],"id":4,"left_children":[1,3,5,7,9,11,13,15,17,19,21,23,25,27,29,31,33,35,37,39,41,43,45,47,49,51,53,55,57,59,61,63,65,67,69,71,73,75,-1,77,79,81,83,85,87,89,91,93,95,97,99,101,103,105,107,109,111,113,115,117,119,121,123,125,127,129,131,133,135,137,139,141,143,145,147,149,-1,151,153,155,157,159,161,163,165,167,169,171,173,175,177,179,-1,181,183,-1,-1,185,-1,187,189,191,-1,-1,-1,193,195,-1,-1,197,199,201,203,205,207,209,211,-1,213,-1,-1,215,217,-1,-1,-1,-1,-1,-1,-1,-1,-1,-1,-1,-1,-1,-1,-1,-1,-1,-1,-1,-1,-1,-1,-1,-1,-1,-1,-1,-1,-1,-1,-1,-1,-1,-1,-1,-1,-1,-1,-1,-1,-1,-1,-1,-1,-1,-1,-1,-1,-1,-1,-1,-1,-1,-1,-1,-1,-1,-1,-1,-1,-1,-1,-1,-1,-1,-1,-1,-1,-1,-1,-1,-1,-1,-1,-1,-1,-1,-1,-1,-1,-1,-1,-1,-1,-1,-1,-1,-1,-1,-1,-1,-1,-1,-1,-1,-1],"loss_changes":[6.7998364E3,3.2777634E3,1.4297227E3,1.1586626E3,1.0993479E3,1.8190137E2,1.9865088E2,2.603991E2,2.7049854E2,8.165917E2,4.1754297E2,5.010327E1,1.3035596E2,8.8869385E1,2.494556E2,1.6678326E2,9.839221E1,2.0261328E2,2.699078E2,4.901423E2,2.780951E2,5.150005E2,1.502525E2,1.8580322E1,3.2644897E1,9.634082E1,3.3903397E1,1.0562341E2,1.0019327E2,1.1759494E2,1.3021036E2,7.3692726E1,1.0420395E2,5.375943E1,3.824463E1,8.427966E1,4.692285E1,8.159169E1,0E0,2.9079358E2,3.681211E2,1.9238501E2,5.706685E2,1.2845502E2,2.8278574E2,1.709064E2,5.056482E1,1.6973877E1,1.2167742E1,1.1038635E1,2.9529846E1,1.9979004E1,4.083008E1,3.1647123E1,8.041565E0,4.876895E1,7.027014E1,5.4290405E1,6.692433E1,5.5149292E1,4.0705532E1,9.945755E1,3.180252E0,5.546006E1,5.996013E1,8.193408E1,7.8037415E1,3.139048E1,6.9609344E1,4.07864E1,2.0536316E1,3.7997314E1,6.9994446E1,5.6598877E1,8.7599396E1,3.1874983E1,0E0,3.371499E2,1.8807086E2,7.243182E2,2.5177353E2,1.7826367E2,2.8575122E2,4.0613693E2,1.5793141E2,1.4672845E2,4.543932E1,2.4216183E2,3.3169983E2,1.5064395E2,7.755029E1,1.9858032E1,0E0,2.3934906E1,2.9725342E0,0E0,0E0,1.0638733E1,0E0,3.724054E1,3.312605E1,1.8467285E1,0E0,0E0,0E0,2.6915241E1,2.8251232E1,0E0,0E0,2.5529194E1,3.695758E1,4.0239746E1,5.5730255E1,4.5040863E1,3.0619385E1,2.3391312E1,6.0848648E1,0E0,5.736734E1,0E0,0E0,1.3466818E2,7.5235535E1,0E0,0E0,0E0,0E0,0E0,0E0,0E0,0E0,0E0,0E0,0E0,0E0,0E0,0E0,0E0,0E0,0E0,0E0,0E0,0E0,0E0,0E0,0E0,0E0,0E0,0E0,0E0,0E0,0E0,0E0,0E0,0E0,0E0,0E0,0E0,0E0,0E0,0E0,0E0,0E0,0E0,0E0,0E0,0E0,0E0,0E0,0E0,0E0,0E0,0E0,0E0,0E0,0E0,0E0,0E0,0E0,0E0,0E0,0E0,0E0,0E0,0E0,0E0,0E0,0E0,0E0,0E0,0E0,0E0,0E0,0E0,0E0,0E0,0E0,0E0,0E0,0E0,0E0,0E0,0E0,0E0,0E0,0E0,0E0,0E0,0E0,0E0,0E0,0E0,0E0,0E0,0E0,0E0,0E0,0E0,0E0],"parents":[2147483647,0,0,1,1,2,2,3,3,4,4,5,5,6,6,7,7,8,8,9,9,10,10,11,11,12,12,13,13,14,14,15,15,16,16,17,17,18,18,19,19,20,20,21,21,22,22,23,23,24,24,25,25,26,26,27,27,28,28,29,29,30,30,31,31,32,32,33,33,34,34,35,35,36,36,37,37,39,39,40,40,41,41,42,42,43,43,44,44,45,45,46,46,47,47,48,48,49,49,50,50,51,51,52,52,53,53,54,54,55,55,56,56,57,57,58,58,59,59,60,60,61,61,62,62,63,63,64,64,65,65,66,66,67,67,68,68,69,69,70,70,71,71,72,72,73,73,74,74,75,75,77,77,78,78,79,79,80,80,81,81,82,82,83,83,84,84,85,85,86,86,87,87,88,88,89,89,90,90,91,91,93,93,94,94,97,97,99,99,100,100,101,101,105,105,106,106,109,109,110,110,111,111,112,112,113,113,114,114,115,115,116,116,118,118,121,121,122,122],"right_children":[2,4,6,8,10,12,14,16,18,20,22,24,26,28,30,32,34,36,38,40,42,44,46,48,50,52,54,56,58,60,62,64,66,68,70,72,74,76,-1,78,80,82,84,86,88,90,92,94,96,98,100,102,104,106,108,110,112,114,116,118,120,122,124,126,128,130,132,134,136,138,140,142,144,146,148,150,-1,152,154,156,158,160,162,164,166,168,170,172,174,176,178,180,-1,182,184,-1,-1,186,-1,188,190,192,-1,-1,-1,194,196,-1,-1,198,200,202,204,206,208,210,212,-1,214,-1,-1,216,218,-1,-1,-1,-1,-1,-1,-1,-1,-1,-1,-1,-1,-1,-1,-1,-1,-1,-1,-1,-1,-1,-1,-1,-1,-1,-1,-1,-1,-1,-1,-1,-1,-1,-1,-1,-1,-1,-1,-1,-1,-1,-1,-1,-1,-1,-1,-1,-1,-1,-1,-1,-1,-1,-1,-1,-1,-1,-1,-1,-1,-1,-1,-1,-1,-1,-1,-1,-1,-1,-1,-1,-1,-1,-1,-1,-1,-1,-1,-1,-1,-1,-1,-1,-1,-1,-1,-1,-1,-1,-1,-1,-1,-1,-1,-1,-1],"split_conditions":[5E-1,0E0,1.1938654E-1,-3.0239424E-1,1.0226205E-1,4.7083866E1,5.2E-1,-8.7979436E-1,1.969323E-1,5.7880733E1,1E0,-5.072869E-1,8.486685E0,-1.1664385E0,3.9563297E1,6.182498E1,6.18058E1,5.0325188E1,5.733333E-1,2E-1,8.1333333E-1,3.09017E-1,4.4E-1,1.02811806E-1,3.9806225E1,1.4761761E0,8.1333333E-1,-4.193609E1,5.2007523E1,1.4895387E-1,3.1623837E-1,6.136084E1,1.4313978E1,3.671171E1,1.2765957E-1,5.0666666E-1,9.9571176E-2,3.656881E1,1.9405283E-2,1E0,4.6365715E1,4.9333334E-1,6.4134514E1,2.2333616E-1,6.370824E1,4.6201553E1,6.352694E1,1.7617771E-1,-8.543965E-2,4.9095645E2,3.7569833E0,8.042676E0,4.801249E-1,4.83556E1,-2.5E-1,4.0935448E1,-2.7434065E0,3.904566E1,2.2321085E1,3.7319054E1,2.2333616E-1,6.1269543E1,1.1265137E0,6.3066296E1,-1.1847425E-1,6.5120766E1,4.8990047E1,9.8226875E-2,1.3216452E-1,4.666459E1,-3.4201857E-1,4.5642025E1,3.8724285E1,2.4060151E-1,6.2666667E-1,-6.361011E0,-1.9500243E-2,3.1011705E1,6.35819E-2,4.0044037E1,5.2167683E1,3.2E-1,-5.98707E-2,5.856139E1,6.429348E1,1.4294703E-1,4.5186504E1,1.2E-1,5.02244E1,1.5213022E-1,3.1207725E-1,2.2333616E-1,-6.362832E-5,-2.2442086E0,8.719229E-1,-0E0,1.3380748E-2,5.4487772E-2,5.314353E-3,-4.9888138E1,8.519002E-2,3.3333334E-1,1.6431293E-3,5.664662E-3,-1.4040595E-2,8.955065E-3,1.0891089E-1,1.7317578E-2,4.906122E-3,-1.8030378E0,1.2122653E0,-9.784736E0,1.0878378E0,3.813405E1,3.896474E1,7.686692E1,4.192033E1,2.0945033E-2,2.2192667E2,-2.1722807E-2,1.1153931E-3,5.8986977E1,1.7180146E0,1.0955039E-2,2.0159082E-2,1.1569498E-5,-4.909235E-3,1.615646E-2,-1.1013187E-3,-1.09230485E-2,-4.1932925E-3,4.8969747E-3,-8.887571E-3,-3.2975564E-3,2.6595017E-3,-1.9709403E-3,-6.9808154E-3,-1.1558349E-2,-2.4254397E-3,-2.975987E-3,-1.0731161E-2,-5.36079E-3,-9.308337E-3,1.5998188E-3,-1.2014268E-2,-1.2351105E-2,-1.6147753E-2,-1.1984264E-2,1.4897729E-3,9.41688E-3,-9.82578E-3,-1.2452093E-2,-3.0891392E-3,-1.4804854E-2,6.019504E-3,2.30067E-3,-4.5444104E-3,3.635951E-3,5.825246E-4,-3.8257088E-3,-2.769761E-4,2.6526898E-3,-5.769648E-3,-1.434573E-2,8.078291E-3,-1.8316353E-2,-4.0594107E-3,4.5808847E-3,1.0981102E-2,-1.1766719E-2,7.183296E-3,-1.9230427E-3,3.5462684E-3,1.5095613E-4,-8.598908E-3,4.8237797E-3,-8.405635E-3,5.478989E-3,1.2656648E-2,1.7072093E-2,3.3782383E-3,1.6220229E-2,8.9272475E-3,1.5922725E-2,1.870037E-2,7.5755804E-3,1.6579723E-2,4.658884E-3,1.3079244E-2,-6.806761E-4,1.1089222E-2,9.807581E-3,1.1905395E-2,-3.5503407E-3,9.619072E-3,-1.0357441E-2,1.0570143E-3,1.7885963E-3,-7.88226E-3,7.051809E-3,-1.7478537E-3,1.3975275E-2,9.089975E-3,8.144381E-3,2.0509637E-3,6.1806785E-3,-1.23562105E-2,5.9109735E-3,1.2630425E-2,2.0942548E-2,6.4522726E-3,-1.6845696E-3,3.859908E-3,9.724422E-3,-2.0962246E-3,1.3647726E-3,8.496021E-3,-3.0453147E-3,4.269528E-3],"split_indices":[53,53,21,21,61,0,17,21,61,64,30,21,52,52,64,64,64,0,17,17,17,30,17,60,58,14,17,55,0,61,57,64,55,0,23,17,61,58,0,30,64,17,64,61,64,64,58,12,32,52,52,56,12,58,34,72,52,64,64,58,61,64,10,72,24,64,58,61,12,51,70,0,64,21,17,28,0,58,61,64,64,17,60,64,64,61,66,17,58,61,12,61,0,45,56,0,0,61,0,55,69,17,0,0,0,6,42,0,0,45,21,45,21,64,66,58,64,0,52,0,0,64,52,0,0,0,0,0,0,0,0,0,0,0,0,0,0,0,0,0,0,0,0,0,0,0,0,0,0,0,0,0,0,0,0,0,0,0,0,0,0,0,0,0,0,0,0,0,0,0,0,0,0,0,0,0,0,0,0,0,0,0,0,0,0,0,0,0,0,0,0,0,0,0,0,0,0,0,0,0,0,0,0,0,0,0,0,0,0,0,0,0,0,0,0,0,0,0,0],"split_type":[0,0,0,0,0,0,0,0,0,0,0,0,0,0,0,0,0,0,0,0,0,0,0,0,0,0,0,0,0,0,0,0,0,0,0,0,0,0,0,0,0,0,0,0,0,0,0,0,0,0,0,0,0,0,0,0,0,0,0,0,0,0,0,0,0,0,0,0,0,0,0,0,0,0,0,0,0,0,0,0,0,0,0,0,0,0,0,0,0,0,0,0,0,0,0,0,0,0,0,0,0,0,0,0,0,0,0,0,0,0,0,0,0,0,0,0,0,0,0,0,0,0,0,0,0,0,0,0,0,0,0,0,0,0,0,0,0,0,0,0,0,0,0,0,0,0,0,0,0,0,0,0,0,0,0,0,0,0,0,0,0,0,0,0,0,0,0,0,0,0,0,0,0,0,0,0,0,0,0,0,0,0,0,0,0,0,0,0,0,0,0,0,0,0,0,0,0,0,0,0,0,0,0,0,0,0,0,0,0,0,0,0,0,0,0,0,0,0,0],"sum_hessian":[9.366859E4,7.703261E4,1.6635984E4,1.4433398E4,6.2599215E4,5.715932E3,1.0920053E4,8.576423E3,5.8569756E3,4.866897E4,1.3930244E4,2.565839E3,3.1500928E3,5.772893E3,5.1471597E3,4.4325337E3,4.1438896E3,5.6737017E3,1.8327368E2,2.99494E4,1.8719568E4,1.1993175E4,1.9370688E3,1.0855327E3,1.4803064E3,2.9004421E3,2.4965076E2,2.7644456E3,3.0084478E3,8.511681E2,4.2959917E3,3.0520945E3,1.3804391E3,2.9455916E3,1.1982981E3,2.6196294E3,3.0540723E3,1.0078017E2,8.2493515E1,4.9945776E3,2.4954824E4,1.6271703E4,2.447866E3,4.2379194E3,7.755256E3,1.5883552E3,3.4871362E2,1.0465834E3,3.8949425E1,4.2952863E2,1.0507777E3,2.8438713E3,5.6570747E1,2.131228E2,3.6527958E1,5.2683936E2,2.2376062E3,5.651663E2,2.4432812E3,8.09507E2,4.166103E1,4.2290474E3,6.694414E1,2.9361401E3,1.1595439E2,1.0888824E3,2.9155655E2,7.5661566E2,2.1889758E3,3.2985886E2,8.684392E2,1.522792E3,1.0968374E3,2.4314666E3,6.2260583E2,4.7695183E1,5.3084984E1,4.313167E3,6.814103E2,8.903699E3,1.6051124E4,8.6129795E3,7.658724E3,1.3358368E3,1.112029E3,4.133125E3,1.0479422E2,5.120926E3,2.63433E3,6.8024426E2,9.081109E2,3.1993985E2,2.8773792E1,3.4579874E2,7.007846E2,1.9104872E1,1.9844553E1,4.1084543E2,1.8683186E1,9.1437054E2,1.3640717E2,2.8084167E3,3.545464E1,2.687647E1,2.9694279E1,9.231137E1,1.2081143E2,1.8362236E1,1.8165724E1,1.5246048E2,3.7437888E2,1.1913513E3,1.0462548E3,8.048512E1,4.8468118E2,7.192651E1,2.3713547E3,5.7529488E1,7.5197754E2,2.0749245E1,2.0911787E1,2.9723423E3,1.2567052E3,2.006244E1,4.68817E1,2.5599556E3,3.7618454E2,6.787482E1,4.807958E1,4.468236E2,6.420589E2,2.1192819E2,7.962836E1,5.9761066E2,1.5900499E2,5.335656E2,1.6554102E3,1.0267352E2,2.2718535E2,5.6626736E1,8.1181244E2,9.323993E2,5.9039276E2,5.609378E1,1.0407435E3,1.315967E3,1.1154995E3,5.443663E2,7.823953E1,2.9268623E1,1.842656E1,6.5194696E2,3.6612202E3,6.745079E1,6.1395953E2,4.351921E3,4.5517783E3,6.6257837E3,9.42534E3,5.2914854E3,3.3214937E3,6.300832E2,7.028641E3,1.2666077E2,1.209176E3,1.24991165E2,9.870379E2,3.5267444E3,6.0638055E2,8.351687E1,2.1277351E1,1.7895463E3,3.3313794E3,1.6250564E3,1.0092736E3,5.1982996E2,1.604143E2,3.837502E2,5.243607E2,3.0154208E2,1.8397749E1,2.3807484E2,1.07723885E2,2.5862854E2,4.4215604E2,2.7686031E1,3.8315942E2,8.8959465E1,8.254111E2,5.8542778E1,7.7864395E1,1.2075874E3,1.6008293E3,3.3008625E1,5.9302742E1,5.7078735E1,6.37327E1,7.653074E1,7.592974E1,2.8637445E2,8.800442E1,3.7371448E2,8.176369E2,7.337102E2,3.1254453E2,5.4020554E1,2.646457E1,1.517616E2,3.329196E2,3.888497E1,3.3041546E1,3.2840427E2,2.0429506E3,6.889185E2,6.3059036E1,2.5240918E3,4.4825043E2,1.0057242E3,2.5098102E2],"tree_param":{"num_deleted":"0","num_feature":"73","num_nodes":"219","size_leaf_vector":"1"}},{"base_weights":[1.147774E-3,-1.2074182E-1,5.6688637E-1,-5.440781E-1,-2.2690175E-2,8.6613965E-1,3.7841317E-1,-3.2291895E-1,-8.0874884E-1,-9.612398E-2,2.3237523E-1,1.0893718E0,6.849222E-1,1.7605467E-1,4.6953923E-1,-5.811091E-2,-4.377321E-1,-2.5198007E-1,-9.416871E-1,-2.3176977E-3,-2.842176E-1,-1.2254699E-2,3.8825923E-1,8.686766E-1,1.1847789E0,7.6866245E-1,2.2160129E-1,8.463687E-1,1.1648995E-1,5.051207E-1,-8.617342E-2,-2.0967291E-1,1.4262956E-1,-3.3376542E-1,-6.604876E-1,8.058701E-1,-3.7305072E-1,-7.3279715E-1,-1.0864714E0,-9.273082E-2,1.2217338E-1,4.9601647E-1,-3.1900316E-1,-1.1023688E-1,5.545939E-1,6.06105E-1,1.7273906E-1,9.453775E-1,2.86521E-1,6.003476E-1,1.2350185E0,6.241427E-1,9.946133E-1,4.7573623E-1,-1.4088035E-1,-1.1610679E-2,1.1234894E0,-1.1700189E0,1.5539658E-1,5.9247893E-1,3.332512E-1,-1.710049E-1,1.4615573E-2,-3.3360192E-1,5.1988542E-2,6.1878845E-2,6.156543E-1,-3.5761294E-1,7.759765E-1,-5.1931304E-1,-9.4661397E-1,-1.9852689E-1,2.023227E-2,-4.0335882E-2,-8.13712E-1,-4.953862E-1,-9.2780393E-1,-9.732808E-1,-1.2083728E0,-2.059214E-1,-4.2647184E-3,-3.1762096E-1,1.5797666E-1,1.247133E0,-1.2659949E-1,-9.59095E-1,-2.8480154E-1,-4.4113898E-1,1.1095217E-1,-2.2718292E-2,8.899618E-1,5.660371E-1,1.1418902E0,3.7709033E-1,3.8944513E-2,1.0593948E0,4.2818594E-1,1.2614085E-2,5.2006427E-2,7.9026E-1,-7.964714E-3,1.2996974E0,1.006128E0,-1.6662126E-2,6.493322E-1,1.2214396E0,8.018789E-1,-1.5687871E-1,6.437478E-1,4.648666E-3,-8.2690805E-1,-4.047586E-1,9.776002E-3,1.2947503E0,4.2910793E-1,-4.210841E-3,-1.395013E0,2.794198E-1,-1.465532E-1,4.5703048E-1,7.412285E-1,-6.0134226E-1,3.9524558E-1,-6.648488E-1,-1.3272089E-2,-2.2243941E-3,-9.931977E-3,1.1704403E-2,-1.156108E-3,-9.119961E-4,4.5410176E-3,4.8927646E-3,1.6484188E-2,-7.2972327E-3,-2.8191775E-3,3.5507109E-3,1.741433E-2,-1.9017269E-3,-8.232489E-3,-1.273602E-2,-4.5959754E-3,1.2239838E-2,-1.9053211E-2,-1.9745182E-3,4.8546535E-3,1.4807889E-3,-1.0822246E-2,-1.0485765E-2,-4.76421E-3,-9.699561E-3,-1.2976764E-2,-1.2969515E-2,-6.215887E-3,-1.1915004E-2,-1.6211206E-2,-5.012633E-3,1.4598007E-4,4.027765E-3,-1.163232E-3,-9.65179E-3,2.6487536E-3,7.375389E-3,1.351528E-3,1.6310196E-2,-4.5919395E-4,-4.589145E-3,5.5124434E-3,-1.3756546E-2,7.963617E-3,-1.5482198E-3,-4.332456E-3,2.6256957E-3,-1.2025486E-2,1.1568184E-2,-2.682753E-3,1.5434767E-2,-1.366471E-2,1.5037182E-2,-5.620558E-3,7.633926E-3,3.8855528E-3,7.873394E-3,1.7852915E-2,-4.8057042E-4,9.775893E-3,4.3744403E-3,-2.4324623E-3,7.973259E-3,1.3856136E-2,8.590887E-3,-1.787879E-3,-6.6326135E-3,5.4461034E-3,3.5657347E-4,1.23500405E-2,1.5034892E-2,1.913649E-2,5.966726E-3,1.286966E-2,1.0412445E-2,6.1994554E-3,1.5810223E-2,8.615369E-3,1.026561E-2,-1.7483793E-3,5.429284E-3,-1.1865844E-2,-9.1484014E-4,8.976064E-3,-6.1015077E-3,3.077856E-3,-1.9219192E-2,-3.358162E-4,-1.1179745E-2,3.8704851E-3,1.7333169E-2,5.4451115E-3,-0E0,9.395548E-3,-2.0545973E-2,-6.371778E-3,2.1045045E-3,7.906201E-3,1.8917102E-3,-3.5784591E-3,3.7890924E-3,9.319986E-3,4.1325465E-3,9.957583E-3,7.7758613E-3,-1.6871845E-2,3.4190405E-3,9.634772E-3,1.0201059E-3,-1.4859366E-2,1.564243E-3,-9.482393E-3],"categories":[],"categories_nodes":[],"categories_segments":[],"categories_sizes":[],"default_left":[0,0,0,0,0,0,0,0,0,0,0,0,0,0,0,0,0,0,0,0,0,0,0,0,0,0,0,0,0,0,0,0,0,0,0,0,0,0,0,0,0,0,0,0,0,0,0,0,0,0,0,0,0,0,0,0,0,0,0,0,0,0,0,0,0,0,0,0,0,0,0,0,0,0,0,0,0,0,0,0,0,0,0,0,0,0,0,0,0,0,0,0,0,0,0,0,0,0,0,0,0,0,0,0,0,0,0,0,0,0,0,0,0,0,0,0,0,0,0,0,0,0,0,0,0,0,0,0,0,0,0,0,0,0,0,0,0,0,0,0,0,0,0,0,0,0,0,0,0,0,0,0,0,0,0,0,0,0,0,0,0,0,0,0,0,0,0,0,0,0,0,0,0,0,0,0,0,0,0,0,0,0,0,0,0,0,0,0,0,0,0,0,0,0,0,0,0,0,0,0,0,0,0,0,0,0,0,0,0,0,0,0,0,0,0,0,0,0,0,0,0,0,0,0,0,0,0,0,0,0,0,0,0,0,0,0,0],"id":5,"left_children":[1,3,5,7,9,11,13,15,17,19,21,23,25,27,29,31,33,35,37,39,41,43,45,47,49,51,53,55,57,59,61,63,65,67,69,71,73,75,77,79,81,83,85,87,89,91,93,95,97,99,101,103,105,107,109,111,113,115,117,119,121,123,-1,125,127,129,131,133,135,137,139,141,-1,143,145,147,149,151,153,155,157,159,161,163,165,167,169,171,173,175,177,179,181,183,185,187,189,-1,191,193,-1,195,197,-1,199,201,203,205,207,209,211,213,-1,215,217,-1,219,221,223,225,227,229,231,233,235,-1,-1,-1,-1,-1,-1,-1,-1,-1,-1,-1,-1,-1,-1,-1,-1,-1,-1,-1,-1,-1,-1,-1,-1,-1,-1,-1,-1,-1,-1,-1,-1,-1,-1,-1,-1,-1,-1,-1,-1,-1,-1,-1,-1,-1,-1,-1,-1,-1,-1,-1,-1,-1,-1,-1,-1,-1,-1,-1,-1,-1,-1,-1,-1,-1,-1,-1,-1,-1,-1,-1,-1,-1,-1,-1,-1,-1,-1,-1,-1,-1,-1,-1,-1,-1,-1,-1,-1,-1,-1,-1,-1,-1,-1,-1,-1,-1,-1,-1,-1,-1,-1,-1,-1,-1,-1,-1,-1,-1,-1,-1,-1],"loss_changes":[6.453574E3,3.195652E3,9.3439355E2,8.4640137E2,1.1709694E3,2.5685352E2,1.8729504E2,2.3964423E2,4.8658496E2,8.5641223E2,5.3310315E2,5.7273926E1,1.3664868E2,1.25763115E2,1.3907556E2,7.28228E1,1.2651807E2,1.6347107E2,1.5831055E2,3.6463574E2,4.3862024E2,3.0202914E2,4.0020776E2,3.788098E1,5.6156006E1,9.589258E1,5.0611954E1,6.17912E1,1.4558179E2,9.819641E1,4.6713634E1,4.4416733E1,3.8857967E1,9.979419E1,6.887988E1,1.1720144E2,1.6729153E2,9.949292E1,3.9812744E1,1.8784248E2,2.1460217E2,3.2335718E2,3.3739233E2,3.3990698E2,1.5561218E2,8.895361E1,1.1720032E2,4.3806885E1,1.8241297E1,4.01339E1,2.3379639E1,9.451782E1,4.7974976E1,3.470397E1,2.2964264E1,2.1371275E1,2.1222076E1,1.3871918E1,1.06055786E2,8.6761475E1,1.2956444E2,3.076065E1,0E0,6.7106575E1,6.0745064E1,3.8675056E1,2.1441685E1,1.1239755E2,2.3955212E1,7.0102905E1,3.5567017E1,1.0965492E2,0E0,3.619713E1,4.1215546E1,3.5541718E1,1.9256104E1,7.8256714E1,4.218701E1,3.8043323E2,3.319541E2,2.6934286E2,2.6050735E2,4.5857056E1,5.705118E1,2.3967279E2,1.740553E2,6.89608E2,7.946802E2,4.350137E2,2.5187122E2,6.625903E1,4.6106567E1,3.1034708E2,2.0475328E2,2.124524E1,2.4309868E1,0E0,2.0687609E1,2.5315155E1,0E0,1.4197754E1,1.214563E1,0E0,5.1009766E1,2.2744263E1,3.2952118E1,3.5949184E1,1.9643707E1,2.4388205E1,2.3934788E1,1.8293797E1,0E0,1.723758E1,6.5298767E0,0E0,1.5086487E1,7.856462E1,3.8155514E1,1.0255182E2,7.1865845E1,1.4193156E2,9.3120026E1,4.202194E1,3.4634567E1,0E0,0E0,0E0,0E0,0E0,0E0,0E0,0E0,0E0,0E0,0E0,0E0,0E0,0E0,0E0,0E0,0E0,0E0,0E0,0E0,0E0,0E0,0E0,0E0,0E0,0E0,0E0,0E0,0E0,0E0,0E0,0E0,0E0,0E0,0E0,0E0,0E0,0E0,0E0,0E0,0E0,0E0,0E0,0E0,0E0,0E0,0E0,0E0,0E0,0E0,0E0,0E0,0E0,0E0,0E0,0E0,0E0,0E0,0E0,0E0,0E0,0E0,0E0,0E0,0E0,0E0,0E0,0E0,0E0,0E0,0E0,0E0,0E0,0E0,0E0,0E0,0E0,0E0,0E0,0E0,0E0,0E0,0E0,0E0,0E0,0E0,0E0,0E0,0E0,0E0,0E0,0E0,0E0,0E0,0E0,0E0,0E0,0E0,0E0,0E0,0E0,0E0,0E0,0E0,0E0,0E0,0E0,0E0,0E0,0E0,0E0,0E0],"parents":[2147483647,0,0,1,1,2,2,3,3,4,4,5,5,6,6,7,7,8,8,9,9,10,10,11,11,12,12,13,13,14,14,15,15,16,16,17,17,18,18,19,19,20,20,21,21,22,22,23,23,24,24,25,25,26,26,27,27,28,28,29,29,30,30,31,31,32,32,33,33,34,34,35,35,36,36,37,37,38,38,39,39,40,40,41,41,42,42,43,43,44,44,45,45,46,46,47,47,48,48,49,49,50,50,51,51,52,52,53,53,54,54,55,55,56,56,57,57,58,58,59,59,60,60,61,61,63,63,64,64,65,65,66,66,67,67,68,68,69,69,70,70,71,71,73,73,74,74,75,75,76,76,77,77,78,78,79,79,80,80,81,81,82,82,83,83,84,84,85,85,86,86,87,87,88,88,89,89,90,90,91,91,92,92,93,93,94,94,95,95,96,96,98,98,99,99,101,101,102,102,104,104,105,105,106,106,107,107,108,108,109,109,110,110,111,111,113,113,114,114,116,116,117,117,118,118,119,119,120,120,121,121,122,122,123,123,124,124],"right_children":[2,4,6,8,10,12,14,16,18,20,22,24,26,28,30,32,34,36,38,40,42,44,46,48,50,52,54,56,58,60,62,64,66,68,70,72,74,76,78,80,82,84,86,88,90,92,94,96,98,100,102,104,106,108,110,112,114,116,118,120,122,124,-1,126,128,130,132,134,136,138,140,142,-1,144,146,148,150,152,154,156,158,160,162,164,166,168,170,172,174,176,178,180,182,184,186,188,190,-1,192,194,-1,196,198,-1,200,202,204,206,208,210,212,214,-1,216,218,-1,220,222,224,226,228,230,232,234,236,-1,-1,-1,-1,-1,-1,-1,-1,-1,-1,-1,-1,-1,-1,-1,-1,-1,-1,-1,-1,-1,-1,-1,-1,-1,-1,-1,-1,-1,-1,-1,-1,-1,-1,-1,-1,-1,-1,-1,-1,-1,-1,-1,-1,-1,-1,-1,-1,-1,-1,-1,-1,-1,-1,-1,-1,-1,-1,-1,-1,-1,-1,-1,-1,-1,-1,-1,-1,-1,-1,-1,-1,-1,-1,-1,-1,-1,-1,-1,-1,-1,-1,-1,-1,-1,-1,-1,-1,-1,-1,-1,-1,-1,-1,-1,-1,-1,-1,-1,-1,-1,-1,-1,-1,-1,-1,-1,-1,-1,-1,-1,-1],"split_conditions":[5E-1,0E0,8.403362E-3,3.1578946E-1,1.0226205E-1,4.748689E1,6.261865E-2,-6.1349694E-2,-4.6609533E-1,1.821588E0,-5.8778524E-1,8.340226E-2,8.9251065E-1,-8.0809593E-1,2.2192667E2,1.8448166E1,6.194784E1,-5.054582E0,0E0,2.1276595E-2,5.5615856E1,1.4895387E-1,5.8778524E-1,2.2752998E1,-3.8796436E1,3.0666667E-1,1.8218083E0,6.2666667E-1,4.6646145E1,1.7506154E0,3.6601307E1,7.0666665E-1,6.3686996E1,3.8671222E0,3.5656972E0,5.733333E-1,6.666667E-1,4.6425257E-2,5.8778524E-1,4.875342E1,-2.3928626E0,5.5579513E-1,1.8773038E0,5.3274757E-1,-1.0415117E-1,7.7227724E-1,5.4485165E1,2.4974165E0,3.7101013E1,6.6311724E-2,3.4567901E-1,-4.834005E0,1.3944769E-1,0E0,1.7828785E0,1.5589052E1,1.3889815E-1,5.733333E-1,6.1269543E1,4.893388E1,5.5079056E1,8.1968166E-2,1.4615573E-2,2.9308012E0,-1.1395936E0,9.3939796E-2,-1.3470282E-1,3.3333334E-1,-1.00354105E-2,4.0932514E1,1E0,3.389447E1,2.023227E-2,2.0588291E1,-7.549814E-1,2.8E-1,3.4418604E-1,9.605513E-2,9.70156E-1,0E0,5.2167683E1,5.8778524E-1,3.9312157E1,8.380011E-1,1E0,8.1333333E-1,6.182498E1,-1.2439662E0,5.5701477E1,2.1335695E0,7.130231E1,6.809872E1,-2.2695774E-1,4.2065144E1,9.5105654E-1,1.1121852E1,6.943881E-2,1.2614085E-2,1.4499831E-3,1.2392338E-1,-7.964714E-3,1.2157499E-1,6.4050354E-2,-1.6662126E-2,-1.816118E0,5.332484E-1,6.8158005E1,1.2820513E0,9.767137E-1,3.6307997E-1,4.909091E-1,2.041107E-1,9.776002E-3,1.782996E0,3.1974086E-1,-4.210841E-3,7.4666667E-1,7.469328E0,5.3333336E-1,9.971868E0,0E0,4.2666668E-1,1.2051361E-1,0E0,6.4200874E1,-2.2243941E-3,-9.931977E-3,1.1704403E-2,-1.156108E-3,-9.119961E-4,4.5410176E-3,4.8927646E-3,1.6484188E-2,-7.2972327E-3,-2.8191775E-3,3.5507109E-3,1.741433E-2,-1.9017269E-3,-8.232489E-3,-1.273602E-2,-4.5959754E-3,1.2239838E-2,-1.9053211E-2,-1.9745182E-3,4.8546535E-3,1.4807889E-3,-1.0822246E-2,-1.0485765E-2,-4.76421E-3,-9.699561E-3,-1.2976764E-2,-1.2969515E-2,-6.215887E-3,-1.1915004E-2,-1.6211206E-2,-5.012633E-3,1.4598007E-4,4.027765E-3,-1.163232E-3,-9.65179E-3,2.6487536E-3,7.375389E-3,1.351528E-3,1.6310196E-2,-4.5919395E-4,-4.589145E-3,5.5124434E-3,-1.3756546E-2,7.963617E-3,-1.5482198E-3,-4.332456E-3,2.6256957E-3,-1.2025486E-2,1.1568184E-2,-2.682753E-3,1.5434767E-2,-1.366471E-2,1.5037182E-2,-5.620558E-3,7.633926E-3,3.8855528E-3,7.873394E-3,1.7852915E-2,-4.8057042E-4,9.775893E-3,4.3744403E-3,-2.4324623E-3,7.973259E-3,1.3856136E-2,8.590887E-3,-1.787879E-3,-6.6326135E-3,5.4461034E-3,3.5657347E-4,1.23500405E-2,1.5034892E-2,1.913649E-2,5.966726E-3,1.286966E-2,1.0412445E-2,6.1994554E-3,1.5810223E-2,8.615369E-3,1.026561E-2,-1.7483793E-3,5.429284E-3,-1.1865844E-2,-9.1484014E-4,8.976064E-3,-6.1015077E-3,3.077856E-3,-1.9219192E-2,-3.358162E-4,-1.1179745E-2,3.8704851E-3,1.7333169E-2,5.4451115E-3,-0E0,9.395548E-3,-2.0545973E-2,-6.371778E-3,2.1045045E-3,7.906201E-3,1.8917102E-3,-3.5784591E-3,3.7890924E-3,9.319986E-3,4.1325465E-3,9.957583E-3,7.7758613E-3,-1.6871845E-2,3.4190405E-3,9.634772E-3,1.0201059E-3,-1.4859366E-2,1.564243E-3,-9.482393E-3],"split_indices":[53,53,34,23,61,0,61,22,22,63,29,69,22,63,52,9,64,22,34,34,64,61,29,46,52,17,55,17,64,63,46,17,55,63,63,17,23,22,29,64,63,59,63,63,60,42,64,52,58,60,23,63,22,29,14,46,43,17,64,64,64,69,0,63,63,61,22,17,68,58,30,58,0,9,25,17,22,61,63,29,64,29,64,16,30,17,64,63,64,63,58,58,63,64,29,9,69,0,25,67,0,61,61,0,52,54,72,22,22,14,23,54,0,11,16,0,17,55,17,55,29,17,61,29,66,0,0,0,0,0,0,0,0,0,0,0,0,0,0,0,0,0,0,0,0,0,0,0,0,0,0,0,0,0,0,0,0,0,0,0,0,0,0,0,0,0,0,0,0,0,0,0,0,0,0,0,0,0,0,0,0,0,0,0,0,0,0,0,0,0,0,0,0,0,0,0,0,0,0,0,0,0,0,0,0,0,0,0,0,0,0,0,0,0,0,0,0,0,0,0,0,0,0,0,0,0,0,0,0,0,0,0,0,0,0,0,0],"split_type":[0,0,0,0,0,0,0,0,0,0,0,0,0,0,0,0,0,0,0,0,0,0,0,0,0,0,0,0,0,0,0,0,0,0,0,0,0,0,0,0,0,0,0,0,0,0,0,0,0,0,0,0,0,0,0,0,0,0,0,0,0,0,0,0,0,0,0,0,0,0,0,0,0,0,0,0,0,0,0,0,0,0,0,0,0,0,0,0,0,0,0,0,0,0,0,0,0,0,0,0,0,0,0,0,0,0,0,0,0,0,0,0,0,0,0,0,0,0,0,0,0,0,0,0,0,0,0,0,0,0,0,0,0,0,0,0,0,0,0,0,0,0,0,0,0,0,0,0,0,0,0,0,0,0,0,0,0,0,0,0,0,0,0,0,0,0,0,0,0,0,0,0,0,0,0,0,0,0,0,0,0,0,0,0,0,0,0,0,0,0,0,0,0,0,0,0,0,0,0,0,0,0,0,0,0,0,0,0,0,0,0,0,0,0,0,0,0,0,0,0,0,0,0,0,0,0,0,0,0,0,0,0,0,0,0,0,0],"sum_hessian":[9.358029E4,7.699273E4,1.658756E4,1.4476499E4,6.2516227E4,6.4061626E3,1.0181397E4,7.8899653E3,6.5865337E3,4.8543633E4,1.3972595E4,2.8646138E3,3.5415486E3,3.1648174E3,7.01658E3,2.3884802E3,5.501485E3,1.2713689E3,5.3151646E3,3.239316E4,1.6150474E4,5.437741E3,8.534854E3,8.722896E2,1.9923241E3,2.9974036E3,5.4414514E2,2.5543678E2,2.9093806E3,6.5953696E3,4.2121014E2,1.3623146E3,1.0261656E3,3.755787E3,1.7456979E3,1.2897885E2,1.14239E3,2.182256E3,3.1329084E3,1.876754E4,1.3625621E4,6.875674E2,1.5462906E4,4.6384575E3,7.992839E2,4.24157E3,4.2932837E3,7.688804E2,1.0340926E2,1.6054707E2,1.8317771E3,1.8340623E3,1.1633413E3,3.2032242E2,2.2382274E2,6.2389076E1,1.9304771E2,8.331876E1,2.8260618E3,4.367595E3,2.2277747E3,3.974763E2,2.3733866E1,9.2538934E2,4.369252E2,8.793664E2,1.4679922E2,3.678544E3,7.724313E1,1.1738824E3,5.718154E2,6.0695835E1,6.828302E1,6.5281177E2,4.8957825E2,9.8847845E2,1.1937778E3,1.6359385E3,1.4969701E3,8.229611E3,1.0537928E4,1.02350867E3,1.2602112E4,3.1108047E2,3.7648688E2,7.808274E2,1.4682079E4,1.8584541E3,2.7800032E3,2.9383725E2,5.0544662E2,3.9511357E3,2.9043384E2,1.6958108E3,2.5974727E3,6.2748486E2,1.4139546E2,2.2136091E1,8.127317E1,1.4057283E2,1.9974234E1,1.4192035E3,4.1257358E2,2.1087227E1,1.812975E3,5.283109E2,6.350304E2,6.662301E1,2.5369943E2,1.856895E2,3.813323E1,4.3375942E1,1.9013134E1,1.5288994E2,4.015777E1,1.9536282E1,6.3782482E1,2.0045256E3,8.2153613E2,2.2920276E3,2.0755679E3,1.3699828E2,2.0907764E3,9.389657E1,3.035797E2,7.147133E2,2.1067604E2,5.939617E1,3.7752902E2,6.125092E2,2.6685718E2,1.18131584E2,2.8667631E1,1.205394E3,2.47315E3,4.725879E1,2.9984346E1,3.7316678E2,8.007157E2,4.7290485E2,9.891056E1,3.242623E1,2.8269606E1,5.121974E2,1.4061435E2,4.1532974E1,4.480453E2,1.9963342E2,7.8884503E2,6.802619E2,5.1351587E2,1.3203141E3,3.156244E2,6.038277E2,8.931424E2,4.175232E3,4.0543794E3,2.2552368E3,8.28269E3,5.375122E2,4.8599643E2,1.1352031E3,1.1466909E4,2.863897E2,2.4690773E1,2.6314713E2,1.1333974E2,7.0083704E2,7.999036E1,4.8281265E3,9.853952E3,8.5406E2,1.00439417E3,7.8242737E2,1.9975759E3,1.3488248E2,1.5895477E2,3.9923807E2,1.06208565E2,3.060014E3,8.911219E2,1.2379505E2,1.6663878E2,8.6851764E2,8.2729315E2,1.1069929E3,1.4904799E3,1.2607746E2,5.014074E2,9.461539E1,4.678007E1,3.1649073E1,4.96241E1,3.4640366E1,1.05932465E2,1.2354457E3,1.8375781E2,5.0411278E1,3.621623E2,6.797025E2,1.1332725E3,4.4010178E2,8.820913E1,6.017231E2,3.3307323E1,3.8636627E1,2.798638E1,3.1551546E1,2.2214787E2,5.980896E1,1.2588055E2,1.8022312E1,2.0110916E1,2.5226395E1,1.8149548E1,1.2806686E2,2.4823074E1,1.8843184E1,2.1314585E1,4.47973E1,1.8985184E1,1.5764781E3,4.2804745E2,2.7218625E2,5.493499E2,1.5933405E3,6.9868713E2,3.815234E2,1.6940443E3,5.3578175E1,8.34201E1,1.6490953E3,4.4168097E2,4.104931E1,5.284726E1,2.5707648E2,4.6503235E1],"tree_param":{"num_deleted":"0","num_feature":"73","num_nodes":"237","size_leaf_vector":"1"}},{"base_weights":[3.1751017E-3,7.84449E-2,-2.1921545E-1,5.053623E-3,1.9146337E-1,-8.597892E-2,-3.5879314E-1,-2.846252E-2,2.511097E-1,2.46428E-1,7.652549E-2,-1.985764E-1,3.351328E-1,4.016603E-3,-4.4687912E-1,1.7960893E-2,-4.2184883E-1,8.104032E-1,8.2975045E-2,1.8677716E-1,5.845006E-1,4.394612E-3,3.5836655E-1,-1.4411044E-1,-7.9903084E-1,4.1060712E-2,6.3285667E-1,2.1811499E-1,-1.1378356E0,-3.9550674E-1,-9.5715046E-1,6.0402524E-1,1.5199893E-3,-8.8631594E-1,-1.4621413E-1,-4.0072106E-2,1.0156343E0,8.3422977E-1,7.960323E-3,2.1564005E-1,-6.4559734E-1,6.066127E-1,-1.4476575E-2,6.0493022E-2,-3.1529847E-1,9.5094495E-2,8.334224E-1,-5.907377E-1,-6.0972825E-2,-9.1502887E-1,7.882677E-1,4.3923068E-1,-7.0100194E-1,1.4743112E0,4.2567834E-1,-2.7341986E-1,5.383916E-1,-1.5430251E0,-4.3674684E-1,-7.737071E-1,-3.27475E-1,-1.1940281E0,1.0068583E-1,1.2031952E0,4.1695546E-2,-9.260175E-2,9.34039E-2,-1.0526696E0,1.3653293E-1,-4.7461852E-2,-1.0348215E0,5.9247506E-1,-9.454174E-1,1.2924922E0,6.282562E-1,1.1415626E0,1.5177754E-1,-2.8487203E-1,2.5632313E-1,4.8430473E-2,3.2189065E-1,-1.4146756E0,-3.366666E-1,8.132341E-1,3.9990258E-1,-5.9794713E-2,5.5306166E-1,4.58611E-3,-1.0891038E0,2.5949588E-1,-9.3020296E-1,1.0459242E0,-2.6484491E-2,4.545004E-1,-9.0893376E-1,6.197341E-1,-1.2975456E-1,-4.0797368E-1,-1.2060844E0,1.288743E-2,3.9990684E-3,1.7180637E-1,9.534079E-1,-1.0764005E-1,-9.4137883E-1,4.831672E-3,1.5528305E0,1.0202007E0,3.3129078E-1,-7.01758E-1,3.5449243E-1,-6.2182975E-1,6.6389304E-1,-7.2276783E-1,-1.7683524E0,-1.0938104E0,1.1924717E-1,-9.233578E-1,2.157951E-1,7.91157E-1,-3.5642743E-1,-4.738634E-1,-1.3680078E0,-7.172165E-1,1.0223833E0,1.9361338E-2,1.1405644E-2,-1.042532E-2,8.134456E-3,3.0572497E-4,-3.2383988E-3,5.7158754E-3,-1.9452645E-4,-8.30365E-3,-1.8827774E-2,5.9075677E-3,-1.957516E-2,-1.8813558E-2,2.0111546E-4,-3.823155E-4,-1.3352418E-2,-9.477001E-3,1.04290005E-2,-1.937269E-2,-4.937406E-3,1.6217237E-2,-2.3788323E-3,3.3087735E-3,1.8579315E-2,6.2847706E-3,1.7660582E-2,1.4075087E-2,-8.631003E-3,-4.738956E-3,6.2329723E-3,9.571672E-3,1.2675707E-3,-2.4837154E-4,1.2625609E-2,7.542218E-3,2.5371504E-3,-1.8991765E-2,-7.2179376E-3,1.1623485E-4,-1.4815018E-2,1.7347103E-2,8.909069E-3,3.0092932E-3,1.3318633E-2,7.033767E-4,-4.630051E-3,2.1530727E-2,5.2172397E-3,-3.1339945E-3,5.8189365E-3,-1.9034704E-2,-8.742074E-3,6.459744E-3,-1.0580805E-3,1.7479773E-3,-1.4468318E-2,9.7942725E-3,1.635482E-2,-9.976604E-3,1.9516299E-3,-7.5206E-3,9.649259E-3,-1.3386456E-2,2.7646527E-3,8.33247E-3,-9.155856E-3,1.212438E-2,-1.9671386E-3,-1.7784208E-2,-2.2037344E-3,-1.6386246E-2,-2.1000507E-3,5.7058968E-3,-4.654961E-3,8.794752E-3,1.5531402E-2,5.5760313E-3,-8.55556E-3,-5.954125E-4,-1.38089135E-2,1.6299274E-2,2.1023415E-2,7.741234E-4,1.6751103E-2,2.4587566E-3,1.1291247E-2,-2.65935E-3,-1.4119928E-2,1.0411853E-2,-1.03885184E-4,-1.6550033E-3,-1.3267895E-2,9.421162E-3,-1.5786958E-3,-1.5134322E-2,2.636382E-3,-1.3988179E-2,-2.2380596E-2,-7.066569E-3,-1.596107E-2,9.875316E-3,-2.497238E-3,-2.3229078E-3,-1.3278978E-2,5.7377876E-3,-1.6038025E-2,1.9218031E-2,1.818521E-3,-1.4590807E-3,-5.6851697E-3,-1.0830753E-2,1.6365292E-2,-3.925058E-3,-1.794252E-2,1.1418442E-3,-1.3446868E-2,4.3891957E-3,1.5376152E-2],"categories":[],"categories_nodes":[],"categories_segments":[],"categories_sizes":[],"default_left":[0,0,0,0,0,0,0,0,0,0,0,0,0,0,0,0,0,0,0,0,0,0,0,0,0,0,0,0,0,0,0,0,0,0,0,0,0,0,0,0,0,0,0,0,0,0,0,0,0,0,0,0,0,0,0,0,0,0,0,0,0,0,0,0,0,0,0,0,0,0,0,0,0,0,0,0,0,0,0,0,0,0,0,0,0,0,0,0,0,0,0,0,0,0,0,0,0,0,0,0,0,0,0,0,0,0,0,0,0,0,0,0,0,0,0,0,0,0,0,0,0,0,0,0,0,0,0,0,0,0,0,0,0,0,0,0,0,0,0,0,0,0,0,0,0,0,0,0,0,0,0,0,0,0,0,0,0,0,0,0,0,0,0,0,0,0,0,0,0,0,0,0,0,0,0,0,0,0,0,0,0,0,0,0,0,0,0,0,0,0,0,0,0,0,0,0,0,0,0,0,0,0,0,0,0,0,0,0,0,0,0,0,0,0,0,0,0,0,0,0,0,0,0,0,0,0,0,0,0,0,0,0,0,0,0,0,0,0,0,0,0,0,0],"id":6,"left_children":[1,3,5,7,9,11,13,15,17,19,21,23,25,27,29,31,33,35,37,39,41,43,45,47,49,51,53,55,57,59,61,63,65,67,69,71,73,75,77,79,81,83,-1,85,87,89,91,93,95,97,99,101,103,105,107,109,111,113,115,117,119,121,123,125,127,129,131,133,135,137,139,141,143,145,147,149,151,153,155,157,159,161,163,165,167,169,171,173,175,177,179,181,183,185,187,189,191,193,195,-1,-1,197,199,201,203,-1,205,207,209,211,213,215,217,219,221,223,225,227,229,231,233,235,237,239,241,-1,-1,-1,-1,-1,-1,-1,-1,-1,-1,-1,-1,-1,-1,-1,-1,-1,-1,-1,-1,-1,-1,-1,-1,-1,-1,-1,-1,-1,-1,-1,-1,-1,-1,-1,-1,-1,-1,-1,-1,-1,-1,-1,-1,-1,-1,-1,-1,-1,-1,-1,-1,-1,-1,-1,-1,-1,-1,-1,-1,-1,-1,-1,-1,-1,-1,-1,-1,-1,-1,-1,-1,-1,-1,-1,-1,-1,-1,-1,-1,-1,-1,-1,-1,-1,-1,-1,-1,-1,-1,-1,-1,-1,-1,-1,-1,-1,-1,-1,-1,-1,-1,-1,-1,-1,-1,-1,-1,-1,-1,-1,-1,-1,-1,-1,-1,-1,-1],"loss_changes":[1.566913E3,5.800313E2,4.399016E2,3.4986948E2,1.7374579E2,5.7448724E2,3.695818E2,6.8186237E2,4.777065E2,3.749442E2,1.8101588E2,3.1198013E2,2.2336166E2,5.5221826E2,2.4237329E2,3.2138553E2,5.0376685E2,2.0560303E2,2.2011165E2,3.8046448E2,1.1168103E2,1.2725028E2,2.2635938E2,3.2520676E2,1.4768524E2,3.8124734E2,2.1901111E2,3.0018542E2,9.896066E1,2.1646838E2,2.1338159E2,3.0594943E2,2.808962E2,2.5030737E2,2.1666483E2,1.3290338E2,9.896649E1,7.33956E1,2.5910614E2,2.7169696E2,1.2422862E2,1.1655603E2,0E0,3.5838458E2,2.6266898E2,1.9747292E2,1.1864725E2,4.583539E2,3.4619757E2,1.0757715E2,5.71035E0,1.1465944E2,6.350499E1,1.8759338E1,5.5971756E1,2.029071E2,1.6890732E2,3.7736755E1,4.9645992E1,1.912326E2,2.3256042E2,8.470331E1,1.1973561E2,4.1286865E1,2.744937E2,3.359133E2,6.902072E2,2.3175342E2,1.3092006E2,2.1868523E2,1.8655853E1,5.348346E1,3.1814514E1,4.9402588E1,1.2774158E2,4.717697E1,1.0236733E2,1.4497697E2,1.5670699E2,4.134552E2,3.1621667E2,1.7623413E1,1.19313644E2,5.8390137E1,1.4530371E2,1.8776855E2,1.7162585E2,9.619664E1,5.2135498E1,9.830918E1,4.8832993E1,3.445581E1,2.0322552E1,1.22756775E2,2.4931781E2,7.104114E1,2.6171643E2,6.461686E1,7.587891E1,0E0,0E0,9.490336E1,1.862033E1,4.675698E1,5.8963898E1,0E0,2.6445923E0,4.8739777E1,6.725558E1,1.009657E2,5.7427994E1,2.5601624E1,1.01079346E2,2.7611277E1,4.3028564E0,4.865692E0,1.7671154E1,1.4843536E2,7.015023E1,9.2491264E1,1.9222076E2,1.11422226E2,7.1878784E1,2.821901E1,1.09544525E1,0E0,0E0,0E0,0E0,0E0,0E0,0E0,0E0,0E0,0E0,0E0,0E0,0E0,0E0,0E0,0E0,0E0,0E0,0E0,0E0,0E0,0E0,0E0,0E0,0E0,0E0,0E0,0E0,0E0,0E0,0E0,0E0,0E0,0E0,0E0,0E0,0E0,0E0,0E0,0E0,0E0,0E0,0E0,0E0,0E0,0E0,0E0,0E0,0E0,0E0,0E0,0E0,0E0,0E0,0E0,0E0,0E0,0E0,0E0,0E0,0E0,0E0,0E0,0E0,0E0,0E0,0E0,0E0,0E0,0E0,0E0,0E0,0E0,0E0,0E0,0E0,0E0,0E0,0E0,0E0,0E0,0E0,0E0,0E0,0E0,0E0,0E0,0E0,0E0,0E0,0E0,0E0,0E0,0E0,0E0,0E0,0E0,0E0,0E0,0E0,0E0,0E0,0E0,0E0,0E0,0E0,0E0,0E0,0E0,0E0,0E0,0E0,0E0,0E0,0E0,0E0,0E0,0E0],"parents":[2147483647,0,0,1,1,2,2,3,3,4,4,5,5,6,6,7,7,8,8,9,9,10,10,11,11,12,12,13,13,14,14,15,15,16,16,17,17,18,18,19,19,20,20,21,21,22,22,23,23,24,24,25,25,26,26,27,27,28,28,29,29,30,30,31,31,32,32,33,33,34,34,35,35,36,36,37,37,38,38,39,39,40,40,41,41,43,43,44,44,45,45,46,46,47,47,48,48,49,49,50,50,51,51,52,52,53,53,54,54,55,55,56,56,57,57,58,58,59,59,60,60,61,61,62,62,63,63,64,64,65,65,66,66,67,67,68,68,69,69,70,70,71,71,72,72,73,73,74,74,75,75,76,76,77,77,78,78,79,79,80,80,81,81,82,82,83,83,84,84,85,85,86,86,87,87,88,88,89,89,90,90,91,91,92,92,93,93,94,94,95,95,96,96,97,97,98,98,101,101,102,102,103,103,104,104,106,106,107,107,108,108,109,109,110,110,111,111,112,112,113,113,114,114,115,115,116,116,117,117,118,118,119,119,120,120,121,121,122,122,123,123,124,124],"right_children":[2,4,6,8,10,12,14,16,18,20,22,24,26,28,30,32,34,36,38,40,42,44,46,48,50,52,54,56,58,60,62,64,66,68,70,72,74,76,78,80,82,84,-1,86,88,90,92,94,96,98,100,102,104,106,108,110,112,114,116,118,120,122,124,126,128,130,132,134,136,138,140,142,144,146,148,150,152,154,156,158,160,162,164,166,168,170,172,174,176,178,180,182,184,186,188,190,192,194,196,-1,-1,198,200,202,204,-1,206,208,210,212,214,216,218,220,222,224,226,228,230,232,234,236,238,240,242,-1,-1,-1,-1,-1,-1,-1,-1,-1,-1,-1,-1,-1,-1,-1,-1,-1,-1,-1,-1,-1,-1,-1,-1,-1,-1,-1,-1,-1,-1,-1,-1,-1,-1,-1,-1,-1,-1,-1,-1,-1,-1,-1,-1,-1,-1,-1,-1,-1,-1,-1,-1,-1,-1,-1,-1,-1,-1,-1,-1,-1,-1,-1,-1,-1,-1,-1,-1,-1,-1,-1,-1,-1,-1,-1,-1,-1,-1,-1,-1,-1,-1,-1,-1,-1,-1,-1,-1,-1,-1,-1,-1,-1,-1,-1,-1,-1,-1,-1,-1,-1,-1,-1,-1,-1,-1,-1,-1,-1,-1,-1,-1,-1,-1,-1,-1,-1,-1],"split_conditions":[6.1660213E1,5.505111E1,4.9333334E-1,2.4949753E0,5.5258743E1,1E0,3.77554E1,1.821588E0,3.884485E1,5.3752205E1,8.0651775E-2,9.459094E-2,2.254228E0,4.2694664E0,7.149464E1,-3.6265397E0,1.9167788E0,8E-2,2.5829625E0,1.4807328E0,2.2047987E0,6.100396E1,3.2E-1,-1.7784125E-1,7.164778E1,1.9833735E0,6.29034E1,7.0666665E-1,6.370824E1,6.2571857E1,3.1511486E0,-2.0194557E-2,4.875342E1,7.733333E-1,6.705695E-1,6.0027164E1,-6.494418E-2,6.2666667E-1,4.8E-1,3.3333334E-1,1.5885438E0,4.4E-1,-1.4476575E-2,5.973906E1,6.1333334E-1,2.0444931E-1,3.09017E-1,3.09017E-1,3.585658E1,2.4680588E0,1.3211118E-2,3.2E-1,1.3333334E-1,-1.7234001E-2,4.1674423E1,4.7927134E-2,-8.1154995E0,5.1913057E-2,-4.0620565E-2,8.1333333E-1,-6.666899E1,4.0439224E1,6.8E-1,-3.416159E-1,4.5333335E-1,-7.3036486E-1,5.2167683E1,1E0,6.6673154E-1,-3.6179665E1,-5.563986E-1,-1.0609502E1,2.6666667E-2,-1.876742E-2,3.6670096E0,2.5810244E0,2.0827544E-1,6.1269543E1,2.7038E-1,1.1906648E0,3.9312157E1,9.023146E-1,1.7342002E0,6.4676577E-1,1.2820513E0,6.933333E-1,6.0027164E1,1E0,2.0364947E0,5.81879E1,6.923167E1,8.56262E-2,8.9205936E-2,6.666667E-2,4.2994795E0,2.845874E-1,8.8611346E-1,6.0215977E1,2.337623E-1,1.288743E-2,3.9990684E-3,1.8666667E-1,3.171857E-1,6.9549656E-1,5.766613E-2,4.831672E-3,1.5278849E-1,-5.98707E-2,2.5032595E-1,3.1458355E1,1.0523871E-1,-2.8301886E-1,7.164778E1,2.3154628E-1,-3.3333334E-1,-8.164508E-1,8.1333333E-1,5.6E-1,6.254167E1,3.09017E-1,-8.508374E-3,3.543143E-1,5.3333336E-1,5.6E-1,-6.2417787E-2,1.9361338E-2,1.1405644E-2,-1.042532E-2,8.134456E-3,3.0572497E-4,-3.2383988E-3,5.7158754E-3,-1.9452645E-4,-8.30365E-3,-1.8827774E-2,5.9075677E-3,-1.957516E-2,-1.8813558E-2,2.0111546E-4,-3.823155E-4,-1.3352418E-2,-9.477001E-3,1.04290005E-2,-1.937269E-2,-4.937406E-3,1.6217237E-2,-2.3788323E-3,3.3087735E-3,1.8579315E-2,6.2847706E-3,1.7660582E-2,1.4075087E-2,-8.631003E-3,-4.738956E-3,6.2329723E-3,9.571672E-3,1.2675707E-3,-2.4837154E-4,1.2625609E-2,7.542218E-3,2.5371504E-3,-1.8991765E-2,-7.2179376E-3,1.1623485E-4,-1.4815018E-2,1.7347103E-2,8.909069E-3,3.0092932E-3,1.3318633E-2,7.033767E-4,-4.630051E-3,2.1530727E-2,5.2172397E-3,-3.1339945E-3,5.8189365E-3,-1.9034704E-2,-8.742074E-3,6.459744E-3,