{"learner":{"attributes":{"best_iteration":"305","best_score":"0.6660095658292854","scikit_learn":"{\"_estimator_type\": \"classifier\"}"},"feature_names":[],"feature_types":[],"gradient_booster":{"model":{"cats":{"enc":[],"feature_segments":[],"sorted_idx":[]},"gbtree_model_param":{"num_parallel_tree":"1","num_trees":"366"},"iteration_indptr":[0,1,2,3,4,5,6,7,8,9,10,11,12,13,14,15,16,17,18,19,20,21,22,23,24,25,26,27,28,29,30,31,32,33,34,35,36,37,38,39,40,41,42,43,44,45,46,47,48,49,50,51,52,53,54,55,56,57,58,59,60,61,62,63,64,65,66,67,68,69,70,71,72,73,74,75,76,77,78,79,80,81,82,83,84,85,86,87,88,89,90,91,92,93,94,95,96,97,98,99,100,101,102,103,104,105,106,107,108,109,110,111,112,113,114,115,116,117,118,119,120,121,122,123,124,125,126,127,128,129,130,131,132,133,134,135,136,137,138,139,140,141,142,143,144,145,146,147,148,149,150,151,152,153,154,155,156,157,158,159,160,161,162,163,164,165,166,167,168,169,170,171,172,173,174,175,176,177,178,179,180,181,182,183,184,185,186,187,188,189,190,191,192,193,194,195,196,197,198,199,200,201,202,203,204,205,206,207,208,209,210,211,212,213,214,215,216,217,218,219,220,221,222,223,224,225,226,227,228,229,230,231,232,233,234,235,236,237,238,239,240,241,242,243,244,245,246,247,248,249,250,251,252,253,254,255,256,257,258,259,260,261,262,263,264,265,266,267,268,269,270,271,272,273,274,275,276,277,278,279,280,281,282,283,284,285,286,287,288,289,290,291,292,293,294,295,296,297,298,299,300,301,302,303,304,305,306,307,308,309,310,311,312,313,314,315,316,317,318,319,320,321,322,323,324,325,326,327,328,329,330,331,332,333,334,335,336,337,338,339,340,341,342,343,344,345,346,347,348,349,350,351,352,353,354,355,356,357,358,359,360,361,362,363,364,365,366],"tree_info":[0,0,0,0,0,0,0,0,0,0,0,0,0,0,0,0,0,0,0,0,0,0,0,0,0,0,0,0,0,0,0,0,0,0,0,0,0,0,0,0,0,0,0,0,0,0,0,0,0,0,0,0,0,0,0,0,0,0,0,0,0,0,0,0,0,0,0,0,0,0,0,0,0,0,0,0,0,0,0,0,0,0,0,0,0,0,0,0,0,0,0,0,0,0,0,0,0,0,0,0,0,0,0,0,0,0,0,0,0,0,0,0,0,0,0,0,0,0,0,0,0,0,0,0,0,0,0,0,0,0,0,0,0,0,0,0,0,0,0,0,0,0,0,0,0,0,0,0,0,0,0,0,0,0,0,0,0,0,0,0,0,0,0,0,0,0,0,0,0,0,0,0,0,0,0,0,0,0,0,0,0,0,0,0,0,0,0,0,0,0,0,0,0,0,0,0,0,0,0,0,0,0,0,0,0,0,0,0,0,0,0,0,0,0,0,0,0,0,0,0,0,0,0,0,0,0,0,0,0,0,0,0,0,0,0,0,0,0,0,0,0,0,0,0,0,0,0,0,0,0,0,0,0,0,0,0,0,0,0,0,0,0,0,0,0,0,0,0,0,0,0,0,0,0,0,0,0,0,0,0,0,0,0,0,0,0,0,0,0,0,0,0,0,0,0,0,0,0,0,0,0,0,0,0,0,0,0,0,0,0,0,0,0,0,0,0,0,0,0,0,0,0,0,0,0,0,0,0,0,0,0,0,0,0,0,0,0,0,0,0,0,0,0,0,0,0,0,0,0,0,0,0,0,0,0,0,0,0,0,0,0,0,0,0,0,0],"trees":[{"base_weights":[-2.2741497E-4,9.2817765E-1,-5.5175018E-2,1.220382E0,6.384116E-1,-1.7887934E-1,3.6443812E-1,9.9852425E-1,1.3846062E0,4.5450655E-1,7.5760627E-1,-2.4179146E-1,2.5017543E-2,2.0357391E-1,6.097228E-1,1.0370057E0,2.0809056E-1,1.4045116E0,7.6409775E-1,5.024115E-1,-1.10031515E-1,8.972579E-1,5.2127373E-1,-1.4511992E-1,-3.575212E-1,-1.837353E-2,3.9959148E-1,4.950023E-1,1.1907041E-1,8.020373E-1,4.2095268E-1,4.1294508E-2,5.9012312E-2,-1.1288817E-2,2.4429472E-2,6.467364E-2,7.526008E-2,1.0101342E-2,5.087454E-2,3.9348748E-2,2.116971E-2,8.709908E-3,-2.5457298E-2,3.334937E-2,4.9182594E-2,-2.6554704E-2,2.7133554E-2,1.1184385E-2,-8.52225E-3,-2.1530164E-2,-2.314366E-3,6.5711103E-3,-5.0290846E-3,1.55357765E-2,4.108899E-2,3.3284474E-2,1.9818908E-2,1.1653652E-3,1.6819192E-2,4.1144904E-2,3.1417012E-3,5.713019E-3,2.4402529E-2],"categories":[],"categories_nodes":[],"categories_segments":[],"categories_sizes":[],"default_left":[0,0,0,0,0,0,0,0,0,0,0,0,0,0,0,0,0,0,0,0,0,0,0,0,0,0,0,0,0,0,0,0,0,0,0,0,0,0,0,0,0,0,0,0,0,0,0,0,0,0,0,0,0,0,0,0,0,0,0,0,0,0,0],"id":0,"left_children":[1,3,5,7,9,11,13,15,17,19,21,23,25,27,29,31,33,35,37,39,41,43,45,47,49,51,53,55,57,59,61,-1,-1,-1,-1,-1,-1,-1,-1,-1,-1,-1,-1,-1,-1,-1,-1,-1,-1,-1,-1,-1,-1,-1,-1,-1,-1,-1,-1,-1,-1,-1,-1],"loss_changes":[7.013102E3,6.4793555E2,6.737786E3,1.3528613E2,8.336304E1,1.2860911E3,1.1654517E3,4.8649902E1,2.3814941E1,4.1559998E1,7.554004E1,8.567842E2,3.8440472E2,4.392209E2,4.2357178E2,4.4135376E1,9.962133E0,1.8391602E1,9.408295E0,3.0371307E1,1.3973605E1,2.7025024E1,2.0279465E1,3.899969E2,7.927715E2,2.608938E2,9.1052216E1,6.6461426E1,2.8789444E2,8.8792725E1,1.2123596E2,0E0,0E0,0E0,0E0,0E0,0E0,0E0,0E0,0E0,0E0,0E0,0E0,0E0,0E0,0E0,0E0,0E0,0E0,0E0,0E0,0E0,0E0,0E0,0E0,0E0,0E0,0E0,0E0,0E0,0E0,0E0,0E0],"parents":[2147483647,0,0,1,1,2,2,3,3,4,4,5,5,6,6,7,7,8,8,9,9,10,10,11,11,12,12,13,13,14,14,15,15,16,16,17,17,18,18,19,19,20,20,21,21,22,22,23,23,24,24,25,25,26,26,27,27,28,28,29,29,30,30],"right_children":[2,4,6,8,10,12,14,16,18,20,22,24,26,28,30,32,34,36,38,40,42,44,46,48,50,52,54,56,58,60,62,-1,-1,-1,-1,-1,-1,-1,-1,-1,-1,-1,-1,-1,-1,-1,-1,-1,-1,-1,-1,-1,-1,-1,-1,-1,-1,-1,-1,-1,-1,-1,-1],"split_conditions":[5.3333335E-2,2.6666667E-2,7.2E-1,2.1209319E0,6.17333E-1,1.0404669E0,8.4E-1,4.7465345E-1,1.8232462E-1,3.580201E-1,2.973624E-1,2.1222368E-1,1.4900181E1,1.2510571E-1,1.5576857E-1,7.7956176E-1,-4.0688577E-1,9.355127E0,3.097549E0,1.776979E-1,-1.0067401E1,7.118787E0,-5.0097594E0,1.2E-1,5.632326E0,1.61375E-1,1.1763453E0,1.0408541E-1,1.1831964E0,6.407879E-2,7.916989E-1,4.1294508E-2,5.9012312E-2,-1.1288817E-2,2.4429472E-2,6.467364E-2,7.526008E-2,1.0101342E-2,5.087454E-2,3.9348748E-2,2.116971E-2,8.709908E-3,-2.5457298E-2,3.334937E-2,4.9182594E-2,-2.6554704E-2,2.7133554E-2,1.1184385E-2,-8.52225E-3,-2.1530164E-2,-2.314366E-3,6.5711103E-3,-5.0290846E-3,1.55357765E-2,4.108899E-2,3.3284474E-2,1.9818908E-2,1.1653652E-3,1.6819192E-2,4.1144904E-2,3.1417012E-3,5.713019E-3,2.4402529E-2],"split_indices":[18,18,18,14,10,10,18,13,67,13,13,13,34,13,13,10,24,53,14,13,51,53,27,18,34,13,16,13,10,66,11,0,0,0,0,0,0,0,0,0,0,0,0,0,0,0,0,0,0,0,0,0,0,0,0,0,0,0,0,0,0,0,0],"split_type":[0,0,0,0,0,0,0,0,0,0,0,0,0,0,0,0,0,0,0,0,0,0,0,0,0,0,0,0,0,0,0,0,0,0,0,0,0,0,0,0,0,0,0,0,0,0,0,0,0,0,0,0,0,0,0,0,0,0,0,0,0,0,0],"sum_hessian":[1.3747962E5,7.679777E3,1.2979984E5,3.8197432E3,3.8600334E3,1.0024839E5,2.9551453E4,1.6320885E3,2.1876548E3,1.5234028E3,2.3366306E3,7.661195E4,2.3636438E4,1.785039E4,1.1701062E4,1.5551224E3,7.696604E1,2.116429E3,7.122585E1,1.4052625E3,1.1814039E2,1.4638912E3,8.727393E2,4.174788E4,3.486407E4,2.1183127E4,2.4533105E3,4.0089697E3,1.3841421E4,5.791586E3,5.9094756E3,6.355042E2,9.196182E2,2.9674341E1,4.7291702E1,1.02202277E3,1.0944061E3,2.3862455E1,4.7363403E1,3.001372E2,1.1051252E3,6.892774E1,4.9212643E1,4.0572305E2,1.0581682E3,1.5976416E1,8.5676294E2,2.6802422E3,3.9067637E4,2.823235E4,6.631721E3,7.503441E3,1.3679687E4,2.0305173E3,4.2279324E2,1.462052E3,2.5469175E3,9.610773E3,4.230647E3,5.631752E3,1.5983435E2,1.0630994E3,4.8463765E3],"tree_param":{"num_deleted":"0","num_feature":"71","num_nodes":"63","size_leaf_vector":"1"}},{"base_weights":[1.0547925E-3,8.881813E-1,-5.151714E-2,1.1767651E0,6.074668E-1,-1.6935177E-1,3.472291E-1,9.591681E-1,1.3333246E0,3.1852102E-1,6.933141E-1,-2.4263367E-1,-5.69692E-3,1.961644E-1,5.769976E-1,9.948531E-1,2.3634587E-1,9.8584765E-1,1.3612938E0,6.426342E-1,2.3492143E-1,7.929386E-1,4.1526216E-1,-1.8152368E-1,-4.2551938E-1,-3.944659E-2,3.346944E-1,4.609224E-1,1.1653388E-1,7.887879E-1,4.0418273E-1,4.0142708E-2,5.7271298E-2,-1.5296315E-2,1.9700147E-2,5.5732846E-2,2.3236353E-2,5.9307646E-2,7.112115E-2,1.0964681E-2,4.1196667E-2,2.4881234E-2,7.0989705E-3,3.4599762E-2,4.808728E-2,6.215603E-3,2.7847609E-2,7.139833E-3,-1.0690441E-2,-1.2590689E-2,-2.5123565E-2,3.6967762E-3,-5.6685284E-3,1.0430612E-2,3.0044664E-2,3.022196E-2,1.7718215E-2,1.5252912E-3,1.5887352E-2,3.675511E-2,5.2802127E-2,2.2063939E-2,-5.4349927E-3],"categories":[],"categories_nodes":[],"categories_segments":[],"categories_sizes":[],"default_left":[0,0,0,0,0,0,0,0,0,0,0,0,0,0,0,0,0,0,0,0,0,0,0,0,0,0,0,0,0,0,0,0,0,0,0,0,0,0,0,0,0,0,0,0,0,0,0,0,0,0,0,0,0,0,0,0,0,0,0,0,0,0,0],"id":1,"left_children":[1,3,5,7,9,11,13,15,17,19,21,23,25,27,29,31,33,35,37,39,41,43,45,47,49,51,53,55,57,59,61,-1,-1,-1,-1,-1,-1,-1,-1,-1,-1,-1,-1,-1,-1,-1,-1,-1,-1,-1,-1,-1,-1,-1,-1,-1,-1,-1,-1,-1,-1,-1,-1],"loss_changes":[6.421737E3,6.217246E2,6.107334E3,1.2559424E2,9.603894E1,1.2031736E3,1.0285012E3,4.0096558E1,1.7531494E1,2.3662048E1,8.215332E1,7.7404565E2,3.5642752E2,3.7682843E2,4.291333E2,4.1135254E1,6.9874496E0,9.755829E0,1.7058594E1,1.3107834E1,1.712648E1,3.5559326E1,3.2494766E1,5.440377E2,2.3132593E2,2.3673311E2,9.3271545E1,6.2328674E1,2.3798279E2,7.330835E1,1.2355884E2,0E0,0E0,0E0,0E0,0E0,0E0,0E0,0E0,0E0,0E0,0E0,0E0,0E0,0E0,0E0,0E0,0E0,0E0,0E0,0E0,0E0,0E0,0E0,0E0,0E0,0E0,0E0,0E0,0E0,0E0,0E0,0E0],"parents":[2147483647,0,0,1,1,2,2,3,3,4,4,5,5,6,6,7,7,8,8,9,9,10,10,11,11,12,12,13,13,14,14,15,15,16,16,17,17,18,18,19,19,20,20,21,21,22,22,23,23,24,24,25,25,26,26,27,27,28,28,29,29,30,30],"right_children":[2,4,6,8,10,12,14,16,18,20,22,24,26,28,30,32,34,36,38,40,42,44,46,48,50,52,54,56,58,60,62,-1,-1,-1,-1,-1,-1,-1,-1,-1,-1,-1,-1,-1,-1,-1,-1,-1,-1,-1,-1,-1,-1,-1,-1,-1,-1,-1,-1,-1,-1,-1,-1],"split_conditions":[5.3333335E-2,2.6666667E-2,7.2E-1,2.1209319E0,1.0265423E0,8.893262E-1,8.4E-1,4.7465345E-1,-8.125E-1,1.776979E-1,3.18692E-1,2.63374E-1,7.813759E1,1.2594993E-1,1.5016785E-1,8.2367617E-1,9.5661664E-1,4.2254157E-2,1.2918165E0,-1.9051259E0,1.8799621E-1,1E0,1.1549025E1,1.2E-1,1.6E-1,1.6943885E-1,6.398033E0,1.0713344E-1,1.1940359E0,9.066667E-1,1.2370331E-1,4.0142708E-2,5.7271298E-2,-1.5296315E-2,1.9700147E-2,5.5732846E-2,2.3236353E-2,5.9307646E-2,7.112115E-2,1.0964681E-2,4.1196667E-2,2.4881234E-2,7.0989705E-3,3.4599762E-2,4.808728E-2,6.215603E-3,2.7847609E-2,7.139833E-3,-1.0690441E-2,-1.2590689E-2,-2.5123565E-2,3.6967762E-3,-5.6685284E-3,1.0430612E-2,3.0044664E-2,3.022196E-2,1.7718215E-2,1.5252912E-3,1.5887352E-2,3.675511E-2,5.2802127E-2,2.2063939E-2,-5.4349927E-3],"split_indices":[18,18,18,14,11,10,18,13,19,13,13,13,1,13,13,10,10,5,10,61,69,10,53,18,18,13,31,13,10,18,67,0,0,0,0,0,0,0,0,0,0,0,0,0,0,0,0,0,0,0,0,0,0,0,0,0,0,0,0,0,0,0,0],"split_type":[0,0,0,0,0,0,0,0,0,0,0,0,0,0,0,0,0,0,0,0,0,0,0,0,0,0,0,0,0,0,0,0,0,0,0,0,0,0,0,0,0,0,0,0,0,0,0,0,0,0,0,0,0,0,0,0,0,0,0,0,0,0,0],"sum_hessian":[1.3768044E5,7.701359E3,1.2997908E5,3.7934265E3,3.9079324E3,1.0033207E5,2.964701E4,1.5945958E3,2.1988308E3,8.986129E2,3.0093196E3,6.9297695E4,3.1034371E4,1.7890512E4,1.1756496E4,1.5181995E3,7.639633E1,1.705368E2,2.0282941E3,1.8028773E2,7.183252E2,2.2114624E3,7.978571E2,5.1946766E4,1.735093E4,2.8237838E4,2.7965337E3,4.1330303E3,1.3757482E4,5.27805E3,6.4784463E3,6.743303E2,8.438692E2,1.6070028E1,6.03263E1,1.3414244E2,3.639437E1,5.374468E2,1.4908472E3,5.6210655E1,1.2407708E2,1.8404074E2,5.342844E2,1.3921461E3,8.1931635E2,2.636842E2,5.341729E2,4.700958E3,4.724581E4,5.3313545E3,1.2019576E4,1.114194E4,1.7095898E4,1.9014015E3,8.9513214E2,1.7551226E3,2.377908E3,9.640503E3,4.1169795E3,4.4029614E3,8.7508844E2,6.0426445E3,4.3580182E2],"tree_param":{"num_deleted":"0","num_feature":"71","num_nodes":"63","size_leaf_vector":"1"}},{"base_weights":[-1.8062284E-3,8.334706E-1,-5.112132E-2,1.1060693E0,5.666835E-1,-1.6155392E-1,3.2262453E-1,8.6470294E-1,1.2417086E0,3.800745E-1,6.877119E-1,-2.4351387E-1,-2.300954E-2,1.7652665E-1,5.448348E-1,6.995219E-1,1.0116726E0,1.2896886E0,7.992868E-1,6.910838E-1,2.9548815E-1,8.108032E-1,4.7813383E-1,-1.8365908E-1,-4.2353982E-1,-6.024088E-2,2.8316188E-1,4.4149554E-1,9.683894E-2,7.290955E-1,3.6418507E-1,2.671103E-2,4.4399817E-2,1.2831579E-2,5.1360782E-2,6.636697E-2,4.8033684E-2,1.8887311E-2,4.5650143E-2,2.2981837E-2,4.5894977E-2,1.6887218E-2,-1.0577949E-2,3.6832295E-2,5.191819E-2,1.2818642E-2,3.206282E-2,5.5303364E-3,-1.0736874E-2,-2.5168864E-2,-9.678888E-3,-9.112476E-3,1.5923319E-3,1.1796672E-2,4.340668E-2,3.0444417E-2,1.7428003E-2,1.2288612E-3,1.7507005E-2,4.472199E-2,3.158949E-2,3.7009984E-2,1.5566448E-2],"categories":[],"categories_nodes":[],"categories_segments":[],"categories_sizes":[],"default_left":[0,0,0,0,0,0,0,0,0,0,0,0,0,0,0,0,0,0,0,0,0,0,0,0,0,0,0,0,0,0,0,0,0,0,0,0,0,0,0,0,0,0,0,0,0,0,0,0,0,0,0,0,0,0,0,0,0,0,0,0,0,0,0],"id":2,"left_children":[1,3,5,7,9,11,13,15,17,19,21,23,25,27,29,31,33,35,37,39,41,43,45,47,49,51,53,55,57,59,61,-1,-1,-1,-1,-1,-1,-1,-1,-1,-1,-1,-1,-1,-1,-1,-1,-1,-1,-1,-1,-1,-1,-1,-1,-1,-1,-1,-1,-1,-1,-1,-1],"loss_changes":[5.6700493E3,5.559946E2,5.3650186E3,1.209624E2,8.6647095E1,1.1392324E3,9.619236E2,3.1046143E1,4.831006E1,3.9448853E1,5.924109E1,6.7884717E2,4.2511633E2,3.7741394E2,3.903025E2,1.8723267E1,7.2822266E0,2.3321777E1,1.0325623E1,1.5539352E1,2.614463E1,2.250769E1,3.0926926E1,4.3283362E2,2.8819067E2,3.7377234E2,1.1073447E2,6.341754E1,2.5163278E2,9.170264E1,1.1711841E2,0E0,0E0,0E0,0E0,0E0,0E0,0E0,0E0,0E0,0E0,0E0,0E0,0E0,0E0,0E0,0E0,0E0,0E0,0E0,0E0,0E0,0E0,0E0,0E0,0E0,0E0,0E0,0E0,0E0,0E0,0E0,0E0],"parents":[2147483647,0,0,1,1,2,2,3,3,4,4,5,5,6,6,7,7,8,8,9,9,10,10,11,11,12,12,13,13,14,14,15,15,16,16,17,17,18,18,19,19,20,20,21,21,22,22,23,23,24,24,25,25,26,26,27,27,28,28,29,29,30,30],"right_children":[2,4,6,8,10,12,14,16,18,20,22,24,26,28,30,32,34,36,38,40,42,44,46,48,50,52,54,56,58,60,62,-1,-1,-1,-1,-1,-1,-1,-1,-1,-1,-1,-1,-1,-1,-1,-1,-1,-1,-1,-1,-1,-1,-1,-1,-1,-1,-1,-1,-1,-1,-1,-1],"split_conditions":[5.3333335E-2,2.6666667E-2,7.2E-1,1.0842228E0,6.17333E-1,7.902013E-1,8.4E-1,1.5788262E0,4.0668014E-1,1.7961046E-1,2.973624E-1,2.6491806E-1,1.3089381E1,1.2594993E-1,1.5576857E-1,8.852153E0,8.410285E-1,1.1164285E-1,1.1116066E1,6.521739E0,3.7510812E-1,1.2101295E1,1.2661204E1,1.2E-1,1.7650936E0,4.4E-1,2.3340435E0,1.0408541E-1,1.39374E0,1.2070749E-1,1.1170213E-1,2.671103E-2,4.4399817E-2,1.2831579E-2,5.1360782E-2,6.636697E-2,4.8033684E-2,1.8887311E-2,4.5650143E-2,2.2981837E-2,4.5894977E-2,1.6887218E-2,-1.0577949E-2,3.6832295E-2,5.191819E-2,1.2818642E-2,3.206282E-2,5.5303364E-3,-1.0736874E-2,-2.5168864E-2,-9.678888E-3,-9.112476E-3,1.5923319E-3,1.1796672E-2,4.340668E-2,3.0444417E-2,1.7428003E-2,1.2288612E-3,1.7507005E-2,4.472199E-2,3.158949E-2,3.7009984E-2,1.5566448E-2],"split_indices":[18,18,18,10,10,10,18,14,13,13,13,13,34,13,13,53,11,66,53,53,13,53,53,18,34,18,14,13,10,13,28,0,0,0,0,0,0,0,0,0,0,0,0,0,0,0,0,0,0,0,0,0,0,0,0,0,0,0,0,0,0,0,0],"split_type":[0,0,0,0,0,0,0,0,0,0,0,0,0,0,0,0,0,0,0,0,0,0,0,0,0,0,0,0,0,0,0,0,0,0,0,0,0,0,0,0,0,0,0,0,0,0,0,0,0,0,0,0,0,0,0,0,0,0,0,0,0,0,0],"sum_hessian":[1.3765553E5,7.671817E3,1.2998372E5,3.7905396E3,3.8812776E3,1.00338625E5,2.9645094E4,1.3703958E3,2.420144E3,1.5318263E3,2.3494512E3,6.3040223E4,3.7298402E4,1.7889209E4,1.1755884E4,6.522479E2,7.1814777E2,2.1788867E3,2.4125716E2,3.2320526E2,1.2086211E3,1.4750111E3,8.7444006E2,4.7315605E4,1.5724618E4,3.3257438E4,4.0409622E3,4.1325957E3,1.3756614E4,5.8154004E3,5.940484E3,3.5298468E2,2.9926324E2,1.5840492E1,7.0230725E2,1.9483405E3,2.3054628E2,5.4025936E1,1.8723122E2,1.640564E2,1.5914886E2,1.1171722E3,9.1448784E1,1.1205261E3,3.5448495E2,3.740869E2,5.0035312E2,4.5177827E3,4.2797824E4,1.1668897E4,4.0557207E3,1.4306257E4,1.8951182E4,3.7424705E3,2.9849173E2,1.469425E3,2.6631707E3,1.0706448E4,3.0501663E3,2.1464966E3,3.6689036E3,7.277628E2,5.2127207E3],"tree_param":{"num_deleted":"0","num_feature":"71","num_nodes":"63","size_leaf_vector":"1"}},{"base_weights":[8.725814E-4,8.015207E-1,-4.6422858E-2,1.061874E0,5.4457426E-1,-1.5278143E-1,3.1351346E-1,7.8416276E-1,1.161065E0,3.371734E-1,6.409278E-1,-1.8181515E-1,1.847984E-1,1.7516369E-1,5.242694E-1,8.197895E-1,-0E0,1.0077932E0,1.24602E0,4.2467806E-1,3.3029743E-2,6.959928E-1,3.4439465E-1,-2.4272652E-1,-4.1469827E-2,1.2627238E-1,5.0545067E-1,1.0249627E-1,3.4362322E-1,5.614705E-1,4.853955E-2,3.362974E-2,5.2202266E-2,3.0680476E-2,-2.046751E-2,3.8734917E-2,5.3091783E-2,6.336769E-2,3.5500947E-2,2.4518747E-2,5.68333E-3,6.39449E-3,-2.6134407E-2,4.0580478E-2,2.8537035E-2,2.3734473E-2,4.2219623E-3,-1.0300377E-2,-1.9795435E-2,-7.2085606E-3,2.1671772E-3,2.3075916E-2,3.8549777E-3,1.8208155E-2,3.5820544E-2,1.9574184E-2,3.3239052E-3,1.5664134E-2,4.087504E-2,4.0944066E-2,2.5608042E-2,5.7114698E-2,-1.2998381E-3],"categories":[],"categories_nodes":[],"categories_segments":[],"categories_sizes":[],"default_left":[0,0,0,0,0,0,0,0,0,0,0,0,0,0,0,0,0,0,0,0,0,0,0,0,0,0,0,0,0,0,0,0,0,0,0,0,0,0,0,0,0,0,0,0,0,0,0,0,0,0,0,0,0,0,0,0,0,0,0,0,0,0,0],"id":3,"left_children":[1,3,5,7,9,11,13,15,17,19,21,23,25,27,29,31,33,35,37,39,41,43,45,47,49,51,53,55,57,59,61,-1,-1,-1,-1,-1,-1,-1,-1,-1,-1,-1,-1,-1,-1,-1,-1,-1,-1,-1,-1,-1,-1,-1,-1,-1,-1,-1,-1,-1,-1,-1,-1],"loss_changes":[5.2058525E3,5.110088E2,4.9690317E3,1.0204004E2,7.630322E1,9.821006E2,8.627158E2,2.8557983E1,3.2803467E1,3.2522766E1,4.202112E1,7.8855835E2,1.4845999E2,2.1855524E2,2.072395E2,2.9615845E1,1.1790252E1,1.0166992E1,1.7680664E1,1.9100266E1,1.4624574E1,3.0511353E1,1.3798527E1,3.6140674E2,2.4333469E2,1.1033693E2,3.538205E1,1.297749E2,7.634296E1,1.3657324E2,7.0233E1,0E0,0E0,0E0,0E0,0E0,0E0,0E0,0E0,0E0,0E0,0E0,0E0,0E0,0E0,0E0,0E0,0E0,0E0,0E0,0E0,0E0,0E0,0E0,0E0,0E0,0E0,0E0,0E0,0E0,0E0,0E0,0E0],"parents":[2147483647,0,0,1,1,2,2,3,3,4,4,5,5,6,6,7,7,8,8,9,9,10,10,11,11,12,12,13,13,14,14,15,15,16,16,17,17,18,18,19,19,20,20,21,21,22,22,23,23,24,24,25,25,26,26,27,27,28,28,29,29,30,30],"right_children":[2,4,6,8,10,12,14,16,18,20,22,24,26,28,30,32,34,36,38,40,42,44,46,48,50,52,54,56,58,60,62,-1,-1,-1,-1,-1,-1,-1,-1,-1,-1,-1,-1,-1,-1,-1,-1,-1,-1,-1,-1,-1,-1,-1,-1,-1,-1,-1,-1,-1,-1,-1,-1],"split_conditions":[5.3333335E-2,2.6666667E-2,7.2E-1,1.5997177E0,5.286674E-1,1.4900181E1,8.4E-1,1.291364E0,1.3484263E0,1.21634096E-1,1.3751096E-1,8.893262E-1,9.748233E-1,1.1940359E0,1.1245824E-1,1.0338371E1,4.5544556E-1,-4.487632E-1,1.8232462E-1,7.0801526E-1,1.0283526E0,4E-2,-7.88626E0,7.393683E-1,4.5333335E-1,-9.8114884E-1,1.5224357E0,3.067283E1,8.0815994E1,3.8285862E1,-2.6538463E0,3.362974E-2,5.2202266E-2,3.0680476E-2,-2.046751E-2,3.8734917E-2,5.3091783E-2,6.336769E-2,3.5500947E-2,2.4518747E-2,5.68333E-3,6.39449E-3,-2.6134407E-2,4.0580478E-2,2.8537035E-2,2.3734473E-2,4.2219623E-3,-1.0300377E-2,-1.9795435E-2,-7.2085606E-3,2.1671772E-3,2.3075916E-2,3.8549777E-3,1.8208155E-2,3.5820544E-2,1.9574184E-2,3.3239052E-3,1.5664134E-2,4.087504E-2,4.0944066E-2,2.5608042E-2,5.7114698E-2,-1.2998381E-3],"split_indices":[18,18,18,14,10,34,18,27,10,67,67,10,16,10,67,53,48,33,67,44,15,18,51,15,18,16,14,1,1,0,27,0,0,0,0,0,0,0,0,0,0,0,0,0,0,0,0,0,0,0,0,0,0,0,0,0,0,0,0,0,0,0,0],"split_type":[0,0,0,0,0,0,0,0,0,0,0,0,0,0,0,0,0,0,0,0,0,0,0,0,0,0,0,0,0,0,0,0,0,0,0,0,0,0,0,0,0,0,0,0,0,0,0,0,0,0,0,0,0,0,0,0,0,0,0,0,0,0,0],"sum_hessian":[1.3746333E5,7.6660522E3,1.2979727E5,3.8037036E3,3.8623486E3,1.0019339E5,2.960388E4,1.0070505E3,2.7966533E3,1.2296709E3,2.6326777E3,9.226086E4,7.9325366E3,1.7875578E4,1.1728304E4,9.637462E2,4.3304226E1,1.0085988E3,1.7880544E3,9.5303754E2,2.766334E2,2.2166704E3,4.160073E2,6.433413E4,2.7926727E4,6.711828E3,1.2207083E3,1.2492811E4,5.382767E3,1.0876382E4,8.519216E2,5.880174E2,3.7572885E2,1.6490618E1,2.681361E1,1.9734314E2,8.112557E2,1.7160896E3,7.196479E1,7.8455096E2,1.6848662E2,2.3838155E2,3.825184E1,1.1448969E3,1.0717736E3,2.7473114E2,1.4127615E2,5.1901004E4,1.2433128E4,1.2633358E4,1.5293369E4,8.5509576E2,5.8567324E3,7.357638E2,4.8494446E2,1.3807677E3,1.1112043E4,5.0629814E3,3.197857E2,1.7418844E3,9.134498E3,5.2952213E1,7.9896936E2],"tree_param":{"num_deleted":"0","num_feature":"71","num_nodes":"63","size_leaf_vector":"1"}},{"base_weights":[3.8902857E-5,7.5365025E-1,-4.431008E-2,1.0045547E0,5.0864446E-1,-1.4523722E-1,2.9745427E-1,8.221736E-1,1.1513591E0,3.4445587E-1,6.237636E-1,-2.2481704E-1,-3.0907765E-2,1.6689236E-1,4.973779E-1,3.73316E-1,8.571249E-1,1.1978115E0,7.7623016E-1,-2.3400119E-2,3.9094716E-1,6.6577315E-1,2.5750688E-1,3.5610393E-2,-2.5140336E-1,-5.583873E-2,3.5259223E-1,1.0596905E-1,3.7380654E-1,4.4329265E-1,7.688191E-1,2.3641035E-2,-1.0724953E-2,3.8467877E-2,5.2275557E-2,6.0388803E-2,9.868502E-3,4.5149993E-2,1.296541E-2,1.403057E-2,-1.31786605E-2,2.1953864E-2,2.5289815E-3,9.227128E-3,3.514592E-2,3.5660017E-2,5.0520548E-3,7.570205E-3,-3.3029027E-3,-1.1861357E-2,-2.8796894E-2,1.5953941E-2,-3.6634814E-3,1.3865903E-2,3.2770466E-2,8.840628E-3,-9.753353E-4,1.6711356E-2,3.3041876E-2,3.5333302E-2,1.9516086E-2,4.057783E-2,1.47403125E-2],"categories":[],"categories_nodes":[],"categories_segments":[],"categories_sizes":[],"default_left":[0,0,0,0,0,0,0,0,0,0,0,0,0,0,0,0,0,0,0,0,0,0,0,0,0,0,0,0,0,0,0,0,0,0,0,0,0,0,0,0,0,0,0,0,0,0,0,0,0,0,0,0,0,0,0,0,0,0,0,0,0,0,0],"id":4,"left_children":[1,3,5,7,9,11,13,15,17,19,21,23,25,27,29,31,33,35,37,39,41,43,45,47,49,51,53,55,57,59,61,-1,-1,-1,-1,-1,-1,-1,-1,-1,-1,-1,-1,-1,-1,-1,-1,-1,-1,-1,-1,-1,-1,-1,-1,-1,-1,-1,-1,-1,-1,-1,-1],"loss_changes":[4.592187E3,4.6765918E2,4.475635E3,9.805298E1,7.2209656E1,9.1127344E2,7.716477E2,2.5252808E1,3.3434814E1,2.7578796E1,3.4121277E1,4.0904614E2,3.9300253E2,2.2531973E2,1.7024365E2,7.7393875E0,2.3360596E1,1.7240967E1,1.443428E1,1.3303637E1,2.3013824E1,3.565326E1,1.6422264E1,6.446789E1,2.4587549E2,2.5224103E2,5.635666E1,1.2304591E2,4.5284668E1,1.3490894E2,3.8208008E1,0E0,0E0,0E0,0E0,0E0,0E0,0E0,0E0,0E0,0E0,0E0,0E0,0E0,0E0,0E0,0E0,0E0,0E0,0E0,0E0,0E0,0E0,0E0,0E0,0E0,0E0,0E0,0E0,0E0,0E0,0E0,0E0],"parents":[2147483647,0,0,1,1,2,2,3,3,4,4,5,5,6,6,7,7,8,8,9,9,10,10,11,11,12,12,13,13,14,14,15,15,16,16,17,17,18,18,19,19,20,20,21,21,22,22,23,23,24,24,25,25,26,26,27,27,28,28,29,29,30,30],"right_children":[2,4,6,8,10,12,14,16,18,20,22,24,26,28,30,32,34,36,38,40,42,44,46,48,50,52,54,56,58,60,62,-1,-1,-1,-1,-1,-1,-1,-1,-1,-1,-1,-1,-1,-1,-1,-1,-1,-1,-1,-1,-1,-1,-1,-1,-1,-1,-1,-1,-1,-1,-1,-1],"split_conditions":[5.3333335E-2,2.6666667E-2,7.2E-1,1.2918165E0,6.395807E-1,7.384673E-1,8.4E-1,-7.2727275E-1,1.1164285E-1,-6.651496E-1,8.534714E-1,1.0666667E-1,1.094204E0,1.3781382E0,9.066667E-1,3.1128034E-1,1.078573E1,8.189246E-1,1.6233585E0,4.576137E0,5.320148E-1,-3.023186E0,-1.7807493E1,8.616882E-1,3.2855953E1,9.3333334E-2,1.4186527E0,1.9027812E0,7.5928925E1,-7.2075415E-1,1.4680503E-1,2.3641035E-2,-1.0724953E-2,3.8467877E-2,5.2275557E-2,6.0388803E-2,9.868502E-3,4.5149993E-2,1.296541E-2,1.403057E-2,-1.31786605E-2,2.1953864E-2,2.5289815E-3,9.227128E-3,3.514592E-2,3.5660017E-2,5.0520548E-3,7.570205E-3,-3.3029027E-3,-1.1861357E-2,-2.8796894E-2,1.5953941E-2,-3.6634814E-3,1.3865903E-2,3.2770466E-2,8.840628E-3,-9.753353E-4,1.6711356E-2,3.3041876E-2,3.5333302E-2,1.9516086E-2,4.057783E-2,1.47403125E-2],"split_indices":[18,18,18,10,10,10,18,24,66,2,27,18,16,10,18,44,53,17,27,30,27,29,51,56,9,18,16,69,1,16,63,0,0,0,0,0,0,0,0,0,0,0,0,0,0,0,0,0,0,0,0,0,0,0,0,0,0,0,0,0,0,0,0],"split_type":[0,0,0,0,0,0,0,0,0,0,0,0,0,0,0,0,0,0,0,0,0,0,0,0,0,0,0,0,0,0,0,0,0,0,0,0,0,0,0,0,0,0,0,0,0,0,0,0,0,0,0,0,0,0,0,0,0,0,0,0,0,0,0],"sum_hessian":[1.3738594E5,7.6344746E3,1.2975145E5,3.7677607E3,3.8667136E3,1.00172055E5,2.9579402E4,1.6876853E3,2.0800754E3,1.5987811E3,2.2679324E3,5.9058008E4,4.1114047E4,1.789747E4,1.1681932E4,1.2464291E2,1.5630424E3,1.8457909E3,2.342847E2,1.7829396E2,1.4204872E3,2.0318762E3,2.3605618E2,5.4687876E3,5.358922E4,3.8607242E4,2.506807E3,1.3830648E4,4.066823E3,9.74694E3,1.9349911E3,1.0766018E2,1.698273E1,1.0750216E3,4.8802075E2,1.8266826E3,1.9108263E1,1.8616794E2,4.8116753E1,7.76217E1,1.00672264E2,1.242711E3,1.777761E2,1.47418E2,1.8844583E3,5.769944E1,1.7835675E2,2.558623E3,2.9101648E3,5.1351117E4,2.2381028E3,1.712395E3,3.6894844E4,2.0121179E3,4.9468893E2,8.841764E3,4.9888853E3,3.579331E3,4.8749185E2,1.6263835E3,8.1205566E3,1.7726849E3,1.6230615E2],"tree_param":{"num_deleted":"0","num_feature":"71","num_nodes":"63","size_leaf_vector":"1"}},{"base_weights":[-4.984518E-4,5.571671E-1,-5.1549982E-2,4.1575727E-1,1.0708314E0,-1.6996698E-1,2.4912654E-1,2.2498809E-1,5.6813616E-1,9.1290617E-1,1.1316526E0,-2.2032371E-1,-1.4266782E-2,1.9165781E-1,5.418677E-1,2.9971245E-1,-1.07230745E-1,6.2362313E-1,2.4857888E-1,9.604144E-1,5.698559E-1,1.1525248E0,5.419644E-1,-1.879703E-1,-3.4827557E-1,-4.8607502E-2,3.106269E-1,1.0972532E-1,3.68068E-1,5.1695204E-1,1.2359339E0,5.80441E-3,2.159516E-2,-4.4062834E-2,-2.7031933E-3,2.176621E-2,3.6282364E-2,-1.957609E-3,1.8336764E-2,4.9403086E-2,1.7022217E-2,1.7819935E-2,4.769631E-2,3.94653E-2,5.8898993E-2,3.9547715E-2,-1.0249858E-2,7.158277E-4,-1.0169182E-2,-2.1368014E-2,-1.1279765E-2,5.8934917E-3,-4.068509E-3,9.22234E-3,2.5792647E-2,1.9823177E-2,3.8998823E-3,1.681744E-2,3.2750838E-2,2.8842304E-2,9.646066E-3,3.4034457E-2,6.8398416E-2],"categories":[],"categories_nodes":[],"categories_segments":[],"categories_sizes":[],"default_left":[0,0,0,0,0,0,0,0,0,0,0,0,0,0,0,0,0,0,0,0,0,0,0,0,0,0,0,0,0,0,0,0,0,0,0,0,0,0,0,0,0,0,0,0,0,0,0,0,0,0,0,0,0,0,0,0,0,0,0,0,0,0,0],"id":5,"left_children":[1,3,5,7,9,11,13,15,17,19,21,23,25,27,29,31,33,35,37,39,41,43,45,47,49,51,53,55,57,59,61,-1,-1,-1,-1,-1,-1,-1,-1,-1,-1,-1,-1,-1,-1,-1,-1,-1,-1,-1,-1,-1,-1,-1,-1,-1,-1,-1,-1,-1,-1,-1,-1],"loss_changes":[3.9087578E3,8.347505E2,4.478817E3,2.6192822E2,2.0766846E1,7.074834E2,5.973677E2,9.985591E1,8.824707E1,9.600464E0,1.9841553E1,2.8189233E2,2.4602448E2,4.2916272E2,9.866223E1,7.924951E1,2.9793968E1,8.08916E1,2.559555E1,9.177856E0,6.1855183E0,1.3049072E1,1.2804302E1,1.6982861E2,1.3295532E2,1.0883666E2,5.4039062E1,1.8433804E2,8.481152E1,1.0869519E2,1.1767944E1,0E0,0E0,0E0,0E0,0E0,0E0,0E0,0E0,0E0,0E0,0E0,0E0,0E0,0E0,0E0,0E0,0E0,0E0,0E0,0E0,0E0,0E0,0E0,0E0,0E0,0E0,0E0,0E0,0E0,0E0,0E0,0E0],"parents":[2147483647,0,0,1,1,2,2,3,3,4,4,5,5,6,6,7,7,8,8,9,9,10,10,11,11,12,12,13,13,14,14,15,15,16,16,17,17,18,18,19,19,20,20,21,21,22,22,23,23,24,24,25,25,26,26,27,27,28,28,29,29,30,30],"right_children":[2,4,6,8,10,12,14,16,18,20,22,24,26,28,30,32,34,36,38,40,42,44,46,48,50,52,54,56,58,60,62,-1,-1,-1,-1,-1,-1,-1,-1,-1,-1,-1,-1,-1,-1,-1,-1,-1,-1,-1,-1,-1,-1,-1,-1,-1,-1,-1,-1,-1,-1,-1,-1],"split_conditions":[2.5E-1,2.1209319E0,7.5E-1,1.0794123E0,1.2786283E0,1.0080159E0,1E0,1.0058808E0,1.3751096E-1,9.3169436E-2,1.8232462E-1,7.393683E-1,7.813759E1,1.1831964E0,2.180017E1,3.979913E-1,-2.6538463E0,6.53184E-1,1.0389488E1,1.4289537E-1,1.1487848E1,-8.3950615E-1,6.666667E-1,2.9064285E1,-3.3111432E0,1.5462811E-1,5.72105E0,-7.951815E-1,4.372012E0,9.6211046E-2,4.015539E1,5.80441E-3,2.159516E-2,-4.4062834E-2,-2.7031933E-3,2.176621E-2,3.6282364E-2,-1.957609E-3,1.8336764E-2,4.9403086E-2,1.7022217E-2,1.7819935E-2,4.769631E-2,3.94653E-2,5.8898993E-2,3.9547715E-2,-1.0249858E-2,7.158277E-4,-1.0169182E-2,-2.1368014E-2,-1.1279765E-2,5.8934917E-3,-4.068509E-3,9.22234E-3,2.5792647E-2,1.9823177E-2,3.8998823E-3,1.681744E-2,3.2750838E-2,2.8842304E-2,9.646066E-3,3.4034457E-2,6.8398416E-2],"split_indices":[37,14,37,14,10,10,37,15,67,66,67,15,1,10,58,10,27,10,53,67,53,19,19,1,34,65,31,16,31,67,57,0,0,0,0,0,0,0,0,0,0,0,0,0,0,0,0,0,0,0,0,0,0,0,0,0,0,0,0,0,0,0,0],"split_type":[0,0,0,0,0,0,0,0,0,0,0,0,0,0,0,0,0,0,0,0,0,0,0,0,0,0,0,0,0,0,0,0,0,0,0,0,0,0,0,0,0,0,0,0,0,0,0,0,0,0,0,0,0,0,0,0,0,0,0,0,0,0,0],"sum_hessian":[1.3730033E5,1.1512541E4,1.257878E5,9.030948E3,2.4815928E3,9.024763E4,3.554016E4,4.0139539E3,5.016994E3,7.0118066E2,1.7804122E3,6.8189625E4,2.2058006E4,2.9712287E4,5.8278735E3,3.278286E3,7.3566797E2,4.2717856E3,7.452084E2,6.114461E2,8.973458E1,1.7168855E3,6.3526684E1,5.4434402E4,1.3755227E4,1.9952318E4,2.105687E3,2.029329E4,9.418998E3,5.6299785E3,1.9789546E2,1.3753485E3,1.9029375E3,4.46776E1,6.9099036E2,1.5065968E3,2.7651887E3,2.1609227E2,5.291161E2,5.8343414E2,2.801192E1,6.099355E1,2.8741032E1,1.1792097E2,1.5989646E3,4.8058575E1,1.5468108E1,3.8517114E3,5.0582688E4,8.358168E3,5.397058E3,3.2775608E3,1.6674758E4,1.3078247E3,7.978622E2,2.0178905E3,1.8275398E4,8.48694E3,9.320577E2,4.749056E3,8.8092206E2,4.111061E1,1.5678485E2],"tree_param":{"num_deleted":"0","num_feature":"71","num_nodes":"63","size_leaf_vector":"1"}},{"base_weights":[-7.6386146E-4,8.215842E-1,-3.618109E-2,6.585443E-1,1.0615684E0,-1.3985336E-1,2.2473697E-1,7.764464E-1,5.43227E-1,1.2336617E0,1.0062554E0,-1.756024E-1,2.018331E-1,1.2288946E-1,4.5082906E-1,7.1455324E-1,1.0890105E0,3.5914585E-1,6.721432E-1,8.3777374E-1,1.2758862E0,1.0316926E0,6.3960665E-1,-2.1008193E-1,2.0871935E-3,1.3965857E-1,4.3299282E-1,6.670872E-2,3.2537353E-1,4.2930207E-1,1.0426036E0,3.312494E-2,4.9081553E-2,3.5559494E-2,5.8392894E-2,2.0829478E-2,-3.6650875E-3,-1.15677565E-2,3.484957E-2,6.0870446E-2,2.5251364E-2,5.2660137E-2,6.791715E-2,4.4332426E-2,5.477829E-2,1.2744936E-2,4.103474E-2,-6.719507E-3,-1.3175975E-2,-1.3203443E-3,1.2015447E-2,1.0681341E-2,-3.0492793E-3,1.9978506E-2,4.8137076E-2,1.6950151E-2,1.5952304E-3,1.3629928E-2,2.7663304E-2,1.9080572E-2,3.3566788E-2,4.0626924E-2,6.9784686E-2],"categories":[],"categories_nodes":[],"categories_segments":[],"categories_sizes":[],"default_left":[0,0,0,0,0,0,0,0,0,0,0,0,0,0,0,0,0,0,0,0,0,0,0,0,0,0,0,0,0,0,0,0,0,0,0,0,0,0,0,0,0,0,0,0,0,0,0,0,0,0,0,0,0,0,0,0,0,0,0,0,0,0,0],"id":6,"left_children":[1,3,5,7,9,11,13,15,17,19,21,23,25,27,29,31,33,35,37,39,41,43,45,47,49,51,53,55,57,59,61,-1,-1,-1,-1,-1,-1,-1,-1,-1,-1,-1,-1,-1,-1,-1,-1,-1,-1,-1,-1,-1,-1,-1,-1,-1,-1,-1,-1,-1,-1,-1,-1],"loss_changes":[4.0001526E3,2.1962622E2,3.562109E3,4.4496094E1,1.8191895E1,1.1512322E3,8.618347E2,2.9773376E1,3.9799835E1,5.9300537E0,1.4126221E1,5.228252E2,1.2787781E2,2.9347824E2,1.4648413E2,1.7311096E1,5.449585E0,1.7969147E1,2.3167358E1,5.434738E0,4.8988037E0,1.2148071E1,7.389496E0,2.887556E2,9.4232605E1,1.0456482E2,3.199997E1,1.9138168E2,6.670264E1,1.2850415E2,2.9599487E1,0E0,0E0,0E0,0E0,0E0,0E0,0E0,0E0,0E0,0E0,0E0,0E0,0E0,0E0,0E0,0E0,0E0,0E0,0E0,0E0,0E0,0E0,0E0,0E0,0E0,0E0,0E0,0E0,0E0,0E0,0E0,0E0],"parents":[2147483647,0,0,1,1,2,2,3,3,4,4,5,5,6,6,7,7,8,8,9,9,10,10,11,11,12,12,13,13,14,14,15,15,16,16,17,17,18,18,19,19,20,20,21,21,22,22,23,23,24,24,25,25,26,26,27,27,28,28,29,29,30,30],"right_children":[2,4,6,8,10,12,14,16,18,20,22,24,26,28,30,32,34,36,38,40,42,44,46,48,50,52,54,56,58,60,62,-1,-1,-1,-1,-1,-1,-1,-1,-1,-1,-1,-1,-1,-1,-1,-1,-1,-1,-1,-1,-1,-1,-1,-1,-1,-1,-1,-1,-1,-1,-1,-1],"split_conditions":[4E-2,2.1209319E0,6.666667E-1,4.5078734E-1,-1.3443172E1,1.635949E1,8.4E-1,1.2918165E0,8.293698E-1,-7.5E-1,9.66588E-1,1.2286365E0,8.86312E-1,1.3781382E0,2.180017E1,1.282392E1,6.5954924E0,1.0508198E0,-2.6538463E0,-4.185033E0,2.7480843E0,1.2918165E0,-4.855196E-1,3.5860386E-1,7.6982185E1,9.3333334E-2,2.5062914E0,3.0363468E1,7.096084E1,9.066667E-1,1.6576097E0,3.312494E-2,4.9081553E-2,3.5559494E-2,5.8392894E-2,2.0829478E-2,-3.6650875E-3,-1.15677565E-2,3.484957E-2,6.0870446E-2,2.5251364E-2,5.2660137E-2,6.791715E-2,4.4332426E-2,5.477829E-2,1.2744936E-2,4.103474E-2,-6.719507E-3,-1.3175975E-2,-1.3203443E-3,1.2015447E-2,1.0681341E-2,-3.0492793E-3,1.9978506E-2,4.8137076E-2,1.6950151E-2,1.5952304E-3,1.3629928E-2,2.7663304E-2,1.9080572E-2,3.3566788E-2,4.0626924E-2,6.9784686E-2],"split_indices":[18,14,18,15,51,34,18,10,10,19,15,10,16,10,58,53,53,15,27,50,14,10,24,15,1,18,14,1,1,18,69,0,0,0,0,0,0,0,0,0,0,0,0,0,0,0,0,0,0,0,0,0,0,0,0,0,0,0,0,0,0,0,0],"split_type":[0,0,0,0,0,0,0,0,0,0,0,0,0,0,0,0,0,0,0,0,0,0,0,0,0,0,0,0,0,0,0,0,0,0,0,0,0,0,0,0,0,0,0,0,0,0,0,0,0,0,0,0,0,0,0,0,0,0,0,0,0,0,0],"sum_hessian":[1.3735238E5,5.6688794E3,1.316835E5,3.381282E3,2.2875972E3,9.424097E4,3.7442535E4,1.6640895E3,1.7171925E3,5.438594E2,1.7437378E3,8.531708E4,8.92389E3,2.5817738E4,1.1624796E4,1.3958573E3,2.6823218E2,7.1198694E2,1.00520557E3,5.7574665E1,4.862847E2,1.6259423E3,1.1779554E2,7.145428E4,1.3862794E4,7.036633E3,1.8872563E3,2.0214266E4,5.6034727E3,1.1220908E4,4.0388742E2,1.1755679E3,2.202895E2,5.086732E1,2.1736487E2,6.295861E2,8.240083E1,2.592186E1,9.792837E2,2.3707012E1,3.3867653E1,1.4048886E2,3.4579584E2,5.0859885E2,1.1173434E3,4.012638E1,7.766916E1,2.9576676E4,4.1877605E4,1.2381502E4,1.4812916E3,5.143006E3,1.8936268E3,1.7794409E3,1.0781546E2,2.2873164E3,1.792695E4,4.5551777E3,1.0482946E3,9.379899E3,1.8410087E3,2.4940169E2,1.5448575E2],"tree_param":{"num_deleted":"0","num_feature":"71","num_nodes":"63","size_leaf_vector":"1"}},{"base_weights":[1.868125E-3,6.765602E-1,-3.7542094E-2,9.138916E-1,4.4732147E-1,-1.4184624E-1,2.1874824E-1,7.3994815E-1,1.0558938E0,4.9743262E-1,1.1820881E-1,-4.469734E-2,-2.1946545E-1,1.18733816E-1,4.405056E-1,6.4801264E-1,9.257155E-1,1.1061914E0,6.6639286E-1,3.3461455E-1,6.142082E-1,3.0127066E-1,-1.7323467E-1,1.1045962E-1,-7.554039E-2,-2.910469E-1,1.1746243E-2,3.108579E-1,4.7480907E-2,6.117623E-1,2.6784074E-1,3.38958E-2,-2.0565493E-2,4.8260823E-2,3.743381E-3,6.1151005E-2,5.0928492E-2,1.0377708E-3,3.7805807E-2,2.8078025E-3,1.9962473E-2,3.4588914E-2,2.292985E-2,-0E0,2.3349427E-2,-3.0622808E-2,-3.9340556E-4,1.6288826E-3,1.0873794E-2,-5.092769E-3,9.159114E-3,-1.31390905E-2,-2.5385419E-2,-1.7370032E-3,1.4701731E-2,2.2876834E-2,1.15401475E-2,2.112223E-2,6.5229833E-4,4.0103953E-2,2.7047042E-2,-8.823135E-5,1.6455395E-2],"categories":[],"categories_nodes":[],"categories_segments":[],"categories_sizes":[],"default_left":[0,0,0,0,0,0,0,0,0,0,0,0,0,0,0,0,0,0,0,0,0,0,0,0,0,0,0,0,0,0,0,0,0,0,0,0,0,0,0,0,0,0,0,0,0,0,0,0,0,0,0,0,0,0,0,0,0,0,0,0,0,0,0],"id":7,"left_children":[1,3,5,7,9,11,13,15,17,19,21,23,25,27,29,31,33,35,37,39,41,43,45,47,49,51,53,55,57,59,61,-1,-1,-1,-1,-1,-1,-1,-1,-1,-1,-1,-1,-1,-1,-1,-1,-1,-1,-1,-1,-1,-1,-1,-1,-1,-1,-1,-1,-1,-1,-1,-1],"loss_changes":[3.6471965E3,4.1035107E2,3.4640693E3,8.933472E1,6.3162537E1,6.9436414E2,8.3093176E2,2.6681274E1,3.760034E1,6.2698425E1,2.7561039E1,1.9577902E2,8.4743726E2,3.5347244E2,3.4366626E2,3.652896E1,1.7795044E1,1.48376465E1,1.3450951E1,2.4977554E1,2.2247131E1,1.5706257E1,1.4082878E1,5.6387047E1,2.3236903E2,2.3875488E2,1.5896979E2,8.149255E1,2.4316995E2,7.724121E1,9.60549E1,0E0,0E0,0E0,0E0,0E0,0E0,0E0,0E0,0E0,0E0,0E0,0E0,0E0,0E0,0E0,0E0,0E0,0E0,0E0,0E0,0E0,0E0,0E0,0E0,0E0,0E0,0E0,0E0,0E0,0E0,0E0,0E0],"parents":[2147483647,0,0,1,1,2,2,3,3,4,4,5,5,6,6,7,7,8,8,9,9,10,10,11,11,12,12,13,13,14,14,15,15,16,16,17,17,18,18,19,19,20,20,21,21,22,22,23,23,24,24,25,25,26,26,27,27,28,28,29,29,30,30],"right_children":[2,4,6,8,10,12,14,16,18,20,22,24,26,28,30,32,34,36,38,40,42,44,46,48,50,52,54,56,58,60,62,-1,-1,-1,-1,-1,-1,-1,-1,-1,-1,-1,-1,-1,-1,-1,-1,-1,-1,-1,-1,-1,-1,-1,-1,-1,-1,-1,-1,-1,-1,-1,-1],"split_conditions":[5.3333335E-2,2.6666667E-2,6.666667E-1,1.2918165E0,3.7510812E-1,1.9396788E-1,8.4E-1,1.078573E1,3.9769766E-1,6.04377E-1,-1.0251955E1,-6.621222E-1,3.8804045E0,1.3142101E-1,1.5641402E-1,3.5319403E-1,4.5596418E-1,-8.350785E0,1.6061641E0,5.9507756E0,2.7508244E-1,-6.651496E-1,1.56222925E1,4.9333334E-1,7.241085E1,3.6882636E-1,9.4342244E-1,1.0713344E-1,3.3496952E1,1.14609465E-1,7.9981387E-1,3.38958E-2,-2.0565493E-2,4.8260823E-2,3.743381E-3,6.1151005E-2,5.0928492E-2,1.0377708E-3,3.7805807E-2,2.8078025E-3,1.9962473E-2,3.4588914E-2,2.292985E-2,-0E0,2.3349427E-2,-3.0622808E-2,-3.9340556E-4,1.6288826E-3,1.0873794E-2,-5.092769E-3,9.159114E-3,-1.31390905E-2,-2.5385419E-2,-1.7370032E-3,1.4701731E-2,2.2876834E-2,1.15401475E-2,2.112223E-2,6.5229833E-4,4.0103953E-2,2.7047042E-2,-8.823135E-5,1.6455395E-2],"split_indices":[18,18,18,10,13,13,18,53,13,10,51,16,34,13,13,13,13,51,10,53,13,2,52,18,1,13,16,13,0,13,11,0,0,0,0,0,0,0,0,0,0,0,0,0,0,0,0,0,0,0,0,0,0,0,0,0,0,0,0,0,0,0,0],"split_type":[0,0,0,0,0,0,0,0,0,0,0,0,0,0,0,0,0,0,0,0,0,0,0,0,0,0,0,0,0,0,0,0,0,0,0,0,0,0,0,0,0,0,0,0,0,0,0,0,0,0,0,0,0,0,0,0,0,0,0,0,0,0,0],"sum_hessian":[1.3714952E5,7.5679883E3,1.2958152E5,3.7143545E3,3.8536338E3,9.21013E4,3.7480227E4,1.6765865E3,2.037768E3,3.3422031E3,5.114305E2,4.0908918E4,5.1192383E4,2.5834139E4,1.1646086E4,1.1293458E3,5.472407E2,1.8003224E3,2.3744557E2,1.400928E3,1.9412753E3,3.151354E2,1.962951E2,6.7800894E3,3.412883E4,3.9091566E4,1.2100814E4,6.9853423E3,1.8848797E4,5.8428784E3,5.8032075E3,1.0995005E3,2.9845432E1,5.221435E2,2.509721E1,7.5801385E2,1.0423086E3,2.9951761E1,2.074938E2,2.6608023E2,1.1348477E3,1.288748E3,6.5252734E2,1.1312267E2,2.0201273E2,5.1384525E1,1.4491057E2,3.928426E3,2.8516636E3,3.0980873E4,3.147955E3,3.458627E4,4.5052974E3,1.0389834E4,1.7109805E3,2.4608433E3,4.524499E3,1.5822749E3,1.7266521E4,1.5770901E3,4.265788E3,1.0734192E3,4.7297886E3],"tree_param":{"num_deleted":"0","num_feature":"71","num_nodes":"63","size_leaf_vector":"1"}},{"base_weights":[1.3049152E-3,7.502604E-1,-3.0366201E-2,6.008391E-1,9.758017E-1,-9.805623E-2,3.158878E-1,6.527962E-1,2.1689081E-1,1.031242E0,8.2023656E-1,3.466049E-2,-1.6089147E-1,5.0945437E-1,1.9140811E-1,5.578837E-1,8.67644E-1,-1.605849E-1,3.5861954E-1,9.269526E-1,1.1440271E0,5.8865637E-1,9.287117E-1,2.668912E-1,6.942287E-3,-2.0853695E-1,1.512589E-1,3.7970263E-1,6.2215424E-1,7.625066E-2,3.4446442E-1,1.6267063E-2,3.1013269E-2,4.583774E-2,2.2307044E-2,-1.893593E-2,2.4745002E-2,6.218718E-3,2.6883924E-2,2.4970274E-2,4.8111964E-2,2.8469322E-2,5.7965674E-2,-0E0,3.27461E-2,4.8896123E-2,2.6033789E-2,1.068973E-2,2.6074598E-2,-8.651195E-4,1.0857627E-2,-8.426907E-3,-1.8281693E-2,6.8976183E-4,1.31627815E-2,2.597419E-2,1.3565983E-2,2.8723707E-2,4.2964343E-2,6.9168895E-3,-1.1706275E-2,1.863858E-2,-8.05033E-3],"categories":[],"categories_nodes":[],"categories_segments":[],"categories_sizes":[],"default_left":[0,0,0,0,0,0,0,0,0,0,0,0,0,0,0,0,0,0,0,0,0,0,0,0,0,0,0,0,0,0,0,0,0,0,0,0,0,0,0,0,0,0,0,0,0,0,0,0,0,0,0,0,0,0,0,0,0,0,0,0,0,0,0],"id":8,"left_children":[1,3,5,7,9,11,13,15,17,19,21,23,25,27,29,31,33,35,37,39,41,43,45,47,49,51,53,55,57,59,61,-1,-1,-1,-1,-1,-1,-1,-1,-1,-1,-1,-1,-1,-1,-1,-1,-1,-1,-1,-1,-1,-1,-1,-1,-1,-1,-1,-1,-1,-1,-1,-1],"loss_changes":[3.2508472E3,1.854253E2,3.0814333E3,6.6132324E1,1.645337E1,9.172085E2,5.174629E2,5.8464966E1,2.1804857E1,1.5899658E1,1.30477295E1,2.2732648E2,1.1102113E3,1.2202783E2,2.3043835E2,2.8904968E1,1.7100525E1,1.6128166E1,1.1908115E1,1.1201172E1,4.557312E0,7.936371E0,6.2440186E0,5.03201E1,1.610202E2,4.065415E2,1.5202556E2,5.8666992E1,4.9134033E1,1.4403743E2,8.0601074E1,0E0,0E0,0E0,0E0,0E0,0E0,0E0,0E0,0E0,0E0,0E0,0E0,0E0,0E0,0E0,0E0,0E0,0E0,0E0,0E0,0E0,0E0,0E0,0E0,0E0,0E0,0E0,0E0,0E0,0E0,0E0,0E0],"parents":[2147483647,0,0,1,1,2,2,3,3,4,4,5,5,6,6,7,7,8,8,9,9,10,10,11,11,12,12,13,13,14,14,15,15,16,16,17,17,18,18,19,19,20,20,21,21,22,22,23,23,24,24,25,25,26,26,27,27,28,28,29,29,30,30],"right_children":[2,4,6,8,10,12,14,16,18,20,22,24,26,28,30,32,34,36,38,40,42,44,46,48,50,52,54,56,58,60,62,-1,-1,-1,-1,-1,-1,-1,-1,-1,-1,-1,-1,-1,-1,-1,-1,-1,-1,-1,-1,-1,-1,-1,-1,-1,-1,-1,-1,-1,-1,-1,-1],"split_conditions":[4E-2,2.1209319E0,7.733333E-1,3.7510812E-1,2.8450096E-1,1.6693717E-1,1.4378686E-1,1.0749953E0,1.1549025E1,8.936525E0,1.1116066E1,1.0713344E-1,1.3089381E1,8.4E-1,1.0934683E0,9.4889826E-1,1.3751096E-1,1.6911075E0,1.2749012E0,6.3053346E-1,-9.0909094E-1,-3.3328876E-1,1.8232462E-1,9.0610504E-1,6.330103E1,2.973624E-1,1.042071E0,1.0345516E0,9.066667E-1,2.46938E-1,1.2473294E-1,1.6267063E-2,3.1013269E-2,4.583774E-2,2.2307044E-2,-1.893593E-2,2.4745002E-2,6.218718E-3,2.6883924E-2,2.4970274E-2,4.8111964E-2,2.8469322E-2,5.7965674E-2,-0E0,3.27461E-2,4.8896123E-2,2.6033789E-2,1.068973E-2,2.6074598E-2,-8.651195E-4,1.0857627E-2,-8.426907E-3,-1.8281693E-2,6.8976183E-4,1.31627815E-2,2.597419E-2,1.3565983E-2,2.8723707E-2,4.2964343E-2,6.9168895E-3,-1.1706275E-2,1.863858E-2,-8.05033E-3],"split_indices":[18,14,18,13,13,13,13,10,53,53,53,13,34,18,10,14,67,68,14,10,19,5,67,49,0,13,14,69,18,13,67,0,0,0,0,0,0,0,0,0,0,0,0,0,0,0,0,0,0,0,0,0,0,0,0,0,0,0,0,0,0,0,0],"split_type":[0,0,0,0,0,0,0,0,0,0,0,0,0,0,0,0,0,0,0,0,0,0,0,0,0,0,0,0,0,0,0,0,0,0,0,0,0,0,0,0,0,0,0,0,0,0,0,0,0,0,0,0,0,0,0,0,0,0,0,0,0,0,0],"sum_hessian":[1.3703031E5,5.5583115E3,1.31472E5,3.3490847E3,2.209227E3,1.0997551E5,2.1496498E4,2.9475144E3,4.0157016E2,1.6180978E3,5.911293E2,3.533534E4,7.464017E4,8.409491E3,1.3087007E4,2.0509807E3,8.9653375E2,1.08582115E2,2.9298804E2,8.525956E2,7.6550214E2,1.9413635E2,3.9699292E2,3.764023E3,3.1571314E4,6.475801E4,9.882158E3,3.9151443E3,4.4943467E3,7.4716807E3,5.6153267E3,4.3814337E2,1.6128374E3,7.9980896E2,9.672476E1,8.267621E1,2.5905907E1,1.2961157E2,1.6337646E2,6.839319E1,7.842024E2,2.2665724E1,7.428364E2,1.9179476E1,1.7495688E2,3.506808E2,4.6312153E1,3.1191682E3,6.448546E2,2.830608E4,3.2652356E3,5.162179E4,1.3136224E4,4.439666E3,5.4424917E3,1.7045681E3,2.2105762E3,3.749409E3,7.4493756E2,6.228468E3,1.2432129E3,5.3189707E3,2.9635632E2],"tree_param":{"num_deleted":"0","num_feature":"71","num_nodes":"63","size_leaf_vector":"1"}},{"base_weights":[-1.3107758E-3,7.207836E-1,-3.1684015E-2,5.740769E-1,9.430365E-1,-1.2388996E-1,2.0021565E-1,6.1715287E-1,2.2572748E-1,9.5960027E-1,3.5222864E-1,1.7710285E-1,-1.5120743E-1,1.0934498E-1,4.0342975E-1,4.5193002E-1,7.3354053E-1,-2.2337945E-1,3.5966715E-1,1.1473311E0,9.0355563E-1,-7.307433E-2,7.558938E-1,2.630706E-1,-7.434193E-2,-4.2364858E-2,-2.2636002E-1,2.4563205E-1,2.5287757E-2,6.179791E-1,2.9352155E-1,3.473694E-2,1.8541208E-2,2.5071202E-2,3.9495036E-2,-2.6873952E-2,1.8193588E-2,-8.875494E-3,2.278249E-2,3.3662852E-2,5.8987904E-2,4.6382353E-2,2.1709582E-2,1.3248727E-2,-2.1386197E-2,1.5299256E-2,5.4050084E-2,1.595439E-3,1.7212186E-2,-2.2261323E-2,4.1261126E-4,6.0880664E-3,-3.6002733E-3,-1.2479978E-2,3.9455146E-3,1.0614249E-2,2.8997589E-2,1.988231E-2,-3.798335E-4,3.781731E-2,2.618554E-2,1.3328855E-2,5.1824044E-2],"categories":[],"categories_nodes":[],"categories_segments":[],"categories_sizes":[],"default_left":[0,0,0,0,0,0,0,0,0,0,0,0,0,0,0,0,0,0,0,0,0,0,0,0,0,0,0,0,0,0,0,0,0,0,0,0,0,0,0,0,0,0,0,0,0,0,0,0,0,0,0,0,0,0,0,0,0,0,0,0,0,0,0],"id":9,"left_children":[1,3,5,7,9,11,13,15,17,19,21,23,25,27,29,31,33,35,37,39,41,43,45,47,49,51,53,55,57,59,61,-1,-1,-1,-1,-1,-1,-1,-1,-1,-1,-1,-1,-1,-1,-1,-1,-1,-1,-1,-1,-1,-1,-1,-1,-1,-1,-1,-1,-1,-1,-1,-1],"loss_changes":[3.007775E3,1.7865112E2,2.814355E3,4.9432617E1,2.0164062E1,7.743972E2,6.9110254E2,5.5873657E1,2.2611847E1,1.9360962E1,1.1419988E1,1.6950696E2,7.061184E2,2.963127E2,2.719525E2,2.3269592E1,2.1299377E1,1.6314627E1,1.5162582E1,4.884094E0,1.7232056E1,4.1840777E0,3.5532627E0,1.0939221E2,6.1382866E1,1.7158403E2,3.624563E2,1.0938995E2,1.9624963E2,4.9634644E1,1.5202753E2,0E0,0E0,0E0,0E0,0E0,0E0,0E0,0E0,0E0,0E0,0E0,0E0,0E0,0E0,0E0,0E0,0E0,0E0,0E0,0E0,0E0,0E0,0E0,0E0,0E0,0E0,0E0,0E0,0E0,0E0,0E0,0E0],"parents":[2147483647,0,0,1,1,2,2,3,3,4,4,5,5,6,6,7,7,8,8,9,9,10,10,11,11,12,12,13,13,14,14,15,15,16,16,17,17,18,18,19,19,20,20,21,21,22,22,23,23,24,24,25,25,26,26,27,27,28,28,29,29,30,30],"right_children":[2,4,6,8,10,12,14,16,18,20,22,24,26,28,30,32,34,36,38,40,42,44,46,48,50,52,54,56,58,60,62,-1,-1,-1,-1,-1,-1,-1,-1,-1,-1,-1,-1,-1,-1,-1,-1,-1,-1,-1,-1,-1,-1,-1,-1,-1,-1,-1,-1,-1,-1,-1,-1],"split_conditions":[4E-2,2.1209319E0,6.666667E-1,3.8200682E-1,1.9170424E-1,9.3333334E-2,8.4E-1,6.8049127E-1,1.4837853E0,-1.3605442E1,2.0833333E-1,3.18692E-1,1.8489559E-1,1.4378686E-1,1.3848306E-1,1.802874E-1,6.701584E0,5.9224407E1,-3.7239199E0,-9.3457943E-1,3.894049E-1,9.4896966E-1,1.0508198E0,5.828626E-1,7.172477E-1,3.3251656E1,2.109859E0,6.352665E1,3.319258E1,1.14609465E-1,2.1805872E2,3.473694E-2,1.8541208E-2,2.5071202E-2,3.9495036E-2,-2.6873952E-2,1.8193588E-2,-8.875494E-3,2.278249E-2,3.3662852E-2,5.8987904E-2,4.6382353E-2,2.1709582E-2,1.3248727E-2,-2.1386197E-2,1.5299256E-2,5.4050084E-2,1.595439E-3,1.7212186E-2,-2.2261323E-2,4.1261126E-4,6.0880664E-3,-3.6002733E-3,-1.2479978E-2,3.9455146E-3,1.0614249E-2,2.8997589E-2,1.988231E-2,-3.798335E-4,3.781731E-2,2.618554E-2,1.3328855E-2,5.1824044E-2],"split_indices":[18,14,18,13,67,18,18,10,11,51,20,13,13,13,13,13,53,0,29,27,13,15,15,11,14,1,31,0,0,13,58,0,0,0,0,0,0,0,0,0,0,0,0,0,0,0,0,0,0,0,0,0,0,0,0,0,0,0,0,0,0,0,0],"split_type":[0,0,0,0,0,0,0,0,0,0,0,0,0,0,0,0,0,0,0,0,0,0,0,0,0,0,0,0,0,0,0,0,0,0,0,0,0,0,0,0,0,0,0,0,0,0,0,0,0,0,0,0,0,0,0,0,0,0,0,0,0,0,0],"sum_hessian":[1.3715039E5,5.533555E3,1.3161684E5,3.3389597E3,2.1945952E3,9.4174914E4,3.744193E4,2.9688599E3,3.701E2,2.1327083E3,6.1886906E1,7.8335063E3,8.634141E4,2.5876393E4,1.1565536E4,1.2328207E3,1.7360391E3,8.385641E1,2.862436E2,4.7931107E2,1.6533972E3,3.03302E1,3.1556704E1,5.8390566E3,1.9944495E3,3.527003E4,5.1071375E4,9.867625E3,1.6008769E4,3.913088E3,7.652448E3,3.0335693E2,9.2946375E2,3.4477316E2,1.391266E3,5.529958E1,2.855683E1,4.2345345E1,2.4389825E2,3.4459896E1,4.448512E2,1.5698046E3,8.359268E1,1.5065637E1,1.5264564E1,1.5511303E1,1.60454E1,1.5198445E3,4.3192124E3,3.627615E2,1.631688E3,5.3917437E3,2.987829E4,4.7460332E4,3.6110437E3,8.976973E3,8.9065204E2,1.2985045E3,1.4710265E4,1.5778173E3,2.3352708E3,7.387906E3,2.645424E2],"tree_param":{"num_deleted":"0","num_feature":"71","num_nodes":"63","size_leaf_vector":"1"}},{"base_weights":[2.2690264E-4,5.894745E-1,-3.3618838E-2,4.575804E-1,8.893079E-1,-1.0734077E-1,2.4068893E-1,2.1237853E-1,5.3245085E-1,6.707233E-1,9.3657047E-1,-1.5356402E-1,4.0854152E-2,4.1154772E-1,1.3225733E-1,6.120009E-1,1.2203455E-1,6.438245E-1,3.7067285E-1,7.2874624E-1,-4.1739244E-2,9.8293006E-1,7.1543306E-1,-1.0042884E-1,-2.820391E-1,1.4837029E-2,3.7918964E-1,2.985425E-1,5.668224E-1,4.267961E-2,2.8703374E-1,1.223013E-2,3.9451204E-2,8.450177E-3,-1.5374549E-2,1.8780641E-2,3.7018925E-2,7.3422226E-3,2.5607023E-2,2.9224608E-2,4.3870606E-2,1.0785087E-2,-1.6283909E-2,4.3378193E-2,5.4080125E-2,3.984524E-2,1.4709519E-2,5.767059E-3,-6.395092E-3,-1.7531691E-2,-5.794921E-3,9.764397E-3,-9.408694E-4,1.5759878E-2,3.3779394E-2,2.3927525E-2,1.187681E-2,2.9245844E-2,-6.7994012E-3,-2.1046118E-3,9.081669E-3,2.8214341E-2,1.202432E-2],"categories":[],"categories_nodes":[],"categories_segments":[],"categories_sizes":[],"default_left":[0,0,0,0,0,0,0,0,0,0,0,0,0,0,0,0,0,0,0,0,0,0,0,0,0,0,0,0,0,0,0,0,0,0,0,0,0,0,0,0,0,0,0,0,0,0,0,0,0,0,0,0,0,0,0,0,0,0,0,0,0,0,0],"id":10,"left_children":[1,3,5,7,9,11,13,15,17,19,21,23,25,27,29,31,33,35,37,39,41,43,45,47,49,51,53,55,57,59,61,-1,-1,-1,-1,-1,-1,-1,-1,-1,-1,-1,-1,-1,-1,-1,-1,-1,-1,-1,-1,-1,-1,-1,-1,-1,-1,-1,-1,-1,-1,-1,-1],"loss_changes":[2.729441E3,2.9250122E2,2.6169897E3,9.428125E1,2.1368774E1,6.987793E2,5.07463E2,4.3306774E1,7.03009E1,1.7440475E1,1.6789795E1,5.30536E2,2.1325159E2,1.8592029E2,2.323764E2,1.3554855E1,2.0078457E1,5.9450256E1,5.0807068E1,6.431946E0,2.5548697E0,1.454895E1,1.0351517E1,3.261266E2,2.5889514E2,1.3686934E2,3.1894531E1,6.710602E1,5.732434E1,1.2529181E2,7.865369E1,0E0,0E0,0E0,0E0,0E0,0E0,0E0,0E0,0E0,0E0,0E0,0E0,0E0,0E0,0E0,0E0,0E0,0E0,0E0,0E0,0E0,0E0,0E0,0E0,0E0,0E0,0E0,0E0,0E0,0E0,0E0,0E0],"parents":[2147483647,0,0,1,1,2,2,3,3,4,4,5,5,6,6,7,7,8,8,9,9,10,10,11,11,12,12,13,13,14,14,15,15,16,16,17,17,18,18,19,19,20,20,21,21,22,22,23,23,24,24,25,25,26,26,27,27,28,28,29,29,30,30],"right_children":[2,4,6,8,10,12,14,16,18,20,22,24,26,28,30,32,34,36,38,40,42,44,46,48,50,52,54,56,58,60,62,-1,-1,-1,-1,-1,-1,-1,-1,-1,-1,-1,-1,-1,-1,-1,-1,-1,-1,-1,-1,-1,-1,-1,-1,-1,-1,-1,-1,-1,-1,-1,-1],"split_conditions":[5.3333335E-2,2.1209319E0,7.3333335E-1,1.1054718E0,1.4593819E0,1.0404669E0,1.4378686E-1,1.7384313E-1,2.6980302E-1,3.580201E-1,7.89375E1,2.4820621E-1,1.1469331E0,8.4E-1,1.1619445E0,-1.6089492E0,3.4852204E-1,6.5954924E0,1.1293407E1,8.665273E0,5.3676674E1,9.382422E0,1.4289537E-1,1.4666666E-1,9.957788E-1,1.336161E-1,3.353049E0,1.0713344E-1,6.271028E-2,8.4E-1,2.8004543E1,1.223013E-2,3.9451204E-2,8.450177E-3,-1.5374549E-2,1.8780641E-2,3.7018925E-2,7.3422226E-3,2.5607023E-2,2.9224608E-2,4.3870606E-2,1.0785087E-2,-1.6283909E-2,4.3378193E-2,5.4080125E-2,3.984524E-2,1.4709519E-2,5.767059E-3,-6.395092E-3,-1.7531691E-2,-5.794921E-3,9.764397E-3,-9.408694E-4,1.5759878E-2,3.3779394E-2,2.3927525E-2,1.187681E-2,2.9245844E-2,-6.7994012E-3,-2.1046118E-3,9.081669E-3,2.8214341E-2,1.202432E-2],"split_indices":[18,14,18,11,11,10,13,13,13,13,34,13,16,18,10,61,13,53,53,53,70,53,67,18,34,13,10,13,66,18,1,0,0,0,0,0,0,0,0,0,0,0,0,0,0,0,0,0,0,0,0,0,0,0,0,0,0,0,0,0,0,0,0],"split_type":[0,0,0,0,0,0,0,0,0,0,0,0,0,0,0,0,0,0,0,0,0,0,0,0,0,0,0,0,0,0,0,0,0,0,0,0,0,0,0,0,0,0,0,0,0,0,0,0,0,0,0,0,0,0,0,0,0,0,0,0,0,0,0],"sum_hessian":[1.368406E5,7.4320483E3,1.2940855E5,5.166201E3,2.2658474E3,1.0199878E5,2.740977E4,1.2118214E3,3.9543796E3,4.1010666E2,1.8557407E3,7.7750914E4,2.4247867E4,1.06376E4,1.6772172E4,2.2029565E2,9.915258E2,2.3366782E3,1.6177014E3,3.7982947E2,3.0277195E1,1.5265591E3,3.2918155E2,5.5007977E4,2.2742938E4,2.2519725E4,1.728143E3,6.1620625E3,4.475537E3,1.0627327E4,6.1448433E3,7.409825E1,1.461974E2,8.95932E2,9.5593796E1,6.224816E2,1.7141968E3,6.294319E2,9.8826953E2,1.9948795E2,1.8034152E2,1.5208079E1,1.5069115E1,7.151124E2,8.114467E2,2.7334406E2,5.5837475E1,6.2100796E3,4.87979E4,1.6093261E4,6.649676E3,3.5406172E3,1.8979107E4,1.4260697E3,3.0207327E2,1.5542207E3,4.607842E3,4.364223E3,1.1131405E2,6.599159E3,4.0281685E3,8.785987E2,5.2662446E3],"tree_param":{"num_deleted":"0","num_feature":"71","num_nodes":"63","size_leaf_vector":"1"}},{"base_weights":[-2.5661401E-3,4.270941E-1,-4.120231E-2,3.050402E-1,8.282169E-1,-1.2861636E-1,1.8156785E-1,1.6052312E-1,4.3233576E-1,8.6887753E-1,5.3418744E-1,-7.3810425E-3,-1.8303908E-1,3.298103E-1,8.953922E-2,2.2974402E-1,-1.9131286E-1,5.2503407E-1,2.5544527E-1,7.5667745E-1,9.6970725E-1,1.786711E-1,7.247706E-1,2.1432099E-1,-2.7850846E-2,-2.1295127E-1,2.86341E-2,2.8023133E-1,5.876771E-1,-1.0291131E-2,2.225091E-1,3.7666094E-3,1.6817292E-2,-3.249953E-2,9.952892E-4,1.8958202E-2,3.2559346E-2,3.822545E-3,1.8015694E-2,2.4590475E-2,4.0413287E-2,4.9923077E-2,2.9399266E-2,-1.7526263E-2,1.7479368E-2,3.8887296E-2,8.575774E-3,-2.9250856E-3,1.3555327E-2,1.0850798E-2,-2.3091477E-3,-2.1752769E-3,-1.2444138E-2,-2.0030173E-3,1.2898331E-2,2.2478664E-2,1.1214599E-2,3.0717624E-2,2.9557451E-4,1.1775224E-2,-2.5989392E-3,3.1135693E-2,9.703488E-3],"categories":[],"categories_nodes":[],"categories_segments":[],"categories_sizes":[],"default_left":[0,0,0,0,0,0,0,0,0,0,0,0,0,0,0,0,0,0,0,0,0,0,0,0,0,0,0,0,0,0,0,0,0,0,0,0,0,0,0,0,0,0,0,0,0,0,0,0,0,0,0,0,0,0,0,0,0,0,0,0,0,0,0],"id":11,"left_children":[1,3,5,7,9,11,13,15,17,19,21,23,25,27,29,31,33,35,37,39,41,43,45,47,49,51,53,55,57,59,61,-1,-1,-1,-1,-1,-1,-1,-1,-1,-1,-1,-1,-1,-1,-1,-1,-1,-1,-1,-1,-1,-1,-1,-1,-1,-1,-1,-1,-1,-1,-1,-1],"loss_changes":[2.2713044E3,5.51583E2,2.444795E3,1.588565E2,2.9829102E1,5.948251E2,4.823988E2,9.89896E1,7.4781494E1,2.3768677E1,2.1402054E1,1.26719955E2,3.9411328E2,1.7244812E2,2.8993542E2,5.562329E1,6.4997925E1,5.447296E1,2.9529243E1,1.3631592E1,1.1265503E1,1.0869276E1,5.439659E0,3.6698463E1,1.1477475E2,3.3181177E2,1.2150746E2,1.0715765E2,3.3534485E1,1.2771271E2,1.0593686E2,0E0,0E0,0E0,0E0,0E0,0E0,0E0,0E0,0E0,0E0,0E0,0E0,0E0,0E0,0E0,0E0,0E0,0E0,0E0,0E0,0E0,0E0,0E0,0E0,0E0,0E0,0E0,0E0,0E0,0E0,0E0,0E0],"parents":[2147483647,0,0,1,1,2,2,3,3,4,4,5,5,6,6,7,7,8,8,9,9,10,10,11,11,12,12,13,13,14,14,15,15,16,16,17,17,18,18,19,19,20,20,21,21,22,22,23,23,24,24,25,25,26,26,27,27,28,28,29,29,30,30],"right_children":[2,4,6,8,10,12,14,16,18,20,22,24,26,28,30,32,34,36,38,40,42,44,46,48,50,52,54,56,58,60,62,-1,-1,-1,-1,-1,-1,-1,-1,-1,-1,-1,-1,-1,-1,-1,-1,-1,-1,-1,-1,-1,-1,-1,-1,-1,-1,-1,-1,-1,-1,-1,-1],"split_conditions":[2.5E-1,1.9783785E0,7.5E-1,1.0850791E0,3.6326787E-1,1.6880168E-1,1.4378686E-1,3.580201E-1,2.8450096E-1,9.051724E0,2.1045015E0,-1.597644E0,7.350095E-1,1E0,1.0241333E0,3.979913E-1,1.1668937E1,6.9973594E-1,8.4648657E-1,2.214847E0,1.4457557E-1,2.1209319E0,2.3197267E0,5E-1,1.0408541E-1,1.3842481E-1,1.3450313E0,1.0713344E-1,1.4914025E-1,3.3774357E1,2.0956982E1,3.7666094E-3,1.6817292E-2,-3.249953E-2,9.952892E-4,1.8958202E-2,3.2559346E-2,3.822545E-3,1.8015694E-2,2.4590475E-2,4.0413287E-2,4.9923077E-2,2.9399266E-2,-1.7526263E-2,1.7479368E-2,3.8887296E-2,8.575774E-3,-2.9250856E-3,1.3555327E-2,1.0850798E-2,-2.3091477E-3,-2.1752769E-3,-1.2444138E-2,-2.0030173E-3,1.2898331E-2,2.2478664E-2,1.1214599E-2,3.0717624E-2,2.9557451E-4,1.1775224E-2,-2.5989392E-3,3.1135693E-2,9.703488E-3],"split_indices":[37,14,37,14,13,13,13,13,13,53,10,31,16,37,10,10,53,10,10,14,67,14,27,37,13,28,14,13,63,1,1,0,0,0,0,0,0,0,0,0,0,0,0,0,0,0,0,0,0,0,0,0,0,0,0,0,0,0,0,0,0,0,0],"split_type":[0,0,0,0,0,0,0,0,0,0,0,0,0,0,0,0,0,0,0,0,0,0,0,0,0,0,0,0,0,0,0,0,0,0,0,0,0,0,0,0,0,0,0,0,0,0,0,0,0,0,0,0,0,0,0,0,0,0,0,0,0,0,0],"sum_hessian":[1.3682955E5,1.1286213E4,1.2554334E5,8.656864E3,2.6293484E3,9.016577E4,3.537757E4,4.058148E3,4.598717E3,2.3049868E3,3.243616E2,2.7938889E4,6.2226883E4,1.3546257E4,2.1831312E4,3.3927642E3,6.6538385E2,3.0130073E3,1.5857094E3,1.1013774E3,1.2036093E3,1.154668E2,2.088948E2,2.3578955E3,2.5580992E4,5.4524246E4,7.702637E3,1.1366902E4,2.1793542E3,1.2468426E4,9.362888E3,1.3889646E3,2.0037996E3,2.0923228E2,4.5615158E2,1.4028601E3,1.6101472E3,5.888537E2,9.9685565E2,1.845593E2,9.168182E2,1.1150721E3,8.853716E1,2.6961283E1,8.8505516E1,1.890752E2,1.981961E1,4.0469553E2,1.9531998E3,1.7783359E3,2.3802656E4,9.542423E3,4.498182E4,5.9267915E3,1.7758456E3,2.816789E3,8.550113E3,2.082878E3,9.647648E1,1.8049462E3,1.06634795E4,6.1726196E2,8.745626E3],"tree_param":{"num_deleted":"0","num_feature":"71","num_nodes":"63","size_leaf_vector":"1"}},{"base_weights":[2.2696157E-3,-7.351934E-2,2.174082E-1,-1.2605648E-1,1.050509E-1,1.353895E-1,5.5599874E-1,-1.4944942E-1,1.3531993E-1,7.4261904E-2,3.1479225E-1,4.545638E-2,2.8672686E-1,7.48486E-1,3.7592337E-1,-7.688537E-2,-1.9368562E-1,2.697824E-1,6.3135214E-2,3.0265126E-1,4.872369E-2,5.98603E-1,2.6572043E-1,3.757191E-1,-3.6927875E-2,2.3000723E-1,4.7733268E-1,6.4214134E-1,8.8445604E-1,6.4522475E-1,3.282645E-1,-3.3601893E-3,-2.264568E-2,-8.8953925E-3,-2.0445736E-2,-3.234917E-2,1.4596856E-2,9.609085E-4,1.7838838E-2,2.0653637E-2,6.602791E-3,3.4140237E-3,-1.300851E-2,3.8945217E-2,1.6899703E-2,1.5013272E-2,-9.563178E-3,2.3958825E-2,4.659069E-3,-2.7873816E-3,8.916902E-3,2.4860704E-2,9.878053E-3,2.6811717E-2,8.300625E-3,3.680985E-2,2.4365978E-2,3.5185985E-2,4.7780637E-2,2.9536445E-2,5.309695E-2,1.2377737E-2,2.9202199E-2],"categories":[],"categories_nodes":[],"categories_segments":[],"categories_sizes":[],"default_left":[0,0,0,0,0,0,0,0,0,0,0,0,0,0,0,0,0,0,0,0,0,0,0,0,0,0,0,0,0,0,0,0,0,0,0,0,0,0,0,0,0,0,0,0,0,0,0,0,0,0,0,0,0,0,0,0,0,0,0,0,0,0,0],"id":12,"left_children":[1,3,5,7,9,11,13,15,17,19,21,23,25,27,29,31,33,35,37,39,41,43,45,47,49,51,53,55,57,59,61,-1,-1,-1,-1,-1,-1,-1,-1,-1,-1,-1,-1,-1,-1,-1,-1,-1,-1,-1,-1,-1,-1,-1,-1,-1,-1,-1,-1,-1,-1,-1,-1],"loss_changes":[2.2290764E3,9.4843E2,9.885493E2,4.7766113E2,1.4815561E2,3.9006293E2,2.395354E2,2.299867E2,6.2074753E1,1.1669833E2,4.0178955E1,4.896782E2,1.1494971E2,4.6576782E1,4.519818E1,9.856563E1,1.5080737E2,4.5659485E1,5.370149E1,3.7545975E1,1.0886741E2,1.9125854E1,3.9804398E1,1.0465213E2,5.829245E1,7.0903595E1,4.433606E1,2.6200623E1,1.665271E1,1.0103241E1,6.242389E1,0E0,0E0,0E0,0E0,0E0,0E0,0E0,0E0,0E0,0E0,0E0,0E0,0E0,0E0,0E0,0E0,0E0,0E0,0E0,0E0,0E0,0E0,0E0,0E0,0E0,0E0,0E0,0E0,0E0,0E0,0E0,0E0],"parents":[2147483647,0,0,1,1,2,2,3,3,4,4,5,5,6,6,7,7,8,8,9,9,10,10,11,11,12,12,13,13,14,14,15,15,16,16,17,17,18,18,19,19,20,20,21,21,22,22,23,23,24,24,25,25,26,26,27,27,28,28,29,29,30,30],"right_children":[2,4,6,8,10,12,14,16,18,20,22,24,26,28,30,32,34,36,38,40,42,44,46,48,50,52,54,56,58,60,62,-1,-1,-1,-1,-1,-1,-1,-1,-1,-1,-1,-1,-1,-1,-1,-1,-1,-1,-1,-1,-1,-1,-1,-1,-1,-1,-1,-1,-1,-1,-1,-1],"split_conditions":[1.1836072E0,7.5E-1,1.5788262E0,1.3089381E1,1E0,7.5E-1,2.5E-1,3.3461148E-1,3.918518E-1,3.638319E1,3.8848206E1,2.5E-1,1E0,2.7480843E0,-2.1680205E0,2.9936863E1,9.525911E0,7.56763E-2,7.0029335E1,4.803261E-1,6.9838613E-1,1.7168855E-2,6.6196495E-1,9.4896966E-1,4.0671186E0,3.319258E1,8.9711644E-2,5.959542E-1,3.5E-1,3.9323795E1,6.398033E0,-3.3601893E-3,-2.264568E-2,-8.8953925E-3,-2.0445736E-2,-3.234917E-2,1.4596856E-2,9.609085E-4,1.7838838E-2,2.0653637E-2,6.602791E-3,3.4140237E-3,-1.300851E-2,3.8945217E-2,1.6899703E-2,1.5013272E-2,-9.563178E-3,2.3958825E-2,4.659069E-3,-2.7873816E-3,8.916902E-3,2.4860704E-2,9.878053E-3,2.6811717E-2,8.300625E-3,3.680985E-2,2.4365978E-2,3.5185985E-2,4.7780637E-2,2.9536445E-2,5.309695E-2,1.2377737E-2,2.9202199E-2],"split_indices":[11,37,14,34,37,37,37,15,15,0,0,37,37,14,4,9,30,15,0,15,15,60,15,15,31,0,63,15,55,34,31,0,0,0,0,0,0,0,0,0,0,0,0,0,0,0,0,0,0,0,0,0,0,0,0,0,0,0,0,0,0,0,0],"split_type":[0,0,0,0,0,0,0,0,0,0,0,0,0,0,0,0,0,0,0,0,0,0,0,0,0,0,0,0,0,0,0,0,0,0,0,0,0,0,0,0,0,0,0,0,0,0,0,0,0,0,0,0,0,0,0,0,0,0,0,0,0,0,0],"sum_hessian":[1.3670175E5,1.010891E5,3.561265E4,7.811136E4,2.2977744E4,2.8671635E4,6.9410146E3,7.169729E4,6.414073E3,2.0040928E4,2.9368174E3,1.798804E4,1.0683595E4,3.3504946E3,3.59052E3,2.7160537E4,4.453675E4,2.2361921E3,4.177881E3,2.0114214E3,1.8029506E4,4.2812662E2,2.5086907E3,3.591071E3,1.4396969E4,8.238927E3,2.4446675E3,1.8885492E3,1.4619454E3,5.345306E2,3.0559895E3,2.6482383E4,6.78154E2,4.1500453E4,3.0362954E3,5.090161E1,2.1852905E3,3.637665E3,5.4021576E2,1.2175579E3,7.938634E2,1.695897E4,1.070535E3,2.4956792E2,1.785587E2,2.3340332E3,1.7465761E2,2.6262502E3,9.6482074E2,1.3242996E4,1.1539725E3,8.873328E2,7.351594E3,2.0531594E3,3.915081E2,1.1681487E3,7.2040045E2,4.211187E2,1.0408267E3,4.780487E2,5.6481846E1,2.3274624E3,7.2852716E2],"tree_param":{"num_deleted":"0","num_feature":"71","num_nodes":"63","size_leaf_vector":"1"}},{"base_weights":[1.4104056E-3,6.141291E-1,-2.3573317E-2,4.8045766E-1,7.894027E-1,-7.784832E-2,2.5604042E-1,5.278011E-1,1.1845458E-1,8.77555E-1,4.442782E-1,-1.5488797E-1,6.9649317E-3,3.9134628E-1,1.3152485E-1,3.997226E-1,6.29987E-1,-3.6929637E-1,3.0720153E-1,9.238263E-1,5.357439E-1,7.621701E-2,5.955555E-1,-1.181143E-1,-3.541262E-1,-2.0448307E-2,2.3649387E-1,3.606972E-1,7.1161914E-1,6.3247964E-2,3.5145545E-1,2.296226E-2,5.19867E-3,3.3926737E-2,1.7677698E-2,4.7399006E-3,-3.0476669E-2,-1.3645587E-2,2.0574734E-2,3.931425E-2,4.9508944E-2,-9.750213E-3,2.972037E-2,1.98382E-2,-8.806131E-3,3.528894E-2,1.7398007E-2,2.7926625E-3,-7.911898E-3,1.4167485E-3,-2.0168422E-2,7.5872773E-3,-3.0202563E-3,3.342324E-2,1.05072E-2,2.7604565E-2,1.546433E-2,3.744631E-2,6.6919387E-3,1.0391493E-2,-1.8014744E-3,1.5381403E-2,3.2257315E-2],"categories":[],"categories_nodes":[],"categories_segments":[],"categories_sizes":[],"default_left":[0,0,0,0,0,0,0,0,0,0,0,0,0,0,0,0,0,0,0,0,0,0,0,0,0,0,0,0,0,0,0,0,0,0,0,0,0,0,0,0,0,0,0,0,0,0,0,0,0,0,0,0,0,0,0,0,0,0,0,0,0,0,0],"id":13,"left_children":[1,3,5,7,9,11,13,15,17,19,21,23,25,27,29,31,33,35,37,39,41,43,45,47,49,51,53,55,57,59,61,-1,-1,-1,-1,-1,-1,-1,-1,-1,-1,-1,-1,-1,-1,-1,-1,-1,-1,-1,-1,-1,-1,-1,-1,-1,-1,-1,-1,-1,-1,-1,-1],"loss_changes":[2.0885066E3,1.2383801E2,1.9890449E3,5.163867E1,6.877551E1,7.172819E2,3.5856946E2,3.413391E1,3.2905308E1,2.7305542E1,2.6008179E1,4.211267E2,3.2885385E2,9.914319E1,1.6642235E2,2.0739883E1,1.897754E1,1.1444146E1,1.5903381E1,1.2269165E1,1.0070862E1,1.169969E1,8.130341E0,3.3905823E2,1.6894739E2,3.210867E2,6.2750214E1,9.094348E1,1.8498932E1,1.2173845E2,3.294516E1,0E0,0E0,0E0,0E0,0E0,0E0,0E0,0E0,0E0,0E0,0E0,0E0,0E0,0E0,0E0,0E0,0E0,0E0,0E0,0E0,0E0,0E0,0E0,0E0,0E0,0E0,0E0,0E0,0E0,0E0,0E0,0E0],"parents":[2147483647,0,0,1,1,2,2,3,3,4,4,5,5,6,6,7,7,8,8,9,9,10,10,11,11,12,12,13,13,14,14,15,15,16,16,17,17,18,18,19,19,20,20,21,21,22,22,23,23,24,24,25,25,26,26,27,27,28,28,29,29,30,30],"right_children":[2,4,6,8,10,12,14,16,18,20,22,24,26,28,30,32,34,36,38,40,42,44,46,48,50,52,54,56,58,60,62,-1,-1,-1,-1,-1,-1,-1,-1,-1,-1,-1,-1,-1,-1,-1,-1,-1,-1,-1,-1,-1,-1,-1,-1,-1,-1,-1,-1,-1,-1,-1,-1],"split_conditions":[4E-2,1.2918165E0,7.733333E-1,3.3575746E-1,3.5319403E-1,6.7631894E-1,1.5392344E-1,6.440794E-1,1.1293407E1,1.1164285E-1,1.1549025E1,3.0221197E-1,1.4900181E1,9.066667E-1,1.4817107E0,-2.2929935E0,6.6934326E1,-1.1049507E-1,-6.866284E-1,-3.1428573E-1,3.70163E-1,-7.5520835E0,7.53351E-1,1.6E-1,-2.4377011E-1,1.3572294E-1,-1.2581332E0,1.0853227E-1,1.4680503E-1,0E0,5.1980762E0,2.296226E-2,5.19867E-3,3.3926737E-2,1.7677698E-2,4.7399006E-3,-3.0476669E-2,-1.3645587E-2,2.0574734E-2,3.931425E-2,4.9508944E-2,-9.750213E-3,2.972037E-2,1.98382E-2,-8.806131E-3,3.528894E-2,1.7398007E-2,2.7926625E-3,-7.911898E-3,1.4167485E-3,-2.0168422E-2,7.5872773E-3,-3.0202563E-3,3.342324E-2,1.05072E-2,2.7604565E-2,1.546433E-2,3.744631E-2,6.6919387E-3,1.0391493E-2,-1.8014744E-3,1.5381403E-2,3.2257315E-2],"split_indices":[18,10,18,13,13,10,13,10,53,66,53,13,34,18,10,51,34,66,7,19,56,51,27,18,63,13,16,13,63,35,31,0,0,0,0,0,0,0,0,0,0,0,0,0,0,0,0,0,0,0,0,0,0,0,0,0,0,0,0,0,0,0,0],"split_type":[0,0,0,0,0,0,0,0,0,0,0,0,0,0,0,0,0,0,0,0,0,0,0,0,0,0,0,0,0,0,0,0,0,0,0,0,0,0,0,0,0,0,0,0,0,0,0,0,0,0,0,0,0,0,0,0,0,0,0,0,0,0,0],"sum_hessian":[1.3640922E5,5.343137E3,1.31066086E5,3.0371814E3,2.305956E3,1.0976345E5,2.1302633E4,2.6838813E3,3.533001E2,1.8331862E3,4.727698E2,5.7519855E4,5.2243598E4,1.0204993E4,1.109764E4,1.1975741E3,1.4863071E3,9.729996E1,2.5600015E2,1.6103265E3,2.2285966E2,1.3955122E2,3.3321857E2,4.8562332E4,8.957522E3,4.6669395E4,5.5742036E3,9.319008E3,8.8598517E2,8.472288E3,2.625351E3,9.946037E2,2.029704E2,1.2602596E3,2.260475E2,3.2890663E1,6.4409294E1,3.7787235E1,2.1821292E2,5.348596E2,1.0754669E3,1.5582551E1,2.0727711E2,6.183676E1,7.771446E1,2.2661478E2,1.066038E2,9.098772E3,3.9463562E4,1.0206787E3,7.9368433E3,8.786383E3,3.788301E4,3.1658026E2,5.257623E3,1.9669907E3,7.3520176E3,8.308779E2,5.5107216E1,3.450309E3,5.0219795E3,2.2894885E3,3.3586246E2],"tree_param":{"num_deleted":"0","num_feature":"71","num_nodes":"63","size_leaf_vector":"1"}},{"base_weights":[-1.1039393E-4,5.812398E-1,-2.3689182E-2,4.5889395E-1,7.568155E-1,-8.929562E-2,1.6913728E-1,1.8691391E-1,5.141912E-1,8.265668E-1,4.20579E-1,-1.1212219E-1,1.6417636E-1,8.787005E-2,3.239187E-1,-2.839402E-2,2.2907272E-1,-3.211866E-1,5.276592E-1,5.8271444E-1,8.720649E-1,4.532944E-1,-8.006445E-3,-1.7017011E-1,-4.1252833E-2,1.3031155E-1,4.1139242E-1,-1.8373862E-2,1.6156916E-1,3.616269E-1,-1.9191928E-2,1.4375086E-2,-2.0637766E-2,-3.4609746E-2,1.000204E-2,1.701994E-2,2.9561285E-2,1.4679535E-2,3.665396E-2,4.4842727E-2,2.3559203E-2,1.8583206E-2,3.5925854E-2,-6.94543E-3,-1.4441319E-2,-5.2243276E-3,1.0863715E-3,8.645E-3,-3.9620753E-3,5.2916076E-2,1.8756723E-2,4.2559655E-4,-1.3046618E-2,6.294217E-3,1.9573271E-2,1.6043162E-2,2.9367784E-2,-4.6136947E-3,6.2320214E-2],"categories":[],"categories_nodes":[],"categories_segments":[],"categories_sizes":[],"default_left":[0,0,0,0,0,0,0,0,0,0,0,0,0,0,0,0,0,0,0,0,0,0,0,0,0,0,0,0,0,0,0,0,0,0,0,0,0,0,0,0,0,0,0,0,0,0,0,0,0,0,0,0,0,0,0,0,0,0,0],"id":14,"left_children":[1,3,5,7,9,11,13,15,17,19,21,23,25,27,29,-1,31,33,35,37,39,41,-1,43,45,47,49,51,53,55,57,-1,-1,-1,-1,-1,-1,-1,-1,-1,-1,-1,-1,-1,-1,-1,-1,-1,-1,-1,-1,-1,-1,-1,-1,-1,-1,-1,-1],"loss_changes":[1.8726705E3,1.1308264E2,1.661167E3,4.675647E1,4.9855957E1,5.6691125E2,4.190321E2,1.7148376E1,2.9817017E1,1.8269287E1,7.5145874E0,3.6966333E2,6.738141E1,1.712624E2,1.4862842E2,0E0,1.9290676E1,8.66028E0,2.9733398E1,1.1724258E1,1.3520752E1,6.741913E0,0E0,1.8298376E2,1.6125906E2,6.3645775E1,2.1298737E1,5.851791E1,1.0556424E2,9.43009E1,1.0478558E2,0E0,0E0,0E0,0E0,0E0,0E0,0E0,0E0,0E0,0E0,0E0,0E0,0E0,0E0,0E0,0E0,0E0,0E0,0E0,0E0,0E0,0E0,0E0,0E0,0E0,0E0,0E0,0E0],"parents":[2147483647,0,0,1,1,2,2,3,3,4,4,5,5,6,6,7,7,8,8,9,9,10,10,11,11,12,12,13,13,14,14,16,16,17,17,18,18,19,19,20,20,21,21,23,23,24,24,25,25,26,26,27,27,28,28,29,29,30,30],"right_children":[2,4,6,8,10,12,14,16,18,20,22,24,26,28,30,-1,32,34,36,38,40,42,-1,44,46,48,50,52,54,56,58,-1,-1,-1,-1,-1,-1,-1,-1,-1,-1,-1,-1,-1,-1,-1,-1,-1,-1,-1,-1,-1,-1,-1,-1,-1,-1,-1,-1],"split_conditions":[4E-2,1.3484263E0,6.933333E-1,-5.0825083E-1,8.737099E1,1.894504E1,8.4E-1,6.854891E-2,-1.4557217E0,6.63055E0,3.5061955E0,6.7631894E-1,1.7072147E0,9.12174E-1,1.0702739E-1,-2.839402E-2,4.5220187E-1,5.5071957E1,4.6731946E-1,-1.4123926E-1,1.0129235E0,1.5488498E0,-8.006445E-3,1E0,4.5333335E-1,1.3751096E-1,-9.730415E-1,1.0258852E-1,6.3756447E1,6.414252E1,6.772446E1,1.4375086E-2,-2.0637766E-2,-3.4609746E-2,1.000204E-2,1.701994E-2,2.9561285E-2,1.4679535E-2,3.665396E-2,4.4842727E-2,2.3559203E-2,1.8583206E-2,3.5925854E-2,-6.94543E-3,-1.4441319E-2,-5.2243276E-3,1.0863715E-3,8.645E-3,-3.9620753E-3,5.2916076E-2,1.8756723E-2,4.2559655E-4,-1.3046618E-2,6.294217E-3,1.9573271E-2,1.6043162E-2,2.9367784E-2,-4.6136947E-3,6.2320214E-2],"split_indices":[18,10,18,43,34,34,18,67,27,53,27,10,10,11,67,0,4,70,10,33,27,62,0,36,18,67,17,67,0,70,70,0,0,0,0,0,0,0,0,0,0,0,0,0,0,0,0,0,0,0,0,0,0,0,0,0,0,0,0],"split_type":[0,0,0,0,0,0,0,0,0,0,0,0,0,0,0,0,0,0,0,0,0,0,0,0,0,0,0,0,0,0,0,0,0,0,0,0,0,0,0,0,0,0,0,0,0,0,0,0,0,0,0,0,0,0,0,0,0,0,0],"sum_hessian":[1.3663247E5,5.32296E3,1.3130952E5,3.1429456E3,2.1800144E3,9.797768E4,3.3331832E4,5.3404474E2,2.608901E3,1.8018268E3,3.7818753E2,8.988602E4,8.091654E3,2.1860465E4,1.1471365E4,2.6304249E1,5.077405E2,4.0079227E1,2.5688215E3,2.893933E2,1.5124335E3,3.5924835E2,1.8939165E1,4.940739E4,4.0478637E4,7.121231E3,9.7042285E2,8.951209E3,1.2909256E4,1.0336701E4,1.1346641E3,4.6710098E2,4.063953E1,2.359069E1,1.6488537E1,6.5622577E2,1.912596E3,1.0216981E2,1.872235E2,1.4208495E3,9.1584015E1,2.798148E2,7.943357E1,3.9111516E4,1.0295876E4,2.0201979E4,2.0276656E4,5.9206797E3,1.2005511E3,4.7778225E1,9.226446E2,8.0579175E3,8.932913E2,1.1179265E4,1.7299912E3,8.76154E3,1.5751613E3,1.0748463E3,5.981784E1],"tree_param":{"num_deleted":"0","num_feature":"71","num_nodes":"59","size_leaf_vector":"1"}},{"base_weights":[1.0629037E-3,5.630161E-1,-2.155097E-2,3.6756706E-1,6.900999E-1,-9.351193E-2,1.3513818E-1,1.1828154E-1,4.4079956E-1,5.826091E-1,7.793994E-1,1.5412545E-1,-1.1710259E-1,6.8399586E-2,3.0814287E-1,2.0401117E-1,-2.6768473E-1,6.450392E-1,3.1097803E-1,6.6173446E-1,3.8987365E-1,8.3381873E-1,4.3341002E-1,2.1214652E-1,-1.3620235E-1,-3.526646E-2,-1.9378476E-1,4.6554577E-2,4.4296685E-1,3.9524844E-1,9.701576E-2,1.5021189E-2,-7.931395E-3,-2.6963392E-2,1.8814998E-2,5.1908016E-2,2.9649723E-2,6.063736E-3,2.2838898E-2,2.20219E-2,3.8127024E-2,9.228407E-3,3.0263934E-2,2.9403359E-2,4.4360332E-2,2.5749847E-2,-1.6846305E-2,3.162588E-4,1.3516217E-2,1.7740885E-3,-1.68675E-2,3.4866408E-3,-3.379478E-3,-1.084059E-2,1.9660548E-3,1.3561179E-2,6.298125E-5,2.0479476E-2,4.025248E-2,1.8833797E-2,4.8083395E-2,1.8903628E-2,8.264645E-4],"categories":[],"categories_nodes":[],"categories_segments":[],"categories_sizes":[],"default_left":[0,0,0,0,0,0,0,0,0,0,0,0,0,0,0,0,0,0,0,0,0,0,0,0,0,0,0,0,0,0,0,0,0,0,0,0,0,0,0,0,0,0,0,0,0,0,0,0,0,0,0,0,0,0,0,0,0,0,0,0,0,0,0],"id":15,"left_children":[1,3,5,7,9,11,13,15,17,19,21,23,25,27,29,31,33,35,37,39,41,43,45,47,49,51,53,55,57,59,61,-1,-1,-1,-1,-1,-1,-1,-1,-1,-1,-1,-1,-1,-1,-1,-1,-1,-1,-1,-1,-1,-1,-1,-1,-1,-1,-1,-1,-1,-1,-1,-1],"loss_changes":[1.7311483E3,1.2985974E2,1.4763582E3,3.762961E1,2.902771E1,5.242146E2,4.7554346E2,1.5863794E1,4.1734528E1,2.1190826E1,3.1288208E1,1.3154669E2,5.1400464E2,2.430616E2,2.1058167E2,1.3891888E1,1.5618507E1,1.0663116E1,2.692585E1,2.1678131E1,1.8442871E1,1.7829956E1,1.5585949E1,7.776218E1,4.505283E1,1.3453593E2,2.2712122E2,2.858688E2,1.8521698E1,8.398889E1,7.565916E1,0E0,0E0,0E0,0E0,0E0,0E0,0E0,0E0,0E0,0E0,0E0,0E0,0E0,0E0,0E0,0E0,0E0,0E0,0E0,0E0,0E0,0E0,0E0,0E0,0E0,0E0,0E0,0E0,0E0,0E0,0E0,0E0],"parents":[2147483647,0,0,1,1,2,2,3,3,4,4,5,5,6,6,7,7,8,8,9,9,10,10,11,11,12,12,13,13,14,14,15,15,16,16,17,17,18,18,19,19,20,20,21,21,22,22,23,23,24,24,25,25,26,26,27,27,28,28,29,29,30,30],"right_children":[2,4,6,8,10,12,14,16,18,20,22,24,26,28,30,32,34,36,38,40,42,44,46,48,50,52,54,56,58,60,62,-1,-1,-1,-1,-1,-1,-1,-1,-1,-1,-1,-1,-1,-1,-1,-1,-1,-1,-1,-1,-1,-1,-1,-1,-1,-1,-1,-1,-1,-1,-1,-1],"split_conditions":[4E-2,1.5054575E0,6.4E-1,6.5954924E0,1.4273866E0,9.3333334E-2,8.4E-1,-2.3361692E0,2.2938323E-1,2.6038167E-1,3.894049E-1,1.3751096E-1,1.9975428E-1,7.5928925E1,1.8694538E-1,3.1266284E-1,1.1914201E-1,-5.0693398E0,1.00553855E-2,3E-1,1.282392E1,6.701584E0,-2.2929935E0,3.260162E-1,-1.0586388E1,1.3572294E-1,8.1539387E-1,3.242268E1,5.398537E-1,2.1805872E2,2.0454545E-1,1.5021189E-2,-7.931395E-3,-2.6963392E-2,1.8814998E-2,5.1908016E-2,2.9649723E-2,6.063736E-3,2.2838898E-2,2.20219E-2,3.8127024E-2,9.228407E-3,3.0263934E-2,2.9403359E-2,4.4360332E-2,2.5749847E-2,-1.6846305E-2,3.162588E-4,1.3516217E-2,1.7740885E-3,-1.68675E-2,3.4866408E-3,-3.379478E-3,-1.084059E-2,1.9660548E-3,1.3561179E-2,6.298125E-5,2.0479476E-2,4.025248E-2,1.8833797E-2,4.8083395E-2,1.8903628E-2,8.264645E-4],"split_indices":[18,14,18,53,10,18,18,51,13,13,13,67,13,1,13,27,68,12,29,55,53,53,51,10,51,13,16,1,7,58,28,0,0,0,0,0,0,0,0,0,0,0,0,0,0,0,0,0,0,0,0,0,0,0,0,0,0,0,0,0,0,0,0],"split_type":[0,0,0,0,0,0,0,0,0,0,0,0,0,0,0,0,0,0,0,0,0,0,0,0,0,0,0,0,0,0,0,0,0,0,0,0,0,0,0,0,0,0,0,0,0,0,0,0,0,0,0,0,0,0,0,0,0,0,0,0,0,0,0],"sum_hessian":[1.3620053E5,5.2679E3,1.30932625E5,2.0802659E3,3.1876338E3,8.972813E4,4.1204492E4,4.7509308E2,1.6051727E3,1.4558539E3,1.7317799E3,7.801498E3,8.192664E4,2.9738281E4,1.1466211E4,3.9057755E2,8.4515564E1,6.1921466E2,9.8595807E2,1.0268368E3,4.2901712E2,1.4927292E3,2.3905066E2,6.503963E3,1.2975352E3,3.9636027E4,4.229061E4,2.8102887E4,1.6353951E3,8.1143345E3,3.3518767E3,3.0990652E2,8.067101E1,6.022073E1,2.4294832E1,6.683941E1,5.523753E2,4.3155103E2,5.5440704E2,3.2627448E2,7.005623E2,2.227479E2,2.0626923E2,2.7236975E2,1.2203595E3,2.1734361E2,2.170705E1,1.4356685E3,5.0682944E3,6.9958484E2,5.9795026E2,9.325389E3,3.031064E4,3.8490652E4,3.7999578E3,4.711618E3,2.3391268E4,1.5025327E3,1.3286241E2,7.860797E3,2.5353748E2,7.431629E2,2.6087139E3],"tree_param":{"num_deleted":"0","num_feature":"71","num_nodes":"63","size_leaf_vector":"1"}},{"base_weights":[-4.283799E-4,5.433991E-1,-2.2141153E-2,4.252479E-1,7.313326E-1,-6.854674E-2,2.1749918E-1,4.7242096E-1,1.205507E-1,7.583061E-1,4.168268E-1,3.1155646E-2,-1.1822572E-1,3.7298125E-1,1.2555362E-1,2.721713E-1,5.3630644E-1,-1.30768E-1,2.667958E-1,6.8478036E-1,9.211727E-1,5.7597464E-1,8.52066E-2,1.6025279E-2,3.587113E-1,4.6377E-2,-1.5818444E-1,4.863398E-1,2.9798838E-1,1.5350379E-1,-2.669518E-1,1.5574815E-2,-1.6093537E-2,2.932463E-2,1.3100408E-2,-1.2402658E-2,2.0791054E-2,1.795238E-2,-7.1202475E-3,2.842095E-3,3.5325706E-2,4.840396E-2,3.0740092E-2,1.4832017E-2,4.083335E-2,-9.847495E-3,2.0562513E-2,9.1495905E-3,-9.433652E-4,1.3710764E-2,2.5349716E-2,4.938693E-3,-1.0878431E-2,-9.265234E-3,3.1408095E-3,-8.32755E-3,2.5529264E-2,2.2566376E-2,1.2059073E-2,1.8840598E-2,5.456097E-3,1.655387E-2,-1.7492019E-2],"categories":[],"categories_nodes":[],"categories_segments":[],"categories_sizes":[],"default_left":[0,0,0,0,0,0,0,0,0,0,0,0,0,0,0,0,0,0,0,0,0,0,0,0,0,0,0,0,0,0,0,0,0,0,0,0,0,0,0,0,0,0,0,0,0,0,0,0,0,0,0,0,0,0,0,0,0,0,0,0,0,0,0],"id":16,"left_children":[1,3,5,7,9,11,13,15,17,19,21,23,25,27,29,31,33,35,37,39,41,43,45,47,49,51,53,55,57,59,61,-1,-1,-1,-1,-1,-1,-1,-1,-1,-1,-1,-1,-1,-1,-1,-1,-1,-1,-1,-1,-1,-1,-1,-1,-1,-1,-1,-1,-1,-1,-1,-1],"loss_changes":[1.6073097E3,1.1484155E2,1.4558308E3,4.580255E1,1.5856201E1,5.4331287E2,3.032655E2,3.4894226E1,1.6131042E1,2.0088623E1,8.274286E0,1.8056882E2,4.8158698E2,6.6382324E1,1.4648851E2,1.6053253E1,2.8248291E1,1.0389285E1,1.0666777E1,1.7067932E1,6.173462E0,6.3586807E0,5.498281E0,2.0322258E2,1.948938E1,1.9774551E2,3.5317334E2,4.997101E1,4.086197E1,1.2321829E2,4.421092E1,0E0,0E0,0E0,0E0,0E0,0E0,0E0,0E0,0E0,0E0,0E0,0E0,0E0,0E0,0E0,0E0,0E0,0E0,0E0,0E0,0E0,0E0,0E0,0E0,0E0,0E0,0E0,0E0,0E0,0E0,0E0,0E0],"parents":[2147483647,0,0,1,1,2,2,3,3,4,4,5,5,6,6,7,7,8,8,9,9,10,10,11,11,12,12,13,13,14,14,15,15,16,16,17,17,18,18,19,19,20,20,21,21,22,22,23,23,24,24,25,25,26,26,27,27,28,28,29,29,30,30],"right_children":[2,4,6,8,10,12,14,16,18,20,22,24,26,28,30,32,34,36,38,40,42,44,46,48,50,52,54,56,58,60,62,-1,-1,-1,-1,-1,-1,-1,-1,-1,-1,-1,-1,-1,-1,-1,-1,-1,-1,-1,-1,-1,-1,-1,-1,-1,-1,-1,-1,-1,-1,-1,-1],"split_conditions":[4E-2,2.1209319E0,7.733333E-1,1.3751096E-1,1.4457557E-1,1.6880168E-1,1.4181888E-1,4.835335E-1,1.1238494E1,1.1952191E1,5.769231E-1,7.644194E1,1.4666666E-1,1.1572017E-1,1.2370331E-1,5.881005E-1,3.3575746E-1,4.3879004E0,9.5049506E-1,-9.0909094E-1,8.591273E0,2.0833333E-1,3.097549E0,3.3774357E1,7.00849E-2,3.6882636E-1,1.5627601E0,1.5762274E0,4.269274E1,3.8285862E1,-5.8778524E-1,1.5574815E-2,-1.6093537E-2,2.932463E-2,1.3100408E-2,-1.2402658E-2,2.0791054E-2,1.795238E-2,-7.1202475E-3,2.842095E-3,3.5325706E-2,4.840396E-2,3.0740092E-2,1.4832017E-2,4.083335E-2,-9.847495E-3,2.0562513E-2,9.1495905E-3,-9.433652E-4,1.3710764E-2,2.5349716E-2,4.938693E-3,-1.0878431E-2,-9.265234E-3,3.1408095E-3,-8.32755E-3,2.5529264E-2,2.2566376E-2,1.2059073E-2,1.8840598E-2,5.456097E-3,1.655387E-2,-1.7492019E-2],"split_indices":[18,14,18,67,67,13,13,10,53,53,42,1,18,13,67,27,13,61,48,19,50,20,14,1,67,13,10,52,64,0,35,0,0,0,0,0,0,0,0,0,0,0,0,0,0,0,0,0,0,0,0,0,0,0,0,0,0,0,0,0,0,0,0],"split_type":[0,0,0,0,0,0,0,0,0,0,0,0,0,0,0,0,0,0,0,0,0,0,0,0,0,0,0,0,0,0,0,0,0,0,0,0,0,0,0,0,0,0,0,0,0,0,0,0,0,0,0,0,0,0,0,0,0,0,0,0,0,0,0],"sum_hessian":[1.361384E5,5.22403E3,1.3091438E5,3.2131511E3,2.0108784E3,1.0967892E5,2.123546E4,2.7800095E3,4.3314166E2,1.8479753E3,1.629031E2,3.6472242E4,7.320668E4,7.886929E3,1.3348532E4,6.7682904E2,2.1031804E3,1.5815273E2,2.7498892E2,1.2824816E3,5.654938E2,1.0806175E2,5.484136E1,3.4865375E4,1.6068683E3,1.4297573E4,5.89091E4,3.1331902E3,4.753739E3,1.2463502E4,8.8502997E2,6.364872E2,4.0341843E1,1.7744286E3,3.287519E2,1.3186478E2,2.6287956E1,2.2559659E2,4.939234E1,4.3914875E1,1.2385667E3,4.8524884E2,8.0244965E1,5.304401E1,5.5017742E1,2.9001743E1,2.5839615E1,6.0277026E3,2.883767E4,1.0293723E3,5.774959E2,1.1932044E4,2.3655298E3,5.2472496E4,6.436609E3,1.1102775E2,3.0221624E3,1.2789019E3,3.4748372E3,2.0620437E3,1.0401459E4,1.0627201E2,7.78758E2],"tree_param":{"num_deleted":"0","num_feature":"71","num_nodes":"63","size_leaf_vector":"1"}},{"base_weights":[1.7536373E-3,-6.750025E-2,1.555964E-1,-1.0134428E-2,-2.2020644E-1,5.4584545E-1,1.0719172E-1,-4.5035135E-2,1.5145923E-1,-1.7788579E-1,-3.738015E-1,3.7002283E-1,6.6376597E-1,3.8084578E-2,3.1174508E-1,1.2310286E-1,-6.776121E-2,3.4522745E-1,8.824981E-2,-2.1268697E-2,-2.3253703E-1,1.3105167E-1,-4.186958E-1,4.3599628E-2,4.254274E-1,7.0940447E-1,3.8179168E-1,-4.620085E-3,1.9881205E-1,4.184366E-1,2.3233905E-1,5.8903336E-4,1.19288415E-2,3.2774003E-3,-4.7051003E-3,1.2328527E-2,2.409927E-2,1.6622728E-2,2.8882422E-3,-7.149394E-3,2.8959676E-3,-1.51635995E-2,-7.950284E-3,3.857523E-2,-1.6060248E-3,-2.7975116E-2,-1.6420601E-2,2.8321454E-2,-4.8330217E-3,2.3350853E-2,1.8533014E-3,2.9062692E-2,3.9957874E-2,3.9185476E-3,2.4367591E-2,8.651639E-3,-1.9421332E-3,8.311605E-3,2.7500186E-2,1.8141149E-2,3.089645E-2,7.7333483E-3,1.8494485E-2],"categories":[],"categories_nodes":[],"categories_segments":[],"categories_sizes":[],"default_left":[0,0,0,0,0,0,0,0,0,0,0,0,0,0,0,0,0,0,0,0,0,0,0,0,0,0,0,0,0,0,0,0,0,0,0,0,0,0,0,0,0,0,0,0,0,0,0,0,0,0,0,0,0,0,0,0,0,0,0,0,0,0,0],"id":17,"left_children":[1,3,5,7,9,11,13,15,17,19,21,23,25,27,29,31,33,35,37,39,41,43,45,47,49,51,53,55,57,59,61,-1,-1,-1,-1,-1,-1,-1,-1,-1,-1,-1,-1,-1,-1,-1,-1,-1,-1,-1,-1,-1,-1,-1,-1,-1,-1,-1,-1,-1,-1,-1,-1],"loss_changes":[1.448445E3,8.210847E2,7.967631E2,3.8430157E2,1.6597607E2,9.551221E1,5.306041E2,2.1415698E2,1.479509E2,1.716814E2,1.25475525E2,3.3639862E1,3.4717896E1,1.9277469E2,7.979608E1,8.563339E1,1.7341873E2,3.9526245E1,6.773613E1,5.0154324E1,7.7059204E1,4.763382E1,6.3706055E1,2.0556095E1,2.5579895E1,2.5880127E1,1.2242565E1,1.3478278E2,6.691127E1,4.3882263E1,5.776779E1,0E0,0E0,0E0,0E0,0E0,0E0,0E0,0E0,0E0,0E0,0E0,0E0,0E0,0E0,0E0,0E0,0E0,0E0,0E0,0E0,0E0,0E0,0E0,0E0,0E0,0E0,0E0,0E0,0E0,0E0,0E0,0E0],"parents":[2147483647,0,0,1,1,2,2,3,3,4,4,5,5,6,6,7,7,8,8,9,9,10,10,11,11,12,12,13,13,14,14,15,15,16,16,17,17,18,18,19,19,20,20,21,21,22,22,23,23,24,24,25,25,26,26,27,27,28,28,29,29,30,30],"right_children":[2,4,6,8,10,12,14,16,18,20,22,24,26,28,30,32,34,36,38,40,42,44,46,48,50,52,54,56,58,60,62,-1,-1,-1,-1,-1,-1,-1,-1,-1,-1,-1,-1,-1,-1,-1,-1,-1,-1,-1,-1,-1,-1,-1,-1,-1,-1,-1,-1,-1,-1,-1,-1],"split_conditions":[1.1054718E0,2.445564E-1,4E-2,7.4666667E-1,3.6882636E-1,1.5788262E0,7.866667E-1,1.4666666E-1,1.2594993E-1,1.6E-1,-3.2672483E-1,-2.9713133E-1,3.5319403E-1,1.3450313E0,1.4576502E-1,5.599378E-1,1.3142101E-1,1.4089085E1,1.1170213E-1,3.7302074E-1,5.534001E-1,-1.0864111E0,4.2247698E-1,1.1788301E1,9.0614164E-1,1.3484263E0,1.1345795E1,1.3287824E-1,8.447451E1,9.5105654E-1,1.6061641E0,5.8903336E-4,1.19288415E-2,3.2774003E-3,-4.7051003E-3,1.2328527E-2,2.409927E-2,1.6622728E-2,2.8882422E-3,-7.149394E-3,2.8959676E-3,-1.51635995E-2,-7.950284E-3,3.857523E-2,-1.6060248E-3,-2.7975116E-2,-1.6420601E-2,2.8321454E-2,-4.8330217E-3,2.3350853E-2,1.8533014E-3,2.9062692E-2,3.9957874E-2,3.9185476E-3,2.4367591E-2,8.651639E-3,-1.9421332E-3,8.311605E-3,2.7500186E-2,1.8141149E-2,3.089645E-2,7.7333483E-3,1.8494485E-2],"split_indices":[11,13,18,18,13,14,18,18,13,18,63,6,13,14,13,11,13,9,28,10,10,17,10,1,27,10,53,13,1,35,10,0,0,0,0,0,0,0,0,0,0,0,0,0,0,0,0,0,0,0,0,0,0,0,0,0,0,0,0,0,0,0,0],"split_type":[0,0,0,0,0,0,0,0,0,0,0,0,0,0,0,0,0,0,0,0,0,0,0,0,0,0,0,0,0,0,0,0,0,0,0,0,0,0,0,0,0,0,0,0,0,0,0,0,0,0,0,0,0,0,0,0,0,0,0,0,0,0,0],"sum_hessian":[1.3594238E5,9.374154E4,4.2200836E4,6.814682E4,2.5594723E4,4.6533813E3,3.7547457E4,5.6046527E4,1.2100291E4,2.0071824E4,5.522898E3,1.873082E3,2.7802996E3,2.8069244E4,9.478211E3,6.669757E3,4.9376773E4,2.972198E3,9.128093E3,5.1952983E3,1.4876526E4,4.4979633E2,5.0731016E3,2.7361887E2,1.5994631E3,2.388851E3,3.9144843E2,2.2176E4,5.893245E3,4.0379314E3,5.4402793E3,3.3992542E3,3.2705027E3,8.143094E3,4.123368E4,1.7319991E3,1.2401989E3,1.0090136E3,8.119079E3,2.0495925E3,3.145706E3,7.575792E3,7.3007344E3,9.0437164E1,3.5935916E2,1.975767E3,3.0973347E3,5.7345894E1,2.1627298E2,1.4432164E3,1.5624673E2,9.924047E2,1.3964464E3,1.0315695E2,2.8829147E2,3.578245E3,1.8597754E4,5.396943E3,4.9630246E2,3.1640225E3,8.7390894E2,3.4819666E3,1.9583129E3],"tree_param":{"num_deleted":"0","num_feature":"71","num_nodes":"63","size_leaf_vector":"1"}},{"base_weights":[1.8742158E-3,-6.570526E-2,1.5227981E-1,2.1526061E-2,-1.5165718E-1,1.0321845E-1,4.8914915E-1,2.5897786E-1,-2.1683128E-4,-1.2393668E-1,-3.3346796E-1,3.2249372E-2,2.2243221E-1,3.8162842E-1,7.311218E-1,2.0576632E-1,5.270707E-1,-1.2513723E-2,3.3540553E-1,-1.4168236E-1,8.680417E-2,1.468697E-1,-3.8230062E-1,2.9959223E-1,-3.107132E-2,4.050997E-1,1.7567188E-1,5.1652396E-1,3.0084267E-1,6.6741174E-1,9.0193474E-1,2.2819433E-4,1.2580931E-2,2.02943E-2,4.3512143E-2,8.121225E-3,-1.5549342E-3,2.1232558E-2,6.0619083E-3,-2.6033546E-3,-8.617276E-3,2.5102044E-3,1.6955886E-2,5.203112E-2,1.4953687E-3,-2.9430545E-3,-2.1812016E-2,1.8803746E-2,-4.281565E-3,-4.0076748E-3,3.0280973E-3,2.3267986E-2,9.822275E-3,2.4409508E-2,7.5201797E-3,2.8711036E-2,9.59676E-3,2.1987634E-2,1.1459298E-2,2.9834777E-2,4.2513978E-2,4.944092E-2,3.5669588E-2],"categories":[],"categories_nodes":[],"categories_segments":[],"categories_sizes":[],"default_left":[0,0,0,0,0,0,0,0,0,0,0,0,0,0,0,0,0,0,0,0,0,0,0,0,0,0,0,0,0,0,0,0,0,0,0,0,0,0,0,0,0,0,0,0,0,0,0,0,0,0,0,0,0,0,0,0,0,0,0,0,0,0,0],"id":18,"left_children":[1,3,5,7,9,11,13,15,17,19,21,23,25,27,29,31,33,35,37,39,41,43,45,47,49,51,53,55,57,59,61,-1,-1,-1,-1,-1,-1,-1,-1,-1,-1,-1,-1,-1,-1,-1,-1,-1,-1,-1,-1,-1,-1,-1,-1,-1,-1,-1,-1,-1,-1,-1,-1],"loss_changes":[1.381566E3,7.031991E2,6.960561E2,2.4042073E2,2.3776831E2,3.1108994E2,1.3821118E2,5.5140656E1,1.758181E2,1.5336261E2,1.467384E2,3.9058997E2,1.1679523E2,3.97464E1,1.5901062E1,2.998288E1,2.544049E1,1.3368079E2,2.8401978E1,1.03778625E2,2.916512E1,5.9708466E1,9.864142E1,1.3038809E2,8.388881E1,3.461029E1,8.586856E1,2.5348206E1,2.265178E1,1.3872131E1,4.9253845E0,0E0,0E0,0E0,0E0,0E0,0E0,0E0,0E0,0E0,0E0,0E0,0E0,0E0,0E0,0E0,0E0,0E0,0E0,0E0,0E0,0E0,0E0,0E0,0E0,0E0,0E0,0E0,0E0,0E0,0E0,0E0,0E0],"parents":[2147483647,0,0,1,1,2,2,3,3,4,4,5,5,6,6,7,7,8,8,9,9,10,10,11,11,12,12,13,13,14,14,15,15,16,16,17,17,18,18,19,19,20,20,21,21,22,22,23,23,24,24,25,25,26,26,27,27,28,28,29,29,30,30],"right_children":[2,4,6,8,10,12,14,16,18,20,22,24,26,28,30,32,34,36,38,40,42,44,46,48,50,52,54,56,58,60,62,-1,-1,-1,-1,-1,-1,-1,-1,-1,-1,-1,-1,-1,-1,-1,-1,-1,-1,-1,-1,-1,-1,-1,-1,-1,-1,-1,-1,-1,-1,-1,-1],"split_conditions":[1.1054718E0,1.9396788E-1,1.756591E0,1.0853227E-1,3.580201E-1,7.5E-1,2.7480843E0,9.217529E-1,1E0,7.939523E-1,-3.6265397E0,2.5E-1,1.2253133E-1,2.5E-1,5.5E-1,3.279711E0,2.816714E-2,9.2307694E-2,1.8687223E-1,2.1925753E-1,1.6213927E0,-1.014549E-1,-8.7771006E-2,3.894049E-1,1.3781382E0,1E0,5.6603774E-2,3.6882636E-1,3.048587E-1,3.9568487E-1,1.0349694E0,2.2819433E-4,1.2580931E-2,2.02943E-2,4.3512143E-2,8.121225E-3,-1.5549342E-3,2.1232558E-2,6.0619083E-3,-2.6033546E-3,-8.617276E-3,2.5102044E-3,1.6955886E-2,5.203112E-2,1.4953687E-3,-2.9430545E-3,-2.1812016E-2,1.8803746E-2,-4.281565E-3,-4.0076748E-3,3.0280973E-3,2.3267986E-2,9.822275E-3,2.4409508E-2,7.5201797E-3,2.8711036E-2,9.59676E-3,2.1987634E-2,1.1459298E-2,2.9834777E-2,4.2513978E-2,4.944092E-2,3.5669588E-2],"split_indices":[11,13,14,13,13,37,14,49,37,16,69,37,13,37,55,52,5,28,60,28,14,66,66,13,10,36,28,13,65,68,56,0,0,0,0,0,0,0,0,0,0,0,0,0,0,0,0,0,0,0,0,0,0,0,0,0,0,0,0,0,0,0,0],"split_type":[0,0,0,0,0,0,0,0,0,0,0,0,0,0,0,0,0,0,0,0,0,0,0,0,0,0,0,0,0,0,0,0,0,0,0,0,0,0,0,0,0,0,0,0,0,0,0,0,0,0,0,0,0,0,0,0,0,0,0,0,0,0,0],"sum_hessian":[1.3591472E5,9.3777086E4,4.213764E4,4.6540008E4,4.7237074E4,3.6784477E4,5.3531626E3,3.9041692E3,4.263584E4,4.0993023E4,6.244052E3,2.3062117E4,1.372236E4,3.711275E3,1.6418876E3,3.2621016E3,6.420677E2,4.1132207E4,1.5036309E3,3.7812047E4,3.180978E3,5.748953E2,5.6691562E3,4.4163823E3,1.8645734E4,2.7914907E3,1.0930869E4,1.3837394E3,2.3275356E3,1.205136E3,4.3675156E2,6.078639E2,2.6542375E3,4.7880814E2,1.6325954E2,3.9460527E3,3.7186156E4,1.0583187E3,4.453121E2,9.645145E3,2.8166902E4,2.781831E3,3.99147E2,6.420582E1,5.106895E2,8.1222864E2,4.8569277E3,3.6859211E3,7.3046124E2,1.2145735E4,6.4999985E3,2.162187E3,6.293037E2,8.1346783E2,1.0117401E4,1.1722834E3,2.1145593E2,7.8619904E2,1.5413365E3,8.7718335E2,3.2795264E2,2.913512E2,1.4540038E2],"tree_param":{"num_deleted":"0","num_feature":"71","num_nodes":"63","size_leaf_vector":"1"}},{"base_weights":[1.6400232E-5,-2.834793E-2,3.2259122E-1,1.1869875E-1,-7.791085E-2,6.297654E-1,2.3703872E-1,5.1573765E-2,2.965439E-1,-1.1972335E-1,9.494536E-2,7.1161497E-1,5.032984E-1,1.991815E-1,5.278558E-1,2.2227946E-1,2.6952956E-2,2.7070746E-1,5.6943154E-1,-7.2619036E-2,-2.4208131E-1,2.2956327E-1,4.207461E-2,4.9384114E-1,7.969015E-1,1.6844329E-1,5.6946474E-1,4.6467143E-1,1.5669325E-1,1.8554455E-1,5.799287E-1,9.30584E-3,3.0276736E-2,1.8741902E-2,7.381454E-4,1.9200718E-2,1.0115346E-2,3.1582404E-2,1.6905895E-2,-4.5719715E-3,8.892643E-3,-1.0943831E-2,-2.3621606E-2,1.383535E-2,-7.6828565E-4,7.000444E-3,-1.2398926E-3,2.0687034E-2,4.054039E-2,2.6910813E-4,4.072801E-2,-9.003451E-5,2.1068415E-2,3.0384395E-2,7.902655E-3,4.1061904E-2,1.8921979E-2,1.5632208E-2,5.9316307E-3,3.5294418E-3,3.8572367E-2,2.5976134E-2,4.3719437E-2],"categories":[],"categories_nodes":[],"categories_segments":[],"categories_sizes":[],"default_left":[0,0,0,0,0,0,0,0,0,0,0,0,0,0,0,0,0,0,0,0,0,0,0,0,0,0,0,0,0,0,0,0,0,0,0,0,0,0,0,0,0,0,0,0,0,0,0,0,0,0,0,0,0,0,0,0,0,0,0,0,0,0,0],"id":19,"left_children":[1,3,5,7,9,11,13,15,17,19,21,23,25,27,29,31,33,35,37,39,41,43,45,47,49,51,53,55,57,59,61,-1,-1,-1,-1,-1,-1,-1,-1,-1,-1,-1,-1,-1,-1,-1,-1,-1,-1,-1,-1,-1,-1,-1,-1,-1,-1,-1,-1,-1,-1,-1,-1],"loss_changes":[1.2420469E3,9.0926074E2,2.876034E2,3.752275E2,6.7446436E2,2.339154E1,9.395636E1,9.5840866E1,6.0010803E1,4.3289233E2,1.291965E2,2.535553E1,2.0429184E1,8.529544E1,1.6981903E1,3.9233566E1,8.444905E1,6.058722E1,9.76091E0,2.5577322E2,1.1107068E2,5.9280945E1,8.555815E1,9.197334E0,1.3998657E1,7.117832E0,1.1831924E1,3.0943954E1,3.8634964E1,8.524169E0,1.3581421E1,0E0,0E0,0E0,0E0,0E0,0E0,0E0,0E0,0E0,0E0,0E0,0E0,0E0,0E0,0E0,0E0,0E0,0E0,0E0,0E0,0E0,0E0,0E0,0E0,0E0,0E0,0E0,0E0,0E0,0E0,0E0,0E0],"parents":[2147483647,0,0,1,1,2,2,3,3,4,4,5,5,6,6,7,7,8,8,9,9,10,10,11,11,12,12,13,13,14,14,15,15,16,16,17,17,18,18,19,19,20,20,21,21,22,22,23,23,24,24,25,25,26,26,27,27,28,28,29,29,30,30],"right_children":[2,4,6,8,10,12,14,16,18,20,22,24,26,28,30,32,34,36,38,40,42,44,46,48,50,52,54,56,58,60,62,-1,-1,-1,-1,-1,-1,-1,-1,-1,-1,-1,-1,-1,-1,-1,-1,-1,-1,-1,-1,-1,-1,-1,-1,-1,-1,-1,-1,-1,-1,-1,-1],"split_conditions":[1.5788262E0,1.5016785E-1,2.6666667E-2,7.733333E-1,5.8761687E0,2.5072744E-1,1.2970679E0,1.0408541E-1,9.066667E-1,2.5469995E-1,6.666667E-2,3E-1,8.055164E0,-1.1827444E0,2.0059006E-1,6.696786E-2,-5.524242E-1,1.1882388E-1,1.398054E-1,8.4E-1,4.5596418E-1,1.3751096E-1,0E0,3.736382E-1,-9.230769E-1,2.331814E0,1.8232462E-1,2.4478195E1,1.431273E-1,6.730764E1,2.7480843E0,9.30584E-3,3.0276736E-2,1.8741902E-2,7.381454E-4,1.9200718E-2,1.0115346E-2,3.1582404E-2,1.6905895E-2,-4.5719715E-3,8.892643E-3,-1.0943831E-2,-2.3621606E-2,1.383535E-2,-7.6828565E-4,7.000444E-3,-1.2398926E-3,2.0687034E-2,4.054039E-2,2.6910813E-4,4.072801E-2,-9.003451E-5,2.1068415E-2,3.0384395E-2,7.902655E-3,4.1061904E-2,1.8921979E-2,1.5632208E-2,5.9316307E-3,3.5294418E-3,3.8572367E-2,2.5976134E-2,4.3719437E-2],"split_indices":[14,13,18,18,34,13,16,13,18,13,18,55,53,16,17,5,17,13,13,18,13,67,35,68,19,10,67,0,13,0,14,0,0,0,0,0,0,0,0,0,0,0,0,0,0,0,0,0,0,0,0,0,0,0,0,0,0,0,0,0,0,0,0],"split_type":[0,0,0,0,0,0,0,0,0,0,0,0,0,0,0,0,0,0,0,0,0,0,0,0,0,0,0,0,0,0,0,0,0,0,0,0,0,0,0,0,0,0,0,0,0,0,0,0,0,0,0,0,0,0,0,0,0,0,0,0,0,0,0],"sum_hessian":[1.357284E5,1.2475854E5,1.096987E4,3.1446883E4,9.331166E4,2.3856577E3,8.584213E3,2.2833943E4,8.612939E3,7.513953E4,1.817213E4,1.4402919E3,9.4536584E2,7.5999727E3,9.8424E2,2.8736233E3,1.9960318E4,7.873325E3,7.39614E2,5.4258742E4,2.0880787E4,5.1198877E3,1.3052242E4,4.107955E2,1.0294963E3,1.5839703E2,7.869688E2,1.0441165E3,6.5558564E3,1.3242781E2,8.518122E2,2.6297634E3,2.438597E2,6.723374E2,1.9287982E4,2.957548E3,4.9157773E3,5.784147E2,1.6119934E2,5.0469727E4,3.7890144E3,1.897535E4,1.905437E3,4.294976E3,8.249114E2,5.298262E3,7.75398E3,3.3286536E2,7.793014E1,2.3141474E1,1.00635486E3,9.467806E1,6.3718967E1,7.1808405E2,6.8884735E1,1.9888524E2,8.4523114E2,1.2807019E3,5.2751543E3,1.13293625E2,1.9134178E1,7.128116E2,1.3900061E2],"tree_param":{"num_deleted":"0","num_feature":"71","num_nodes":"63","size_leaf_vector":"1"}},{"base_weights":[-2.3951246E-3,3.9357737E-1,-2.380738E-2,5.536483E-1,2.5324094E-1,-8.715322E-2,1.0239293E-1,4.1847202E-1,6.7117476E-1,4.1229936E-1,1.8497632E-1,-1.0464619E-1,1.1583676E-1,3.6876563E-2,2.1706893E-1,6.575538E-1,3.5556442E-1,7.2652096E-1,3.3949783E-1,3.0335456E-1,5.92866E-1,1.0000518E-1,3.597855E-1,7.8836285E-2,-1.2593497E-1,8.767293E-2,4.4039512E-1,8.5509196E-2,-9.229756E-2,1.9518065E-1,5.5002725E-1,2.077426E-2,4.55998E-2,1.0092223E-2,2.4540322E-2,2.2729767E-2,3.827498E-2,8.658261E-3,2.6733274E-2,4.9982597E-3,2.1405641E-2,3.171346E-2,-0E0,7.229436E-3,-1.1650196E-2,2.3554547E-2,6.921828E-3,-7.1300234E-4,7.5115296E-3,-4.194996E-3,-1.1760309E-2,6.0585644E-3,-7.9430705E-3,1.6557453E-2,3.5749156E-2,1.8052448E-3,1.346797E-2,-1.0647993E-2,8.550565E-5,1.936569E-2,8.015279E-3,2.8760035E-2,-7.2084703E-3],"categories":[],"categories_nodes":[],"categories_segments":[],"categories_sizes":[],"default_left":[0,0,0,0,0,0,0,0,0,0,0,0,0,0,0,0,0,0,0,0,0,0,0,0,0,0,0,0,0,0,0,0,0,0,0,0,0,0,0,0,0,0,0,0,0,0,0,0,0,0,0,0,0,0,0,0,0,0,0,0,0,0,0],"id":20,"left_children":[1,3,5,7,9,11,13,15,17,19,21,23,25,27,29,31,33,35,37,39,41,43,45,47,49,51,53,55,57,59,61,-1,-1,-1,-1,-1,-1,-1,-1,-1,-1,-1,-1,-1,-1,-1,-1,-1,-1,-1,-1,-1,-1,-1,-1,-1,-1,-1,-1,-1,-1,-1,-1],"loss_changes":[1.1510259E3,1.5576111E2,1.0297742E3,5.052649E1,3.9900223E1,3.0457086E2,3.2327725E2,2.1868958E1,3.0790771E1,2.1070358E1,3.84085E1,3.0849475E2,6.1847626E1,1.7214638E2,1.1345642E2,1.7818436E1,2.4578384E1,1.4405579E1,7.6709805E0,1.7399055E1,9.885727E0,2.6129227E1,2.0499931E1,5.462983E1,3.2481616E2,5.1751793E1,1.5241707E1,1.8067154E2,8.509688E1,9.801904E1,1.7205597E1,0E0,0E0,0E0,0E0,0E0,0E0,0E0,0E0,0E0,0E0,0E0,0E0,0E0,0E0,0E0,0E0,0E0,0E0,0E0,0E0,0E0,0E0,0E0,0E0,0E0,0E0,0E0,0E0,0E0,0E0,0E0,0E0],"parents":[2147483647,0,0,1,1,2,2,3,3,4,4,5,5,6,6,7,7,8,8,9,9,10,10,11,11,12,12,13,13,14,14,15,15,16,16,17,17,18,18,19,19,20,20,21,21,22,22,23,23,24,24,25,25,26,26,27,27,28,28,29,29,30,30],"right_children":[2,4,6,8,10,12,14,16,18,20,22,24,26,28,30,32,34,36,38,40,42,44,46,48,50,52,54,56,58,60,62,-1,-1,-1,-1,-1,-1,-1,-1,-1,-1,-1,-1,-1,-1,-1,-1,-1,-1,-1,-1,-1,-1,-1,-1,-1,-1,-1,-1,-1,-1,-1,-1],"split_conditions":[5.3333335E-2,2.6666667E-2,6.2666667E-1,1.2918165E0,3.6056954E-1,7.36195E1,1.1026465E0,1.7384313E-1,8.737099E1,7.334218E-1,1.282392E1,2.8363428E1,1.3509068E0,1.9396788E-1,9.066667E-1,3E-1,8.968869E0,1.5087363E0,3.097549E0,-1.5709932E-1,1.3751096E-1,3.6326787E-1,3.894049E-1,-4.7710586E0,2.5469995E-1,1.579683E0,2.214847E0,8.4E-1,1.2314582E1,1.16809145E-1,2.2775199E-1,2.077426E-2,4.55998E-2,1.0092223E-2,2.4540322E-2,2.2729767E-2,3.827498E-2,8.658261E-3,2.6733274E-2,4.9982597E-3,2.1405641E-2,3.171346E-2,-0E0,7.229436E-3,-1.1650196E-2,2.3554547E-2,6.921828E-3,-7.1300234E-4,7.5115296E-3,-4.194996E-3,-1.1760309E-2,6.0585644E-3,-7.9430705E-3,1.6557453E-2,3.5749156E-2,1.8052448E-3,1.346797E-2,-1.0647993E-2,8.550565E-5,1.936569E-2,8.015279E-3,2.8760035E-2,-7.2084703E-3],"split_indices":[18,18,18,10,15,1,10,13,34,10,53,1,16,13,18,55,53,11,14,68,67,13,13,34,13,15,14,18,53,13,63,0,0,0,0,0,0,0,0,0,0,0,0,0,0,0,0,0,0,0,0,0,0,0,0,0,0,0,0,0,0,0,0],"split_type":[0,0,0,0,0,0,0,0,0,0,0,0,0,0,0,0,0,0,0,0,0,0,0,0,0,0,0,0,0,0,0,0,0,0,0,0,0,0,0,0,0,0,0,0,0,0,0,0,0,0,0,0,0,0,0,0,0,0,0,0,0,0,0],"sum_hessian":[1.3577316E5,6.962318E3,1.28810836E5,3.2480566E3,3.7142612E3,8.576563E4,4.3045203E4,1.5168202E3,1.7312366E3,1.1101586E3,2.6041028E3,7.89642E4,6.80143E3,2.73988E4,1.5646402E4,3.1037607E2,1.2064442E3,1.4803291E3,2.509074E2,6.974696E2,4.1268893E2,1.7563712E3,8.4773145E2,8.206405E3,7.07578E4,6.262111E3,5.393194E2,1.9908148E4,7.4906523E3,1.4685659E4,9.607428E2,1.6276105E2,1.47615E2,5.687119E2,6.3773224E2,1.903749E2,1.2899542E3,1.3888142E2,1.12025986E2,2.6806393E2,4.2940567E2,3.8488977E2,2.7799145E1,1.5513132E3,2.0505804E2,5.6107776E2,2.8665372E2,3.5595027E3,4.6469023E3,5.110613E4,1.9651672E4,5.5156987E3,7.464119E2,3.9027832E2,1.4904108E2,1.5695548E4,4.2126016E3,3.2815066E3,4.2091455E3,2.250838E3,1.2434821E4,9.2814874E2,3.2594048E1],"tree_param":{"num_deleted":"0","num_feature":"71","num_nodes":"63","size_leaf_vector":"1"}},{"base_weights":[5.427806E-4,-6.0540725E-2,1.3240035E-1,2.7318401E-2,-1.3033314E-1,4.7633067E-1,9.1927774E-2,4.632092E-3,2.8003708E-1,-2.1448126E-2,-1.7368267E-1,3.6108243E-1,6.239168E-1,3.7806712E-3,2.0806427E-1,2.0653258E-1,-1.3488012E-2,4.425837E-1,2.093622E-1,4.1430198E-2,-1.9601743E-1,-2.675873E-1,-1.3246839E-1,-7.185286E-3,4.0261698E-1,7.4153775E-1,4.4213718E-1,-3.512906E-2,2.074427E-1,4.2154467E-1,1.736998E-1,9.761597E-3,7.625487E-2,8.163258E-3,-1.6209813E-3,2.316217E-2,-3.6989413E-2,1.6074585E-2,3.0513972E-3,-3.0761226E-3,6.2264446E-3,9.112938E-3,-1.3581738E-2,-1.1783672E-2,-2.3988927E-2,-8.307739E-3,-2.134594E-3,5.8009396E-3,-2.5824053E-2,2.2311997E-2,2.3498614E-3,3.933373E-2,2.1112977E-2,2.7739296E-2,1.14102615E-2,-4.33146E-3,2.8567018E-3,-5.006793E-2,1.1182056E-2,3.3686116E-2,1.8542891E-2,1.8673498E-2,6.6385777E-3],"categories":[],"categories_nodes":[],"categories_segments":[],"categories_sizes":[],"default_left":[0,0,0,0,0,0,0,0,0,0,0,0,0,0,0,0,0,0,0,0,0,0,0,0,0,0,0,0,0,0,0,0,0,0,0,0,0,0,0,0,0,0,0,0,0,0,0,0,0,0,0,0,0,0,0,0,0,0,0,0,0,0,0],"id":21,"left_children":[1,3,5,7,9,11,13,15,17,19,21,23,25,27,29,31,33,35,37,39,41,43,45,47,49,51,53,55,57,59,61,-1,-1,-1,-1,-1,-1,-1,-1,-1,-1,-1,-1,-1,-1,-1,-1,-1,-1,-1,-1,-1,-1,-1,-1,-1,-1,-1,-1,-1,-1,-1,-1],"loss_changes":[1.0918894E3,5.681246E2,5.9706525E2,2.3498004E2,2.4360559E2,7.588928E1,3.9304785E2,1.377931E2,3.827649E1,1.6153917E2,1.4264148E2,3.9102417E1,4.100232E1,1.7315411E2,1.2110858E2,4.4765976E1,1.15511536E2,2.5444336E1,3.9008446E1,9.255304E1,1.1162309E2,7.5651245E1,7.751547E1,1.6539965E1,3.518402E1,1.5954285E1,1.8222992E1,8.714301E1,6.869447E1,2.8299255E1,1.16380615E2,0E0,0E0,0E0,0E0,0E0,0E0,0E0,0E0,0E0,0E0,0E0,0E0,0E0,0E0,0E0,0E0,0E0,0E0,0E0,0E0,0E0,0E0,0E0,0E0,0E0,0E0,0E0,0E0,0E0,0E0,0E0,0E0],"parents":[2147483647,0,0,1,1,2,2,3,3,4,4,5,5,6,6,7,7,8,8,9,9,10,10,11,11,12,12,13,13,14,14,15,15,16,16,17,17,18,18,19,19,20,20,21,21,22,22,23,23,24,24,25,25,26,26,27,27,28,28,29,29,30,30],"right_children":[2,4,6,8,10,12,14,16,18,20,22,24,26,28,30,32,34,36,38,40,42,44,46,48,50,52,54,56,58,60,62,-1,-1,-1,-1,-1,-1,-1,-1,-1,-1,-1,-1,-1,-1,-1,-1,-1,-1,-1,-1,-1,-1,-1,-1,-1,-1,-1,-1,-1,-1,-1,-1],"split_conditions":[1.0945967E0,1.8489559E-1,4E-2,8.4E-1,1.8666667E-1,1.3484263E0,6.533333E-1,1.0713344E-1,1.2594993E-1,3.1564525E-1,4.2247698E-1,-2.9713133E-1,2.8249002E-1,2.354719E1,2.8363428E1,2.6071358E0,9.2307694E-2,5.017644E0,5E-1,3.689275E-1,-2.5158876E-1,3.5319403E-1,6.1333334E-1,4.0668014E-1,6.1126715E-1,1.2370331E-1,8.737099E1,1.4273866E0,-2.6538463E0,1.4904824E1,1.1882388E-1,9.761597E-3,7.625487E-2,8.163258E-3,-1.6209813E-3,2.316217E-2,-3.6989413E-2,1.6074585E-2,3.0513972E-3,-3.0761226E-3,6.2264446E-3,9.112938E-3,-1.3581738E-2,-1.1783672E-2,-2.3988927E-2,-8.307739E-3,-2.134594E-3,5.8009396E-3,-2.5824053E-2,2.2311997E-2,2.3498614E-3,3.933373E-2,2.1112977E-2,2.7739296E-2,1.14102615E-2,-4.33146E-3,2.8567018E-3,-5.006793E-2,1.1182056E-2,3.3686116E-2,1.8542891E-2,1.8673498E-2,6.6385777E-3],"split_indices":[11,13,18,18,18,10,18,13,13,13,10,6,13,34,1,56,28,69,47,10,63,13,18,13,27,67,34,10,27,1,13,0,0,0,0,0,0,0,0,0,0,0,0,0,0,0,0,0,0,0,0,0,0,0,0,0,0,0,0,0,0,0,0],"split_type":[0,0,0,0,0,0,0,0,0,0,0,0,0,0,0,0,0,0,0,0,0,0,0,0,0,0,0,0,0,0,0,0,0,0,0,0,0,0,0,0,0,0,0,0,0,0,0,0,0,0,0,0,0,0,0,0,0,0,0,0,0,0,0],"sum_hessian":[1.3555719E5,9.2639086E4,4.291811E4,4.100874E4,5.1630348E4,4.5151445E3,3.8402965E4,3.763435E4,3.374384E3,1.4706129E4,3.692422E4,2.541106E3,1.9740383E3,2.1835945E4,1.6567018E4,3.0999897E3,3.4534363E4,1.017232E3,2.357152E3,1.0810826E4,3.895303E3,1.125566E4,2.5668557E4,2.5649536E2,2.2846106E3,1.1931187E3,7.809197E2,1.8332678E4,3.5032668E3,2.2919285E3,1.427509E4,3.0762998E3,2.3689852E1,3.3370125E3,3.1197352E4,1.0013742E3,1.5857783E1,1.3391501E3,1.0180019E3,4.826134E3,5.9846924E3,6.4737463E2,3.2479285E3,9.789833E3,1.4658279E3,1.86597E4,7.008857E3,2.0698592E2,4.9509457E1,2.0332782E3,2.5133249E2,1.0414003E3,1.5171841E2,5.0793564E2,2.7298404E2,1.1768939E4,6.563739E3,4.430779E1,3.458959E3,3.778077E2,1.9141207E3,2.4224888E3,1.1852602E4],"tree_param":{"num_deleted":"0","num_feature":"71","num_nodes":"63","size_leaf_vector":"1"}},{"base_weights":[2.2153554E-3,-4.9952652E-2,1.5232414E-1,-9.1361664E-2,4.6768576E-2,1.00623205E-1,4.2130196E-1,3.796533E-2,-1.2716939E-1,3.1215993E-1,2.7305359E-2,5.0861385E-2,2.7809423E-1,3.338861E-1,6.522691E-1,-1.18641414E-1,9.2802756E-2,-1.0187744E-1,-2.2468121E-1,2.6084712E-1,5.7585937E-1,1.5794974E-2,3.9770517E-1,2.6364228E-1,1.4005491E-2,2.4075902E-1,5.241499E-1,5.328137E-1,2.8098828E-1,4.7233003E-1,7.1612376E-1,-2.289398E-2,-3.3975889E-3,7.222727E-3,9.8638775E-5,-1.0167034E-2,-3.7725687E-3,-1.665288E-2,-7.6085785E-3,1.5440277E-2,-2.174039E-3,3.6475E-2,1.6491286E-2,1.9200257E-4,1.719465E-2,2.5377247E-2,9.555065E-3,1.5450974E-2,-5.2667023E-3,-3.9664865E-4,1.1882175E-2,2.1006092E-2,9.6781505E-3,2.7658898E-2,-1.1649589E-2,3.638577E-2,2.363704E-2,1.2208848E-2,2.3734415E-2,3.678171E-2,1.6088083E-2,2.4444064E-2,3.8471222E-2],"categories":[],"categories_nodes":[],"categories_segments":[],"categories_sizes":[],"default_left":[0,0,0,0,0,0,0,0,0,0,0,0,0,0,0,0,0,0,0,0,0,0,0,0,0,0,0,0,0,0,0,0,0,0,0,0,0,0,0,0,0,0,0,0,0,0,0,0,0,0,0,0,0,0,0,0,0,0,0,0,0,0,0],"id":22,"left_children":[1,3,5,7,9,11,13,15,17,19,21,23,25,27,29,31,33,35,37,39,41,43,45,47,49,51,53,55,57,59,61,-1,-1,-1,-1,-1,-1,-1,-1,-1,-1,-1,-1,-1,-1,-1,-1,-1,-1,-1,-1,-1,-1,-1,-1,-1,-1,-1,-1,-1,-1,-1,-1],"loss_changes":[1.0596353E3,4.0218384E2,4.849748E2,3.2566608E2,1.552841E2,2.583581E2,1.1262848E2,1.3093263E2,1.3560724E2,2.7082382E1,1.1935364E2,1.792059E2,5.8238647E1,4.228784E1,1.6430298E1,6.7637794E1,5.2916183E1,1.17097015E2,8.873883E1,2.5338493E1,1.1517563E1,1.06528885E2,1.860733E1,5.66644E1,9.577952E1,4.6680298E1,1.889824E1,8.711044E0,2.2466583E1,1.53092575E1,1.2319031E1,0E0,0E0,0E0,0E0,0E0,0E0,0E0,0E0,0E0,0E0,0E0,0E0,0E0,0E0,0E0,0E0,0E0,0E0,0E0,0E0,0E0,0E0,0E0,0E0,0E0,0E0,0E0,0E0,0E0,0E0,0E0,0E0],"parents":[2147483647,0,0,1,1,2,2,3,3,4,4,5,5,6,6,7,7,8,8,9,9,10,10,11,11,12,12,13,13,14,14,15,15,16,16,17,17,18,18,19,19,20,20,21,21,22,22,23,23,24,24,25,25,26,26,27,27,28,28,29,29,30,30],"right_children":[2,4,6,8,10,12,14,16,18,20,22,24,26,28,30,32,34,36,38,40,42,44,46,48,50,52,54,56,58,60,62,-1,-1,-1,-1,-1,-1,-1,-1,-1,-1,-1,-1,-1,-1,-1,-1,-1,-1,-1,-1,-1,-1,-1,-1,-1,-1,-1,-1,-1,-1,-1,-1],"split_conditions":[1.1836072E0,6.1333334E-1,1.6702484E0,1.6E-1,3.4363873E1,8E-1,2.7480843E0,-3.4277096E0,1E0,8.5333335E-1,9.066667E-1,6.666667E-2,9.066667E-1,2.6666667E-2,-5E-1,-1.9404505E0,5E-1,-2.3525514E-1,3.2E-1,4.6183452E-1,1.7168855E-2,7.5928925E1,1.00141376E-1,8.739076E-1,7.813759E1,3.428002E1,2.2775199E-1,2.4871876E1,8.4E-1,2.8214148E1,3E-1,-2.289398E-2,-3.3975889E-3,7.222727E-3,9.8638775E-5,-1.0167034E-2,-3.7725687E-3,-1.665288E-2,-7.6085785E-3,1.5440277E-2,-2.174039E-3,3.6475E-2,1.6491286E-2,1.9200257E-4,1.719465E-2,2.5377247E-2,9.555065E-3,1.5450974E-2,-5.2667023E-3,-3.9664865E-4,1.1882175E-2,2.1006092E-2,9.6781505E-3,2.7658898E-2,-1.1649589E-2,3.638577E-2,2.363704E-2,1.2208848E-2,2.3734415E-2,3.678171E-2,1.6088083E-2,2.4444064E-2,3.8471222E-2],"split_indices":[11,18,14,18,0,18,14,34,36,18,18,18,18,18,19,29,47,27,18,60,60,1,60,27,1,1,63,34,18,0,55,0,0,0,0,0,0,0,0,0,0,0,0,0,0,0,0,0,0,0,0,0,0,0,0,0,0,0,0,0,0,0,0],"split_type":[0,0,0,0,0,0,0,0,0,0,0,0,0,0,0,0,0,0,0,0,0,0,0,0,0,0,0,0,0,0,0,0,0,0,0,0,0,0,0,0,0,0,0,0,0,0,0,0,0,0,0,0,0,0,0,0,0,0,0,0,0,0,0],"sum_hessian":[1.3530455E5,1.0040748E5,3.4897074E4,7.031078E4,3.0096693E4,2.927471E4,5.6223623E3,1.5243098E4,5.5067684E4,2.0526023E3,2.8044092E4,2.286804E4,6.4066724E3,4.0837944E3,1.5385679E3,3.9502847E3,1.12928125E4,4.3733586E4,1.1334096E4,1.7231685E3,3.294339E2,2.7202203E4,8.4188873E2,3.3723733E3,1.9495666E4,5.567828E3,8.388441E2,8.5203455E2,3.2317598E3,4.0943243E2,1.1291355E3,5.1015628E2,3.4401282E3,7.1947363E3,4.098076E3,9.030099E3,3.470349E4,4.53772E3,6.796375E3,1.4899792E3,2.3318924E2,1.9912439E2,1.303095E2,2.6249303E4,9.528998E2,5.461813E2,2.9570746E2,3.00455E3,3.6782336E2,1.775375E4,1.7419159E3,1.154373E3,4.413455E3,8.09026E2,2.9818102E1,1.9354454E2,6.5849E2,2.7216348E3,5.1012506E2,1.449177E2,2.6451474E2,2.2017314E2,9.0896234E2],"tree_param":{"num_deleted":"0","num_feature":"71","num_nodes":"63","size_leaf_vector":"1"}},{"base_weights":[-1.1152738E-3,-2.6538642E-2,2.760369E-1,-7.134207E-2,9.284666E-2,2.0399079E-1,5.855085E-1,1.460714E-1,-9.4985865E-2,4.9983714E-2,2.1987079E-1,4.5224953E-1,1.6174693E-1,7.1874434E-1,5.0676286E-1,-1.5303323E-3,2.1510084E-1,1.2750316E-2,-1.1822996E-1,3.0417824E-2,2.7047768E-1,1.9928123E-1,8.110415E-1,5.8520013E-1,3.7048665E-1,1.1642795E-1,3.2191014E-1,8.2702565E-1,5.4974216E-1,6.1528783E-2,5.411166E-1,6.845793E-3,-7.3699853E-3,1.6500011E-2,7.780846E-3,-1.8397166E-3,6.72719E-3,-7.3415483E-3,-1.1358073E-3,1.1595826E-2,2.5856087E-4,1.8129235E-2,6.181031E-3,7.577055E-3,1.9644735E-2,2.573951E-2,6.3156806E-2,6.3278415E-4,3.0286908E-2,1.1380204E-2,2.3806434E-2,1.5301043E-2,2.7233656E-3,1.1309569E-2,2.1555861E-2,2.7243901E-2,4.4339612E-2,-3.5899408E-5,2.9994592E-2,1.7958587E-2,-1.1910582E-2,2.4714163E-2,3.9629824E-2],"categories":[],"categories_nodes":[],"categories_segments":[],"categories_sizes":[],"default_left":[0,0,0,0,0,0,0,0,0,0,0,0,0,0,0,0,0,0,0,0,0,0,0,0,0,0,0,0,0,0,0,0,0,0,0,0,0,0,0,0,0,0,0,0,0,0,0,0,0,0,0,0,0,0,0,0,0,0,0,0,0,0,0],"id":23,"left_children":[1,3,5,7,9,11,13,15,17,19,21,23,25,27,29,31,33,35,37,39,41,43,45,47,49,51,53,55,57,59,61,-1,-1,-1,-1,-1,-1,-1,-1,-1,-1,-1,-1,-1,-1,-1,-1,-1,-1,-1,-1,-1,-1,-1,-1,-1,-1,-1,-1,-1,-1,-1,-1],"loss_changes":[9.541582E2,6.6355896E2,2.5305054E2,4.6371283E2,1.8414255E2,9.638394E1,2.1176514E1,9.0244415E1,2.038075E2,1.09045715E2,1.03081635E2,1.3653778E1,5.701683E1,1.2861511E1,2.0404907E1,5.696839E1,4.086728E1,8.717404E1,1.8274237E2,1.1818591E2,2.7544632E1,7.5892365E1,3.6095413E1,5.6072845E0,1.2072067E1,7.214897E1,1.7642273E1,6.341339E0,9.032608E0,9.205112E0,1.3407166E1,0E0,0E0,0E0,0E0,0E0,0E0,0E0,0E0,0E0,0E0,0E0,0E0,0E0,0E0,0E0,0E0,0E0,0E0,0E0,0E0,0E0,0E0,0E0,0E0,0E0,0E0,0E0,0E0,0E0,0E0,0E0,0E0],"parents":[2147483647,0,0,1,1,2,2,3,3,4,4,5,5,6,6,7,7,8,8,9,9,10,10,11,11,12,12,13,13,14,14,15,15,16,16,17,17,18,18,19,19,20,20,21,21,22,22,23,23,24,24,25,25,26,26,27,27,28,28,29,29,30,30],"right_children":[2,4,6,8,10,12,14,16,18,20,22,24,26,28,30,32,34,36,38,40,42,44,46,48,50,52,54,56,58,60,62,-1,-1,-1,-1,-1,-1,-1,-1,-1,-1,-1,-1,-1,-1,-1,-1,-1,-1,-1,-1,-1,-1,-1,-1,-1,-1,-1,-1,-1,-1,-1,-1],"split_conditions":[1.5596894E0,6.666667E-1,2.5062914E0,9.3333334E-2,8.5333335E-1,4E-2,-9.560532E0,8.408251E-1,1.5862069E-1,6.495996E1,2.180017E1,3.7512788E-1,9.4342244E-1,1.3333334E-2,6.1885033E0,5.4680526E-1,4.0255368E-1,4.9333334E-1,5.7622594E-1,3.5673496E1,2.1231599E-1,9.066667E-1,1.6576097E0,-5.882353E-1,1.5833473E1,-9.214254E-1,5.6065678E1,-5.597375E-1,1.727143E0,-7.307459E0,3.2215753E0,6.845793E-3,-7.3699853E-3,1.6500011E-2,7.780846E-3,-1.8397166E-3,6.72719E-3,-7.3415483E-3,-1.1358073E-3,1.1595826E-2,2.5856087E-4,1.8129235E-2,6.181031E-3,7.577055E-3,1.9644735E-2,2.573951E-2,6.3156806E-2,6.3278415E-4,3.0286908E-2,1.1380204E-2,2.3806434E-2,1.5301043E-2,2.7233656E-3,1.1309569E-2,2.1555861E-2,2.7243901E-2,4.4339612E-2,-3.5899408E-5,2.9994592E-2,1.7958587E-2,-1.1910582E-2,2.4714163E-2,3.9629824E-2],"split_indices":[14,18,14,18,18,18,51,14,28,0,58,15,16,18,52,15,15,18,16,0,5,18,69,27,9,16,70,