{"learner":{"attributes":{"best_iteration":"271","best_score":"0.6661614660527134","scikit_learn":"{\"_estimator_type\": \"classifier\"}"},"feature_names":[],"feature_types":[],"gradient_booster":{"model":{"cats":{"enc":[],"feature_segments":[],"sorted_idx":[]},"gbtree_model_param":{"num_parallel_tree":"1","num_trees":"332"},"iteration_indptr":[0,1,2,3,4,5,6,7,8,9,10,11,12,13,14,15,16,17,18,19,20,21,22,23,24,25,26,27,28,29,30,31,32,33,34,35,36,37,38,39,40,41,42,43,44,45,46,47,48,49,50,51,52,53,54,55,56,57,58,59,60,61,62,63,64,65,66,67,68,69,70,71,72,73,74,75,76,77,78,79,80,81,82,83,84,85,86,87,88,89,90,91,92,93,94,95,96,97,98,99,100,101,102,103,104,105,106,107,108,109,110,111,112,113,114,115,116,117,118,119,120,121,122,123,124,125,126,127,128,129,130,131,132,133,134,135,136,137,138,139,140,141,142,143,144,145,146,147,148,149,150,151,152,153,154,155,156,157,158,159,160,161,162,163,164,165,166,167,168,169,170,171,172,173,174,175,176,177,178,179,180,181,182,183,184,185,186,187,188,189,190,191,192,193,194,195,196,197,198,199,200,201,202,203,204,205,206,207,208,209,210,211,212,213,214,215,216,217,218,219,220,221,222,223,224,225,226,227,228,229,230,231,232,233,234,235,236,237,238,239,240,241,242,243,244,245,246,247,248,249,250,251,252,253,254,255,256,257,258,259,260,261,262,263,264,265,266,267,268,269,270,271,272,273,274,275,276,277,278,279,280,281,282,283,284,285,286,287,288,289,290,291,292,293,294,295,296,297,298,299,300,301,302,303,304,305,306,307,308,309,310,311,312,313,314,315,316,317,318,319,320,321,322,323,324,325,326,327,328,329,330,331,332],"tree_info":[0,0,0,0,0,0,0,0,0,0,0,0,0,0,0,0,0,0,0,0,0,0,0,0,0,0,0,0,0,0,0,0,0,0,0,0,0,0,0,0,0,0,0,0,0,0,0,0,0,0,0,0,0,0,0,0,0,0,0,0,0,0,0,0,0,0,0,0,0,0,0,0,0,0,0,0,0,0,0,0,0,0,0,0,0,0,0,0,0,0,0,0,0,0,0,0,0,0,0,0,0,0,0,0,0,0,0,0,0,0,0,0,0,0,0,0,0,0,0,0,0,0,0,0,0,0,0,0,0,0,0,0,0,0,0,0,0,0,0,0,0,0,0,0,0,0,0,0,0,0,0,0,0,0,0,0,0,0,0,0,0,0,0,0,0,0,0,0,0,0,0,0,0,0,0,0,0,0,0,0,0,0,0,0,0,0,0,0,0,0,0,0,0,0,0,0,0,0,0,0,0,0,0,0,0,0,0,0,0,0,0,0,0,0,0,0,0,0,0,0,0,0,0,0,0,0,0,0,0,0,0,0,0,0,0,0,0,0,0,0,0,0,0,0,0,0,0,0,0,0,0,0,0,0,0,0,0,0,0,0,0,0,0,0,0,0,0,0,0,0,0,0,0,0,0,0,0,0,0,0,0,0,0,0,0,0,0,0,0,0,0,0,0,0,0,0,0,0,0,0,0,0,0,0,0,0,0,0,0,0,0,0,0,0,0,0,0,0,0,0,0,0,0,0,0,0,0,0,0,0,0,0],"trees":[{"base_weights":[-2.2741497E-4,9.2817765E-1,-5.5175018E-2,1.220382E0,6.384116E-1,-1.7887934E-1,3.6443812E-1,9.2038566E-1,1.3262316E0,4.5450655E-1,7.5760627E-1,-2.4179146E-1,2.5017543E-2,2.0357391E-1,6.097228E-1,9.573243E-1,3.1325945E-1,1.3744606E0,8.538719E-1,5.024115E-1,-1.10031515E-1,8.972579E-1,5.2127373E-1,-1.4511992E-1,-3.575212E-1,-4.4687744E-3,4.680377E-1,4.950023E-1,1.1907041E-1,8.020373E-1,4.2095268E-1,3.94317E-2,5.63351E-2,-1.4827147E-2,3.3761676E-2,6.0142543E-2,7.23121E-2,5.318267E-2,2.1496756E-2,3.9348748E-2,2.116971E-2,8.709908E-3,-2.5457298E-2,3.334937E-2,4.9182594E-2,-2.6554704E-2,2.7133554E-2,1.1184385E-2,-8.52225E-3,2.9558807E-3,-2.0086348E-2,7.5284117E-3,-2.860825E-3,1.414412E-2,3.583289E-2,3.3284474E-2,1.9818908E-2,1.1653652E-3,1.6819192E-2,4.1144904E-2,3.1417012E-3,5.713019E-3,2.4402529E-2],"categories":[],"categories_nodes":[],"categories_segments":[],"categories_sizes":[],"default_left":[0,0,0,0,0,0,0,0,0,0,0,0,0,0,0,0,0,0,0,0,0,0,0,0,0,0,0,0,0,0,0,0,0,0,0,0,0,0,0,0,0,0,0,0,0,0,0,0,0,0,0,0,0,0,0,0,0,0,0,0,0,0,0],"id":0,"left_children":[1,3,5,7,9,11,13,15,17,19,21,23,25,27,29,31,33,35,37,39,41,43,45,47,49,51,53,55,57,59,61,-1,-1,-1,-1,-1,-1,-1,-1,-1,-1,-1,-1,-1,-1,-1,-1,-1,-1,-1,-1,-1,-1,-1,-1,-1,-1,-1,-1,-1,-1,-1,-1],"loss_changes":[7.013102E3,6.4793555E2,6.737786E3,1.1779297E2,8.336304E1,1.2860911E3,1.1654517E3,2.1292786E1,6.076416E1,4.1559998E1,7.554004E1,8.567842E2,3.0902563E2,4.392209E2,4.2357178E2,2.4270874E1,1.4134182E1,2.6654785E1,2.2121521E1,3.0371307E1,1.3973605E1,2.7025024E1,2.0279465E1,3.899969E2,6.42376E2,1.8122627E2,6.704971E1,6.6461426E1,2.8789444E2,8.8792725E1,1.2123596E2,0E0,0E0,0E0,0E0,0E0,0E0,0E0,0E0,0E0,0E0,0E0,0E0,0E0,0E0,0E0,0E0,0E0,0E0,0E0,0E0,0E0,0E0,0E0,0E0,0E0,0E0,0E0,0E0,0E0,0E0,0E0,0E0],"parents":[2147483647,0,0,1,1,2,2,3,3,4,4,5,5,6,6,7,7,8,8,9,9,10,10,11,11,12,12,13,13,14,14,15,15,16,16,17,17,18,18,19,19,20,20,21,21,22,22,23,23,24,24,25,25,26,26,27,27,28,28,29,29,30,30],"right_children":[2,4,6,8,10,12,14,16,18,20,22,24,26,28,30,32,34,36,38,40,42,44,46,48,50,52,54,56,58,60,62,-1,-1,-1,-1,-1,-1,-1,-1,-1,-1,-1,-1,-1,-1,-1,-1,-1,-1,-1,-1,-1,-1,-1,-1,-1,-1,-1,-1,-1,-1,-1,-1],"split_conditions":[5.3333335E-2,2.6666667E-2,7.2E-1,8.643655E-1,6.17333E-1,1.0404669E0,8.4E-1,3.580201E-1,4.0668014E-1,3.580201E-1,2.973624E-1,2.1222368E-1,1.1763453E0,1.2510571E-1,1.5576857E-1,8.1829605E0,1.1781987E1,1.3484263E0,-9.560532E0,1.776979E-1,-1.0067401E1,7.118787E0,-5.0097594E0,1.2E-1,9.3333334E-2,1.4955196E-1,6.398033E0,1.0408541E-1,1.1831964E0,6.407879E-2,7.916989E-1,3.94317E-2,5.63351E-2,-1.4827147E-2,3.3761676E-2,6.0142543E-2,7.23121E-2,5.318267E-2,2.1496756E-2,3.9348748E-2,2.116971E-2,8.709908E-3,-2.5457298E-2,3.334937E-2,4.9182594E-2,-2.6554704E-2,2.7133554E-2,1.1184385E-2,-8.52225E-3,2.9558807E-3,-2.0086348E-2,7.5284117E-3,-2.860825E-3,1.414412E-2,3.583289E-2,3.3284474E-2,1.9818908E-2,1.1653652E-3,1.6819192E-2,4.1144904E-2,3.1417012E-3,5.713019E-3,2.4402529E-2],"split_indices":[18,18,18,10,10,10,18,13,13,13,13,13,16,13,13,62,62,10,60,13,60,62,27,18,18,13,31,13,10,75,11,0,0,0,0,0,0,0,0,0,0,0,0,0,0,0,0,0,0,0,0,0,0,0,0,0,0,0,0,0,0,0,0],"split_type":[0,0,0,0,0,0,0,0,0,0,0,0,0,0,0,0,0,0,0,0,0,0,0,0,0,0,0,0,0,0,0,0,0,0,0,0,0,0,0,0,0,0,0,0,0,0,0,0,0,0,0,0,0,0,0,0,0,0,0,0,0,0,0],"sum_hessian":[1.3747962E5,7.679777E3,1.2979984E5,3.8197432E3,3.8600334E3,1.0024839E5,2.9551453E4,1.0025254E3,2.8172178E3,1.5234028E3,2.3366306E3,7.661195E4,2.3636438E4,1.785039E4,1.1701062E4,9.431644E2,5.9360947E1,2.551796E3,2.654221E2,1.4052625E3,1.1814039E2,1.4638912E3,8.727393E2,4.174788E4,3.486407E4,2.2162227E4,1.4742113E3,4.0089697E3,1.3841421E4,5.791586E3,5.9094756E3,4.796876E2,4.6347684E2,2.1731321E1,3.7629627E1,7.651086E2,1.7866873E3,1.7475078E2,9.0671326E1,3.001372E2,1.1051252E3,6.892774E1,4.9212643E1,4.0572305E2,1.0581682E3,1.5976416E1,8.5676294E2,2.6802422E3,3.9067637E4,3.343128E3,3.1520941E4,5.6227007E3,1.6539525E4,8.485533E2,6.2565796E2,1.462052E3,2.5469175E3,9.610773E3,4.230647E3,5.631752E3,1.5983435E2,1.0630994E3,4.8463765E3],"tree_param":{"num_deleted":"0","num_feature":"80","num_nodes":"63","size_leaf_vector":"1"}},{"base_weights":[1.0539129E-3,8.882231E-1,-5.1520523E-2,1.1768492E0,6.074668E-1,-1.693559E-1,3.472291E-1,9.803834E-1,1.3342093E0,3.1852102E-1,6.933141E-1,-2.4268977E-1,-5.5852644E-3,1.961644E-1,5.769976E-1,6.331949E-1,1.04125E0,1.3886986E0,8.6680496E-1,6.426342E-1,2.3492143E-1,7.929386E-1,4.1526216E-1,-1.8159762E-1,-4.255219E-1,-3.912158E-2,3.326569E-1,4.609224E-1,1.1653388E-1,7.887879E-1,4.0418273E-1,-6.284424E-3,3.4142073E-2,-9.875473E-3,5.2799862E-2,7.128331E-2,5.2072134E-2,5.4234087E-2,2.3215627E-2,1.0964681E-2,4.1196667E-2,2.4881234E-2,7.0989705E-3,3.4599762E-2,4.808728E-2,6.215603E-3,2.7847609E-2,7.091713E-3,-1.068971E-2,-1.25837345E-2,-2.5126774E-2,3.7369698E-3,-5.667861E-3,1.1049411E-2,2.6953075E-2,3.022196E-2,1.7718215E-2,1.5252912E-3,1.5887352E-2,3.675511E-2,5.2802127E-2,2.2063939E-2,-5.4349927E-3],"categories":[],"categories_nodes":[],"categories_segments":[],"categories_sizes":[],"default_left":[0,0,0,0,0,0,0,0,0,0,0,0,0,0,0,0,0,0,0,0,0,0,0,0,0,0,0,0,0,0,0,0,0,0,0,0,0,0,0,0,0,0,0,0,0,0,0,0,0,0,0,0,0,0,0,0,0,0,0,0,0,0,0],"id":1,"left_children":[1,3,5,7,9,11,13,15,17,19,21,23,25,27,29,31,33,35,37,39,41,43,45,47,49,51,53,55,57,59,61,-1,-1,-1,-1,-1,-1,-1,-1,-1,-1,-1,-1,-1,-1,-1,-1,-1,-1,-1,-1,-1,-1,-1,-1,-1,-1,-1,-1,-1,-1,-1,-1],"loss_changes":[6.4223623E3,6.2190967E2,6.1074355E3,1.1356641E2,9.603894E1,1.2048811E3,1.0285012E3,3.37041E1,4.996118E1,2.3662048E1,8.215332E1,7.735935E2,3.5193817E2,3.7682843E2,4.291333E2,1.0225166E1,2.714331E1,1.9891113E1,1.8000778E1,1.3107834E1,1.712648E1,3.5559326E1,3.2494766E1,5.410608E2,2.3170215E2,2.3873566E2,6.388443E1,6.2328674E1,2.3798279E2,7.330835E1,1.2355884E2,0E0,0E0,0E0,0E0,0E0,0E0,0E0,0E0,0E0,0E0,0E0,0E0,0E0,0E0,0E0,0E0,0E0,0E0,0E0,0E0,0E0,0E0,0E0,0E0,0E0,0E0,0E0,0E0,0E0,0E0,0E0,0E0],"parents":[2147483647,0,0,1,1,2,2,3,3,4,4,5,5,6,6,7,7,8,8,9,9,10,10,11,11,12,12,13,13,14,14,15,15,16,16,17,17,18,18,19,19,20,20,21,21,22,22,23,23,24,24,25,25,26,26,27,27,28,28,29,29,30,30],"right_children":[2,4,6,8,10,12,14,16,18,20,22,24,26,28,30,32,34,36,38,40,42,44,46,48,50,52,54,56,58,60,62,-1,-1,-1,-1,-1,-1,-1,-1,-1,-1,-1,-1,-1,-1,-1,-1,-1,-1,-1,-1,-1,-1,-1,-1,-1,-1,-1,-1,-1,-1,-1,-1],"split_conditions":[5.3333335E-2,2.6666667E-2,7.2E-1,1.2918165E0,1.0265423E0,8.893262E-1,8.4E-1,4.1853935E-1,4.0668014E-1,1.776979E-1,3.18692E-1,2.63374E-1,7.813759E1,1.2594993E-1,1.5016785E-1,5.6603774E-2,-1.4557217E0,1.1164285E-1,-9.892408E0,-1.9051259E0,1.8799621E-1,1E0,1.1549025E1,1.2E-1,1.6E-1,1.6943885E-1,1.9314511E0,1.0713344E-1,1.1940359E0,9.066667E-1,1.2370331E-1,-6.284424E-3,3.4142073E-2,-9.875473E-3,5.2799862E-2,7.128331E-2,5.2072134E-2,5.4234087E-2,2.3215627E-2,1.0964681E-2,4.1196667E-2,2.4881234E-2,7.0989705E-3,3.4599762E-2,4.808728E-2,6.215603E-3,2.7847609E-2,7.091713E-3,-1.068971E-2,-1.25837345E-2,-2.5126774E-2,3.7369698E-3,-5.667861E-3,1.1049411E-2,2.6953075E-2,3.022196E-2,1.7718215E-2,1.5252912E-3,1.5887352E-2,3.675511E-2,5.2802127E-2,2.2063939E-2,-5.4349927E-3],"split_indices":[18,18,18,10,11,10,18,10,13,13,13,13,1,13,13,28,27,75,60,70,78,10,62,18,18,13,10,13,10,18,76,0,0,0,0,0,0,0,0,0,0,0,0,0,0,0,0,0,0,0,0,0,0,0,0,0,0,0,0,0,0,0,0],"split_type":[0,0,0,0,0,0,0,0,0,0,0,0,0,0,0,0,0,0,0,0,0,0,0,0,0,0,0,0,0,0,0,0,0,0,0,0,0,0,0,0,0,0,0,0,0,0,0,0,0,0,0,0,0,0,0,0,0,0,0,0,0,0,0],"sum_hessian":[1.3768066E5,7.7013677E3,1.2997929E5,3.7934353E3,3.9079324E3,1.0033227E5,2.964701E4,1.6949321E3,2.0985032E3,8.986129E2,3.0093196E3,6.929781E4,3.1034467E4,1.7890512E4,1.1756496E4,2.574478E2,1.4374844E3,1.8749167E3,2.2358649E2,1.8028773E2,7.183252E2,2.2114624E3,7.978571E2,5.1946836E4,1.7350975E4,2.8237955E4,2.7965132E3,4.1330303E3,1.3757482E4,5.27805E3,6.4784463E3,1.5001675E1,2.4244614E2,1.622127E1,1.4212631E3,1.6876091E3,1.8730762E2,1.4205652E2,8.152996E1,5.6210655E1,1.2407708E2,1.8404074E2,5.342844E2,1.3921461E3,8.1931635E2,2.636842E2,5.341729E2,4.7009507E3,4.7245887E4,5.331315E3,1.2019659E4,1.1141942E4,1.7096012E4,1.8189769E3,9.7753625E2,1.7551226E3,2.377908E3,9.640503E3,4.1169795E3,4.4029614E3,8.7508844E2,6.0426445E3,4.3580182E2],"tree_param":{"num_deleted":"0","num_feature":"80","num_nodes":"63","size_leaf_vector":"1"}},{"base_weights":[-1.8066508E-3,6.2736756E-1,-5.9862364E-2,4.5170853E-1,1.1684943E0,-1.9292378E-1,2.7771202E-1,2.1324728E-1,6.145309E-1,9.654225E-1,1.2588851E0,-6.526077E-2,-2.8082898E-1,2.1115902E-1,6.158434E-1,5.4157066E-1,1.5206124E-1,7.0037854E-1,1.4615482E-1,5.8718735E-1,1.0363665E0,1.4454406E0,1.1949672E0,-1.2301272E-1,6.0883574E-2,-3.233909E-1,-3.8178876E-2,3.8482758E-1,1.0241276E-1,8.4581447E-1,4.7560698E-1,1.1640989E-2,3.5660774E-2,1.0406853E-2,-6.486416E-3,2.2728987E-2,3.958557E-2,-3.943507E-2,1.1532065E-2,1.1924374E-2,3.73042E-2,5.3246994E-2,9.967546E-3,7.384842E-2,4.465608E-2,6.1538327E-2,3.8887672E-2,2.8973508E-3,-7.4248114E-3,2.0043307E-3,1.9472318E-2,-1.4742526E-2,-2.7210344E-2,-5.0747516E-3,1.4734327E-2,2.9684037E-2,1.578031E-2,1.5695156E-4,1.6190307E-2,4.8880827E-2,3.6196794E-2,2.2367783E-2,6.1304618E-2],"categories":[],"categories_nodes":[],"categories_segments":[],"categories_sizes":[],"default_left":[0,0,0,0,0,0,0,0,0,0,0,0,0,0,0,0,0,0,0,0,0,0,0,0,0,0,0,0,0,0,0,0,0,0,0,0,0,0,0,0,0,0,0,0,0,0,0,0,0,0,0,0,0,0,0,0,0,0,0,0,0,0,0],"id":2,"left_children":[1,3,5,7,9,11,13,15,17,19,21,23,25,27,29,31,33,35,37,39,41,43,45,47,49,51,53,55,57,59,61,-1,-1,-1,-1,-1,-1,-1,-1,-1,-1,-1,-1,-1,-1,-1,-1,-1,-1,-1,-1,-1,-1,-1,-1,-1,-1,-1,-1,-1,-1,-1,-1],"loss_changes":[5.0280366E3,1.1034648E3,5.6611523E3,3.403286E2,4.873047E1,1.01429297E3,8.011809E2,7.116385E1,2.091333E2,2.178418E1,1.8624756E1,2.6863977E2,5.526753E2,5.620311E2,1.8744653E2,2.878772E1,4.7680008E1,9.759839E1,6.417872E1,7.23526E0,1.6726257E1,4.695801E0,1.9113525E1,1.1670465E2,7.886218E1,2.8628076E2,1.6841867E2,1.6489551E2,4.0237836E2,3.331494E1,7.534137E1,0E0,0E0,0E0,0E0,0E0,0E0,0E0,0E0,0E0,0E0,0E0,0E0,0E0,0E0,0E0,0E0,0E0,0E0,0E0,0E0,0E0,0E0,0E0,0E0,0E0,0E0,0E0,0E0,0E0,0E0,0E0,0E0],"parents":[2147483647,0,0,1,1,2,2,3,3,4,4,5,5,6,6,7,7,8,8,9,9,10,10,11,11,12,12,13,13,14,14,15,15,16,16,17,17,18,18,19,19,20,20,21,21,22,22,23,23,24,24,25,25,26,26,27,27,28,28,29,29,30,30],"right_children":[2,4,6,8,10,12,14,16,18,20,22,24,26,28,30,32,34,36,38,40,42,44,46,48,50,52,54,56,58,60,62,-1,-1,-1,-1,-1,-1,-1,-1,-1,-1,-1,-1,-1,-1,-1,-1,-1,-1,-1,-1,-1,-1,-1,-1,-1,-1,-1,-1,-1,-1,-1,-1],"split_conditions":[2.5E-1,1.9783785E0,7.5E-1,1.0945967E0,2.5062914E0,1.8489559E-1,1E0,1.7384313E-1,3.894049E-1,1.190309E0,-1.3044223E1,9.5661664E-1,1.2286365E0,1.4378686E-1,1.431273E-1,-1.6089492E0,3.2497326E-1,9.932912E-1,-2.6538463E0,6.666667E-2,1.3855028E0,1.2037581E0,3.5319403E-1,3.242268E1,1.119375E0,3.6882636E-1,7.6982185E1,1.0713344E-1,1.1940359E0,1.2070749E-1,2.1805872E2,1.1640989E-2,3.5660774E-2,1.0406853E-2,-6.486416E-3,2.2728987E-2,3.958557E-2,-3.943507E-2,1.1532065E-2,1.1924374E-2,3.73042E-2,5.3246994E-2,9.967546E-3,7.384842E-2,4.465608E-2,6.1538327E-2,3.8887672E-2,2.8973508E-3,-7.4248114E-3,2.0043307E-3,1.9472318E-2,-1.4742526E-2,-2.7210344E-2,-5.0747516E-3,1.4734327E-2,2.9684037E-2,1.578031E-2,1.5695156E-4,1.6190307E-2,4.8880827E-2,3.6196794E-2,2.2367783E-2,6.1304618E-2],"split_indices":[37,14,37,11,14,13,37,13,13,11,60,10,10,13,13,70,13,14,27,21,27,27,13,1,16,13,1,13,10,13,67,0,0,0,0,0,0,0,0,0,0,0,0,0,0,0,0,0,0,0,0,0,0,0,0,0,0,0,0,0,0,0,0],"split_type":[0,0,0,0,0,0,0,0,0,0,0,0,0,0,0,0,0,0,0,0,0,0,0,0,0,0,0,0,0,0,0,0,0,0,0,0,0,0,0,0,0,0,0,0,0,0,0,0,0,0,0,0,0,0,0,0,0,0,0,0,0,0,0],"sum_hessian":[1.3765572E5,1.1626477E4,1.2602924E5,8.780704E3,2.845773E3,9.039906E4,3.5630184E4,3.5659253E3,5.2147783E3,8.8543896E2,1.960334E3,3.6867004E4,5.353206E4,2.9774516E4,5.855668E3,5.5640283E2,3.0095225E3,4.405285E3,8.0949304E2,1.438909E2,7.415481E2,4.8722806E2,1.4731058E3,2.529181E4,1.1575192E4,4.5541203E4,7.990855E3,1.1461208E4,1.8313309E4,2.212994E3,3.6426738E3,2.0152675E2,3.5487607E2,2.5119453E3,4.9757727E2,1.1981642E3,3.207121E3,6.5221245E1,7.442718E2,4.7594006E1,9.62969E1,7.15965E2,2.5583057E1,4.56894E2,3.0334059E1,1.3519982E3,1.2110776E2,3.1193032E3,2.2172506E4,1.0889678E4,6.8551544E2,4.0334875E4,5.206327E3,6.7162188E3,1.2746365E3,2.8474807E3,8.613728E3,1.2646742E4,5.666566E3,1.0544954E3,1.1584987E3,3.514242E3,1.2843195E2],"tree_param":{"num_deleted":"0","num_feature":"80","num_nodes":"63","size_leaf_vector":"1"}},{"base_weights":[8.57408E-4,8.0432135E-1,-4.6613593E-2,1.066798E0,5.4517496E-1,-1.5344495E-1,3.1489098E-1,7.8607684E-1,1.1670341E0,3.6360955E-1,6.5712863E-1,-1.831311E-1,1.9173834E-1,1.7341185E-1,5.303565E-1,8.215652E-1,-0E0,1.0202808E0,1.248381E0,4.0261167E-1,-2.4219066E-1,7.6514447E-1,4.7403798E-1,-7.800162E-2,-3.0101866E-1,1.470527E-1,6.2853587E-1,3.332609E-1,7.079306E-2,7.13071E-1,3.453832E-1,3.135323E-2,4.9852565E-2,3.115278E-2,-2.0374527E-2,5.897191E-2,4.694457E-2,6.4171724E-2,3.712306E-2,3.3786193E-2,1.6433032E-2,2.1835905E-4,-3.5070665E-2,4.452854E-2,3.1040749E-2,1.275391E-2,2.891213E-2,-6.8937778E-3,1.7601807E-3,-1.7146202E-2,-6.0612354E-3,9.884111E-3,-5.6217024E-3,2.5849357E-2,5.4891538E-2,2.0120787E-2,5.9723407E-3,2.592868E-2,1.5536577E-3,4.3303546E-2,3.0643318E-2,3.2497235E-2,1.4129892E-2],"categories":[],"categories_nodes":[],"categories_segments":[],"categories_sizes":[],"default_left":[0,0,0,0,0,0,0,0,0,0,0,0,0,0,0,0,0,0,0,0,0,0,0,0,0,0,0,0,0,0,0,0,0,0,0,0,0,0,0,0,0,0,0,0,0,0,0,0,0,0,0,0,0,0,0,0,0,0,0,0,0,0,0],"id":3,"left_children":[1,3,5,7,9,11,13,15,17,19,21,23,25,27,29,31,33,35,37,39,41,43,45,47,49,51,53,55,57,59,61,-1,-1,-1,-1,-1,-1,-1,-1,-1,-1,-1,-1,-1,-1,-1,-1,-1,-1,-1,-1,-1,-1,-1,-1,-1,-1,-1,-1,-1,-1,-1,-1],"loss_changes":[5.2437207E3,5.1972314E2,5.012974E3,1.0432129E2,7.7562744E1,1.0267859E3,9.020469E2,2.833313E1,2.9745361E1,3.524701E1,4.5847168E1,1.1432251E3,1.5429144E2,2.93E2,3.9553223E2,3.090509E1,1.1968866E1,9.831787E0,2.8832031E1,2.717035E1,1.0545111E1,2.521753E1,1.9649902E1,3.3066446E2,3.273506E2,9.469789E1,3.651892E1,1.0295648E2,1.9341748E2,8.864551E1,1.1075946E2,0E0,0E0,0E0,0E0,0E0,0E0,0E0,0E0,0E0,0E0,0E0,0E0,0E0,0E0,0E0,0E0,0E0,0E0,0E0,0E0,0E0,0E0,0E0,0E0,0E0,0E0,0E0,0E0,0E0,0E0,0E0,0E0],"parents":[2147483647,0,0,1,1,2,2,3,3,4,4,5,5,6,6,7,7,8,8,9,9,10,10,11,11,12,12,13,13,14,14,15,15,16,16,17,17,18,18,19,19,20,20,21,21,22,22,23,23,24,24,25,25,26,26,27,27,28,28,29,29,30,30],"right_children":[2,4,6,8,10,12,14,16,18,20,22,24,26,28,30,32,34,36,38,40,42,44,46,48,50,52,54,56,58,60,62,-1,-1,-1,-1,-1,-1,-1,-1,-1,-1,-1,-1,-1,-1,-1,-1,-1,-1,-1,-1,-1,-1,-1,-1,-1,-1,-1,-1,-1,-1,-1,-1],"split_conditions":[5.3333335E-2,2.6666667E-2,7.2E-1,1.5997177E0,6.04377E-1,1.4900181E1,8.4E-1,1.291364E0,1.3484263E0,3.7510812E-1,2.973624E-1,2.0121767E-1,1.8721403E0,1.4378686E-1,1.5641402E-1,7.696702E-1,4.5544556E-1,1.8694538E-1,4.5596418E-1,1.776979E-1,6.885274E0,4E-2,1.1238494E1,8.893262E-1,1.7650936E0,3.6326787E-1,2.7480843E0,2.2593741E0,3.319258E1,1.2253133E-1,3.8848206E1,3.135323E-2,4.9852565E-2,3.115278E-2,-2.0374527E-2,5.897191E-2,4.694457E-2,6.4171724E-2,3.712306E-2,3.3786193E-2,1.6433032E-2,2.1835905E-4,-3.5070665E-2,4.452854E-2,3.1040749E-2,1.275391E-2,2.891213E-2,-6.8937778E-3,1.7601807E-3,-1.7146202E-2,-6.0612354E-3,9.884111E-3,-5.6217024E-3,2.5849357E-2,5.4891538E-2,2.0120787E-2,5.9723407E-3,2.592868E-2,1.5536577E-3,4.3303546E-2,3.0643318E-2,3.2497235E-2,1.4129892E-2],"split_indices":[18,18,18,14,10,34,18,27,10,13,13,13,14,13,13,10,57,13,13,13,30,18,62,10,34,13,14,78,0,13,0,0,0,0,0,0,0,0,0,0,0,0,0,0,0,0,0,0,0,0,0,0,0,0,0,0,0,0,0,0,0,0,0],"split_type":[0,0,0,0,0,0,0,0,0,0,0,0,0,0,0,0,0,0,0,0,0,0,0,0,0,0,0,0,0,0,0,0,0,0,0,0,0,0,0,0,0,0,0,0,0,0,0,0,0,0,0,0,0,0,0,0,0,0,0,0,0,0,0],"sum_hessian":[1.3746777E5,7.6677056E3,1.29800055E5,3.8053208E3,3.862385E3,1.0019353E5,2.9606525E4,1.0072088E3,2.7981118E3,1.4781296E3,2.3842554E3,9.2261336E4,7.932192E3,1.7875219E4,1.1731306E4,9.638811E2,4.3327713E1,1.0097356E3,1.7883763E3,1.3901277E3,8.8001915E1,1.4938545E3,8.9040094E2,4.8773652E4,4.3487684E4,7.1994824E3,7.3270966E2,6.9851304E3,1.0890089E4,5.897457E3,5.8338486E3,4.6286224E2,5.0101883E2,1.6501799E1,2.6825912E1,3.3043768E2,6.792979E2,1.6686965E3,1.19679726E2,2.9129523E2,1.0988324E3,5.7839775E1,3.0162142E1,7.918821E2,7.019724E2,2.908812E2,5.995198E2,3.19038E4,1.686985E4,3.526396E4,8.223725E3,6.0261074E3,1.1733749E3,5.9625256E2,1.3645708E2,5.2749336E3,1.7101971E3,8.842979E2,1.0005791E4,2.3258696E3,3.5715874E3,9.9253864E2,4.84131E3],"tree_param":{"num_deleted":"0","num_feature":"80","num_nodes":"63","size_leaf_vector":"1"}},{"base_weights":[4.1223127E-5,7.5624233E-1,-4.44694E-2,1.0090457E0,5.0924927E-1,-1.458537E-1,2.9882267E-1,7.9744864E-1,1.1187851E0,3.0765787E-1,5.8906704E-1,-1.8799604E-1,6.423043E-2,1.6526294E-1,5.032821E-1,8.297482E-1,7.840316E-2,1.1512206E0,7.761002E-1,3.4810254E-1,-4.0500918E-1,7.182797E-1,4.1445392E-1,-6.977496E-2,-3.043064E-1,1.6366601E-2,3.5976323E-1,4.0612274E-1,9.365069E-2,7.1046126E-1,3.7492007E-1,3.3093393E-2,4.925179E-2,-2.4583211E-2,1.6893888E-2,6.55499E-2,5.4970272E-2,4.1512236E-2,6.8860785E-3,5.0018704E-3,2.189127E-2,9.905293E-3,-3.1454578E-2,2.8202746E-2,4.163822E-2,1.2474514E-2,2.726621E-2,3.5392158E-3,-5.8784503E-3,-1.26599595E-2,-2.2057008E-2,-2.3580734E-3,9.340077E-3,1.1291667E-2,2.9765904E-2,1.6980445E-2,3.388013E-2,2.5730138E-3,1.9992655E-2,3.3045232E-2,4.803669E-2,3.341433E-2,1.5795283E-2],"categories":[],"categories_nodes":[],"categories_segments":[],"categories_sizes":[],"default_left":[0,0,0,0,0,0,0,0,0,0,0,0,0,0,0,0,0,0,0,0,0,0,0,0,0,0,0,0,0,0,0,0,0,0,0,0,0,0,0,0,0,0,0,0,0,0,0,0,0,0,0,0,0,0,0,0,0,0,0,0,0,0,0],"id":4,"left_children":[1,3,5,7,9,11,13,15,17,19,21,23,25,27,29,31,33,35,37,39,41,43,45,47,49,51,53,55,57,59,61,-1,-1,-1,-1,-1,-1,-1,-1,-1,-1,-1,-1,-1,-1,-1,-1,-1,-1,-1,-1,-1,-1,-1,-1,-1,-1,-1,-1,-1,-1,-1,-1],"loss_changes":[4.6248755E3,4.7514502E2,4.516065E3,8.48374E1,6.1435852E1,8.8697046E2,8.073425E2,2.9528503E1,2.4781982E1,3.2052094E1,6.127484E1,1.1470886E3,2.3654663E2,3.0839777E2,3.097168E2,3.0197998E1,8.925192E0,1.4601318E1,6.9487762E0,2.291787E1,8.506946E0,2.6365662E1,2.4875854E1,2.780567E2,2.9354077E2,1.5608267E2,7.2867096E1,7.306183E1,1.7802283E2,5.332202E1,1.24111694E2,0E0,0E0,0E0,0E0,0E0,0E0,0E0,0E0,0E0,0E0,0E0,0E0,0E0,0E0,0E0,0E0,0E0,0E0,0E0,0E0,0E0,0E0,0E0,0E0,0E0,0E0,0E0,0E0,0E0,0E0,0E0,0E0],"parents":[2147483647,0,0,1,1,2,2,3,3,4,4,5,5,6,6,7,7,8,8,9,9,10,10,11,11,12,12,13,13,14,14,15,15,16,16,17,17,18,18,19,19,20,20,21,21,22,22,23,23,24,24,25,25,26,26,27,27,28,28,29,29,30,30],"right_children":[2,4,6,8,10,12,14,16,18,20,22,24,26,28,30,32,34,36,38,40,42,44,46,48,50,52,54,56,58,60,62,-1,-1,-1,-1,-1,-1,-1,-1,-1,-1,-1,-1,-1,-1,-1,-1,-1,-1,-1,-1,-1,-1,-1,-1,-1,-1,-1,-1,-1,-1,-1,-1],"split_conditions":[5.3333335E-2,2.6666667E-2,7.2E-1,1.8292047E0,1.0999211E0,5.163139E0,8.4E-1,4.7465345E-1,1.1164285E-1,3.7510812E-1,2.7508244E-1,1.9396788E-1,7.543812E1,1.2594993E-1,1.431273E-1,8.852153E0,-7.8125E-1,-1.3044223E1,9.2741936E-1,-6.904931E-1,-4.6122432E-1,1.1868331E0,1.2407701E0,1.3287824E-1,2.973624E-1,2.6351341E1,1.4041507E0,9.5105654E-1,6.931778E1,9.066667E-1,3.3774357E1,3.3093393E-2,4.925179E-2,-2.4583211E-2,1.6893888E-2,6.55499E-2,5.4970272E-2,4.1512236E-2,6.8860785E-3,5.0018704E-3,2.189127E-2,9.905293E-3,-3.1454578E-2,2.8202746E-2,4.163822E-2,1.2474514E-2,2.726621E-2,3.5392158E-3,-5.8784503E-3,-1.26599595E-2,-2.2057008E-2,-2.3580734E-3,9.340077E-3,1.1291667E-2,2.9765904E-2,1.6980445E-2,3.388013E-2,2.5730138E-3,1.9992655E-2,3.3045232E-2,4.803669E-2,3.341433E-2,1.5795283E-2],"split_indices":[18,18,18,14,11,34,18,13,75,13,13,13,1,13,13,62,24,60,42,67,33,14,14,13,13,34,14,35,1,18,1,0,0,0,0,0,0,0,0,0,0,0,0,0,0,0,0,0,0,0,0,0,0,0,0,0,0,0,0,0,0,0,0],"split_type":[0,0,0,0,0,0,0,0,0,0,0,0,0,0,0,0,0,0,0,0,0,0,0,0,0,0,0,0,0,0,0,0,0,0,0,0,0,0,0,0,0,0,0,0,0,0,0,0,0,0,0,0,0,0,0,0,0,0,0,0,0,0,0],"sum_hessian":[1.3738933E5,7.6361577E3,1.29753164E5,3.7696428E3,3.8665151E3,1.00172016E5,2.9581148E4,1.294571E3,2.4750715E3,1.1012136E3,2.7653015E3,8.34373E4,1.673472E4,1.7896572E4,1.1684577E4,1.2379586E3,5.6612484E1,2.255417E3,2.1965468E2,1.0437067E3,5.7506847E1,1.5840349E3,1.1812666E3,4.1382484E4,4.205481E4,1.4405448E4,2.3292712E3,4.09779E3,1.3798782E4,4.4650024E3,7.2195747E3,6.014642E2,6.3649445E2,1.6545422E1,4.0067062E1,5.380458E2,1.7173711E3,2.01205E2,1.8449669E1,2.798319E2,7.638748E2,1.5036586E1,4.2470264E1,6.817951E2,9.0223987E2,5.268274E2,6.5443915E2,1.0497772E4,3.0884713E4,3.0625562E4,1.1429248E4,1.0492848E4,3.9126008E3,1.4888137E3,8.4045764E2,3.29648E3,8.013098E2,1.2131236E4,1.667546E3,3.7347595E3,7.3024304E2,1.2042089E3,6.0153657E3],"tree_param":{"num_deleted":"0","num_feature":"80","num_nodes":"63","size_leaf_vector":"1"}},{"base_weights":[-5.31728E-4,7.3868835E-1,-4.380181E-2,5.773342E-1,1.0904349E0,-1.4121906E-1,2.8619584E-1,6.9023484E-1,3.6766556E-1,1.1128776E0,6.0589945E-1,-7.371046E-2,-2.4560006E-1,1.6084327E-1,4.774859E-1,7.3894346E-1,2.9494488E-1,4.189933E-1,8.424237E-2,1.1293484E0,5.568168E-1,8.064745E-1,-1.3341046E-3,-9.144079E-2,2.6404837E-1,-3.2400045E-1,-8.323736E-2,3.8372985E-1,9.426296E-2,5.7837784E-1,1.98634E-1,3.3524368E-2,4.8860416E-2,-1.2668028E-3,2.719744E-2,1.4841713E-2,2.6528785E-2,1.645653E-2,-9.233209E-3,3.9300542E-2,5.787763E-2,5.609997E-3,4.4702437E-2,2.7966574E-2,5.3338494E-2,3.4230233E-3,-6.227447E-3,8.918873E-3,2.2038048E-2,-1.4131583E-2,-2.5514921E-2,1.1356611E-2,-7.1206638E-3,1.2443869E-2,2.4194727E-2,2.144946E-2,2.699193E-3,3.758337E-2,2.5034416E-2,2.2127759E-3,1.8042339E-2],"categories":[],"categories_nodes":[],"categories_segments":[],"categories_sizes":[],"default_left":[0,0,0,0,0,0,0,0,0,0,0,0,0,0,0,0,0,0,0,0,0,0,0,0,0,0,0,0,0,0,0,0,0,0,0,0,0,0,0,0,0,0,0,0,0,0,0,0,0,0,0,0,0,0,0,0,0,0,0,0,0],"id":5,"left_children":[1,3,5,7,9,11,13,15,17,19,21,23,25,27,29,31,33,35,37,39,41,43,-1,45,47,49,51,53,55,57,59,-1,-1,-1,-1,-1,-1,-1,-1,-1,-1,-1,-1,-1,-1,-1,-1,-1,-1,-1,-1,-1,-1,-1,-1,-1,-1,-1,-1,-1,-1],"loss_changes":[4.39147E3,4.287954E2,4.1699165E3,1.2228772E2,2.3718506E1,7.0552405E2,7.084258E2,6.417383E1,2.6289047E1,1.8738037E1,1.45065155E1,3.642027E2,5.003811E2,2.647966E2,3.2857886E2,4.694397E1,3.023579E1,2.0355286E1,1.892745E1,1.8580566E1,9.8332E0,3.4540253E0,0E0,3.0599738E2,4.5445435E1,2.0370142E2,2.353288E2,5.4863403E1,1.8523016E2,1.14265625E2,7.772566E1,0E0,0E0,0E0,0E0,0E0,0E0,0E0,0E0,0E0,0E0,0E0,0E0,0E0,0E0,0E0,0E0,0E0,0E0,0E0,0E0,0E0,0E0,0E0,0E0,0E0,0E0,0E0,0E0,0E0,0E0],"parents":[2147483647,0,0,1,1,2,2,3,3,4,4,5,5,6,6,7,7,8,8,9,9,10,10,11,11,12,12,13,13,14,14,15,15,16,16,17,17,18,18,19,19,20,20,21,21,23,23,24,24,25,25,26,26,27,27,28,28,29,29,30,30],"right_children":[2,4,6,8,10,12,14,16,18,20,22,24,26,28,30,32,34,36,38,40,42,44,-1,46,48,50,52,54,56,58,60,-1,-1,-1,-1,-1,-1,-1,-1,-1,-1,-1,-1,-1,-1,-1,-1,-1,-1,-1,-1,-1,-1,-1,-1,-1,-1,-1,-1,-1,-1],"split_conditions":[5.3333335E-2,2.1209319E0,7.2E-1,4E-2,4E-2,2.2087114E-1,8.4E-1,3.8200682E-1,1.3586293E-1,1.8232462E-1,7.742947E-1,7.5928925E1,9.704569E-1,1.2594993E-1,1.9107142E-1,1.282392E1,1.2490485E0,1.1836072E0,-1.0251955E1,-8.214286E-1,2.0833333E-1,4.0706315E0,-1.3341046E-3,3.351738E1,1.2326891E0,3.6326787E-1,9.3333334E-2,1.2195299E1,2.8004543E1,1.2594993E-1,1.0999211E0,3.3524368E-2,4.8860416E-2,-1.2668028E-3,2.719744E-2,1.4841713E-2,2.6528785E-2,1.645653E-2,-9.233209E-3,3.9300542E-2,5.787763E-2,5.609997E-3,4.4702437E-2,2.7966574E-2,5.3338494E-2,3.4230233E-3,-6.227447E-3,8.918873E-3,2.2038048E-2,-1.4131583E-2,-2.5514921E-2,1.1356611E-2,-7.1206638E-3,1.2443869E-2,2.4194727E-2,2.144946E-2,2.699193E-3,3.758337E-2,2.5034416E-2,2.2127759E-3,1.8042339E-2],"split_indices":[18,14,18,18,18,13,18,13,76,76,42,1,14,13,13,62,14,11,60,19,20,30,0,1,14,13,18,9,1,13,11,0,0,0,0,0,0,0,0,0,0,0,0,0,0,0,0,0,0,0,0,0,0,0,0,0,0,0,0,0,0],"split_type":[0,0,0,0,0,0,0,0,0,0,0,0,0,0,0,0,0,0,0,0,0,0,0,0,0,0,0,0,0,0,0,0,0,0,0,0,0,0,0,0,0,0,0,0,0,0,0,0,0,0,0,0,0,0,0,0,0,0,0,0,0],"sum_hessian":[1.3729986E5,7.589981E3,1.29709875E5,5.2077646E3,2.3822163E3,1.00148195E5,2.9561682E4,3.3804946E3,1.82727E3,2.2732961E3,1.0892036E2,6.082057E4,3.9327625E4,1.7862598E4,1.1699083E4,3.0069653E3,3.7352942E2,1.544789E3,2.8248105E2,2.2050212E3,6.8274925E1,8.288144E1,2.603891E1,5.7789883E4,3.0306877E3,2.6517836E4,1.280979E4,4.1046597E3,1.3757938E4,8.587928E3,3.1111558E3,2.3434053E3,6.6355994E2,1.6328842E2,2.1024101E2,7.4307776E2,8.017112E2,1.4858182E2,1.3389923E2,1.73114E2,2.0319071E3,3.123794E1,3.7036983E1,4.6730614E1,3.615083E1,9.910115E3,4.7879766E4,2.0457491E3,9.849386E2,2.1705658E4,4.8121777E3,2.04899E3,1.07608E4,1.7545106E3,2.3501487E3,1.4743254E3,1.2283613E4,2.6509937E3,5.9369336E3,1.5969557E3,1.5142002E3],"tree_param":{"num_deleted":"0","num_feature":"80","num_nodes":"61","size_leaf_vector":"1"}},{"base_weights":[-7.350968E-4,7.023235E-1,-4.1988984E-2,5.437387E-1,1.0463512E0,-1.5008615E-1,2.24491E-1,6.513881E-1,3.4471378E-1,8.8455415E-1,1.1076181E0,-1.795923E-1,1.4041765E-1,1.2221309E-1,4.5159683E-1,7.043047E-1,2.9991952E-1,1.6930407E-1,4.3617612E-1,1.177957E0,8.280657E-1,1.1473788E0,7.8904957E-1,-6.1969493E-2,-2.569401E-1,7.145415E-2,4.2323542E-1,5.944547E-2,3.4818757E-1,5.989121E-1,2.8788412E-1,2.6846234E-2,4.1062187E-2,3.124629E-2,9.937761E-3,2.6406217E-2,3.9577344E-3,2.6532305E-2,1.3750456E-2,3.2216925E-2,6.292334E-2,4.4098455E-2,2.7857164E-2,5.7919383E-2,1.9014059E-2,-1.6924286E-3,4.3163735E-2,-5.4484154E-3,2.920347E-3,-1.5825642E-2,-8.242948E-3,1.9333279E-2,1.2199403E-3,1.9269353E-2,4.8679106E-2,1.7638804E-2,1.0244782E-3,1.4780189E-2,3.159157E-2,3.1758867E-2,1.1500359E-2,2.2292703E-2,8.868888E-3],"categories":[],"categories_nodes":[],"categories_segments":[],"categories_sizes":[],"default_left":[0,0,0,0,0,0,0,0,0,0,0,0,0,0,0,0,0,0,0,0,0,0,0,0,0,0,0,0,0,0,0,0,0,0,0,0,0,0,0,0,0,0,0,0,0,0,0,0,0,0,0,0,0,0,0,0,0,0,0,0,0,0,0],"id":6,"left_children":[1,3,5,7,9,11,13,15,17,19,21,23,25,27,29,31,33,35,37,39,41,43,45,47,49,51,53,55,57,59,61,-1,-1,-1,-1,-1,-1,-1,-1,-1,-1,-1,-1,-1,-1,-1,-1,-1,-1,-1,-1,-1,-1,-1,-1,-1,-1,-1,-1,-1,-1,-1,-1],"loss_changes":[3.9833884E3,4.1336328E2,3.7372576E3,1.1079382E2,2.0821533E1,7.912405E2,8.692589E2,6.19541E1,2.9015198E1,8.166809E0,1.9129639E1,7.6214453E2,1.6567317E2,3.6596487E2,2.795376E2,5.5900635E1,1.4040848E1,2.0140074E1,1.7637238E1,1.8159637E0,6.633606E0,1.1286499E1,1.2672142E1,1.8813504E2,2.7693604E2,1.01311615E2,3.3282684E1,2.3074162E2,8.284241E1,8.1079346E1,9.572983E1,0E0,0E0,0E0,0E0,0E0,0E0,0E0,0E0,0E0,0E0,0E0,0E0,0E0,0E0,0E0,0E0,0E0,0E0,0E0,0E0,0E0,0E0,0E0,0E0,0E0,0E0,0E0,0E0,0E0,0E0,0E0,0E0],"parents":[2147483647,0,0,1,1,2,2,3,3,4,4,5,5,6,6,7,7,8,8,9,9,10,10,11,11,12,12,13,13,14,14,15,15,16,16,17,17,18,18,19,19,20,20,21,21,22,22,23,23,24,24,25,25,26,26,27,27,28,28,29,29,30,30],"right_children":[2,4,6,8,10,12,14,16,18,20,22,24,26,28,30,32,34,36,38,40,42,44,46,48,50,52,54,56,58,60,62,-1,-1,-1,-1,-1,-1,-1,-1,-1,-1,-1,-1,-1,-1,-1,-1,-1,-1,-1,-1,-1,-1,-1,-1,-1,-1,-1,-1,-1,-1,-1,-1],"split_conditions":[5.3333335E-2,2.1209319E0,6.666667E-1,4E-2,1.2786283E0,1.3089381E1,8.4E-1,1.3751096E-1,5.202627E-1,-1.5384616E-1,3.894049E-1,1.8229942E-1,8.86312E-1,1.3781382E0,1.5949371E-1,6.8523633E-1,1.1284494E1,1.776979E-1,2.973624E-1,-2.2535339E-1,2.8450096E-1,1.8232462E-1,1.4478304E0,1.0080159E0,6.7631894E-1,-9.8114884E-1,2.5062914E0,1.1109174E-1,5.099273E-1,4.0789004E-2,0E0,2.6846234E-2,4.1062187E-2,3.124629E-2,9.937761E-3,2.6406217E-2,3.9577344E-3,2.6532305E-2,1.3750456E-2,3.2216925E-2,6.292334E-2,4.4098455E-2,2.7857164E-2,5.7919383E-2,1.9014059E-2,-1.6924286E-3,4.3163735E-2,-5.4484154E-3,2.920347E-3,-1.5825642E-2,-8.242948E-3,1.9333279E-2,1.2199403E-3,1.9269353E-2,4.8679106E-2,1.7638804E-2,1.0244782E-3,1.4780189E-2,3.159157E-2,3.1758867E-2,1.1500359E-2,2.2292703E-2,8.868888E-3],"split_indices":[18,14,18,18,10,34,18,76,10,56,13,13,16,10,13,10,9,13,13,33,13,76,11,10,10,16,14,13,50,75,35,0,0,0,0,0,0,0,0,0,0,0,0,0,0,0,0,0,0,0,0,0,0,0,0,0,0,0,0,0,0,0,0],"split_type":[0,0,0,0,0,0,0,0,0,0,0,0,0,0,0,0,0,0,0,0,0,0,0,0,0,0,0,0,0,0,0,0,0,0,0,0,0,0,0,0,0,0,0,0,0,0,0,0,0,0,0,0,0,0,0,0,0,0,0,0,0,0,0],"sum_hessian":[1.373471E5,7.610082E3,1.2973701E5,5.2134688E3,2.3966135E3,9.2298875E4,3.7438137E4,3.378847E3,1.8346218E3,6.689768E2,1.7276366E3,8.379082E4,8.508055E3,2.581675E4,1.1621387E4,2.9337197E3,4.451271E2,6.3258905E2,1.2020327E3,1.00164085E2,5.688127E2,1.5299142E3,1.977224E2,3.3245082E4,5.0545734E4,6.843564E3,1.6644908E3,2.0208336E4,5.6084136E3,6.1126274E3,5.5087593E3,1.2129824E3,1.7207374E3,1.0203298E2,3.4309412E2,1.2395396E2,5.0863513E2,7.52978E2,4.4905463E2,1.6305853E1,8.385823E1,4.6911917E2,9.969353E1,1.5066202E3,2.3293943E1,1.5891608E1,1.818308E2,2.3913018E4,9.332065E3,3.0684084E4,1.986165E4,8.856652E2,5.957899E3,1.5614182E3,1.0307265E2,2.3657485E3,1.7842588E4,4.736227E3,8.721866E2,5.562962E3,5.4966583E2,2.2630762E3,3.245683E3],"tree_param":{"num_deleted":"0","num_feature":"80","num_nodes":"63","size_leaf_vector":"1"}},{"base_weights":[1.875063E-3,-5.95073E-2,3.8883254E-1,1.1459265E-1,-1.6790728E-1,2.8808504E-1,9.14613E-1,3.7319366E-2,2.6605013E-1,-2.5391307E-1,-3.6844846E-2,1.4737214E-1,4.0581286E-1,7.236012E-1,1.0427432E0,2.9086995E-1,4.0326032E-4,4.0302163E-1,1.936866E-1,-1.8785241E-1,-3.90144E-1,-8.056662E-2,1.0031316E-1,2.1508351E-1,-8.8362604E-2,3.5579115E-1,5.850982E-1,4.2575014E-1,7.76706E-1,1.1844871E0,9.5305526E-1,1.1638597E-2,2.7862836E-2,1.2980555E-2,-9.531467E-4,2.7793253E-2,1.706169E-2,8.471413E-3,2.5224343E-2,-1.6463328E-3,-1.0631407E-2,-2.458604E-3,-2.095186E-2,6.1042453E-3,-5.4192576E-3,-1.0318238E-3,9.0620285E-3,6.5328213E-3,1.5939398E-2,-1.6488813E-2,4.1497718E-3,2.0447174E-2,5.5743824E-3,3.1417318E-2,1.7507134E-2,3.9556097E-2,1.3649817E-2,4.1207407E-2,2.2959813E-2,6.0848195E-2,4.0349938E-2,1.6314631E-2,4.9856108E-2],"categories":[],"categories_nodes":[],"categories_segments":[],"categories_sizes":[],"default_left":[0,0,0,0,0,0,0,0,0,0,0,0,0,0,0,0,0,0,0,0,0,0,0,0,0,0,0,0,0,0,0,0,0,0,0,0,0,0,0,0,0,0,0,0,0,0,0,0,0,0,0,0,0,0,0,0,0,0,0,0,0,0,0],"id":7,"left_children":[1,3,5,7,9,11,13,15,17,19,21,23,25,27,29,31,33,35,37,39,41,43,45,47,49,51,53,55,57,59,61,-1,-1,-1,-1,-1,-1,-1,-1,-1,-1,-1,-1,-1,-1,-1,-1,-1,-1,-1,-1,-1,-1,-1,-1,-1,-1,-1,-1,-1,-1,-1,-1],"loss_changes":[3.2576465E3,2.2339207E3,9.9353516E2,5.313889E2,8.2213306E2,2.607096E2,7.146533E1,2.8139688E2,1.5160583E2,3.9593115E2,1.7336392E2,1.14788284E2,7.604846E1,1.8029541E1,1.9557373E1,5.848285E1,1.3263232E2,4.9215454E1,7.5221924E1,1.1373572E2,1.4137817E2,1.2361893E2,6.846563E1,4.8582367E1,6.649327E1,8.683948E1,1.8032776E1,9.662941E0,1.4135803E1,5.4485474E0,2.947998E1,0E0,0E0,0E0,0E0,0E0,0E0,0E0,0E0,0E0,0E0,0E0,0E0,0E0,0E0,0E0,0E0,0E0,0E0,0E0,0E0,0E0,0E0,0E0,0E0,0E0,0E0,0E0,0E0,0E0,0E0,0E0,0E0],"parents":[2147483647,0,0,1,1,2,2,3,3,4,4,5,5,6,6,7,7,8,8,9,9,10,10,11,11,12,12,13,13,14,14,15,15,16,16,17,17,18,18,19,19,20,20,21,21,22,22,23,23,24,24,25,25,26,26,27,27,28,28,29,29,30,30],"right_children":[2,4,6,8,10,12,14,16,18,20,22,24,26,28,30,32,34,36,38,40,42,44,46,48,50,52,54,56,58,60,62,-1,-1,-1,-1,-1,-1,-1,-1,-1,-1,-1,-1,-1,-1,-1,-1,-1,-1,-1,-1,-1,-1,-1,-1,-1,-1,-1,-1,-1,-1,-1,-1],"split_conditions":[1.3089381E1,1.6693717E-1,2.1209319E0,1.0404669E0,7.5358576E-1,1.0850791E0,2.7480843E0,1.0853227E-1,1.2594993E-1,2.63374E-1,1.6061641E0,3.1564525E-1,7.241085E1,-6.067435E-2,-9.319737E0,9.0610504E-1,-4.880442E-1,1.023875E-1,1.7982669E-1,-4.43008E-1,-2.5158876E-1,-7.0451295E-1,-3.6144342E0,6.129627E-1,1.2565636E1,1.0073367E-2,1.3726726E0,1.0595286E-1,3.6326787E-1,1.1164285E-1,6.308701E0,1.1638597E-2,2.7862836E-2,1.2980555E-2,-9.531467E-4,2.7793253E-2,1.706169E-2,8.471413E-3,2.5224343E-2,-1.6463328E-3,-1.0631407E-2,-2.458604E-3,-2.095186E-2,6.1042453E-3,-5.4192576E-3,-1.0318238E-3,9.0620285E-3,6.5328213E-3,1.5939398E-2,-1.6488813E-2,4.1497718E-3,2.0447174E-2,5.5743824E-3,3.1417318E-2,1.7507134E-2,3.9556097E-2,1.3649817E-2,4.1207407E-2,2.2959813E-2,6.0848195E-2,4.0349938E-2,1.6314631E-2,4.9856108E-2],"split_indices":[34,13,14,10,10,14,14,13,13,13,10,13,1,51,60,58,17,13,7,17,72,17,34,10,62,51,15,74,13,75,61,0,0,0,0,0,0,0,0,0,0,0,0,0,0,0,0,0,0,0,0,0,0,0,0,0,0,0,0,0,0,0,0],"split_type":[0,0,0,0,0,0,0,0,0,0,0,0,0,0,0,0,0,0,0,0,0,0,0,0,0,0,0,0,0,0,0,0,0,0,0,0,0,0,0,0,0,0,0,0,0,0,0,0,0,0,0,0,0,0,0,0,0,0,0,0,0,0,0],"sum_hessian":[1.3713953E5,1.1836406E5,1.8775477E4,4.541647E4,7.294759E4,1.5759721E4,3.0157546E3,3.007703E4,1.533944E4,4.404119E4,2.8906398E4,7.1830317E3,8.576689E3,1.2176798E3,1.7980748E3,3.8190913E3,2.6257938E4,5.297034E3,1.0042406E4,2.9664707E4,1.4376485E4,2.1922611E4,6.983787E3,5.5819844E3,1.6010474E3,6.712593E3,1.8640966E3,1.8840639E2,1.0292734E3,6.8519556E2,1.1128793E3,3.139912E3,6.791793E2,1.8342643E3,2.4423674E4,1.5179713E3,3.779063E3,9.319691E3,7.22715E2,4.093344E3,2.5571363E4,1.1248391E3,1.3251646E4,2.6431472E3,1.9279465E4,2.7977444E3,4.186043E3,3.0821274E3,2.499857E3,6.6510254E2,9.359449E2,5.5103335E3,1.2022593E3,1.5696884E3,2.9440823E2,5.2116817E1,1.3628957E2,8.9132605E2,1.379474E2,6.256005E2,5.9595047E1,7.495477E1,1.0379246E3],"tree_param":{"num_deleted":"0","num_feature":"80","num_nodes":"63","size_leaf_vector":"1"}},{"base_weights":[1.2977183E-3,7.546554E-1,-3.0597528E-2,6.065972E-1,9.7822756E-1,-1.0043683E-1,3.2642993E-1,3.4442082E-1,6.599964E-1,4.8090404E-1,9.950381E-1,-1.4258502E-1,1.0192518E-1,3.603144E-1,-1.06146105E-1,4.844269E-1,9.1863275E-2,7.070683E-1,3.3433342E-1,6.950375E-1,-1.1312045E-3,1.0115055E0,4.674937E-1,-2.2685984E-1,-4.4738278E-2,6.389504E-2,3.9987737E-1,2.328686E-1,4.691938E-1,3.1460586E-1,-2.5351223E-1,5.8118342E-3,2.7946243E-2,-1.4157969E-2,1.5005271E-2,2.6042743E-2,3.8196217E-2,4.43143E-3,2.9980227E-2,4.7023103E-2,1.1435486E-2,5.993525E-2,4.781151E-2,-0E0,3.5094623E-2,-1.9444106E-2,-9.991199E-3,9.715285E-3,-3.3591788E-3,9.2294365E-3,-1.3890591E-3,6.0519357E-3,2.3591964E-2,9.857224E-3,2.8461412E-2,2.1047296E-2,3.6636587E-2,-5.466182E-4,2.7509889E-2,-1.4269884E-2,8.044304E-2],"categories":[],"categories_nodes":[],"categories_segments":[],"categories_sizes":[],"default_left":[0,0,0,0,0,0,0,0,0,0,0,0,0,0,0,0,0,0,0,0,0,0,0,0,0,0,0,0,0,0,0,0,0,0,0,0,0,0,0,0,0,0,0,0,0,0,0,0,0,0,0,0,0,0,0,0,0,0,0,0,0],"id":8,"left_children":[1,3,5,7,9,11,13,15,17,19,21,23,25,27,29,31,33,35,37,39,-1,41,43,45,47,49,51,53,55,57,59,-1,-1,-1,-1,-1,-1,-1,-1,-1,-1,-1,-1,-1,-1,-1,-1,-1,-1,-1,-1,-1,-1,-1,-1,-1,-1,-1,-1,-1,-1],"loss_changes":[3.2934329E3,1.8230591E2,3.2783774E3,4.6025146E1,1.680957E1,9.3802515E2,3.155005E2,1.9905739E1,4.1687744E1,8.693064E0,1.6889404E1,7.5038367E2,2.1451E2,2.7625806E2,9.704557E1,9.607269E0,1.6447287E1,2.428357E1,2.2802021E1,5.2724533E0,0E0,1.8057861E1,7.3388577E0,2.1374097E2,2.2597006E2,1.8613318E2,4.2605743E1,1.0990869E2,1.3555054E2,3.1377995E1,6.911641E1,0E0,0E0,0E0,0E0,0E0,0E0,0E0,0E0,0E0,0E0,0E0,0E0,0E0,0E0,0E0,0E0,0E0,0E0,0E0,0E0,0E0,0E0,0E0,0E0,0E0,0E0,0E0,0E0,0E0,0E0],"parents":[2147483647,0,0,1,1,2,2,3,3,4,4,5,5,6,6,7,7,8,8,9,9,10,10,11,11,12,12,13,13,14,14,15,15,16,16,17,17,18,18,19,19,21,21,22,22,23,23,24,24,25,25,26,26,27,27,28,28,29,29,30,30],"right_children":[2,4,6,8,10,12,14,16,18,20,22,24,26,28,30,32,34,36,38,40,-1,42,44,46,48,50,52,54,56,58,60,-1,-1,-1,-1,-1,-1,-1,-1,-1,-1,-1,-1,-1,-1,-1,-1,-1,-1,-1,-1,-1,-1,-1,-1,-1,-1,-1,-1,-1,-1],"split_conditions":[4E-2,2.1209319E0,7.733333E-1,9.4889826E-1,-9.0909094E-1,5.8761687E0,1.1165522E-1,1.0487089E0,1.3751096E-1,2.0326383E-1,1.8232462E-1,4.5333335E-1,7.813759E1,8.4E-1,-5.8778524E-1,6.6554236E-1,-2.7044144E-1,6.7468376E0,1.3480479E1,-4.826729E-2,-1.1312045E-3,-1.3605442E1,3.097549E0,-4.0749797E-1,8.2417585E-2,1.0666667E-1,8.660641E-1,2.109859E0,6.414252E1,1.1879018E-1,6.772446E1,5.8118342E-3,2.7946243E-2,-1.4157969E-2,1.5005271E-2,2.6042743E-2,3.8196217E-2,4.43143E-3,2.9980227E-2,4.7023103E-2,1.1435486E-2,5.993525E-2,4.781151E-2,-0E0,3.5094623E-2,-1.9444106E-2,-9.991199E-3,9.715285E-3,-3.3591788E-3,9.2294365E-3,-1.3890591E-3,6.0519357E-3,2.3591964E-2,9.857224E-3,2.8461412E-2,2.1047296E-2,3.6636587E-2,-5.466182E-4,2.7509889E-2,-1.4269884E-2,8.044304E-2],"split_indices":[18,14,18,14,19,34,76,65,76,69,76,18,1,18,35,14,77,62,62,5,0,60,14,27,28,18,14,31,79,76,79,0,0,0,0,0,0,0,0,0,0,0,0,0,0,0,0,0,0,0,0,0,0,0,0,0,0,0,0,0,0],"split_type":[0,0,0,0,0,0,0,0,0,0,0,0,0,0,0,0,0,0,0,0,0,0,0,0,0,0,0,0,0,0,0,0,0,0,0,0,0,0,0,0,0,0,0,0,0,0,0,0,0,0,0,0,0,0,0,0,0,0,0,0,0],"sum_hessian":[1.3704445E5,5.5652397E3,1.314792E5,3.3538503E3,2.2113894E3,1.0997038E5,2.1508826E4,5.7161804E2,2.7822324E3,7.521422E1,2.136175E3,9.101644E4,1.895395E4,1.9947771E4,1.5610553E3,3.6529803E2,2.0632E2,2.427482E3,3.5475043E2,5.2935055E1,2.2279165E1,2.0688145E3,6.736072E1,4.8895387E4,4.2121047E4,1.6812178E4,2.1417725E3,9.195314E3,1.0752457E4,4.0345874E2,1.1575966E3,6.3465538E1,3.018325E2,7.254799E1,1.3377202E2,5.7461926E2,1.8528627E3,1.8653099E2,1.6821944E2,3.2647335E1,2.0287718E1,4.601197E2,1.6086947E3,2.3694355E1,4.3666367E1,6.9857124E3,4.1909676E4,3.6122917E3,3.8508754E4,7.2589897E3,9.5531875E3,4.4188074E2,1.6998918E3,8.316675E3,8.7863983E2,9.094543E3,1.6579141E3,1.6930289E2,2.3415587E2,1.14004E3,1.755648E1],"tree_param":{"num_deleted":"0","num_feature":"80","num_nodes":"61","size_leaf_vector":"1"}},{"base_weights":[-1.3206108E-3,-9.772678E-2,2.1091406E-1,-1.5662363E-1,1.169641E-1,6.050072E-1,1.2582843E-1,-1.0316937E-1,-3.0351353E-1,2.5014815E-1,1.4227203E-2,4.6823093E-1,9.2584777E-1,-3.9320536E-2,3.444964E-1,-1.2629513E-1,2.1329889E-1,-3.6165076E-1,-8.279736E-2,2.0822315E-1,5.82929E-1,6.721575E-2,-2.1319744E-1,6.3201505E-1,2.641109E-1,9.627744E-1,6.5865415E-1,-7.455637E-2,2.2974846E-1,5.8099174E-1,2.9495227E-1,-9.0292125E-4,-8.007238E-3,3.5685569E-3,1.36922365E-2,-1.6475746E-2,-2.8808517E-2,1.8919923E-3,-1.0165753E-2,1.9183291E-2,8.000493E-3,3.858673E-2,2.300555E-2,1.348102E-3,1.7395392E-2,-3.5211317E-2,-8.037096E-3,2.3433529E-2,3.6928438E-2,5.076039E-3,2.1645352E-2,5.7758536E-2,4.5441188E-2,1.1814695E-2,4.013912E-2,2.390981E-3,-6.069105E-3,8.1072645E-3,2.8844897E-2,-3.0078196E-3,3.0138612E-2,2.3963863E-2,1.2101884E-2],"categories":[],"categories_nodes":[],"categories_segments":[],"categories_sizes":[],"default_left":[0,0,0,0,0,0,0,0,0,0,0,0,0,0,0,0,0,0,0,0,0,0,0,0,0,0,0,0,0,0,0,0,0,0,0,0,0,0,0,0,0,0,0,0,0,0,0,0,0,0,0,0,0,0,0,0,0,0,0,0,0,0,0],"id":9,"left_children":[1,3,5,7,9,11,13,15,17,19,21,23,25,27,29,31,33,35,37,39,41,43,45,47,49,51,53,55,57,59,61,-1,-1,-1,-1,-1,-1,-1,-1,-1,-1,-1,-1,-1,-1,-1,-1,-1,-1,-1,-1,-1,-1,-1,-1,-1,-1,-1,-1,-1,-1,-1,-1],"loss_changes":[2.8066045E3,1.192794E3,1.4361589E3,5.8096155E2,2.7770328E2,3.3222583E2,1.2728333E3,3.9725476E2,2.531073E2,1.2270093E2,1.3814862E2,1.7767603E2,2.0320923E1,1.9031375E2,1.7690747E2,1.8523828E2,3.154486E1,1.0690027E2,6.0018295E1,6.6053925E1,2.1553802E1,1.04916336E2,5.5122192E1,5.0202393E1,6.4995224E1,1.7510254E1,1.636721E1,1.0179818E2,5.3977066E1,3.697113E1,1.2175659E2,0E0,0E0,0E0,0E0,0E0,0E0,0E0,0E0,0E0,0E0,0E0,0E0,0E0,0E0,0E0,0E0,0E0,0E0,0E0,0E0,0E0,0E0,0E0,0E0,0E0,0E0,0E0,0E0,0E0,0E0,0E0,0E0],"parents":[2147483647,0,0,1,1,2,2,3,3,4,4,5,5,6,6,7,7,8,8,9,9,10,10,11,11,12,12,13,13,14,14,15,15,16,16,17,17,18,18,19,19,20,20,21,21,22,22,23,23,24,24,25,25,26,26,27,27,28,28,29,29,30,30],"right_children":[2,4,6,8,10,12,14,16,18,20,22,24,26,28,30,32,34,36,38,40,42,44,46,48,50,52,54,56,58,60,62,-1,-1,-1,-1,-1,-1,-1,-1,-1,-1,-1,-1,-1,-1,-1,-1,-1,-1,-1,-1,-1,-1,-1,-1,-1,-1,-1,-1,-1,-1,-1,-1],"split_conditions":[1.1054718E0,7.5E-1,2.5E-1,2.588998E-1,1.5016785E-1,2.1209319E0,7.5E-1,1.2025027E1,3.8804045E0,1E0,2.445564E-1,2.732962E-1,3.6326787E-1,1.5403289E0,1.1882388E-1,1.4892183E-1,8.408251E-1,7.974444E0,3.1564525E-1,1.0713344E-1,1.2070749E-1,1E0,8.375788E0,7.7051926E0,1.2407701E0,-1.3044223E1,1.14130745E1,1.5205532E-1,4.806642E-1,1.5762274E0,3.428002E1,-9.0292125E-4,-8.007238E-3,3.5685569E-3,1.36922365E-2,-1.6475746E-2,-2.8808517E-2,1.8919923E-3,-1.0165753E-2,1.9183291E-2,8.000493E-3,3.858673E-2,2.300555E-2,1.348102E-3,1.7395392E-2,-3.5211317E-2,-8.037096E-3,2.3433529E-2,3.6928438E-2,5.076039E-3,2.1645352E-2,5.7758536E-2,4.5441188E-2,1.1814695E-2,4.013912E-2,2.390981E-3,-6.069105E-3,8.1072645E-3,2.8844897E-2,-3.0078196E-3,3.0138612E-2,2.3963863E-2,1.2101884E-2],"split_indices":[11,37,37,13,13,14,37,34,34,37,13,13,13,14,13,13,14,30,13,13,13,37,62,62,14,60,62,13,46,61,1,0,0,0,0,0,0,0,0,0,0,0,0,0,0,0,0,0,0,0,0,0,0,0,0,0,0,0,0,0,0,0,0],"split_type":[0,0,0,0,0,0,0,0,0,0,0,0,0,0,0,0,0,0,0,0,0,0,0,0,0,0,0,0,0,0,0,0,0,0,0,0,0,0,0,0,0,0,0,0,0,0,0,0,0,0,0,0,0,0,0,0,0,0,0,0,0,0,0],"sum_hessian":[1.3716905E5,9.432568E4,4.2843367E4,7.402188E4,2.0303799E4,7.604293E3,3.5239074E4,5.4276934E4,1.974495E4,8.83836E3,1.14654375E4,5.3360015E3,2.2682915E3,2.0076018E4,1.5163056E4,5.058336E4,3.6935747E3,1.5625585E4,4.119364E3,7.8536777E3,9.846825E2,9.301786E3,2.1636516E3,2.9568274E3,2.379174E3,1.9866547E3,2.816369E2,1.7754312E4,2.3217058E3,2.6208882E3,1.2542167E4,1.2054861E4,3.85285E4,1.1082651E3,2.5853096E3,1.3596223E4,2.0293624E3,2.0572732E3,2.0620903E3,1.6877743E3,6.165904E3,3.8231686E2,6.0236566E2,8.1386113E3,1.1631748E3,2.0551083E2,1.9581407E3,1.1734478E3,1.7833796E3,1.2150052E3,1.1641688E3,4.241127E2,1.562542E3,7.388091E1,2.0775598E2,4.9104497E3,1.2843862E4,1.9469376E3,3.7476816E2,8.523905E1,2.5356492E3,2.7917393E3,9.750428E3],"tree_param":{"num_deleted":"0","num_feature":"80","num_nodes":"63","size_leaf_vector":"1"}},{"base_weights":[2.308478E-4,6.979906E-1,-2.9029673E-2,5.479036E-1,8.878962E-1,-9.222908E-2,2.9471955E-1,6.2581193E-1,3.56729E-1,9.488519E-1,5.237336E-1,-1.6867794E-1,1.1426236E-2,4.5629197E-1,1.9178455E-1,4.7684163E-1,7.4193275E-1,1.4493E-1,5.926102E-1,9.84317E-1,5.708271E-1,6.836552E-1,1.9029133E-1,-1.312264E-1,-3.6046526E-1,-2.0301932E-2,2.921434E-1,3.2223046E-1,5.7165766E-1,9.1030374E-2,3.4311637E-1,2.1468751E-2,4.7767803E-2,2.8627655E-2,4.1444637E-2,1.2363795E-2,-1.2387979E-2,3.6647454E-2,1.3583848E-2,4.5638703E-2,5.6267984E-2,3.3855867E-2,6.0809306E-3,-6.1752037E-3,3.7402783E-2,-1.5525581E-2,2.0445889E-2,5.0213635E-3,-8.347836E-3,-2.2049988E-2,-1.0018871E-2,-6.378405E-3,2.7794093E-3,1.21634705E-2,3.0380502E-2,2.3043042E-2,1.0781519E-2,2.9692668E-2,2.1570704E-3,7.1642846E-3,-1.01216E-2,1.5234182E-2,3.251235E-2],"categories":[],"categories_nodes":[],"categories_segments":[],"categories_sizes":[],"default_left":[0,0,0,0,0,0,0,0,0,0,0,0,0,0,0,0,0,0,0,0,0,0,0,0,0,0,0,0,0,0,0,0,0,0,0,0,0,0,0,0,0,0,0,0,0,0,0,0,0,0,0,0,0,0,0,0,0,0,0,0,0,0,0],"id":10,"left_children":[1,3,5,7,9,11,13,15,17,19,21,23,25,27,29,31,33,35,37,39,41,43,45,47,49,51,53,55,57,59,61,-1,-1,-1,-1,-1,-1,-1,-1,-1,-1,-1,-1,-1,-1,-1,-1,-1,-1,-1,-1,-1,-1,-1,-1,-1,-1,-1,-1,-1,-1,-1,-1],"loss_changes":[2.794699E3,1.5533276E2,2.6876108E3,4.4993713E1,5.214978E1,8.710087E2,3.5630176E2,3.6506042E1,4.439254E1,2.5925781E1,1.8162476E1,4.5401538E2,4.156483E2,1.2825537E2,1.996123E2,2.0411469E1,1.636737E1,1.9319164E1,1.8184494E1,1.603418E1,8.221035E0,1.2829567E1,1.3269602E1,4.3815125E2,1.3269763E2,3.4124567E2,7.234549E1,5.6602478E1,5.2194336E1,1.207892E2,6.094452E1,0E0,0E0,0E0,0E0,0E0,0E0,0E0,0E0,0E0,0E0,0E0,0E0,0E0,0E0,0E0,0E0,0E0,0E0,0E0,0E0,0E0,0E0,0E0,0E0,0E0,0E0,0E0,0E0,0E0,0E0,0E0,0E0],"parents":[2147483647,0,0,1,1,2,2,3,3,4,4,5,5,6,6,7,7,8,8,9,9,10,10,11,11,12,12,13,13,14,14,15,15,16,16,17,17,18,18,19,19,20,20,21,21,22,22,23,23,24,24,25,25,26,26,27,27,28,28,29,29,30,30],"right_children":[2,4,6,8,10,12,14,16,18,20,22,24,26,28,30,32,34,36,38,40,42,44,46,48,50,52,54,56,58,60,62,-1,-1,-1,-1,-1,-1,-1,-1,-1,-1,-1,-1,-1,-1,-1,-1,-1,-1,-1,-1,-1,-1,-1,-1,-1,-1,-1,-1,-1,-1,-1,-1],"split_conditions":[4E-2,1.2786283E0,7.733333E-1,2.6491806E-1,3.894049E-1,7.384673E-1,1.4378686E-1,6.262114E-1,1.282392E1,1.3751096E-1,-8.427454E0,2.973624E-1,1.635949E1,8.4E-1,1.141747E0,3.2215753E0,7.118787E0,3.580201E-1,3.894049E-1,1.1952191E1,1.5350553E-1,-5.0097594E0,-1.0350394E0,1.3333334E-1,-8.629536E-1,4.5333335E-1,1.1763453E0,1.0345516E0,6.898624E1,1.0702739E-1,9.066667E-1,2.1468751E-2,4.7767803E-2,2.8627655E-2,4.1444637E-2,1.2363795E-2,-1.2387979E-2,3.6647454E-2,1.3583848E-2,4.5638703E-2,5.6267984E-2,3.3855867E-2,6.0809306E-3,-6.1752037E-3,3.7402783E-2,-1.5525581E-2,2.0445889E-2,5.0213635E-3,-8.347836E-3,-2.2049988E-2,-1.0018871E-2,-6.378405E-3,2.7794093E-3,1.21634705E-2,3.0380502E-2,2.3043042E-2,1.0781519E-2,2.9692668E-2,2.1570704E-3,7.1642846E-3,-1.01216E-2,1.5234182E-2,3.251235E-2],"split_indices":[18,10,18,13,13,10,13,10,62,76,60,13,34,18,10,78,62,13,13,62,39,27,24,18,34,18,16,78,73,76,18,0,0,0,0,0,0,0,0,0,0,0,0,0,0,0,0,0,0,0,0,0,0,0,0,0,0,0,0,0,0,0,0],"split_type":[0,0,0,0,0,0,0,0,0,0,0,0,0,0,0,0,0,0,0,0,0,0,0,0,0,0,0,0,0,0,0,0,0,0,0,0,0,0,0,0,0,0,0,0,0,0,0,0,0,0,0,0,0,0,0,0,0,0,0,0,0,0,0],"sum_hessian":[1.3686184E5,5.5071523E3,1.313547E5,3.0818752E3,2.425277E3,1.09903336E5,2.1451365E4,2.1844832E3,8.9739215E2,2.0736013E3,3.5167593E2,6.3254695E4,4.6648637E4,8.343394E3,1.3107972E4,9.632535E2,1.2212297E3,4.7565106E2,4.217411E2,1.8916063E3,1.8199492E2,2.352487E2,1.1642722E2,5.292556E4,1.0329137E4,4.1911633E4,4.7370044E3,3.86452E3,4.478873E3,7.872861E3,5.2351104E3,8.807284E2,8.252505E1,4.2138287E2,7.9984686E2,3.789103E2,9.674075E1,2.9055884E2,1.3118225E2,1.2672766E3,6.243297E2,1.4545102E2,3.65439E1,1.6673458E1,2.1857524E2,3.443048E1,8.199674E1,7.0700483E3,4.585551E4,6.8676396E3,3.461497E3,1.7368092E4,2.454354E4,4.1060044E3,6.31E2,1.6749535E3,2.1895667E3,4.297213E3,1.8166039E2,6.685191E3,1.18767E3,4.6578613E3,5.7724915E2],"tree_param":{"num_deleted":"0","num_feature":"80","num_nodes":"63","size_leaf_vector":"1"}},{"base_weights":[-2.5419877E-3,5.744064E-1,-3.5359006E-2,7.8009087E-1,3.828562E-1,-1.06922716E-1,2.3115577E-1,6.212161E-1,9.071645E-1,1.7858365E-1,4.5480433E-1,-1.5286915E-1,2.9333018E-2,1.2631583E-1,3.7557596E-1,1.5042594E-1,6.538616E-1,9.477198E-1,3.9319888E-1,2.2423157E-1,-4.286893E-1,5.118414E-1,1.3696261E-1,-1.04712695E-1,-2.6403838E-1,-4.2707827E-3,2.6404938E-1,2.6889768E-1,3.4520444E-2,5.125878E-1,2.4288076E-1,1.9777862E-2,-1.9009385E-2,2.8300941E-2,4.152453E-2,4.847079E-2,2.748999E-2,1.5848527E-3,3.0359825E-2,1.3211705E-2,-7.015863E-3,-9.07586E-3,-4.5898184E-2,2.224925E-2,3.480856E-2,4.2664E-2,2.7783404E-3,5.614338E-3,-6.6102827E-3,-1.8305633E-2,-8.495151E-3,1.3886605E-2,-1.2543506E-3,1.1309158E-2,2.9426962E-2,1.6271988E-2,4.17315E-3,-1.504464E-3,1.2796926E-2,2.786271E-2,9.746661E-3,3.1589866E-2,9.99615E-3],"categories":[],"categories_nodes":[],"categories_segments":[],"categories_sizes":[],"default_left":[0,0,0,0,0,0,0,0,0,0,0,0,0,0,0,0,0,0,0,0,0,0,0,0,0,0,0,0,0,0,0,0,0,0,0,0,0,0,0,0,0,0,0,0,0,0,0,0,0,0,0,0,0,0,0,0,0,0,0,0,0,0,0],"id":11,"left_children":[1,3,5,7,9,11,13,15,17,19,21,23,25,27,29,31,33,35,37,39,41,43,45,47,49,51,53,55,57,59,61,-1,-1,-1,-1,-1,-1,-1,-1,-1,-1,-1,-1,-1,-1,-1,-1,-1,-1,-1,-1,-1,-1,-1,-1,-1,-1,-1,-1,-1,-1,-1,-1],"loss_changes":[2.5910076E3,2.8898926E2,2.4698247E3,6.9743164E1,5.56438E1,6.391824E2,4.1467603E2,2.3759766E1,3.954956E1,2.7804152E1,5.0674744E1,4.0848218E2,2.0317241E2,2.0775806E2,2.0892432E2,1.4143273E1,2.1333069E1,1.3880493E1,1.1095688E1,1.3726524E1,7.560419E0,2.825885E1,2.4711964E1,3.1788812E2,2.212959E2,1.3207744E2,3.8962738E1,6.4953094E1,1.3844902E2,7.981384E1,9.724881E1,0E0,0E0,0E0,0E0,0E0,0E0,0E0,0E0,0E0,0E0,0E0,0E0,0E0,0E0,0E0,0E0,0E0,0E0,0E0,0E0,0E0,0E0,0E0,0E0,0E0,0E0,0E0,0E0,0E0,0E0,0E0,0E0],"parents":[2147483647,0,0,1,1,2,2,3,3,4,4,5,5,6,6,7,7,8,8,9,9,10,10,11,11,12,12,13,13,14,14,15,15,16,16,17,17,18,18,19,19,20,20,21,21,22,22,23,23,24,24,25,25,26,26,27,27,28,28,29,29,30,30],"right_children":[2,4,6,8,10,12,14,16,18,20,22,24,26,28,30,32,34,36,38,40,42,44,46,48,50,52,54,56,58,60,62,-1,-1,-1,-1,-1,-1,-1,-1,-1,-1,-1,-1,-1,-1,-1,-1,-1,-1,-1,-1,-1,-1,-1,-1,-1,-1,-1,-1,-1,-1,-1,-1],"split_conditions":[5.3333335E-2,2.6666667E-2,7.3333335E-1,1.2786283E0,4.6731946E-1,1.0080159E0,8.4E-1,8.9277214E-1,4.5596418E-1,3.580201E-1,3.8200682E-1,2.4576679E-1,7.5928925E1,1.4378686E-1,1.5576857E-1,2.3666851E-1,1.078573E1,1.0942868E0,1.3949069E1,7.4848E-1,5.8778524E-1,1.2743794E1,-3.3903577E0,1.4666666E-1,-6.0565076E0,2.0292107E1,3.353049E0,2.3697276E0,1.3781382E0,3.1371403E-2,9.2307694E-2,1.9777862E-2,-1.9009385E-2,2.8300941E-2,4.152453E-2,4.847079E-2,2.748999E-2,1.5848527E-3,3.0359825E-2,1.3211705E-2,-7.015863E-3,-9.07586E-3,-4.5898184E-2,2.224925E-2,3.480856E-2,4.2664E-2,2.7783404E-3,5.614338E-3,-6.6102827E-3,-1.8305633E-2,-8.495151E-3,1.3886605E-2,-1.2543506E-3,1.1309158E-2,2.9426962E-2,1.6271988E-2,4.17315E-3,-1.504464E-3,1.2796926E-2,2.786271E-2,9.746661E-3,3.1589866E-2,9.99615E-3],"split_indices":[18,18,18,10,10,10,18,14,13,13,13,13,1,13,13,69,62,27,62,15,35,62,78,18,34,1,10,78,10,75,28,0,0,0,0,0,0,0,0,0,0,0,0,0,0,0,0,0,0,0,0,0,0,0,0,0,0,0,0,0,0,0,0],"split_type":[0,0,0,0,0,0,0,0,0,0,0,0,0,0,0,0,0,0,0,0,0,0,0,0,0,0,0,0,0,0,0,0,0,0,0,0,0,0,0,0,0,0,0,0,0,0,0,0,0,0,0,0,0,0,0,0,0,0,0,0,0,0,0],"sum_hessian":[1.3685625E5,7.362882E3,1.2949336E5,3.5462268E3,3.8166553E3,1.02084914E5,2.7408447E4,1.5829031E3,1.9633237E3,9.977613E2,2.8188938E3,7.634444E4,2.5740479E4,1.5884509E4,1.1523938E4,1.04364395E2,1.4785387E3,1.8172686E3,1.4605516E2,9.299435E2,6.781777E1,2.3876357E3,4.3125812E2,5.3275047E4,2.3069389E4,2.2516654E4,3.2238242E3,6.2176274E3,9.666881E3,5.6650786E3,5.85886E3,7.237854E1,3.1985857E1,9.949573E2,4.8358142E2,1.7193925E3,9.787615E1,5.6032803E1,9.002236E1,8.3972144E2,9.02221E1,4.7556854E1,2.0260914E1,1.7591368E3,6.284989E2,4.1442005E1,3.8981613E2,5.9879946E3,4.7287055E4,1.1062663E4,1.2006725E4,1.5444797E3,2.0972174E4,2.8913538E3,3.3247043E2,4.7615474E3,1.4560803E3,7.482856E3,2.184025E3,4.963993E3,7.0108545E2,5.7888556E2,5.2799746E3],"tree_param":{"num_deleted":"0","num_feature":"80","num_nodes":"63","size_leaf_vector":"1"}},{"base_weights":[2.2658422E-3,6.4260536E-1,-2.3982508E-2,8.689402E-1,5.363753E-1,-9.338692E-2,2.1607794E-1,6.2525344E-1,9.323384E-1,4.0960702E-1,6.453528E-1,-1.2065831E-1,1.7294963E-1,1.2209062E-1,3.613734E-1,-0E0,6.6794276E-1,9.6512425E-1,4.9130258E-1,5.476334E-1,2.31665E-1,7.1076316E-1,3.567204E-1,-1.8625528E-1,-4.237678E-2,1.1996416E-1,3.7703028E-1,9.29681E-2,4.3495238E-1,3.399599E-1,9.450162E-1,2.47727E-2,4.1301604E-2,3.5593156E-2,5.05698E-2,-0E0,3.159007E-2,2.919735E-2,4.1160258E-3,1.4817488E-2,-4.087671E-3,3.7809726E-2,2.011101E-2,2.2033017E-2,-1.5466108E-2,-8.678068E-3,-2.398813E-2,-5.788067E-3,1.1265924E-3,1.8263405E-2,3.826263E-3,2.1002345E-2,-4.9672625E-4,1.5900798E-2,3.289353E-3,1.6718822E-2,3.1797558E-2,1.897878E-2,-1.6020853E-3,3.4763645E-2,6.563799E-2],"categories":[],"categories_nodes":[],"categories_segments":[],"categories_sizes":[],"default_left":[0,0,0,0,0,0,0,0,0,0,0,0,0,0,0,0,0,0,0,0,0,0,0,0,0,0,0,0,0,0,0,0,0,0,0,0,0,0,0,0,0,0,0,0,0,0,0,0,0,0,0,0,0,0,0,0,0,0,0,0,0],"id":12,"left_children":[1,3,5,7,9,11,13,15,17,19,21,23,25,27,29,-1,31,33,35,37,39,41,43,45,47,49,51,53,55,57,59,-1,-1,-1,-1,-1,-1,-1,-1,-1,-1,-1,-1,-1,-1,-1,-1,-1,-1,-1,-1,-1,-1,-1,-1,-1,-1,-1,-1,-1,-1],"loss_changes":[2.298372E3,1.2783057E2,2.188286E3,2.4554932E1,4.9663086E1,7.4006506E2,4.019076E2,9.491989E0,1.7922852E1,4.1226288E1,3.612567E1,4.7448572E2,1.0198569E2,1.6266263E2,1.4327124E2,0E0,7.746338E0,1.2446777E1,6.7650547E0,1.5741333E1,1.535556E1,2.1261353E1,2.0975666E1,1.868518E2,2.0080234E2,7.9825325E1,3.2632477E1,9.9909E1,2.9847961E1,1.6468042E2,3.45867E1,0E0,0E0,0E0,0E0,0E0,0E0,0E0,0E0,0E0,0E0,0E0,0E0,0E0,0E0,0E0,0E0,0E0,0E0,0E0,0E0,0E0,0E0,0E0,0E0,0E0,0E0,0E0,0E0,0E0,0E0],"parents":[2147483647,0,0,1,1,2,2,3,3,4,4,5,5,6,6,7,7,8,8,9,9,10,10,11,11,12,12,13,13,14,14,16,16,17,17,18,18,19,19,20,20,21,21,22,22,23,23,24,24,25,25,26,26,27,27,28,28,29,29,30,30],"right_children":[2,4,6,8,10,12,14,16,18,20,22,24,26,28,30,-1,32,34,36,38,40,42,44,46,48,50,52,54,56,58,60,-1,-1,-1,-1,-1,-1,-1,-1,-1,-1,-1,-1,-1,-1,-1,-1,-1,-1,-1,-1,-1,-1,-1,-1,-1,-1,-1,-1,-1,-1],"split_conditions":[4E-2,1.3333334E-2,7.2E-1,3E-1,8.2367617E-1,1.5590121E1,8.4E-1,-5.882353E-1,1.06669396E-1,4.355654E-1,8.737099E1,6.7631894E-1,8.9947844E-1,5.245303E-1,2.180017E1,-0E0,1.7770378E-2,-5.839942E-1,-5.3846157E-1,5.5944055E-1,1.3751096E-1,1.3751096E-1,1.8232462E-1,3.2855953E1,4.5333335E-1,-9.8114884E-1,7.862581E1,3.0363468E1,9.1399807E-1,1.0702739E-1,1.6576097E0,2.47727E-2,4.1301604E-2,3.5593156E-2,5.05698E-2,-0E0,3.159007E-2,2.919735E-2,4.1160258E-3,1.4817488E-2,-4.087671E-3,3.7809726E-2,2.011101E-2,2.2033017E-2,-1.5466108E-2,-8.678068E-3,-2.398813E-2,-5.788067E-3,1.1265924E-3,1.8263405E-2,3.826263E-3,2.1002345E-2,-4.9672625E-4,1.5900798E-2,3.289353E-3,1.6718822E-2,3.1797558E-2,1.897878E-2,-1.6020853E-3,3.4763645E-2,6.563799E-2],"split_indices":[18,18,18,64,10,34,18,27,75,15,34,10,16,50,67,0,77,43,19,27,76,76,76,9,18,16,73,1,50,76,78,0,0,0,0,0,0,0,0,0,0,0,0,0,0,0,0,0,0,0,0,0,0,0,0,0,0,0,0,0,0],"split_type":[0,0,0,0,0,0,0,0,0,0,0,0,0,0,0,0,0,0,0,0,0,0,0,0,0,0,0,0,0,0,0,0,0,0,0,0,0,0,0,0,0,0,0,0,0,0,0,0,0,0,0,0,0,0,0,0,0,0,0,0,0],"sum_hessian":[1.3672169E5,5.382615E3,1.3133906E5,1.7132601E3,3.6693552E3,1.01885914E5,2.9453156E4,3.5981876E2,1.3534413E3,1.7027426E3,1.9666127E3,9.242506E4,9.460846E3,1.7888645E4,1.1564512E4,2.349547E1,3.363233E2,1.2565232E3,9.691817E1,9.550008E2,7.4774176E2,1.5994786E3,3.6713406E2,5.0281727E4,4.214334E4,7.5152793E3,1.9455665E3,1.6369129E4,1.5195168E3,1.1159112E4,4.0539935E2,1.6630324E2,1.7002005E2,2.0083844E2,1.0556847E3,2.215508E1,7.476309E1,8.843969E2,7.060388E1,6.2123303E2,1.2650874E2,1.3902493E3,2.0922928E2,3.2731122E2,3.982285E1,4.8201926E4,2.079802E3,1.9783076E4,2.2360262E4,1.1266488E3,6.3886304E3,1.7519352E3,1.9363133E2,1.759704E3,1.4609425E4,1.0179626E3,5.015543E2,1.0086293E4,1.0728193E3,2.4568788E2,1.5971147E2],"tree_param":{"num_deleted":"0","num_feature":"80","num_nodes":"61","size_leaf_vector":"1"}},{"base_weights":[1.42182E-3,6.138735E-1,-2.3566449E-2,4.7560337E-1,7.946839E-1,-7.876051E-2,2.6068008E-1,5.116394E-1,4.881302E-2,8.879015E-1,5.4124635E-1,-1.4765136E-1,1.313661E-2,2.2653358E-1,6.0838616E-1,3.183809E-1,5.7946473E-1,5.7851654E-1,-7.344863E-2,9.282657E-1,5.3353745E-1,6.1931634E-1,2.109838E-1,-1.0074162E-2,-1.8279059E-1,-1.6184313E-2,2.5232422E-1,4.617308E-1,1.8821752E-1,6.510419E-1,1.60089E-1,1.9937366E-2,-0E0,1.301863E-2,3.039836E-2,6.5305973E-3,4.5721646E-2,-2.090145E-2,4.526631E-3,3.9218605E-2,4.98964E-2,1.6859908E-2,3.877885E-2,3.7435975E-2,2.2743145E-2,-7.7935173E-3,1.9437302E-2,3.7915667E-3,-7.729653E-3,-1.1663686E-2,-5.0228196E-3,-3.3813657E-3,5.1200604E-3,3.3252116E-2,1.129842E-2,3.4182955E-2,2.023292E-2,7.3819566E-3,2.1555971E-2,5.203959E-2,3.1054968E-2,-6.932814E-5,2.9353857E-2],"categories":[],"categories_nodes":[],"categories_segments":[],"categories_sizes":[],"default_left":[0,0,0,0,0,0,0,0,0,0,0,0,0,0,0,0,0,0,0,0,0,0,0,0,0,0,0,0,0,0,0,0,0,0,0,0,0,0,0,0,0,0,0,0,0,0,0,0,0,0,0,0,0,0,0,0,0,0,0,0,0,0,0],"id":13,"left_children":[1,3,5,7,9,11,13,15,17,19,21,23,25,27,29,31,33,35,37,39,41,43,45,47,49,51,53,55,57,59,61,-1,-1,-1,-1,-1,-1,-1,-1,-1,-1,-1,-1,-1,-1,-1,-1,-1,-1,-1,-1,-1,-1,-1,-1,-1,-1,-1,-1,-1,-1,-1,-1],"loss_changes":[2.0882083E3,1.323352E2,2.0564197E3,4.6386963E1,5.2976807E1,6.950018E2,2.5235413E2,3.588086E1,1.5867433E1,2.2404419E1,1.5532013E1,3.032107E2,3.2995657E2,1.7443463E2,3.5783142E1,1.8888718E1,1.8058289E1,6.153845E0,1.1305164E1,1.2682129E1,7.4008255E0,9.489166E0,8.353243E0,1.5859727E2,2.0749854E2,2.5556828E2,5.513852E1,3.3305054E1,1.6416248E2,1.8139404E1,1.194965E1,0E0,0E0,0E0,0E0,0E0,0E0,0E0,0E0,0E0,0E0,0E0,0E0,0E0,0E0,0E0,0E0,0E0,0E0,0E0,0E0,0E0,0E0,0E0,0E0,0E0,0E0,0E0,0E0,0E0,0E0,0E0,0E0],"parents":[2147483647,0,0,1,1,2,2,3,3,4,4,5,5,6,6,7,7,8,8,9,9,10,10,11,11,12,12,13,13,14,14,15,15,16,16,17,17,18,18,19,19,20,20,21,21,22,22,23,23,24,24,25,25,26,26,27,27,28,28,29,29,30,30],"right_children":[2,4,6,8,10,12,14,16,18,20,22,24,26,28,30,32,34,36,38,40,42,44,46,48,50,52,54,56,58,60,62,-1,-1,-1,-1,-1,-1,-1,-1,-1,-1,-1,-1,-1,-1,-1,-1,-1,-1,-1,-1,-1,-1,-1,-1,-1,-1,-1,-1,-1,-1,-1,-1],"split_conditions":[4E-2,1.2918165E0,7.733333E-1,9.4896966E-1,7.4848E-1,7.334218E-1,9.066667E-1,4.6731946E-1,-2.3427622E0,1.1164285E-1,1.6786469E0,1.6E-1,1.4900181E1,3.129537E1,1.4680503E-1,-2.639874E0,-7.2727275E-1,-2.687343E-1,-5.439308E-3,-3.1428573E-1,1.04914665E1,-8.350785E0,2.155638E0,6.8314916E-1,4.9333334E-1,6.1333334E-1,-1.2581332E0,1.8842476E1,6.840279E1,6.9777616E-3,3.5250568E-1,1.9937366E-2,-0E0,1.301863E-2,3.039836E-2,6.5305973E-3,4.5721646E-2,-2.090145E-2,4.526631E-3,3.9218605E-2,4.98964E-2,1.6859908E-2,3.877885E-2,3.7435975E-2,2.2743145E-2,-7.7935173E-3,1.9437302E-2,3.7915667E-3,-7.729653E-3,-1.1663686E-2,-5.0228196E-3,-3.3813657E-3,5.1200604E-3,3.3252116E-2,1.129842E-2,3.4182955E-2,2.023292E-2,7.3819566E-3,2.1555971E-2,5.203959E-2,3.1054968E-2,-6.932814E-5,2.9353857E-2],"split_indices":[18,10,18,15,15,10,18,10,78,75,15,18,34,1,72,60,24,24,50,19,62,60,10,15,18,18,16,1,1,74,17,0,0,0,0,0,0,0,0,0,0,0,0,0,0,0,0,0,0,0,0,0,0,0,0,0,0,0,0,0,0,0,0],"split_type":[0,0,0,0,0,0,0,0,0,0,0,0,0,0,0,0,0,0,0,0,0,0,0,0,0,0,0,0,0,0,0,0,0,0,0,0,0,0,0,0,0,0,0,0,0,0,0,0,0,0,0,0,0,0,0,0,0,0,0,0,0,0,0],"sum_hessian":[1.3642439E5,5.3469067E3,1.3107748E5,3.0355637E3,2.311343E3,1.0976658E5,2.1310912E4,2.7977654E3,2.3779828E2,1.6847064E3,6.266365E2,6.2738656E4,4.702792E4,1.9409537E4,1.9013743E3,7.3168744E2,2.0660781E3,4.3961094E1,1.9383719E2,1.508257E3,1.7644958E2,5.0418823E2,1.2244823E2,1.2767624E4,4.997103E4,4.189231E4,5.135614E3,2.7141282E3,1.6695408E4,1.7343317E3,1.670426E2,5.845427E2,1.4714471E2,1.7251743E2,1.8935607E3,2.066838E1,2.3292713E1,6.2485184E1,1.31352E2,5.023358E2,1.0059211E3,1.0120527E2,7.5244316E1,2.7648505E2,2.277032E2,3.912929E1,8.331894E1,8.006098E3,4.761526E3,3.0971283E4,1.899975E4,2.9221115E4,1.2671192E4,3.042222E2,4.8313916E3,5.4891876E2,2.1652095E3,1.4310087E4,2.3853215E3,1.177258E2,1.6166058E3,1.2180261E2,4.5239994E1],"tree_param":{"num_deleted":"0","num_feature":"80","num_nodes":"63","size_leaf_vector":"1"}},{"base_weights":[-1.1863449E-4,5.80727E-1,-2.3691745E-2,4.552131E-1,7.771465E-1,-9.6894346E-2,1.605311E-1,5.107365E-1,1.93359E-1,8.1322366E-1,4.8426008E-1,-1.2118423E-1,1.642135E-1,8.45913E-2,3.314643E-1,2.8925654E-1,5.8253556E-1,-1.7570384E-1,3.6446738E-1,7.585036E-1,1.0551584E0,6.0929066E-1,1.942458E-1,-9.820061E-3,-1.7133883E-1,1.5185569E-1,9.585815E-1,6.267027E-2,4.5515457E-1,4.8872757E-1,2.3300469E-1,1.9021913E-2,-3.482403E-3,2.1902293E-2,3.320878E-2,-2.6092986E-2,1.4406316E-3,2.3788674E-2,-2.2488246E-3,3.279405E-2,4.3191135E-2,5.5348303E-2,3.655235E-2,3.3636134E-2,2.062995E-3,8.9443034E-5,3.601231E-2,7.443399E-3,-1.9165013E-3,-7.50271E-3,-1.7586341E-2,1.0684129E-2,-6.2136666E-4,1.4912771E-2,5.3469032E-2,1.8306127E-2,1.6284172E-3,6.189072E-3,2.5257131E-2,2.172046E-2,3.8419466E-2,9.1921585E-3,2.3924198E-2],"categories":[],"categories_nodes":[],"categories_segments":[],"categories_sizes":[],"default_left":[0,0,0,0,0,0,0,0,0,0,0,0,0,0,0,0,0,0,0,0,0,0,0,0,0,0,0,0,0,0,0,0,0,0,0,0,0,0,0,0,0,0,0,0,0,0,0,0,0,0,0,0,0,0,0,0,0,0,0,0,0,0,0],"id":14,"left_children":[1,3,5,7,9,11,13,15,17,19,21,23,25,27,29,31,33,35,37,39,41,43,45,47,49,51,53,55,57,59,61,-1,-1,-1,-1,-1,-1,-1,-1,-1,-1,-1,-1,-1,-1,-1,-1,-1,-1,-1,-1,-1,-1,-1,-1,-1,-1,-1,-1,-1,-1,-1,-1],"loss_changes":[1.8708552E3,1.3005237E2,1.7710165E3,4.6813965E1,2.0470337E1,5.960986E2,4.8447687E2,4.1923767E1,3.65151E1,2.1870117E1,7.840473E0,4.801919E2,7.76678E1,2.0975656E2,1.7723645E2,2.190541E1,2.2742065E1,1.3194637E1,1.8224915E1,1.4433105E1,3.0516663E0,5.3975945E0,7.186527E0,1.2078121E2,2.272666E2,8.012921E1,7.5692444E0,2.2284338E2,2.3460022E1,6.584363E1,8.4795166E1,0E0,0E0,0E0,0E0,0E0,0E0,0E0,0E0,0E0,0E0,0E0,0E0,0E0,0E0,0E0,0E0,0E0,0E0,0E0,0E0,0E0,0E0,0E0,0E0,0E0,0E0,0E0,0E0,0E0,0E0,0E0,0E0],"parents":[2147483647,0,0,1,1,2,2,3,3,4,4,5,5,6,6,7,7,8,8,9,9,10,10,11,11,12,12,13,13,14,14,15,15,16,16,17,17,18,18,19,19,20,20,21,21,22,22,23,23,24,24,25,25,26,26,27,27,28,28,29,29,30,30],"right_children":[2,4,6,8,10,12,14,16,18,20,22,24,26,28,30,32,34,36,38,40,42,44,46,48,50,52,54,56,58,60,62,-1,-1,-1,-1,-1,-1,-1,-1,-1,-1,-1,-1,-1,-1,-1,-1,-1,-1,-1,-1,-1,-1,-1,-1,-1,-1,-1,-1,-1,-1,-1,-1],"split_conditions":[4E-2,2.1209319E0,6.666667E-1,3.3575746E-1,8.737099E1,1.894504E1,8.4E-1,6.5954924E0,1.1549025E1,6E-1,6.2376237E-1,1.6880168E-1,2.7480843E0,7.5928925E1,1.4378686E-1,1.06669396E-1,-1.7309867E-1,1.1525428E0,5.2750814E-1,4.590804E-2,1.4457557E-1,6.646152E1,3.3333334E-1,3.3251656E1,3.580201E-1,3.18692E-1,2.354719E1,3.4081467E1,6.470279E1,9.066667E-1,6.483564E1,1.9021913E-2,-3.482403E-3,2.1902293E-2,3.320878E-2,-2.6092986E-2,1.4406316E-3,2.3788674E-2,-2.2488246E-3,3.279405E-2,4.3191135E-2,5.5348303E-2,3.655235E-2,3.3636134E-2,2.062995E-3,8.9443034E-5,3.601231E-2,7.443399E-3,-1.9165013E-3,-7.50271E-3,-1.7586341E-2,1.0684129E-2,-6.2136666E-4,1.4912771E-2,5.3469032E-2,1.8306127E-2,1.6284172E-3,6.189072E-3,2.5257131E-2,2.172046E-2,3.8419466E-2,9.1921585E-3,2.3924198E-2],"split_indices":[18,14,18,13,34,34,18,62,62,64,57,13,14,1,13,75,77,14,13,77,76,66,20,1,13,13,34,0,0,18,79,0,0,0,0,0,0,0,0,0,0,0,0,0,0,0,0,0,0,0,0,0,0,0,0,0,0,0,0,0,0,0,0],"split_type":[0,0,0,0,0,0,0,0,0,0,0,0,0,0,0,0,0,0,0,0,0,0,0,0,0,0,0,0,0,0,0,0,0,0,0,0,0,0,0,0,0,0,0,0,0,0,0,0,0,0,0,0,0,0,0,0,0,0,0,0,0,0,0],"sum_hessian":[1.3665153E5,5.3269155E3,1.3132461E5,3.2556843E3,2.071231E3,9.39832E4,3.7341406E4,2.6829768E3,5.727076E2,1.8393977E3,2.3183334E2,8.598713E4,7.9960728E3,2.5859033E4,1.1482375E4,6.609995E2,2.0219773E3,1.8047218E2,3.922354E2,1.5085382E3,3.3085947E2,1.592513E2,7.2582054E1,2.6704453E4,5.9282684E4,7.876551E3,1.1952186E2,2.4418236E4,1.4407971E3,4.415989E3,7.066386E3,5.281047E2,1.3289482E2,7.368052E2,1.2851721E3,6.678172E1,1.1369047E2,3.091037E2,8.313172E1,7.737757E2,7.347625E2,2.7976666E2,5.109281E1,1.421307E2,1.7120588E1,5.5304283E1,1.7277771E1,4.0630896E3,2.2641363E4,5.3031715E4,6.250966E3,5.7245825E3,2.1519683E3,1.8882824E1,1.0063903E2,2.2001335E3,2.2218102E4,1.9107918E2,1.2497179E3,3.7035476E3,7.124413E2,5.8919536E3,1.1744326E3],"tree_param":{"num_deleted":"0","num_feature":"80","num_nodes":"63","size_leaf_vector":"1"}},{"base_weights":[1.0679698E-3,5.627317E-1,-2.15488E-2,3.6125138E-1,6.933816E-1,-9.046229E-2,1.518587E-1,1.1295636E-1,4.3424216E-1,6.0533774E-1,7.986994E-1,-1.13164835E-1,1.6390893E-1,7.898175E-2,3.1537262E-1,1.9516599E-1,-3.0189583E-1,5.3708762E-2,4.9653593E-1,6.486946E-1,3.0721787E-1,6.714877E-1,9.1038007E-1,-1.3158602E-1,7.177887E-2,4.4242714E-2,2.5870436E-1,3.11948E-1,4.3632213E-2,2.9506993E-1,8.98532E-1,1.3738354E-2,-1.1359125E-2,-3.0657435E-2,1.3449957E-2,1.1824648E-2,-1.6808225E-2,1.0885148E-2,2.7906409E-2,3.4455538E-2,1.8237645E-2,-6.233899E-3,2.2386385E-2,2.9177904E-2,4.3969948E-2,4.7365077E-2,2.5409916E-2,-3.1762593E-5,-8.186917E-3,-2.2238042E-4,9.64323E-3,5.139912E-3,-1.1697128E-2,1.0856204E-2,2.83676E-2,2.4830015E-2,1.2264296E-2,5.386436E-4,1.9919395E-2,1.6682236E-2,-3.1126572E-3,3.321675E-2,6.2147923E-2],"categories":[],"categories_nodes":[],"categories_segments":[],"categories_sizes":[],"default_left":[0,0,0,0,0,0,0,0,0,0,0,0,0,0,0,0,0,0,0,0,0,0,0,0,0,0,0,0,0,0,0,0,0,0,0,0,0,0,0,0,0,0,0,0,0,0,0,0,0,0,0,0,0,0,0,0,0,0,0,0,0,0,0],"id":15,"left_children":[1,3,5,7,9,11,13,15,17,19,21,23,25,27,29,31,33,35,37,39,41,43,45,47,49,51,53,55,57,59,61,-1,-1,-1,-1,-1,-1,-1,-1,-1,-1,-1,-1,-1,-1,-1,-1,-1,-1,-1,-1,-1,-1,-1,-1,-1,-1,-1,-1,-1,-1,-1,-1],"loss_changes":[1.7306582E3,1.3779358E2,1.5648043E3,3.7328247E1,2.796167E1,5.411692E2,4.434961E2,1.6327215E1,3.7726135E1,2.1760437E1,1.8532349E1,2.931554E2,8.691463E1,2.1195726E2,1.3476111E2,1.3603122E1,1.4476659E1,1.6442635E1,2.3037354E1,1.6479187E1,1.4086956E1,1.07795105E1,9.630066E0,3.2935303E2,7.2015E1,5.533677E1,5.4302643E1,4.113788E1,2.605869E2,1.5310681E2,2.8396576E1,0E0,0E0,0E0,0E0,0E0,0E0,0E0,0E0,0E0,0E0,0E0,0E0,0E0,0E0,0E0,0E0,0E0,0E0,0E0,0E0,0E0,0E0,0E0,0E0,0E0,0E0,0E0,0E0,0E0,0E0,0E0,0E0],"parents":[2147483647,0,0,1,1,2,2,3,3,4,4,5,5,6,6,7,7,8,8,9,9,10,10,11,11,12,12,13,13,14,14,15,15,16,16,17,17,18,18,19,19,20,20,21,21,22,22,23,23,24,24,25,25,26,26,27,27,28,28,29,29,30,30],"right_children":[2,4,6,8,10,12,14,16,18,20,22,24,26,28,30,32,34,36,38,40,42,44,46,48,50,52,54,56,58,60,62,-1,-1,-1,-1,-1,-1,-1,-1,-1,-1,-1,-1,-1,-1,-1,-1,-1,-1,-1,-1,-1,-1,-1,-1,-1,-1,-1,-1,-1,-1,-1,-1],"split_conditions":[4E-2,1.5054575E0,6.666667E-1,6.5954924E0,2.7480843E0,1.9964151E1,8.4E-1,3.038878E0,-2.9713133E-1,1.3586293E-1,9.382422E0,8.045125E-1,1.0369643E0,3.0363468E1,2.180017E1,1.3799027E0,6.919973E-2,4.1860464E-1,-4.1982666E-1,1.4544551E0,9.715249E0,3.1118968E-1,1.06669396E-1,1.5862069E-1,7.644194E1,1.3751096E-1,8.163354E1,1.9599613E1,7.36195E1,1.0702739E-1,1.6576097E0,1.3738354E-2,-1.1359125E-2,-3.0657435E-2,1.3449957E-2,1.1824648E-2,-1.6808225E-2,1.0885148E-2,2.7906409E-2,3.4455538E-2,1.8237645E-2,-6.233899E-3,2.2386385E-2,2.9177904E-2,4.3969948E-2,4.7365077E-2,2.5409916E-2,-3.1762593E-5,-8.186917E-3,-2.2238042E-4,9.64323E-3,5.139912E-3,-1.1697128E-2,1.0856204E-2,2.83676E-2,2.4830015E-2,1.2264296E-2,5.386436E-4,1.9919395E-2,1.6682236E-2,-3.1126572E-3,3.321675E-2,6.2147923E-2],"split_indices":[18,14,18,62,14,34,18,59,6,76,62,16,14,1,67,65,77,28,43,65,62,77,75,28,1,76,1,1,1,76,78,0,0,0,0,0,0,0,0,0,0,0,0,0,0,0,0,0,0,0,0,0,0,0,0,0,0,0,0,0,0,0,0],"split_type":[0,0,0,0,0,0,0,0,0,0,0,0,0,0,0,0,0,0,0,0,0,0,0,0,0,0,0,0,0,0,0,0,0,0,0,0,0,0,0,0,0,0,0,0,0,0,0,0,0,0,0,0,0,0,0,0,0,0,0,0,0,0,0],"sum_hessian":[1.3621469E5,5.2717075E3,1.3094298E5,2.0781963E3,3.1935112E3,9.3706945E4,3.723603E4,4.748455E2,1.6033508E3,1.7493379E3,1.4441735E3,8.603172E4,7.6752266E3,2.57607E4,1.147533E4,3.9820007E2,7.664539E1,2.2720091E2,1.3761499E3,1.5237092E3,2.2562866E2,6.8379175E2,7.603817E2,7.824179E4,7.7899346E3,3.3961995E3,4.2790273E3,3.3899438E3,2.2370756E4,1.1092997E4,3.823331E2,3.3663614E2,6.156394E1,5.0073196E1,2.6572197E1,1.5609038E2,7.111052E1,2.5209288E2,1.1240571E3,1.3298097E3,1.9389946E2,5.456744E1,1.7106122E2,4.8759634E2,1.961954E2,6.928244E2,6.755734E1,1.5427182E4,6.2814605E4,4.7791426E3,3.010792E3,2.808164E3,5.880353E2,3.7754363E3,5.0359103E2,8.9378436E2,2.4961597E3,2.0477492E4,1.8932631E3,1.00135205E4,1.0794764E3,2.319352E2,1.503979E2],"tree_param":{"num_deleted":"0","num_feature":"80","num_nodes":"63","size_leaf_vector":"1"}},{"base_weights":[-4.009622E-4,4.6214506E-1,-2.6057128E-2,6.4240813E-1,2.9935613E-1,-9.6362114E-2,1.4770044E-1,5.105833E-1,7.541849E-1,1.5721858E-1,3.8917294E-1,2.1326018E-3,-1.3771282E-1,8.029181E-2,2.989766E-1,4.2648324E-1,6.8256545E-1,8.080036E-1,3.9679402E-1,3.2089347E-1,5.4846507E-2,4.8465845E-1,2.307236E-1,1.5250921E-1,-2.6062783E-2,-1.8705748E-1,4.744405E-3,3.4464434E-2,2.515084E-1,3.736946E-1,9.120013E-2,3.614449E-2,1.7298339E-2,4.035954E-2,2.266133E-2,1.3676727E-2,4.143511E-2,2.8529072E-2,3.9571975E-3,1.4485853E-2,5.3202122E-2,-7.4274503E-3,6.6348016E-3,2.0933416E-2,3.4507714E-2,2.842602E-2,8.357764E-3,2.7724288E-3,1.2882865E-2,-2.6080578E-3,8.875578E-3,-8.291007E-3,-1.9592606E-2,4.3920353E-3,-4.6528997E-3,7.1540936E-3,-1.8615349E-3,1.0234084E-2,2.5801038E-2,1.642312E-2,3.105253E-2,1.076619E-2,-4.843339E-3],"categories":[],"categories_nodes":[],"categories_segments":[],"categories_sizes":[],"default_left":[0,0,0,0,0,0,0,0,0,0,0,0,0,0,0,0,0,0,0,0,0,0,0,0,0,0,0,0,0,0,0,0,0,0,0,0,0,0,0,0,0,0,0,0,0,0,0,0,0,0,0,0,0,0,0,0,0,0,0,0,0,0,0],"id":16,"left_children":[1,3,5,7,9,11,13,15,17,19,21,23,25,27,29,31,33,35,37,39,41,43,45,47,49,51,53,55,57,59,61,-1,-1,-1,-1,-1,-1,-1,-1,-1,-1,-1,-1,-1,-1,-1,-1,-1,-1,-1,-1,-1,-1,-1,-1,-1,-1,-1,-1,-1,-1,-1,-1],"loss_changes":[1.615629E3,2.0909412E2,1.5759513E3,4.8576538E1,4.7665924E1,3.7414966E2,3.7870062E2,2.1493225E1,3.3940918E1,2.4295113E1,3.4268738E1,1.1521415E2,4.548545E2,2.0157869E2,1.7748077E2,2.4216507E1,1.31732025E1,1.6548828E1,1.3085293E1,1.1698666E1,1.435375E1,1.8306976E1,1.8165237E1,4.360753E1,1.2145177E2,2.0858484E2,1.3527095E2,1.5804475E2,6.66373E1,9.332739E1,7.0908516E1,0E0,0E0,0E0,0E0,0E0,0E0,0E0,0E0,0E0,0E0,0E0,0E0,0E0,0E0,0E0,0E0,0E0,0E0,0E0,0E0,0E0,0E0,0E0,0E0,0E0,0E0,0E0,0E0,0E0,0E0,0E0,0E0],"parents":[2147483647,0,0,1,1,2,2,3,3,4,4,5,5,6,6,7,7,8,8,9,9,10,10,11,11,12,12,13,13,14,14,15,15,16,16,17,17,18,18,19,19,20,20,21,21,22,22,23,23,24,24,25,25,26,26,27,27,28,28,29,29,30,30],"right_children":[2,4,6,8,10,12,14,16,18,20,22,24,26,28,30,32,34,36,38,40,42,44,46,48,50,52,54,56,58,60,62,-1,-1,-1,-1,-1,-1,-1,-1,-1,-1,-1,-1,-1,-1,-1,-1,-1,-1,-1,-1,-1,-1,-1,-1,-1,-1,-1,-1,-1,-1,-1,-1],"split_conditions":[5.3333335E-2,2.6666667E-2,6.666667E-1,1.2918165E0,6.04377E-1,1.6880168E-1,8.4E-1,1.078573E1,3.894049E-1,3.5860386E-1,2.973624E-1,3.351738E1,2.0851915E0,1.39374E0,1.918555E-1,1.6629992E-1,2.9064655E-1,-8.8235295E-1,-9.560532E0,1.6324787E1,-9.5135635E-1,1.2101295E1,-2.3474401E1,4.8E-1,6.3756447E1,3.6326787E-1,1.7333333E-1,1.4576502E-1,5.245303E-1,6.414252E1,5.8778524E-1,3.614449E-2,1.7298339E-2,4.035954E-2,2.266133E-2,1.3676727E-2,4.143511E-2,2.8529072E-2,3.9571975E-3,1.4485853E-2,5.3202122E-2,-7.4274503E-3,6.6348016E-3,2.0933416E-2,3.4507714E-2,2.842602E-2,8.357764E-3,2.7724288E-3,1.2882865E-2,-2.6080578E-3,8.875578E-3,-8.291007E-3,-1.9592606E-2,4.3920353E-3,-4.6528997E-3,7.1540936E-3,-1.8615349E-3,1.0234084E-2,2.5801038E-2,1.642312E-2,3.105253E-2,1.076619E-2,-4.843339E-3],"split_indices":[18,18,18,10,10,13,18,62,13,15,13,1,34,10,13,13,13,19,60,62,29,62,60,18,0,13,18,13,50,79,35,0,0,0,0,0,0,0,0,0,0,0,0,0,0,0,0,0,0,0,0,0,0,0,0,0,0,0,0,0,0,0,0],"split_type":[0,0,0,0,0,0,0,0,0,0,0,0,0,0,0,0,0,0,0,0,0,0,0,0,0,0,0,0,0,0,0,0,0,0,0,0,0,0,0,0,0,0,0,0,0,0,0,0,0,0,0,0,0,0,0,0,0,0,0,0,0,0,0],"sum_hessian":[1.3615722E5,7.152568E3,1.2900466E5,3.389864E3,3.762704E3,9.1846086E4,3.715857E4,1.5626033E3,1.8272607E3,1.461271E3,2.301433E3,2.7154832E4,6.4691254E4,2.5709006E4,1.1449563E4,1.0560547E3,5.0654855E2,1.584703E3,2.4255783E2,5.587596E2,9.0251135E2,1.4315015E3,8.699316E2,4.2889834E3,2.286585E4,4.8050348E4,1.6640906E4,2.0284922E4,5.4240845E3,8.418282E3,3.0312815E3,2.2085425E2,8.3520044E2,3.2352295E2,1.8302559E2,6.1043808E1,1.5236592E3,1.5473514E2,8.782269E1,5.395759E2,1.9183647E1,2.4753746E2,6.5497394E2,1.0899858E3,3.4151566E2,1.3401808E2,7.3591345E2,2.2343228E3,2.0546606E3,2.0271033E4,2.5948167E3,4.354116E4,4.509189E3,8.999735E3,7.6411714E3,8.067587E3,1.2217335E4,4.6128984E3,8.111857E2,7.1225156E3,1.2957668E3,1.8275029E3,1.2037784E3],"tree_param":{"num_deleted":"0","num_feature":"80","num_nodes":"63","size_leaf_vector":"1"}},{"base_weights":[1.7966302E-3,-5.9549812E-2,1.7680489E-1,3.12611E-3,-1.8527353E-1,1.0690058E-1,4.7135738E-1,-4.7613643E-2,1.2677683E-1,-2.3004088E-1,-2.1916423E-2,2.8996402E-2,2.3750906E-1,3.8533792E-1,7.4061954E-1,-6.308496E-2,1.8597859E-1,2.637467E-1,7.8798436E-2,-2.0659398E-1,-4.436096E-1,1.9803278E-2,-2.5026083E-1,2.970474E-1,-3.7104234E-2,1.8612145E-1,4.1314423E-1,5.389572E-1,2.9922777E-1,7.00099E-1,9.5921624E-1,2.723738E-3,-4.3715145E-3,5.686083E-3,1.7303376E-2,8.429187E-3,1.9616488E-2,1.0292633E-2,1.2640577E-3,-1.1331819E-2,8.421719E-4,-2.4408346E-2,6.7215236E-3,-1.4331683E-2,2.056132E-3,1.0069944E-2,-1.7351283E-2,1.666843E-2,-1.626686E-2,7.447677E-3,-3.4385368E-3,2.2927513E-2,7.529904E-3,2.2683004E-2,-2.100535E-3,3.419164E-2,1.646951E-2,1.0167758E-2,2.0038282E-2,3.1589713E-2,4.2852025E-2,5.1335514E-2,2.4891848E-2],"categories":[],"categories_nodes":[],"categories_segments":[],"categories_sizes":[],"default_left":[0,0,0,0,0,0,0,0,0,0,0,0,0,0,0,0,0,0,0,0,0,0,0,0,0,0,0,0,0,0,0,0,0,0,0,0,0,0,0,0,0,0,0,0,0,0,0,0,0,0,0,0,0,0,0,0,0,0,0,0,0,0,0],"id":17,"left_children":[1,3,5,7,9,11,13,15,17,19,21,23,25,27,29,31,33,35,37,39,41,43,45,47,49,51,53,55,57,59,61,-1,-1,-1,-1,-1,-1,-1,-1,-1,-1,-1,-1,-1,-1,-1,-1,-1,-1,-1,-1,-1,-1,-1,-1,-1,-1,-1,-1,-1,-1,-1,-1],"loss_changes":[1.4596614E3,7.933058E2,7.2622546E2,4.2150534E2,2.447854E2,2.9008606E2,1.5559253E2,1.7209E2,1.2824988E2,1.3111194E2,6.8796486E1,3.1681E2,9.570874E1,6.716998E1,1.230719E1,1.2788237E2,3.3897484E1,6.1595398E1,9.8350136E1,1.0620221E2,6.717963E1,3.971914E1,4.896833E1,8.017844E1,8.444948E1,7.938452E1,4.4647156E1,5.4891968E1,3.1624207E1,1.3056274E1,5.947708E0,0E0,0E0,0E0,0E0,0E0,0E0,0E0,0E0,0E0,0E0,0E0,0E0,0E0,0E0,0E0,0E0,0E0,0E0,0E0,0E0,0E0,0E0,0E0,0E0,0E0,0E0,0E0,0E0,0E0,0E0,0E0,0E0],"parents":[2147483647,0,0,1,1,2,2,3,3,4,4,5,5,6,6,7,7,8,8,9,9,10,10,11,11,12,12,13,13,14,14,15,15,16,16,17,17,18,18,19,19,20,20,21,21,22,22,23,23,24,24,25,25,26,26,27,27,28,28,29,29,30,30],"right_children":[2,4,6,8,10,12,14,16,18,20,22,24,26,28,30,32,34,36,38,40,42,44,46,48,50,52,54,56,58,60,62,-1,-1,-1,-1,-1,-1,-1,-1,-1,-1,-1,-1,-1,-1,-1,-1,-1,-1,-1,-1,-1,-1,-1,-1,-1,-1,-1,-1,-1,-1,-1,-1],"split_conditions":[1.1836072E0,2.2739387E-1,1.5788262E0,7.5E-1,3.4962835E0,7.5E-1,2.7480843E0,1.2025027E1,1.2594993E-1,3.0930828E1,3.8200682E-1,2.5E-1,1E0,2.5E-1,3.2266035E0,1.336161E-1,6.540881E-1,1.4089085E1,2.82886E-1,6.995565E1,5.7276046E-1,6.8954445E-2,-7.25292E-1,2.1851456E0,1.3287824E-1,1.1109174E-1,1.4680503E-1,2.7508244E-1,7.5E-1,3.8436228E-1,1.3677206E0,2.723738E-3,-4.3715145E-3,5.686083E-3,1.7303376E-2,8.429187E-3,1.9616488E-2,1.0292633E-2,1.2640577E-3,-1.1331819E-2,8.421719E-4,-2.4408346E-2,6.7215236E-3,-1.4331683E-2,2.056132E-3,1.0069944E-2,-1.7351283E-2,1.666843E-2,-1.626686E-2,7.447677E-3,-3.4385368E-3,2.2927513E-2,7.529904E-3,2.2683004E-2,-2.100535E-3,3.419164E-2,1.646951E-2,1.0167758E-2,2.0038282E-2,3.1589713E-2,4.2852025E-2,5.1335514E-2,2.4891848E-2],"split_indices":[11,13,14,37,34,37,14,34,13,9,13,37,37,37,78,13,28,9,74,1,50,76,17,15,13,13,72,13,37,77,65,0,0,0,0,0,0,0,0,0,0,0,0,0,0,0,0,0,0,0,0,0,0,0,0,0,0,0,0,0,0,0,0],"split_type":[0,0,0,0,0,0,0,0,0,0,0,0,0,0,0,0,0,0,0,0,0,0,0,0,0,0,0,0,0,0,0,0,0,0,0,0,0,0,0,0,0,0,0,0,0,0,0,0,0,0,0,0,0,0,0,0,0,0,0,0,0,0,0],"sum_hessian":[1.359484E5,1.0066153E5,3.5286883E4,6.717256E4,3.3488965E4,2.8522287E4,6.7645938E3,4.7626383E4,1.954618E4,2.6282482E4,7.206485E3,1.7869764E4,1.0652524E4,5.131868E3,1.632726E3,4.467131E4,2.9550767E3,5.0655386E3,1.4480641E4,2.3688127E4,2.5943542E3,6.0929146E3,1.1135701E3,3.5350442E3,1.4334719E4,8.246668E3,2.4058564E3,1.8374893E3,3.294379E3,1.386422E3,2.4630385E2,7.6598926E3,3.7011414E4,2.04059E3,9.144866E2,2.9159702E3,2.1495684E3,4.287276E3,1.0193365E4,2.174023E4,1.9478976E3,2.4097764E3,1.8457788E2,3.9317764E2,5.6997373E3,1.951866E2,9.183834E2,3.3417578E3,1.9328645E2,2.0815127E3,1.2253206E4,9.469111E2,7.2997563E3,2.210218E3,1.9563844E2,1.0823431E3,7.5514606E2,1.7000818E3,1.594297E3,9.752203E2,4.1120178E2,2.1178764E2,3.4516212E1],"tree_param":{"num_deleted":"0","num_feature":"80","num_nodes":"63","size_leaf_vector":"1"}},{"base_weights":[1.8335057E-3,-7.348766E-2,1.3743758E-1,8.713805E-3,-1.518298E-1,5.2109313E-1,9.591946E-2,-2.6870526E-2,1.9471636E-1,-4.2952083E-2,-1.9793424E-1,3.9765415E-1,7.034539E-1,2.8656019E-2,3.000382E-1,2.289837E-1,-4.260641E-2,3.8269138E-1,1.3742802E-1,2.191752E-2,-2.1257418E-1,-3.0071667E-1,-1.4900266E-1,4.4260472E-1,3.9682902E-2,5.581237E-1,7.933648E-1,1.470891E-3,2.4298136E-1,4.0672404E-1,2.2230175E-1,6.229305E-3,2.1583574E-2,9.337716E-3,-2.9981618E-3,3.738392E-2,1.6747242E-2,2.771866E-3,1.3755324E-2,-7.8030056E-3,3.8765338E-3,1.1245145E-2,-1.4825265E-2,-1.3298117E-2,-2.5193652E-2,-1.2597104E-2,-6.093854E-3,1.7025175E-2,3.18979E-2,-1.7919736E-2,9.084712E-3,3.3670705E-2,1.9412138E-2,4.08742E-2,1.36682615E-2,6.422706E-3,-1.4594723E-3,9.6586915E-3,2.3058573E-2,1.7972648E-2,2.8965374E-2,2.225023E-2,8.501273E-3],"categories":[],"categories_nodes":[],"categories_segments":[],"categories_sizes":[],"default_left":[0,0,0,0,0,0,0,0,0,0,0,0,0,0,0,0,0,0,0,0,0,0,0,0,0,0,0,0,0,0,0,0,0,0,0,0,0,0,0,0,0,0,0,0,0,0,0,0,0,0,0,0,0,0,0,0,0,0,0,0,0,0,0],"id":18,"left_children":[1,3,5,7,9,11,13,15,17,19,21,23,25,27,29,31,33,35,37,39,41,43,45,47,49,51,53,55,57,59,61,-1,-1,-1,-1,-1,-1,-1,-1,-1,-1,-1,-1,-1,-1,-1,-1,-1,-1,-1,-1,-1,-1,-1,-1,-1,-1,-1,-1,-1,-1,-1,-1],"loss_changes":[1.388364E3,5.628186E2,7.7279236E2,2.8232483E2,2.2447595E2,1.0555444E2,6.012499E2,1.4403119E2,7.3402405E1,1.4663487E2,1.5776208E2,4.5292816E1,2.3376282E1,1.918695E2,8.953143E1,4.3464386E1,1.3420718E2,2.6786575E1,5.912735E1,9.532756E1,1.3552255E2,7.088501E1,5.9230255E1,4.923175E1,1.809669E1,1.3406479E1,1.3708984E1,1.1392488E2,3.978125E1,3.6401245E1,7.27319E1,0E0,0E0,0E0,0E0,0E0,0E0,0E0,0E0,0E0,0E0,0E0,0E0,0E0,0E0,0E0,0E0,0E0,0E0,0E0,0E0,0E0,0E0,0E0,0E0,0E0,0E0,0E0,0E0,0E0,0E0,0E0,0E0],"parents":[2147483647,0,0,1,1,2,2,3,3,4,4,5,5,6,6,7,7,8,8,9,9,10,10,11,11,12,12,13,13,14,14,15,15,16,16,17,17,18,18,19,19,20,20,21,21,22,22,23,23,24,24,25,25,26,26,27,27,28,28,29,29,30,30],"right_children":[2,4,6,8,10,12,14,16,18,20,22,24,26,28,30,32,34,36,38,40,42,44,46,48,50,52,54,56,58,60,62,-1,-1,-1,-1,-1,-1,-1,-1,-1,-1,-1,-1,-1,-1,-1,-1,-1,-1,-1,-1,-1,-1,-1,-1,-1,-1,-1,-1,-1,-1,-1,-1],"split_conditions":[1.0417516E0,1.9396788E-1,4E-2,7.733333E-1,1.8666667E-1,2.1209319E0,7.866667E-1,1.2E-1,1.2070749E-1,3.1564525E-1,4.2247698E-1,3.894049E-1,8.505328E0,1.5788262E0,1.4511801E-1,3.5E-1,1.0713344E-1,3.7676716E1,8.5333335E-1,-6.0565076E0,-2.5158876E-1,3.5319403E-1,4E-1,1.0749953E0,1.1549025E1,2.0899117E-1,1.8232462E-1,1.9336143E-1,1.2097623E0,9.5105654E-1,3.3251656E1,6.229305E-3,2.1583574E-2,9.337716E-3,-2.9981618E-3,3.738392E-2,1.6747242E-2,2.771866E-3,1.3755324E-2,-7.8030056E-3,3.8765338E-3,1.1245145E-2,-1.4825265E-2,-1.3298117E-2,-2.5193652E-2,-1.2597104E-2,-6.093854E-3,1.7025175E-2,3.18979E-2,-1.7919736E-2,9.084712E-3,3.3670705E-2,1.9412138E-2,4.08742E-2,1.36682615E-2,6.422706E-3,-1.4594723E-3,9.6586915E-3,2.3058573E-2,1.7972648E-2,2.8965374E-2,2.225023E-2,8.501273E-3],"split_indices":[11,13,18,18,18,14,18,18,13,13,10,13,62,14,13,64,13,0,18,34,72,13,64,10,62,13,76,74,16,35,1,0,0,0,0,0,0,0,0,0,0,0,0,0,0,0,0,0,0,0,0,0,0,0,0,0,0,0,0,0,0,0,0],"split_type":[0,0,0,0,0,0,0,0,0,0,0,0,0,0,0,0,0,0,0,0,0,0,0,0,0,0,0,0,0,0,0,0,0,0,0,0,0,0,0,0,0,0,0,0,0,0,0,0,0,0,0,0,0,0,0,0,0,0,0,0,0,0,0],"sum_hessian":[1.3592234E5,8.738285E4,4.8539496E4,4.2638875E4,4.4743973E4,4.73644E3,4.380306E4,3.579074E4,6.8481377E3,1.3314914E4,3.142906E4,2.829959E3,1.9064808E3,3.2949805E4,1.0853252E4,2.0702979E3,3.372044E4,1.5948887E3,5.253249E3,9.630614E3,3.6843003E3,1.0130047E4,2.1299012E4,2.5125833E3,3.1737576E2,7.3630615E2,1.1701747E3,2.9244736E4,3.7050696E3,4.5685103E3,6.284741E3,1.3702333E3,7.000645E2,2.368867E3,3.1351572E4,1.798995E2,1.4149893E3,3.296528E3,1.956721E3,2.28985E3,7.3407637E3,5.9156244E2,3.0927378E3,8.656279E3,1.4737675E3,4.4346924E3,1.686432E4,1.655423E3,8.571603E2,8.172393E1,2.3565184E2,4.3334412E2,3.0296204E2,1.1162919E3,5.3882793E1,5.6897847E3,2.3554951E4,3.0214158E3,6.8365393E2,3.5933462E3,9.751643E2,1.1901177E3,5.0946235E3],"tree_param":{"num_deleted":"0","num_feature":"80","num_nodes":"63","size_leaf_vector":"1"}},{"base_weights":[3.3838307E-5,-6.159165E-2,1.4950597E-1,-1.861867E-2,-1.9417663E-1,1.126516E-1,5.2206665E-1,2.8515482E-1,-3.7479457E-2,-2.543417E-1,-1.5057569E-2,4.19463E-2,2.2380756E-1,3.9986148E-1,6.82116E-1,2.9429572E-2,3.571185E-1,-8.1570014E-2,8.214418E-2,2.119998E-1,-2.6836482E-1,-4.0865947E-2,2.8219432E-1,3.823899E-1,4.937519E-3,4.1949353E-1,1.8751772E-1,3.517857E-1,6.1531246E-1,4.6701828E-1,7.25427E-1,3.2324814E-3,-3.360438E-2,1.0205043E-2,2.173358E-2,1.6845448E-3,-5.095298E-3,1.3077256E-2,2.1281189E-3,2.117925E-2,-1.2789889E-2,-1.1986075E-2,-2.5385458E-2,4.3741134E-3,-4.761262E-3,3.484833E-2,-5.021931E-3,2.4007795E-2,-1.451319E-3,7.3194094E-3,-1.0922018E-3,1.8364409E-2,3.35943E-2,1.5698962E-2,6.7539425E-3,2.6015585E-2,1.3683795E-2,9.598005E-3,3.4727897E-2,2.666361E-2,-3.561355E-3,2.8140996E-2,3.856579E-2],"categories":[],"categories_nodes":[],"categories_segments":[],"categories_sizes":[],"default_left":[0,0,0,0,0,0,0,0,0,0,0,0,0,0,0,0,0,0,0,0,0,0,0,0,0,0,0,0,0,0,0,0,0,0,0,0,0,0,0,0,0,0,0,0,0,0,0,0,0,0,0,0,0,0,0,0,0,0,0,0,0,0,0],"id":19,"left_children":[1,3,5,7,9,11,13,15,17,19,21,23,25,27,29,31,33,35,37,39,41,43,45,47,49,51,53,55,57,59,61,-1,-1,-1,-1,-1,-1,-1,-1,-1,-1,-1,-1,-1,-1,-1,-1,-1,-1,-1,-1,-1,-1,-1,-1,-1,-1,-1,-1,-1,-1,-1,-1],"loss_changes":[1.2502893E3,5.4744495E2,5.436461E2,4.1576462E2,2.5333868E2,2.832752E2,6.86452E1,7.784891E1,3.6048206E2,1.1527014E2,4.5305405E1,2.775828E2,9.908276E1,2.0091858E1,1.306366E1,2.2891224E1,3.876657E1,1.1710339E2,1.3051389E2,5.117667E1,1.165647E2,3.803655E1,7.52686E1,8.714783E1,7.541261E1,2.7830841E1,7.8143616E1,2.1232605E1,1.1550369E1,9.774822E0,7.982361E0,0E0,0E0,0E0,0E0,0E0,0E0,0E0,0E0,0E0,0E0,0E0,0E0,0E0,0E0,0E0,0E0,0E0,0E0,0E0,0E0,0E0,0E0,0E0,0E0,0E0,0E0,0E0,0E0,0E0,0E0,0E0,0E0],"parents":[2147483647,0,0,1,1,2,2,3,3,4,4,5,5,6,6,7,7,8,8,9,9,10,10,11,11,12,12,13,13,14,14,15,15,16,16,17,17,18,18,19,19,20,20,21,21,22,22,23,23,24,24,25,25,26,26,27,27,28,28,29,29,30,30],"right_children":[2,4,6,8,10,12,14,16,18,20,22,24,26,28,30,32,34,36,38,40,42,44,46,48,50,52,54,56,58,60,62,-1,-1,-1,-1,-1,-1,-1,-1,-1,-1,-1,-1,-1,-1,-1,-1,-1,-1,-1,-1,-1,-1,-1,-1,-1,-1,-1,-1,-1,-1,-1,-1],"split_conditions":[1.0404669E0,2.5469995E-1,2.0432234E0,2.5E-1,5.632326E0,7.5E-1,2.7480843E0,6.7502344E-1,7.5E-1,-3.4669867E-1,4.1774507E0,2.5E-1,1.16809145E-1,8.009541E1,1.4367594E0,1.3751096E-1,6.7468376E0,1.3500705E-1,1.1882388E-1,2.3638585E-1,4.4059953E-1,-1.1490899E-1,4.317532E0,4.0668014E-1,1.3572294E-1,2.3471335E-1,4.284882E1,2.1515048E-1,4.095966E-1,3.846154E-2,-5.276647E-1,3.2324814E-3,-3.360438E-2,1.0205043E-2,2.173358E-2,1.6845448E-3,-5.095298E-3,1.3077256E-2,2.1281189E-3,2.117925E-2,-1.2789889E-2,-1.1986075E-2,-2.5385458E-2,4.3741134E-3,-4.761262E-3,3.484833E-2,-5.021931E-3,2.4007795E-2,-1.451319E-3,7.3194094E-3,-1.0922018E-3,1.8364409E-2,3.35943E-2,1.5698962E-2,6.7539425E-3,2.6015585E-2,1.3683795E-2,9.598005E-3,3.4727897E-2,2.666361E-2,-3.561355E-3,2.8140996E-2,3.856579E-2],"split_indices":[10,13,14,37,34,37,14,11,37,72,78,37,13,1,11,76,62,13,13,74,13,72,78,13,13,17,73,74,29,56,24,0,0,0,0,0,0,0,0,0,0,0,0,0,0,0,0,0,0,0,0,0,0,0,0,0,0,0,0,0,0,0,0],"split_type":[0,0,0,0,0,0,0,0,0,0,0,0,0,0,0,0,0,0,0,0,0,0,0,0,0,0,0,0,0,0,0,0,0,0,0,0,0,0,0,0,0,0,0,0,0,0,0,0,0,0,0,0,0,0,0,0,0,0,0,0,0,0,0],"sum_hessian":[1.3572561E5,9.610185E4,3.9623758E4,7.2582664E4,2.3519188E4,3.606053E4,3.563226E3,4.239889E3,6.834277E4,1.7602857E4,5.916331E3,2.2045098E4,1.4015435E4,2.026227E3,1.536999E3,9.332653E2,3.3066235E3,4.9940613E4,1.8402162E4,5.1200867E2,1.7090848E4,5.446827E3,4.6950415E2,2.158342E3,1.9886754E4,2.1870884E3,1.1828347E4,1.6627802E3,3.6344696E2,2.6349612E2,1.2735029E3,8.9105774E2,4.220761E1,1.1168037E3,2.1898198E3,7.485886E3,4.2454727E4,3.3219363E3,1.5080225E4,3.534162E2,1.5859251E2,1.5269568E4,1.8212797E3,1.6174453E3,3.8293816E3,2.2512906E2,2.4437509E2,1.7446396E3,4.1370233E2,3.1674014E3,1.6719354E4,1.8179512E3,3.6913705E2,3.4613787E3,8.366968E3,5.209909E2,1.1417892E3,5.9379345E1,3.0406763E2,2.3546016E2,2.8035957E1,2.88528E2,9.849749E2],"tree_param":{"num_deleted":"0","num_feature":"80","num_nodes":"63","size_leaf_vector":"1"}},{"base_weights":[-2.395402E-3,3.9450118E-1,-2.3877462E-2,5.594475E-1,2.4926487E-1,-8.2393594E-2,1.1056405E-1,4.283898E-1,6.840511E-1,2.935208E-1,-1.53290015E-2,-1.035885E-1,8.1787564E-2,4.238976E-2,2.2576737E-1,6.64939E-1,3.665193E-1,7.426218E-1,3.415301E-1,2.3228742E-1,4.91909E-1,5.4969805E-1,-9.064634E-2,8.194558E-2,-1.2611508E-1,5.792725E-2,4.371914E-1,2.4250585E-1,7.8102453E-3,2.018501E-1,5.604824E-1,2.150498E-2,4.553936E-2,1.0612719E-2,2.5055481E-2,3.0261103E-2,4.1077282E-2,7.249683E-3,2.5650496E-2,1.959765E-2,6.7728604E-3,2.1258747E-2,4.701022E-2,3.3757135E-3,3.8702663E-2,-7.2508752E-3,2.0443765E-2,2.120234E-3,1.2811768E-2,-4.3511274E-3,-1.1635181E-2,5.398636E-4,1.0024683E-2,1.7113497E-2,3.4715742E-2,9.024898E-3,2.2716401E-2,6.7775445E-3,-2.5914952E-3,1.971449E-2,8.31635E-3,2.9305859E-2,-7.4742185E-3],"categories":[],"categories_nodes":[],"categories_segments":[],"categories_sizes":[],"default_left":[0,0,0,0,0,0,0,0,0,0,0,0,0,0,0,0,0,0,0,0,0,0,0,0,0,0,0,0,0,0,0,0,0,0,0,0,0,0,0,0,0,0,0,0,0,0,0,0,0,0,0,0,0,0,0,0,0,0,0,0,0,0,0],"id":20,"left_children":[1,3,5,7,9,11,13,15,17,19,21,23,25,27,29,31,33,35,37,39,41,43,45,47,49,51,53,55,57,59,61,-1,-1,-1,-1,-1,-1,-1,-1,-1,-1,-1,-1,-1,-1,-1,-1,-1,-1,-1,-1,-1,-1,-1,-1,-1,-1,-1,-1,-1,-1,-1,-1],"loss_changes":[1.1574432E3,1.6629724E2,1.0132997E3,5.2101746E1,4.361267E1,3.1232745E2,3.066126E2,2.2360474E1,3.2374878E1,3.8059906E1,2.2516718E1,3.3226215E2,8.6703125E1,1.6970825E2,1.1561426E2,1.7416153E1,2.5830917E1,1.3689026E1,7.888525E0,3.730641E1,2.0856369E1,6.1920986E0,1.2807635E1,5.9130985E1,2.951676E2,6.451286E1,1.4719955E1,4.698651E1,1.5952034E2,9.224518E1,1.7968597E1,0E0,0E0,0E0,0E0,0E0,0E0,0E0,0E0,0E0,0E0,0E0,0E0,0E0,0E0,0E0,0E0,0E0,0E0,0E0,0E0,0E0,0E0,0E0,0E0,0E0,0E0,0E0,0E0,0E0,0E0,0E0,0E0],"parents":[2147483647,0,0,1,1,2,2,3,3,4,4,5,5,6,6,7,7,8,8,9,9,10,10,11,11,12,12,13,13,14,14,15,15,16,16,17,17,18,18,19,19,20,20,21,21,22,22,23,23,24,24,25,25,26,26,27,27,28,28,29,29,30,30],"right_children":[2,4,6,8,10,12,14,16,18,20,22,24,26,28,30,32,34,36,38,40,42,44,46,48,50,52,54,56,58,60,62,-1,-1,-1,-1,-1,-1,-1,-1,-1,-1,-1,-1,-1,-1,-1,-1,-1,-1,-1,-1,-1,-1,-1,-1,-1,-1,-1,-1,-1,-1,-1,-1],"split_conditions":[5.3333335E-2,2.6666667E-2,6.533333E-1,1.3484263E0,1.3751096E-1,7.028158E1,1.1026465E0,1.7384313E-1,8.737099E1,1.282392E1,-3.5131652E0,2.8363428E1,1.3509068E0,3.3774357E1,9.066667E-1,3E-1,8.968869E0,-1.8152115E-1,1.7400175E-2,3.6557212E-1,4.1774507E0,-2.4479803E-1,8E-1,1.3235748E0,2.5469995E-1,6.134461E1,2.214847E0,8.4E-1,1.377875E-1,1.16809145E-1,2.2775199E-1,2.150498E-2,4.553936E-2,1.0612719E-2,2.5055481E-2,3.0261103E-2,4.1077282E-2,7.249683E-3,2.5650496E-2,1.959765E-2,6.7728604E-3,2.1258747E-2,4.701022E-2,3.3757135E-3,3.8702663E-2,-7.2508752E-3,2.0443765E-2,2.120234E-3,1.2811768E-2,-4.3511274E-3,-1.1635181E-2,5.398636E-4,1.0024683E-2,1.7113497E-2,3.4715742E-2,9.024898E-3,2.2716401E-2,6.7775445E-3,-2.5914952E-3,1.971449E-2,8.31635E-3,2.9305859E-2,-7.4742185E-3],"split_indices":[18,18,18,10,76,1,10,13,34,62,78,1,16,1,18,64,62,24,38,15,78,27,63,14,13,79,14,18,13,13,72,0,0,0,0,0,0,0,0,0,0,0,0,0,0,0,0,0,0,0,0,0,0,0,0,0,0,0,0,0,0,0,0],"split_type":[0,0,0,0,0,0,0,0,0,0,0,0,0,0,0,0,0,0,0,0,0,0,0,0,0,0,0,0,0,0,0,0,0,0,0,0,0,0,0,0,0,0,0,0,0,0,0,0,0,0,0,0,0,0,0,0,0,0,0,0,0,0,0],"sum_hessian":[1.3576958E5,6.9682437E3,1.28801336E5,3.2584465E3,3.709797E3,8.974431E4,3.9057023E4,1.594375E3,1.6640714E3,3.1796416E3,5.301555E2,7.948678E4,1.0257534E4,2.454124E4,1.4515785E4,3.2483997E2,1.269535E3,1.4178284E3,2.4624301E2,2.4349468E3,7.44695E2,6.0094444E1,4.7006104E2,8.603005E3,7.088377E4,9.615709E3,6.418253E2,3.611948E3,2.0929291E4,1.355211E4,9.636745E2,1.6999234E2,1.5484761E2,5.956645E2,6.7387054E2,5.259193E2,8.9190906E2,1.178172E2,1.2842581E2,9.149708E2,1.5199758E3,6.525651E2,9.2129845E1,2.0616331E1,3.9478115E1,4.261017E2,4.3959335E1,7.0165293E3,1.5864757E3,5.1868676E4,1.9015098E4,7.230943E3,2.3847656E3,4.7359616E2,1.6822914E2,2.7987258E3,8.1322217E2,6.6632993E3,1.4265992E4,2.1064644E3,1.1445646E4,9.311082E2,3.256631E1],"tree_param":{"num_deleted":"0","num_feature":"80","num_nodes":"63","size_leaf_vector":"1"}},{"base_weights":[5.5255997E-4,-6.051984E-2,1.3233083E-1,2.3437846E-2,-1.272368E-1,4.7846785E-1,9.153344E-2,-1.2715564E-2,1.9092508E-1,-2.0293145E-2,-1.6982017E-1,3.2231212E-1,5.9418756E-1,3.188631E-2,2.7023175E-1,2.3562567E-1,-2.6081145E-2,3.37131E-1,1.2351252E-1,4.1149788E-2,-1.909652E-1,-2.6086456E-1,-1.2989584E-1,2.0697327E-2,3.7144625E-1,6.581152E-1,4.3558252E-1,-6.192546E-3,1.720324E-1,3.8919997E-1,2.0516747E-1,3.5783164E-3,1.8046638E-2,8.25619E-3,-2.1391117E-3,3.2163262E-2,1.49911195E-2,5.3079533E-3,3.2950267E-2,-3.2427746E-3,6.3335E-3,8.882481E-3,-1.3236383E-2,-1.0404857E-2,-1.8903116E-2,-8.165783E-3,-2.0451676E-3,2.045876E-2,-7.063322E-3,2.0662142E-2,-3.770581E-4,2.5862157E-2,3.806389E-2,2.9209057E-2,1.186943E-2,6.7682574E-3,-1.7212316E-3,6.8269703E-3,2.0693552E-2,2.0063875E-2,-1.5767213E-2,5.485245E-3,1.5873693E-2],"categories":[],"categories_nodes":[],"categories_segments":[],"categories_sizes":[],"default_left":[0,0,0,0,0,0,0,0,0,0,0,0,0,0,0,0,0,0,0,0,0,0,0,0,0,0,0,0,0,0,0,0,0,0,0,0,0,0,0,0,0,0,0,0,0,0,0,0,0,0,0,0,0,0,0,0,0,0,0,0,0,0,0],"id":21,"left_children":[1,3,5,7,9,11,13,15,17,19,21,23,25,27,29,31,33,35,37,39,41,43,45,47,49,51,53,55,57,59,61,-1,-1,-1,-1,-1,-1,-1,-1,-1,-1,-1,-1,-1,-1,-1,-1,-1,-1,-1,-1,-1,-1,-1,-1,-1,-1,-1,-1,-1,-1,-1,-1],"loss_changes":[1.0910352E3,5.189093E2,6.0589746E2,2.4843927E2,2.3496515E2,8.092554E1,4.0923282E2,1.1186972E2,7.1477325E1,1.5430246E2,1.3391467E2,2.8422623E1,2.5188599E1,1.5378842E2,7.392859E1,3.5111656E1,1.0217932E2,2.5356232E1,4.585508E1,9.8068184E1,1.06048325E2,6.9103455E1,7.622684E1,1.7502655E1,2.650357E1,2.5359741E1,2.1505295E1,9.04676E1,5.245691E1,2.9164001E1,6.639343E1,0E0,0E0,0E0,0E0,0E0,0E0,0E0,0E0,0E0,0E0,0E0,0E0,0E0,0E0,0E0,0E0,0E0,0E0,0E0,0E0,0E0,0E0,0E0,0E0,0E0,0E0,0E0,0E0,0E0,0E0,0E0,0E0],"parents":[2147483647,0,0,1,1,2,2,3,3,4,4,5,5,6,6,7,7,8,8,9,9,10,10,11,11,12,12,13,13,14,14,15,15,16,16,17,17,18,18,19,19,20,20,21,21,22,22,23,23,24,24,25,25,26,26,27,27,28,28,29,29,30,30],"right_children":[2,4,6,8,10,12,14,16,18,20,22,24,26,28,30,32,34,36,38,40,42,44,46,48,50,52,54,56,58,60,62,-1,-1,-1,-1,-1,-1,-1,-1,-1,-1,-1,-1,-1,-1,-1,-1,-1,-1,-1,-1,-1,-1,-1,-1,-1,-1,-1,-1,-1,-1,-1,-1],"split_conditions":[1.0945967E0,1.8489559E-1,4E-2,7.733333E-1,1.8666667E-1,1.6213927E0,7.866667E-1,1.2E-1,1.2594993E-1,3.1564525E-1,4.2247698E-1,-2.9713133E-1,2.8651628E-1,1.3342943E0,1.3848306E-1,-9.5374346E-2,1.0713344E-1,3.0363468E1,2.180017E1,3.689275E-1,-2.5158876E-1,2.8249002E-1,6.1333334E-1,1.9256757E-1,8.739076E-1,1.3336532E0,-9.37602E0,1.336161E-1,8.0815994E1,7.337317E-2,7.66357E-2,3.5783164E-3,1.8046638E-2,8.25619E-3,-2.1391117E-3,3.2163262E-2,1.49911195E-2,5.3079533E-3,3.2950267E-2,-3.2427746E-3,6.3335E-3,8.882481E-3,-1.3236383E-2,-1.0404857E-2,-1.8903116E-2,-8.165783E-3,-2.0451676E-3,2.045876E-2,-7.063322E-3,2.0662142E-2,-3.770581E-4,2.5862157E-2,3.806389E-2,2.9209057E-2,1.186943E-2,6.7682574E-3,-1.7212316E-3,6.8269703E-3,2.0693552E-2,2.0063875E-2,-1.5767213E-2,5.485245E-3,1.5873693E-2],"split_indices":[11,13,18,18,18,14,18,18,13,13,10,6,13,14,13,67,13,1,67,10,72,13,18,42,27,10,60,13,1,75,50,0,0,0,0,0,0,0,0,0,0,0,0,0,0,0,0,0,0,0,0,0,0,0,0,0,0,0,0,0,0,0,0],"split_type":[0,0,0,0,0,0,0,0,0,0,0,0,0,0,0,0,0,0,0,0,0,0,0,0,0,0,0,0,0,0,0,0,0,0,0,0,0,0,0,0,0,0,0,0,0,0,0,0,0,0,0,0,0,0,0,0,0,0,0,0,0,0,0],"sum_hessian":[1.355573E5,9.262684E4,4.2930457E4,4.1011332E4,5.161551E4,4.5229253E3,3.840753E4,3.3729434E4,7.2818965E3,1.470362E4,3.6911895E4,1.9301768E3,2.5927483E3,2.879972E4,9.60781E3,1.7189806E3,3.2010453E4,2.293115E3,4.9887812E3,1.0810401E4,3.893219E3,1.1244982E4,2.566691E4,2.7220972E2,1.657967E3,1.8411855E3,7.515628E2,2.2645182E4,6.1545396E3,3.39058E3,6.2172295E3,7.47475E2,9.715056E2,2.5675671E3,2.9442887E4,2.4411913E2,2.0489958E3,4.8354126E3,1.5336868E2,4.8246797E3,5.985721E3,6.4755945E2,3.2456597E3,7.7606333E3,3.484349E3,1.865428E4,7.012631E3,8.010602E1,1.921037E2,1.4943063E3,1.636608E2,7.854715E2,1.055714E3,4.2585464E2,3.257082E2,3.7611597E3,1.8884021E4,5.3714106E3,7.831289E2,3.3349812E3,5.5598686E1,3.3651736E3,2.8520562E3],"tree_param":{"num_deleted":"0","num_feature":"80","num_nodes":"63","size_leaf_vector":"1"}},{"base_weights":[2.1998347E-3,-5.0101835E-2,1.5262009E-1,2.0459455E-3,-1.4297825E-1,1.0090799E-1,4.2147765E-1,-3.0561043E-2,1.4734389E-1,-1.8918931E-1,-1.6023235E-2,5.0762422E-2,2.797157E-1,6.0595304E-1,3.1193966E-1,1.8778545E-1,-4.787037E-2,1.2286016E-1,5.0488424E-1,-1.6975698E-1,-4.1452873E-1,2.0591982E-2,-2.1682544E-1,2.6453558E-1,1.37377465E-2,2.4092102E-1,5.3451383E-1,2.6298952E-1,6.431056E-1,2.6694435E-1,5.7484424E-1,1.7334148E-3,1.3496943E-2,-3.3420068E-3,4.6063582E-3,1.8135412E-2,4.5389645E-3,3.6421135E-2,1.8532164E-2,-7.6723346E-3,-1.7073957E-2,-2.7775234E-2,-1.3554359E-2,3.92324E-3,-4.225019E-3,8.36384E-3,-1.5054856E-2,1.9708637E-2,5.491975E-3,-3.2822934E-3,4.0938794E-3,2.2443144E-2,9.492205E-3,2.8182685E-2,-1.1401918E-2,3.167505E-2,1.791526E-3,1.9990543E-2,3.5178177E-2,2.6156995E-2,1.1786742E-2,2.6484838E-2,7.16838E-2],"categories":[],"categories_nodes":[],"categories_segments":[],"categories_sizes":[],"default_left":[0,0,0,0,0,0,0,0,0,0,0,0,0,0,0,0,0,0,0,0,0,0,0,0,0,0,0,0,0,0,0,0,0,0,0,0,0,0,0,0,0,0,0,0,0,0,0,0,0,0,0,0,0,0,0,0,0,0,0,0,0,0,0],"id":22,"left_children":[1,3,5,7,9,11,13,15,17,19,21,23,25,27,29,31,33,35,37,39,41,43,45,47,49,51,53,55,57,59,61,-1,-1,-1,-1,-1,-1,-1,-1,-1,-1,-1,-1,-1,-1,-1,-1,-1,-1,-1,-1,-1,-1,-1,-1,-1,-1,-1,-1,-1,-1,-1,-1],"loss_changes":[1.064546E3,4.8631934E2,4.8503345E2,3.046759E2,2.1170312E2,2.6237796E2,1.1291809E2,1.984022E2,1.0274629E2,1.1545892E2,7.0982506E1,1.809045E2,6.2727814E1,2.5884094E1,4.1124573E1,4.832344E1,1.29216E2,8.462215E1,2.1521072E1,6.790546E1,4.1704956E1,4.959549E1,4.8363388E1,6.734163E1,1.05508316E2,5.8662476E1,1.9174942E1,1.7237228E1,2.662976E1,2.3571472E1,1.7416458E1,0E0,0E0,0E0,0E0,0E0,0E0,0E0,0E0,0E0,0E0,0E0,0E0,0E0,0E0,0E0,0E0,0E0,0E0,0E0,0E0,0E0,0E0,0E0,0E0,0E0,0E0,0E0,0E0,0E0,0E0,0E0,0E0],"parents":[2147483647,0,0,1,1,2,2,3,3,4,4,5,5,6,6,7,7,8,8,9,9,10,10,11,11,12,12,13,13,14,14,15,15,16,16,17,17,18,18,19,19,20,20,21,21,22,22,23,23,24,24,25,25,26,26,27,27,28,28,29,29,30,30],"right_children":[2,4,6,8,10,12,14,16,18,20,22,24,26,28,30,32,34,36,38,40,42,44,46,48,50,52,54,56,58,60,62,-1,-1,-1,-1,-1,-1,-1,-1,-1,-1,-1,-1,-1,-1,-1,-1,-1,-1,-1,-1,-1,-1,-1,-1,-1,-1,-1,-1,-1,-1,-1,-1],"split_conditions":[1.1836072E0,2.2087114E-1,1.6702484E0,7.6E-1,9.957788E-1,8E-1,2.6666667E-2,1.2E-1,9.066667E-1,9.065672E0,3.7510812E-1,6.666667E-2,9.066667E-1,-7.9520184E-1,2.5062914E0,-4.1831347E-1,6.697552E1,1.0853227E-1,1.3848306E-1,6.9254364E1,-9.910831E0,1.8666667E-1,-7.0451295E-1,2.6980302E-1,1.0241333E0,1.2070749E-1,2.2775199E-1,2.339523E1,3E-1,-1.2581332E0,4.376625E0,1.7334148E-3,1.3496943E-2,-3.3420068E-3,4.6063582E-3,1.8135412E-2,4.5389645E-3,3.6421135E-2,1.8532164E-2,-7.6723346E-3,-1.7073957E-2,-2.7775234E-2,-1.3554359E-2,3.92324E-3,-4.225019E-3,8.36384E-3,-1.5054856E-2,1.9708637E-2,5.491975E-3,-3.2822934E-3,4.0938794E-3,2.2443144E-2,9.492205E-3,2.8182685E-2,-1.1401918E-2,3.167505E-2,1.791526E-3,1.9990543E-2,3.5178177E-2,2.6156995E-2,1.1786742E-2,2.6484838E-2,7.16838E-2],"split_indices":[11,13,14,18,34,18,18,18,18,30,13,18,18,24,14,70,1,13,13,73,34,18,17,13,10,13,72,0,64,16,14,0,0,0,0,0,0,0,0,0,0,0,0,0,0,0,0,0,0,0,0,0,0,0,0,0,0,0,0,0,0,0,0],"split_type":[0,0,0,0,0,0,0,0,0,0,0,0,0,0,0,0,0,0,0,0,0,0,0,0,0,0,0,0,0,0,0,0,0,0,0,0,0,0,0,0,0,0,0,0,0,0,0,0,0,0,0,0,0,0,0,0,0,0,0,0,0,0,0],"sum_hessian":[1.3530348E5,1.003941E5,3.4909387E4,6.429221E4,3.6101895E4,2.9281908E4,5.627476E3,5.2507004E4,1.1785203E4,2.6464143E4,9.63775E3,2.2872746E4,6.409163E3,2.0915027E3,3.5359736E3,3.8531624E3,4.8653844E4,1.103372E4,7.514838E2,2.4368436E4,2.0957073E3,8.1508E3,1.4869502E3,3.3728403E3,1.9499904E4,5.5673516E3,8.418115E2,2.073185E2,1.8841841E3,3.0243057E3,5.1166794E2,1.3485925E3,2.5045698E3,4.2851984E4,5.8018574E3,1.297435E3,9.736285E3,2.7724216E2,4.7424164E2,2.226079E4,2.1076467E3,1.0522819E3,1.0434255E3,5.2596514E3,2.8911484E3,2.66116E2,1.2208342E3,1.8316051E3,1.5412352E3,9.003486E3,1.0496419E4,1.0928461E3,4.4745054E3,8.1196094E2,2.9850626E1,7.660004E1,1.3071846E2,3.7969818E2,1.504486E3,3.2324847E2,2.7010571E3,4.8973883E2,2.1929096E1],"tree_param":{"num_deleted":"0","num_feature":"80","num_nodes":"63","size_leaf_vector":"1"}},{"base_weights":[-1.0992043E-3,-6.8945E-2,1.0064087E-1,2.1229098E-2,-1.1243426E-1,4.1824892E-1,6.8769686E-2,1.7799048E-1,-5.067395E-3,-1.5271842E-1,6.6842097E-3,4.8065636E-1,7.083147E-2,-6.334938E-4,1.7249268E-1,1.3113284E-1,3.9449683E-1,-1.1039304E-1,3.9415628E-2,-1.2225931E-1,-2.6640224E-1,1.0290664E-1,-4.912637E-2,5.314145E-1,2.4350883E-1,1.8437594E-1,-2.2862585E-1,-1.9938612E-2,2.115712E-1,1.9680926E-1,-5.4386534E-2,6.0561956E-3,6.300869E-2,2.5816858E-2,6.9547044E-3,1.4395011E-2,-6.663322E-3,1.3095349E-2,7.384178E-4,-5.361156E-3,-1.44901825E-2,-1.0125838E-2,-1.9174462E-2,-3.6039208E-3,8.259759E-3,8.655214E-3,-4.2724162E-3,2.2440579E-2,3.2412406E-2,-3.486665E-2,1.3838643E-2,1.6076412E-2,-2.3257646E-3,1.9034026E-2,-1.7256146E-2,6.5583894E-3,-2.3294128E-3,1.4445352E-2,3.416607E-3,8.305287E-3,1.795007E-2,-7.866888E-3,1.0850681E-2],"categories":[],"categories_nodes":[],"categories_segments":[],"categories_sizes":[],"default_left":[0,0,0,0,0,0,0,0,0,0,0,0,0,0,0,0,0,0,0,0,0,0,0,0,0,0,0,0,0,0,0,0,0,0,0,0,0,0,0,0,0,0,0,0,0,0,0,0,0,0,0,0,0,0,0,0,0,0,0,0,0,0,0],"id":23,"left_children":[1,3,5,7,9,11,13,15,17,19,21,23,25,27,29,31,33,35,37,39,41,43,45,47,49,51,53,55,57,59,61,-1,-1,-1,-1,-1,-1,-1,-1,-1,-1,-1,-1,-1,-1,-1,-1,-1,-1,-1,-1,-1,-1,-1,-1,-1,-1,-1,-1,-1,-1,-1,-1],"loss_changes":[9.34738E2,3.186639E2,5.4807916E2,1.0904977E2,2.6311115E2,1.06733215E2,3.545323E2,3.8182915E1,1.0609163E2,1.4159247E2,7.44237E1,4.9729736E1,2.5754406E1,1.2075588E2,1.0900403E2,3.435951E1,2.0476585E1,6.1264404E1,8.71109E1,8.115143E1,6.42652E1,5.553628E1,7.07344E1,3.2104797E1,2.3436783E1,1.7590607E1,1.4968129E1,1.08867676E2,2.7008232E1,8.842279E1,5.3422504E1,0E0,0E0,0E0,0E0,0E0,0E0,0E0,0E0,0E0,0E0,0E0,0E0,0E0,0E0,0E0,0E0,0E0,0E0,0E0,0E0,0E0,0E0,0E0,0E0,0E0,0E0,0E0,0E0,0E0,0E0,0E0,0E0],"parents":[2147483647,0,0,1,1,2,2,3,3,4,4,5,5,6,6,7,7,8,8,9,9,10,10,11,11,12,12,13,13,14,14,15,15,16,16,17,17,18,18,19,19,20,20,21,21,22,22,23,23,24,24,25,25,26,26,27,27,28,28,29,29,30,30],"right_children":[2,4,6,8,10,12,14,16,18,20,22,24,26,28,30,32,34,36,38,40,42,44,46,48,50,52,54,56,58,60,62,-1,-1,-1,-1,-1,-1,-1,-1,-1,-1,-1,-1,-1,-1,-1,-1,-1,-1,-1,-1,-1,-1,-1,-1,-1,-1,-1,-1,-1,-1,-1,-1],"split_conditions":[8.4648657E-1,1.6880168E-1,2.5E-1,1.1229991E-1,2.418526E0,3.9769766E-1,7.5E-1,9.0610504E-1,6.4621105E0,1E0,2.5E-1,1.06669396E-1,2.1851456E0,7.813759E1,1.0702739E-1,2.6071358E0,3.7623763E-1,2.5E-1,3.661418E1,3.6882636E-1,2.618492E-1,3.3496246E-1,3.129537E1,1.6061641E0,1.804441E-1,2.2769861E0,4.091485E1,1.336161E-1,6.500854E1,6.840279E1,6.414252E1,6.0561956E-3,6.300869E-2,2.5816858E-2,6.9547044E-3,1.4395011E-2,-6.663322E-3,1.3095349E-2,7.384178E-4,-5.361156E-3,-1.44901825E-2,-1.0125838E-2,-1.9174462E-2,-3.6039208E-3,8.259759E-3,8.655214E-3,-4.2724162E-3,2.2440579E-2,3.2412406E-2,-3.486665E-2,1.3838643E-2,1.6076412E-2,-2.3257646E-3,1.9034026E-2,-1.7256146E-2,6.5583894E-3,-2.3294128E-3,1.4445352E-2,3.416607E-3,8.305287E-3,1.795007E-2,-7.866888E-3,1.0850681E-2],"split_indices":[10,13,37,13,34,13,37,58,62,36,37,75,15,1,76,65,57,37,0,13,13,10,1,10,65,59,79,13,73,1,79,0,0,0,0,0,0,0,0,0,0,0,0,0,0,0,0,0,0,0,0,0,0,0,0,0,0,0,0,0,0,0,0],"split_type":[0,0,0,0,0,0,0,0,0,0,0,0,0,0,0,0,0,0,0,0,0,0,0,0,0,0,0,0,0,0,0,0,0,0,0,0,0,0,0,0,0,0,0,0,0,0,0,0,0,0,0,0,0,0,0,0,0,0,0,0,0,0,0],"sum_hessian":[1.3541583E5,8.124369E4,5.4172133E4,2.6430375E4,5.4813312E4,4.9366523E3,4.923548E4,3.7978303E3,2.2632545E4,4.0963633E4,